{"obs_dim":61,"act_dim":3,"layers":[{"type":"linear","weight":[[0.03564628213644028,0.00117715063970536,0.14433538913726807,0.0709335058927536,0.09819450229406357,0.1591106355190277,0.13370577991008759,-0.270591139793396,-0.04630358889698982,-0.13919323682785034,-0.08210855722427368,0.4523637294769287,0.017831694334745407,0.18276116251945496,-0.12772972881793976,0.0511033721268177,-0.06706550717353821,-0.14080201089382172,-0.18330378830432892,0.007591594010591507,-0.038561973720788956,0.23468276858329773,0.003159568179398775,-0.010264470241963863,0.0299683827906847,-0.0004010238335467875,-0.19649606943130493,-0.057083796709775925,0.02813781052827835,0.06167171522974968,-0.2618826627731323,-0.05064539238810539,-0.10782074928283691,0.23523631691932678,0.015507133677601814,-0.06497645378112793,0.04737444967031479,0.11084281653165817,-0.1318911463022232,0.09354235231876373,0.03183697164058685,-0.08349396288394928,0.31528180837631226,0.11272184550762177,-0.15645496547222137,0.005263007245957851,0.01464919000864029,-0.0264645516872406,0.1868731826543808,-0.06144553795456886,-0.034485191106796265,0.08513730764389038,-0.02661326341331005,0.04816317930817604,0.14791248738765717,0.10680967569351196,0.043366141617298126,-0.001374443992972374,-0.033118538558483124,0.16562235355377197,-0.1094885915517807],[-0.06911816447973251,0.18515895307064056,-0.04757516458630562,-0.08389899879693985,-0.07143790274858475,-0.002384377410635352,-0.24762466549873352,-0.1684182584285736,-0.15871626138687134,-0.16938868165016174,0.07688865810632706,0.027586279436945915,0.07248673588037491,0.14037048816680908,0.08194877207279205,-0.15052306652069092,0.12204357981681824,0.05534973740577698,-0.019006403163075447,0.10471808165311813,0.13717922568321228,0.15008515119552612,0.07748868316411972,-0.07197496294975281,-0.006296135019510984,0.02521401457488537,0.2157900631427765,-0.14248721301555634,-0.09079958498477936,-0.03772278130054474,-0.4351017475128174,-0.10676823556423187,-0.09564022719860077,-0.08222592622041702,-0.11159417033195496,-0.047882094979286194,-0.15705008804798126,-0.12618869543075562,0.033242810517549515,0.045302096754312515,-0.013909263536334038,-0.03473339602351189,0.10188489407300949,0.026631852611899376,0.0010859515750780702,0.07911036908626556,-0.015459144487977028,-0.0051696388982236385,-0.06757994741201401,-0.03658684343099594,0.044876035302877426,0.017353752627968788,0.13422958552837372,-0.42309585213661194,-0.500115692615509,-0.05404188856482506,0.032028429210186005,-0.02017819508910179,-0.05774804204702377,-0.0260050930082798,-0.14628034830093384],[-0.10748922824859619,0.0680428221821785,-0.07204210758209229,0.06589073687791824,-0.027965689077973366,-0.31147530674934387,-0.2913752496242523,0.24584363400936127,-0.07414064556360245,-0.13789725303649902,-0.0376022607088089,0.1379614621400833,0.04897823557257652,-0.01802155189216137,0.05320994183421135,-0.04795366898179054,0.04700872302055359,-0.016660625115036964,-0.04532409459352493,0.11859603971242905,-0.02769417129456997,-0.06463609635829926,-0.10680881887674332,0.04040522500872612,-0.007149361073970795,-0.0498332753777504,0.14514754712581635,-0.12141891568899155,0.03484519571065903,0.048998408019542694,0.28010863065719604,-0.0006553849088959396,0.013835241086781025,0.0150027209892869,-0.037808679044246674,0.0398884192109108,0.3768877685070038,0.06708477437496185,-0.08698953688144684,0.2216782420873642,-0.02802717685699463,0.043851181864738464,0.07614754140377045,-0.019598182290792465,0.01459895633161068,-0.04135601222515106,-0.006179741118103266,0.004151802510023117,0.03502321243286133,-0.019489796832203865,0.06889989227056503,0.003771414514631033,0.0008233871194534004,0.5990749597549438,0.004829853773117065,0.006204687990248203,0.05368715897202492,0.015436970628798008,-0.010885045863687992,0.01335619855672121,0.006338250357657671],[-0.03468705713748932,0.02965296059846878,-0.07668299227952957,-0.15979526937007904,-0.24406635761260986,1.1233312761760317e-05,0.11774149537086487,-0.1616852879524231,0.013026273809373379,0.0042747315019369125,-0.32206717133522034,0.19908516108989716,-0.05758737772703171,0.01751469448208809,-0.059378139674663544,0.1401038020849228,0.0762956440448761,0.010110125876963139,0.007451628800481558,-0.045270390808582306,-0.028000105172395706,0.04571378976106644,-0.017926234751939774,0.12194541096687317,0.08486571162939072,0.06367570906877518,-0.33344030380249023,0.2552976906299591,0.09191279113292694,0.0737958699464798,-0.9294630885124207,0.0026679225265979767,-0.11052526533603668,0.19338645040988922,0.06608884036540985,-0.03001108393073082,-0.5168472528457642,0.1255444586277008,0.0313006266951561,-0.0009895400144159794,0.04486122727394104,-0.01830752193927765,-0.5291751027107239,-0.053431496024131775,-0.09655086696147919,-0.03027956932783127,-0.08448833227157593,-0.08243495225906372,-0.23492006957530975,0.07572884857654572,-0.061004482209682465,0.14456483721733093,0.07816575467586517,-0.003590656677260995,-0.2392447292804718,0.11446230858564377,-0.06470311433076859,-0.003764453809708357,-0.013257106766104698,-0.05915237218141556,-0.03826884925365448],[-0.18889600038528442,0.14373980462551117,-0.16756974160671234,0.030458595603704453,0.0613333135843277,-0.0188584104180336,-0.026611607521772385,-0.4384530484676361,0.02606082521378994,-0.037634845823049545,0.14311179518699646,-0.22042426466941833,0.07135710120201111,0.00399397686123848,0.2629832327365875,0.1530493199825287,0.04847165569663048,-0.018864823505282402,0.10146599262952805,-0.17176929116249084,0.02793615311384201,-0.0017479899106547236,0.10406094044446945,-0.0249983761459589,0.0053854649886488914,-0.0657755509018898,0.11854290962219238,-0.08680994063615799,-0.3753366470336914,0.119237020611763,-0.07098112255334854,0.02076146751642227,0.020944826304912567,0.1988985538482666,-0.03914231061935425,0.11592500656843185,-0.02092134766280651,-0.019238576292991638,0.062012866139411926,-0.04121232032775879,-0.019907917827367783,0.0054986681789159775,0.25613337755203247,0.052361760288476944,0.08425506204366684,0.08262266963720322,-0.005566413048654795,0.035055093467235565,0.09876187145709991,0.04330940172076225,-0.0020050141029059887,-0.1646987348794937,0.07683668285608292,-0.08425946533679962,0.18570567667484283,-0.04571408033370972,-0.02005510963499546,0.08766234666109085,0.00984587799757719,-0.06478504091501236,0.044157952070236206],[0.07460306584835052,0.059833284467458725,0.013196040876209736,0.16058598458766937,-0.08247783035039902,0.2410743534564972,0.22400633990764618,-0.18134881556034088,0.11738793551921844,-0.03067838028073311,0.07823064923286438,0.03187916427850723,0.021991092711687088,-0.009341631084680557,0.009158392436802387,-0.019997837021946907,-0.05803067609667778,-0.002667855005711317,-0.024229219183325768,-0.23228438198566437,0.06846322864294052,-0.04515362158417702,0.17389708757400513,-0.0070808446034789085,-0.08374698460102081,-0.014912244863808155,0.09751886129379272,0.038799211382865906,-0.017894627526402473,-0.09702914208173752,-0.15575198829174042,-0.08476366102695465,0.043787501752376556,-0.19713008403778076,0.1037040576338768,-0.02092297002673149,-0.04967392235994339,0.020198004320263863,0.039369504898786545,0.12173807621002197,-0.01022003497928381,0.041242726147174835,-0.3423535227775574,0.01573697291314602,0.016811640933156013,0.04313423112034798,-0.0011464679846540093,0.01211119070649147,-0.045997049659490585,-0.06628834456205368,-0.0353044755756855,0.045285895466804504,-0.01626504212617874,0.01858866959810257,0.06715302914381027,-0.11323563009500504,-0.1755344271659851,0.020465681329369545,-0.05719907954335213,-0.029276374727487564,-0.10422322154045105],[-0.03518432006239891,0.08272025734186172,0.008985359221696854,-0.055894866585731506,0.12635904550552368,0.01693783514201641,0.007289659697562456,0.061825934797525406,0.09500085562467575,0.032488785684108734,-0.0005235799471847713,0.09120163321495056,0.043781109154224396,0.0014155704993754625,0.06739912182092667,0.019933607429265976,-0.06077880784869194,0.050285156816244125,0.19900348782539368,-0.05072673782706261,-0.0652330219745636,0.013784770853817463,0.04185579717159271,-0.14934088289737701,-0.0547315776348114,0.013859809376299381,0.09098769724369049,-0.09659324586391449,-0.0683988481760025,0.11477650701999664,0.08674297481775284,0.0767122432589531,-7.195407761173556e-06,0.09392451494932175,-0.01903306134045124,0.07139469683170319,-0.04834038391709328,0.11388588696718216,0.013438411056995392,-0.1425902098417282,-0.04249720275402069,0.04467714577913284,0.029001301154494286,-0.05906092748045921,0.09303789585828781,-0.06408711522817612,-0.02352011390030384,0.025704646483063698,0.21436206996440887,-0.029729170724749565,-0.013336729258298874,-0.0349116176366806,0.43030405044555664,-0.2390127182006836,-0.06550756841897964,-0.0038967716973274946,0.173152357339859,-0.0951656848192215,-0.024231132119894028,0.02624437026679516,0.035328708589076996],[0.3245373070240021,0.13605782389640808,0.23751218616962433,0.24224837124347687,-0.07401950657367706,-0.10424201935529709,0.3054625391960144,0.007799925748258829,-0.020623793825507164,0.030053645372390747,-0.09481299668550491,-0.15038307011127472,-0.018301475793123245,0.057653602212667465,-0.19791951775550842,-0.3209945261478424,-0.04596404358744621,-0.20557375252246857,-0.14970672130584717,-0.0737580731511116,0.07813344895839691,0.07552394270896912,0.053832948207855225,-0.19272381067276,-0.034866947680711746,0.12162464112043381,-0.04550044611096382,0.05822648108005524,-0.02240145020186901,0.04597976803779602,-0.40348491072654724,-0.04454057291150093,0.03262998163700104,-0.003186396323144436,-0.005208471789956093,0.11347091197967529,-0.32632654905319214,0.016673358157277107,-0.0008842155802994967,-0.15990091860294342,0.0895731970667839,0.033921126276254654,-0.5368632078170776,0.02999110147356987,0.07484769076108932,-0.03149694949388504,-0.029717857018113136,0.0387859120965004,-0.09259272366762161,0.04543817788362503,0.033064790070056915,0.07856960594654083,0.10588397830724716,0.010776955634355545,0.03508032485842705,0.07516680657863617,-0.021143430843949318,-0.03706057742238045,0.007929159328341484,-0.023133233189582825,0.043100614100694656],[-0.15935713052749634,0.03497649356722832,0.01471555233001709,-0.030952632427215576,0.028043806552886963,-0.13947804272174835,0.10948342829942703,-0.18072348833084106,0.004643268883228302,-0.10407114773988724,-0.06607955694198608,0.28778940439224243,0.10003852099180222,-0.1120520606637001,0.04659348726272583,0.26411521434783936,-0.08316661417484283,-0.03685172274708748,-0.21880321204662323,0.2733939290046692,0.0028666926082223654,0.07397955656051636,-0.1518913209438324,0.10451457649469376,-0.04653380066156387,0.058163344860076904,-0.16723090410232544,-0.047479841858148575,0.11856544017791748,-0.051823776215314865,-0.6149473190307617,0.09138364344835281,-0.16269104182720184,0.05919255316257477,0.0025714989751577377,-0.027585389092564583,-0.4737415015697479,-0.03613894060254097,-0.043452005833387375,0.08370862156152725,0.018893765285611153,-0.002201078226789832,-0.15589870512485504,-0.03386310860514641,0.09052488952875137,0.10742656886577606,-0.026759490370750427,0.015310714021325111,0.031241055577993393,-0.03233448788523674,0.03158370405435562,-0.02402244322001934,0.027386434376239777,-0.04464007541537285,0.20330151915550232,-0.14530953764915466,-0.15403230488300323,0.01782342419028282,-0.01727745123207569,0.021265244111418724,-0.0007528942078351974],[-0.06497028470039368,0.056892894208431244,-0.032087311148643494,0.023939238861203194,0.010595038533210754,-0.09206992387771606,-0.027971060946583748,0.22425879538059235,0.25085651874542236,0.2039543092250824,0.013189495541155338,0.2741575539112091,0.020104359835386276,-0.07947457581758499,-0.032375484704971313,0.2950281500816345,-0.10353861004114151,-0.00810401700437069,-0.07973407953977585,0.23112642765045166,-0.11905184388160706,-0.10847503691911697,-0.10564763098955154,0.12432372570037842,-0.0024459226988255978,-0.014798480086028576,-0.4304541051387787,-0.4390907287597656,-0.04509305953979492,-0.026141956448554993,-0.1438918262720108,0.03593507409095764,0.01784997060894966,0.062978595495224,-0.01627185568213463,0.010961354710161686,0.34694042801856995,0.015693314373493195,0.0071555147878825665,-0.042897723615169525,-0.0035929165314882994,0.007742137182503939,0.24131107330322266,0.018224339932203293,0.009091733023524284,0.07689055800437927,-0.0232520941644907,-0.019129250198602676,0.2950592041015625,0.033924251794815063,-0.009341894648969173,0.005129824858158827,-0.02341270260512829,0.06989183276891708,0.0059621576219797134,-0.03758946433663368,0.030479753389954567,0.08902882784605026,-0.035752072930336,0.0023691500537097454,-0.0713350921869278],[0.18792647123336792,-0.15899573266506195,0.1566837877035141,-0.06105024740099907,0.006437170784920454,0.007877888157963753,0.361762672662735,0.14408889412879944,0.1380629986524582,-0.06841517239809036,0.16777653992176056,-0.22820189595222473,0.11755560338497162,0.009850068017840385,0.10847613960504532,-0.0034425007179379463,0.027100400999188423,-0.009387624450027943,0.11032141000032425,0.27057746052742004,0.0316101610660553,0.021242404356598854,-0.037872638553380966,0.14017443358898163,0.0026009990833699703,0.09746262431144714,0.10920275002717972,0.14455494284629822,-0.13623878359794617,0.03973251208662987,0.03549067676067352,-0.16158388555049896,-0.021396664902567863,-0.26443251967430115,-0.06901226937770844,-0.00612257793545723,0.19186529517173767,-0.09373395889997482,-0.19490763545036316,-0.10829024016857147,-0.07094943523406982,0.041270241141319275,0.06001961976289749,-0.04112645611166954,-0.005219397135078907,-0.0720074251294136,-0.010902460664510727,0.03114922344684601,0.19004744291305542,-0.013579919002950191,-0.026896433904767036,-0.09368941187858582,-0.04704630747437477,0.047200705856084824,-0.15265534818172455,-0.005921502131968737,0.10985367745161057,0.05575699731707573,-0.02034049481153488,-0.035821396857500076,-0.0869751051068306],[0.015457426197826862,-0.00934561900794506,0.009526797570288181,-0.004691320471465588,-0.09694979339838028,-0.1585114598274231,-0.05688817799091339,-0.28222519159317017,-0.044903140515089035,-0.051777686923742294,0.09103438258171082,-0.062294211238622665,-0.07996565103530884,-0.055785223841667175,0.13244280219078064,0.006115863099694252,-0.03432472422719002,-0.08285870403051376,0.064325712621212,0.009052671492099762,-0.008694428019225597,0.02774590253829956,0.021967360749840736,-0.11504389345645905,-0.1305772364139557,-0.15733325481414795,0.023237474262714386,-0.07753095030784607,0.21757455170154572,0.27473920583724976,-0.15855908393859863,-0.03682997077703476,0.007329572457820177,0.03974717855453491,0.025253908708691597,0.00619546789675951,-0.40793830156326294,0.1270628571510315,-0.01696806773543358,0.1766992211341858,0.05427322909235954,0.018546191975474358,-0.28328442573547363,0.010510972701013088,-0.008579938672482967,-0.0030496108811348677,0.07425365597009659,-0.01847129687666893,-0.3908228874206543,0.031322915107011795,-0.03621328994631767,-0.07842147350311279,-0.046200111508369446,0.14586712419986725,-0.03970431163907051,0.004898448009043932,0.04416370391845703,0.10768096148967743,0.01366372499614954,0.0003079163725487888,-0.16928811371326447],[0.21605166792869568,0.03453342616558075,-0.03774122893810272,-0.004870403092354536,-0.04833131283521652,-0.055107954889535904,-0.010491368360817432,-0.32149040699005127,0.014821089804172516,0.005477963946759701,-0.09992554038763046,-0.024823131039738655,0.04445822909474373,0.02291836217045784,0.03851509466767311,0.007317170035094023,0.0503598228096962,0.04695640876889229,-0.15198081731796265,-0.10775768756866455,0.061413489282131195,0.018293386325240135,-0.03159012645483017,-0.284784197807312,0.03819429874420166,0.05041017383337021,-0.21264992654323578,-0.472844660282135,-0.14458532631397247,-0.0632263720035553,-0.2335977554321289,-0.03234422206878662,-0.13456255197525024,0.08113477379083633,-0.07228134572505951,-0.01519312895834446,-0.0666869655251503,0.05050445348024368,-0.05355297029018402,0.2789245545864105,-0.007844695821404457,0.04038623347878456,0.18923574686050415,0.011681574396789074,0.035469554364681244,0.01780441775918007,-0.01646254025399685,0.0017771226121112704,0.3910370171070099,-0.07437117397785187,0.02318950742483139,0.18495188653469086,0.011226954869925976,-0.02735716663300991,0.13668514788150787,0.06077750772237778,0.01864263042807579,0.2112676203250885,-0.0022618358489125967,-0.03425650671124458,0.08461827039718628],[0.11454080045223236,-0.10705907642841339,0.05194028094410896,0.05551733076572418,-0.012771166861057281,-0.14252738654613495,-0.19679372012615204,-0.24430319666862488,0.017023921012878418,0.028169414028525352,0.2803376317024231,0.015576127916574478,-0.011182049289345741,0.04827919974923134,0.20574475824832916,-0.02610526978969574,-0.03495980426669121,-0.04593762382864952,0.13111265003681183,-0.11875051259994507,0.07023521512746811,-0.07889442145824432,0.1277737319469452,-0.021427003666758537,0.047038424760103226,0.012466024607419968,0.19845981895923615,-0.12128724902868271,0.038075242191553116,0.02664627693593502,-0.22871793806552887,0.06387069076299667,-0.0802415981888771,0.2527288496494293,0.023470187559723854,-0.03612712398171425,-0.13999314606189728,-0.04968411475419998,-0.054854582995176315,0.05638836696743965,0.05473026633262634,-0.0335986353456974,0.042557887732982635,0.07870665937662125,0.03521241620182991,-0.04498329758644104,0.009439695626497269,-0.03735857456922531,-0.2732750177383423,0.004080938175320625,-0.007650858722627163,-0.06539381295442581,0.1366722583770752,0.06004835665225983,-0.00840415433049202,-0.05841927230358124,-0.06701754778623581,0.11553049832582474,-0.06305822730064392,0.00453876331448555,0.08111783117055893],[0.05102097988128662,-0.06324291229248047,-0.09219927340745926,0.07347951829433441,-0.10094214975833893,0.011772346682846546,-0.10614403337240219,-0.10479878634214401,0.05849188566207886,-0.047287024557590485,0.016993822529911995,0.011611470952630043,0.06626387685537338,0.04547083005309105,0.003493520198389888,0.010240604169666767,0.011357028037309647,-0.0009600780322216451,0.04385191574692726,-0.07154850661754608,0.01622520387172699,0.044604986906051636,0.1027151346206665,-0.19423432648181915,0.06640002131462097,-0.004922176245599985,0.2864862084388733,-0.06155185401439667,-0.16594113409519196,0.06934300065040588,-0.45625099539756775,-0.08671019226312637,-0.009840202517807484,0.017092669382691383,0.12535227835178375,0.09192044287919998,-0.44574034214019775,0.05158059671521187,-0.008883493021130562,0.11953172087669373,0.11891014873981476,-0.0822693482041359,-0.4247179627418518,-0.09491997957229614,0.030065253376960754,0.1147022619843483,0.09480274468660355,-0.17177218198776245,-0.6216611862182617,-0.13385125994682312,0.0054497006349265575,0.0002954183437395841,-0.030757348984479904,0.1376875638961792,0.12088184058666229,0.08839813619852066,0.16391076147556305,-0.1614748239517212,0.047922976315021515,0.06752870976924896,-0.05712427943944931],[0.05655061826109886,0.2095796763896942,0.005233767908066511,0.08764443546533585,-0.20811931788921356,-0.21590234339237213,0.14743290841579437,-0.10676610469818115,-0.006193957291543484,-0.04194125905632973,0.07880927622318268,-0.13267581164836884,0.02133229374885559,0.07363764196634293,-0.0736141949892044,-0.05519823729991913,-0.01428297907114029,-0.023641053587198257,-0.07204741984605789,-0.13891413807868958,0.027194369584321976,0.00027179159224033356,-0.2035660296678543,-0.18024560809135437,0.06791234761476517,0.026290621608495712,-0.15703877806663513,-0.22967678308486938,-0.13192547857761383,-0.09432893991470337,0.03701135888695717,-0.0607951283454895,0.03752109035849571,-0.08742812275886536,0.0766071155667305,0.0667717382311821,-0.08030732721090317,-0.15015405416488647,0.14000201225280762,0.11014806479215622,0.029241375625133514,0.001938222092576325,-0.39567136764526367,-0.06759114563465118,-0.10027070343494415,0.11968201398849487,0.08492054790258408,-0.006644377484917641,-0.26184239983558655,-0.04964938387274742,0.07143249362707138,-0.011150775477290154,0.020868677645921707,-0.012124943546950817,0.08335597813129425,-0.15517538785934448,-0.18004220724105835,0.09036517143249512,0.01727898046374321,0.017018966376781464,0.09460173547267914],[-0.08272813260555267,-0.03205706179141998,0.07920965552330017,0.3150375783443451,0.12615512311458588,0.02519918978214264,-0.015507037751376629,0.07118964940309525,0.08666867762804031,0.03734168782830238,0.007870649918913841,-0.16385793685913086,0.02739984728395939,0.05911083519458771,-0.1380576193332672,0.08292897790670395,0.060159895569086075,-0.04844663664698601,0.03746436908841133,0.10043507069349289,0.08774958550930023,-0.024251136928796768,-0.06751158833503723,-0.053925130516290665,0.08580778539180756,-0.029600730165839195,-0.01770268939435482,0.11043252795934677,-0.013283364474773407,0.09585236012935638,0.552790641784668,0.03325813636183739,0.018234262242913246,0.06857800483703613,-0.02886361815035343,0.016520319506525993,0.23212137818336487,-0.05270107835531235,0.05088791996240616,-0.02137763239443302,-0.023462370038032532,0.0005971003556624055,0.132740780711174,-0.022496093064546585,-0.005344918929040432,0.015553437173366547,-0.015275486744940281,0.01295187883079052,0.004647740628570318,-0.11484985798597336,0.030909767374396324,-0.007198471110314131,-0.6071305871009827,0.16408951580524445,-0.08652828633785248,0.020493928343057632,-0.03875022009015083,0.023004282265901566,-0.03698112443089485,-0.010898048058152199,-0.059278909116983414],[-0.015889225527644157,0.0350976288318634,-0.01358333881944418,0.1722782403230667,0.06988326460123062,0.0008070447947829962,-0.2226613461971283,-0.16450180113315582,-0.07565279304981232,0.041346631944179535,0.07046923786401749,-0.1616980880498886,0.07837151736021042,0.058741770684719086,0.04659566283226013,0.028567232191562653,0.12357824295759201,-0.050013285130262375,0.17492929100990295,0.021365908905863762,0.031783442944288254,-0.04051322117447853,0.19347180426120758,-0.026135679334402084,0.059946201741695404,0.03743157535791397,0.10964883118867874,-0.03108978271484375,0.08638942986726761,-0.018068986013531685,0.3905288577079773,0.02149149775505066,0.12696684896945953,-0.095688097178936,-0.035320356488227844,-0.02242426946759224,0.4004283547401428,0.0492480993270874,-0.060563310980796814,0.11353253573179245,-0.003170271869748831,-0.05464256554841995,0.295796275138855,-0.10823824256658554,0.020198838785290718,0.18224668502807617,0.027977919206023216,0.0332813523709774,0.35130250453948975,-0.032149773091077805,-0.055196356028318405,0.05811939015984535,-0.39168205857276917,-0.29810693860054016,0.06115296855568886,-0.03050457499921322,-0.06025505065917969,0.02660352736711502,0.05467139929533005,-0.06949648261070251,0.12470383942127228],[0.15572473406791687,-0.09002609550952911,0.0830383151769638,0.04468514770269394,-0.02851509489119053,-0.03956254944205284,0.24124592542648315,0.15967679023742676,-0.02713663876056671,0.014811558648943901,0.09583158791065216,-0.22216717898845673,0.04420066252350807,-0.03715500608086586,-0.2340674251317978,-0.005124376621097326,-0.04058607667684555,-0.09884067624807358,-0.051744066178798676,0.11803651601076126,0.03715785965323448,-0.05846068263053894,-0.0013963052770122886,0.20369893312454224,0.020362798124551773,-0.07301834970712662,-0.09832015633583069,0.20845043659210205,-0.04097570851445198,0.015224509872496128,1.1454740762710571,-0.07359074801206589,-0.10537988692522049,-0.2824283540248871,-0.018077785149216652,-0.03425508365035057,0.5891504287719727,-0.056136488914489746,-0.04006281867623329,-0.027093330398201942,0.040603674948215485,0.04404434934258461,0.521277904510498,0.002992435824126005,0.03097355179488659,-0.030823348090052605,0.03121327795088291,0.022112982347607613,0.6108291745185852,0.004809719044715166,-0.039321091026067734,-0.13875773549079895,-0.05366978049278259,-0.05926961079239845,-0.1618644893169403,0.20880937576293945,-0.04026833176612854,0.1145949587225914,-0.14182144403457642,-0.0401441715657711,0.08695747703313828],[-0.14565114676952362,0.13502629101276398,0.04035722464323044,-0.09434180706739426,0.4066968858242035,-0.0863884836435318,0.13323484361171722,0.3752669394016266,-0.1563192456960678,-0.023446248844265938,-0.1015416830778122,-0.07254985719919205,-0.1310061514377594,0.08674164116382599,-0.04468579590320587,-0.0962904691696167,-0.14807918667793274,0.08412543684244156,-0.27470508217811584,0.13290518522262573,0.11652977764606476,0.037257738411426544,-0.15851888060569763,0.28379911184310913,-0.051258932799100876,0.16801713407039642,-0.035026539117097855,0.3991265296936035,-0.11483174562454224,-0.06617984175682068,0.03963461518287659,-0.049257416278123856,0.0605725422501564,-0.032932933419942856,-0.07886264473199844,0.023902909830212593,-0.3616817891597748,0.049400653690099716,0.11239796876907349,-0.14140279591083527,0.04650163650512695,0.031087147071957588,-0.5538050532341003,0.06797928363084793,0.08187159895896912,0.12581494450569153,0.010938378050923347,0.017166705802083015,0.06674810498952866,-0.10703212022781372,0.15016712248325348,-0.023062828928232193,0.15318246185779572,0.015832524746656418,0.16816623508930206,-0.0644955188035965,-0.0066946423612535,-0.0003476375713944435,0.04398864135146141,-0.0458381213247776,-0.042796168476343155],[-0.09866740554571152,0.05768078938126564,-0.11836591362953186,-0.031714074313640594,0.056288305670022964,0.2576271891593933,0.18674755096435547,0.2814507484436035,-0.1617288738489151,0.03365125507116318,-0.0544334352016449,0.017517173662781715,0.06013859808444977,-0.24879834055900574,-0.12551242113113403,0.05493918061256409,0.04807382822036743,0.030060911551117897,-0.01986778900027275,0.1919659674167633,0.0641598105430603,-0.029672011733055115,-0.08362535387277603,0.07612233608961105,0.04912196099758148,0.008970005437731743,-0.08182685822248459,0.02356453612446785,0.19507825374603271,-0.26266634464263916,0.2928370535373688,0.11551070958375931,0.06754498928785324,-0.10575518757104874,-0.1117861196398735,0.026363695040345192,0.23310579359531403,0.04062982276082039,-0.035806480795145035,-0.025840843096375465,-0.06518478691577911,0.05439067259430885,0.08008973300457001,0.05959276854991913,0.06389467418193817,-0.012016004882752895,-0.021831704303622246,-0.018255144357681274,0.16277346014976501,-0.040899608284235,0.02145867422223091,0.09530819207429886,-0.011159623973071575,0.050250470638275146,-0.10975988954305649,-0.10715731978416443,0.07210163027048111,-0.12662190198898315,0.038167260587215424,0.0530165396630764,0.254366397857666],[0.01799224130809307,-0.009974807500839233,0.024614503607153893,-0.03208203986287117,0.010020687244832516,-0.01728997938334942,-0.02143561653792858,-0.492034912109375,0.06124758720397949,-0.011131178587675095,0.1138673797249794,0.024950185790657997,0.10090324282646179,-0.07888241112232208,0.12812387943267822,-0.1722726672887802,0.0432613268494606,-0.08876600861549377,0.10628945380449295,-0.17396681010723114,-0.05150814726948738,-0.087185800075531,0.044392358511686325,0.047058094292879105,0.008124176412820816,-0.03258102759718895,0.04344607889652252,-0.16554060578346252,0.13666854798793793,0.1755359023809433,-0.031942497938871384,0.0310748852789402,-0.0314679890871048,-0.02061331830918789,0.052314501255750656,0.03381166607141495,-0.07270641624927521,-0.08144409209489822,0.0056692264042794704,-0.01707971841096878,0.06528400629758835,0.11129970103502274,0.02286621741950512,-0.12259752303361893,-0.020317472517490387,-0.0925668478012085,-0.0046321311965584755,0.033624328672885895,0.03613779693841934,-0.04132337123155594,-0.0072568743489682674,0.06371178478002548,0.24309906363487244,-0.06375132501125336,0.43624767661094666,0.12054591625928879,-0.10919295251369476,0.02318456396460533,0.007084823679178953,-0.07432252913713455,-0.11249585449695587],[-0.06353061646223068,-0.05689305067062378,-0.05777638033032417,0.08798853307962418,-0.04217759892344475,-0.06473047286272049,-0.2660664916038513,-0.09693250805139542,0.10353785753250122,0.03912603110074997,0.16348977386951447,-0.09481348842382431,0.02267748862504959,0.029950421303510666,0.06902443617582321,-0.09830724447965622,0.02912149392068386,0.020201586186885834,0.06195176765322685,0.12075953185558319,-0.009168076328933239,0.0316750630736351,0.057195063680410385,-0.06710789352655411,-0.0019814101979136467,0.04680805653333664,0.13031283020973206,-0.12717680633068085,-0.06707905232906342,-0.09351087361574173,-0.39124351739883423,-0.052192218601703644,-0.10805943608283997,-0.04957858473062515,-0.019071321934461594,0.044777948409318924,-0.39243683218955994,-0.04984598606824875,0.06543786078691483,-0.05513111501932144,0.007467710878700018,0.03143489360809326,-0.30209237337112427,0.04514538496732712,0.07472904026508331,-0.1482686847448349,-0.10122934728860855,-0.08016049861907959,-0.4349327087402344,-0.051608629524707794,0.04114355519413948,0.07631922513246536,0.06724387407302856,-0.048860400915145874,0.03851588815450668,0.04562455043196678,0.0966765508055687,0.15867123007774353,0.002346370369195938,-0.1312938928604126,-0.06897486746311188],[-0.008241834118962288,-0.021915197372436523,-0.05501216650009155,0.03878215700387955,-0.06762902438640594,-0.030609380453824997,-0.03435943275690079,0.17333973944187164,0.13626548647880554,0.0782187432050705,0.17608430981636047,-0.014001427218317986,0.05547817796468735,-0.0016658534295856953,0.005271377973258495,-0.10239555686712265,0.031240882351994514,-0.02310250885784626,0.020856119692325592,-0.0444440059363842,-0.03152131661772728,0.047452423721551895,0.2105262726545334,-0.1906827688217163,0.011649927124381065,0.009016870521008968,0.09216265380382538,-0.015411430038511753,0.03213093429803848,-0.030324921011924744,0.048892732709646225,-0.04570899158716202,-0.016431866213679314,-0.030814798548817635,0.03726049140095711,0.1171298399567604,0.5421018004417419,-0.07020784169435501,0.014087063260376453,-0.0392618402838707,0.11382665485143661,0.013179993256926537,0.38447362184524536,-0.09786536544561386,-0.019817952066659927,-0.039300546050071716,0.047586023807525635,0.021659767255187035,0.40764573216438293,-0.06951703131198883,0.011965670622885227,-0.09171479940414429,0.08323219418525696,0.19258171319961548,-0.147793248295784,0.0676293671131134,0.05627593770623207,0.12573441863059998,-0.015742529183626175,-0.024847516790032387,-0.02767627313733101],[0.031568896025419235,-0.2886541783809662,-0.029979003593325615,0.10194294899702072,0.011010270565748215,-0.24451082944869995,0.1590522825717926,-0.12387260794639587,-0.05362488329410553,-0.13850398361682892,-0.08480166643857956,0.15699242055416107,0.07324011623859406,0.08387655019760132,-0.004954587202519178,0.001545259729027748,0.13712100684642792,0.17132601141929626,0.025087187066674232,0.2065735012292862,0.04805617779493332,0.08401987701654434,-0.0812341570854187,0.18452012538909912,0.02757170796394348,0.008402287028729916,-0.05075598508119583,0.02774123288691044,0.006619753781706095,0.10567105561494827,-0.23715871572494507,0.12458205968141556,-0.019737105816602707,-0.05909215658903122,-0.0748351663351059,0.12853935360908508,-0.11358268558979034,0.17688751220703125,0.027257326990365982,0.15750372409820557,-0.09828224033117294,0.06046107038855553,-0.07185661792755127,-0.04211219772696495,0.01931983232498169,0.0766439288854599,-0.044197794049978256,0.04845314100384712,-0.07630307227373123,0.022820860147476196,0.03585904464125633,-0.14223945140838623,0.04231319949030876,-0.030755741521716118,0.05081872269511223,-0.08866031467914581,-0.049016498029232025,-0.008044570684432983,-0.1384502500295639,0.005626870319247246,-0.021548256278038025],[0.021629707887768745,0.07427401840686798,0.09558550268411636,0.15400496125221252,0.014043109491467476,0.18868394196033478,0.19051103293895721,-0.12674836814403534,-0.08569256961345673,0.19569233059883118,-0.20672284066677094,-0.19669505953788757,-0.005374911241233349,-0.05500635504722595,0.03432842716574669,0.0023808320984244347,-0.1478062868118286,0.005408923607319593,-0.07478577643632889,-0.20074984431266785,0.015404386445879936,-0.19584505259990692,-0.024374842643737793,-0.1021919697523117,-0.02011275105178356,-0.0879109650850296,-0.08441346138715744,0.08775077015161514,-0.08432824909687042,-0.07709792256355286,-0.30319321155548096,-0.06212041527032852,0.053003039211034775,-0.14484132826328278,-0.11162226647138596,-0.11139310151338577,-0.3125234544277191,0.06999125331640244,-0.04393947497010231,0.11871019005775452,0.03639528527855873,-0.08786537498235703,-0.017043035477399826,-0.04806940257549286,-0.12778395414352417,0.10352928936481476,-0.09051483124494553,-0.06191083788871765,-0.052342113107442856,-0.03584432601928711,-0.03254702314734459,0.12813618779182434,0.082329660654068,0.04398733377456665,-0.14841803908348083,0.03375544399023056,0.17694315314292908,-0.12540161609649658,-0.09307403117418289,0.02188039757311344,-0.034541983157396317],[-0.049421798437833786,0.13846160471439362,-0.16468413174152374,0.05104207992553711,-0.21220365166664124,-0.09273030608892441,-0.16209281980991364,-0.38918325304985046,-0.0083291782066226,-0.007173801306635141,0.10674567520618439,-0.1551084667444229,0.00807309988886118,0.07205789536237717,0.03500602766871452,0.015340682119131088,-0.04012440890073776,-0.03922527655959129,0.034708235412836075,-0.1545008271932602,0.013779264874756336,-0.04123040661215782,0.11957186460494995,0.03477642685174942,-0.02504301816225052,-0.03178131580352783,0.16137444972991943,-0.1625739485025406,-0.06767937541007996,-0.04713080823421478,0.20929110050201416,-0.08132074028253555,0.005079566966742277,0.17169438302516937,-0.0331757478415966,-0.032270774245262146,0.16168424487113953,0.08918499946594238,0.03202080726623535,0.09228738397359848,-0.031240979209542274,0.1540236920118332,0.13934333622455597,0.008837871253490448,-0.009486116468906403,-0.06746882200241089,0.10873129218816757,0.18088269233703613,0.08328860253095627,-0.025566138327121735,-0.05291285738348961,0.077488474547863,-0.10251882672309875,-0.12315918505191803,0.20900340378284454,0.037736184895038605,0.03108821250498295,-0.004751658067107201,0.07043834775686264,0.05382590740919113,-0.015219291672110558],[0.04833132401108742,0.06015826389193535,0.13615788519382477,-0.07628899067640305,-0.08800055831670761,-0.2331717163324356,0.16192549467086792,-0.17987647652626038,-0.048152726143598557,-0.04035691171884537,-0.07242651283740997,0.12809403240680695,0.06019093096256256,0.17491674423217773,0.007632141932845116,0.04996301978826523,0.21430565416812897,0.03264852613210678,-0.03001779317855835,0.06291934847831726,0.09477350860834122,0.005195152014493942,-0.019521798938512802,-0.06577304750680923,0.18913187086582184,0.07462958991527557,-0.050430573523044586,-0.08574171364307404,-0.18177342414855957,-0.09221678972244263,0.06886406242847443,0.1114530935883522,0.07500213384628296,-0.14502403140068054,-0.12192642688751221,-0.008858024142682552,-0.12423152476549149,0.19252069294452667,0.049663394689559937,-0.06010069698095322,-0.0964459478855133,-0.005058671813458204,-0.1488559991121292,0.12476241588592529,0.06808990985155106,-0.14658579230308533,-0.021167416125535965,-0.03820916637778282,-0.2551721930503845,0.01887076534330845,0.022264420986175537,0.036553140729665756,0.011217114515602589,-0.07081543654203415,0.37490659952163696,-0.03119211457669735,-0.09036106616258621,-0.04399073123931885,-0.04183315858244896,-0.07855670154094696,-0.28867459297180176],[-0.2785949110984802,-0.12416046857833862,-0.10359687358140945,-0.19429656863212585,0.0011945985024794936,-0.06925839185714722,-0.05093534663319588,0.6030059456825256,-0.017153622582554817,0.03491178900003433,-0.1211794763803482,0.1335761845111847,0.03038087673485279,0.08540962636470795,0.28229087591171265,0.07712526619434357,-0.0005318677867762744,-0.040037814527750015,0.040173355489969254,0.18921777606010437,-0.033863797783851624,0.003409761469811201,0.14874425530433655,0.5256327986717224,0.0012585478834807873,-0.07092752307653427,0.19589747488498688,0.5252231955528259,0.04784722626209259,-0.01673385687172413,0.5338805913925171,-0.019129665568470955,0.007038759533315897,-0.2367541790008545,0.004947016015648842,0.015416538342833519,0.5767160058021545,-0.0037991395220160484,0.04852994158864021,-0.154481440782547,0.06868083775043488,-0.0018492473755031824,0.45254430174827576,-0.008221827447414398,0.03901824355125427,-0.11994888633489609,0.008449660614132881,-0.018084712326526642,0.3655349612236023,0.019540410488843918,-0.05077254772186279,-0.1356336623430252,-0.02198844775557518,0.012948162853717804,0.15884242951869965,0.0008639697334729135,0.024673914536833763,-0.06340441107749939,-0.04269550368189812,-0.009785931557416916,0.1391080915927887],[0.006812334060668945,-0.16900165379047394,-0.019690603017807007,-6.51477457722649e-05,-0.04300752654671669,-0.09880254417657852,0.11908791959285736,0.29255157709121704,-0.014069538563489914,0.07192288339138031,-0.2380758374929428,-0.10934624820947647,0.05084763094782829,-0.19434739649295807,-0.13633522391319275,0.06437977403402328,0.055833909660577774,-0.03336523845791817,0.005911512766033411,0.18706291913986206,0.12988510727882385,0.31452807784080505,0.0004234652151353657,0.2783074676990509,-0.20950306951999664,-0.19601991772651672,-0.03092745877802372,0.28594499826431274,-0.03316779434680939,0.03090606816112995,-0.03851090371608734,-0.10581610351800919,0.017800813540816307,-0.04100549593567848,0.016420889645814896,0.042153265327215195,-0.06828739494085312,0.029346926137804985,-0.054541509598493576,-0.1809345930814743,-0.048340313136577606,0.004405279643833637,-0.07951422780752182,0.04662404581904411,0.02708997018635273,-0.0992797315120697,-0.011438626796007156,-0.03160679340362549,-0.020097605884075165,0.07527924329042435,0.08909999579191208,0.07295878976583481,-0.008803324773907661,0.14189258217811584,-0.12249768525362015,0.051658615469932556,0.1029573380947113,0.028809836134314537,-0.04752347618341446,0.01982232742011547,0.013869654387235641],[0.007639212068170309,-0.09244420379400253,0.05215785652399063,0.052612390369176865,0.05770934745669365,-0.10143072158098221,-0.20429880917072296,-0.464671790599823,0.2899704873561859,0.07228650152683258,0.10667823255062103,-0.11463618278503418,0.014310553669929504,-0.08204283565282822,0.11630212515592575,-0.0671466737985611,0.014607025310397148,-0.08667049556970596,0.0531332790851593,-0.17250369489192963,-0.0344369076192379,-0.07465127110481262,-0.030006427317857742,0.07975215464830399,0.0405687652528286,-0.0713977962732315,0.09024352580308914,-0.1324033886194229,0.0060732560232281685,-0.045819636434316635,0.25474822521209717,0.031183363869786263,-0.020603712648153305,0.12492909282445908,-0.05665082857012749,-0.05499575659632683,0.15194661915302277,0.07972840964794159,0.12259639799594879,0.12846949696540833,0.02724728174507618,0.021006334573030472,-0.12196895480155945,-0.12435097247362137,0.03094487637281418,0.054781436920166016,-0.01577376388013363,-0.024494975805282593,0.010917389765381813,-0.013476752676069736,-0.017055030912160873,0.06839460134506226,-0.08600406348705292,-0.17240256071090698,0.24231745302677155,-0.13115069270133972,-0.04527125507593155,0.05413666367530823,0.07844492793083191,-0.06299330294132233,-0.0888124629855156],[0.17172379791736603,0.005467596463859081,-0.03399285301566124,0.061451610177755356,0.027222132310271263,-0.11307276040315628,-0.16801626980304718,0.13918526470661163,-0.058022476732730865,-0.14241327345371246,0.23302745819091797,0.002011755481362343,-0.0545058436691761,-0.06640170514583588,-0.07679993659257889,0.020658673718571663,-0.07970991730690002,-0.05319926142692566,-0.006992634851485491,-0.10505228489637375,-0.05615714564919472,0.008983173407614231,0.015131143853068352,0.08977710455656052,-0.05100696161389351,-0.03690922632813454,0.07517367601394653,-0.04793986305594444,0.0027840486727654934,-0.08874556422233582,0.4018643796443939,0.04291226714849472,0.11080276966094971,-0.12782609462738037,0.023074818775057793,-0.06363508850336075,0.29495301842689514,0.08863863348960876,0.06698532402515411,0.10456006973981857,0.07639792561531067,-0.08638311922550201,0.3514321744441986,0.07075844705104828,0.0001317179121542722,0.007437185849994421,0.04805540665984154,-0.015441118739545345,0.1906811147928238,-0.029230816289782524,-0.012474930845201015,0.07252160459756851,0.2663893699645996,-0.32901448011398315,-0.27948638796806335,-0.0007988504366949201,-0.05413660779595375,0.024013765156269073,-0.04032891243696213,0.011236203834414482,-0.028987349942326546],[0.27376702427864075,0.28766825795173645,0.3384266197681427,0.09039306640625,0.051920048892498016,0.07809782028198242,0.2303825169801712,0.1941460371017456,0.08188757300376892,-0.023950843140482903,-0.09802690148353577,-0.3070194721221924,0.13676008582115173,-0.013561423867940903,-0.051451168954372406,-0.14781196415424347,-0.01216268539428711,-0.13322697579860687,-0.10327688604593277,-0.3186184763908386,-0.10480659455060959,0.199992373585701,0.054285403341054916,-0.21840952336788177,-0.07893804460763931,-0.19655659794807434,-0.1168801411986351,-0.19316105544567108,-0.027524592354893684,-0.0038936736527830362,0.13651511073112488,-0.02192125841975212,0.05892915651202202,-0.1470668613910675,-0.043065302073955536,0.03062586858868599,-0.03740301728248596,-0.03138749673962593,-0.0703132227063179,0.08596108853816986,-0.005376168992370367,0.02076197788119316,0.17150644958019257,-0.03950471058487892,0.01442619226872921,0.05095919966697693,-0.0012219016207382083,-0.005122616421431303,0.03559643030166626,-0.10359370708465576,-0.015375092625617981,2.041134393948596e-06,0.030904648825526237,-0.050435636192560196,-0.09712786227464676,0.07033158838748932,-0.03730280324816704,0.22314834594726562,0.007941365242004395,-0.08059994131326675,0.1500849425792694],[0.16299621760845184,-0.003740557236596942,-0.04041216894984245,0.10645439475774765,0.15538275241851807,0.16395625472068787,0.0943346917629242,0.5787269473075867,-0.2894841730594635,0.11259651184082031,-0.0981188714504242,0.0025056570302695036,0.04865317791700363,0.05022510513663292,0.022486653178930283,0.12743595242500305,-0.021943777799606323,-0.1600392460823059,-0.07374076545238495,0.15404267609119415,-0.042774345725774765,-0.1370745450258255,-0.13656267523765564,0.12571534514427185,-0.016488371416926384,-0.02361205965280533,-0.16308200359344482,0.09674696624279022,0.07000543177127838,0.06389342993497849,-0.06396838277578354,-0.025472937151789665,0.03546883538365364,0.08451010286808014,0.07453077286481857,0.03839242830872536,0.1654016524553299,-0.015662983059883118,0.029074465855956078,-0.04378150403499603,-0.1404823213815689,0.07119916379451752,0.19461990892887115,0.09464685618877411,0.07815258949995041,-0.18068982660770416,-0.019670167937874794,0.024281330406665802,0.09687694162130356,0.020343037322163582,0.04299624636769295,-0.0020658173598349094,0.02857898361980915,0.09633079916238785,-0.05233181267976761,-0.02353471703827381,-0.02528965100646019,-0.07163982838392258,-0.03345668688416481,-0.01859426125884056,0.1305869072675705],[-0.07989171147346497,0.005108918063342571,0.05688367784023285,0.040892574936151505,0.2136722207069397,0.01058301143348217,0.08609415590763092,0.011737876571714878,0.1231682226061821,0.05156915262341499,-0.21771341562271118,0.13790008425712585,0.02058170549571514,0.03205901384353638,-0.1747138649225235,0.0797087773680687,0.00257074274122715,0.060754891484975815,-0.11523658782243729,-0.015111304819583893,-0.03515956923365593,0.015688007697463036,-0.19300775229930878,-0.09713691473007202,-0.089468814432621,-0.023005396127700806,0.07719410955905914,0.04865632951259613,-0.1740761697292328,0.04060661047697067,-0.4728747606277466,0.06076762452721596,-0.08324101567268372,0.2202385663986206,0.01874016411602497,0.005034678615629673,-0.7446032762527466,-0.012619185261428356,-0.010801317170262337,0.21249999105930328,0.06888308376073837,0.080519899725914,-0.4608609676361084,0.014070127159357071,0.019739441573619843,0.07716777920722961,0.12188814580440521,0.07203782349824905,-0.34719353914260864,-0.013313846662640572,0.03340047597885132,-0.0751725360751152,-0.004811038728803396,-0.07928282022476196,-0.12215012311935425,0.17206789553165436,-0.07260650396347046,-0.08026447147130966,0.02931298315525055,0.05770878493785858,-0.01699613220989704],[0.037190210074186325,-0.09090598672628403,-0.017794251441955566,0.03838976472616196,0.0006246669800020754,0.06638823449611664,0.09625279903411865,-0.344125896692276,-0.024382727220654488,-0.09772418439388275,-0.21241071820259094,0.20865994691848755,0.0335317924618721,-0.11013343185186386,-0.007055375259369612,0.07550603151321411,-0.20747822523117065,0.08410114794969559,-0.11512584239244461,0.08762554079294205,-0.09722071141004562,0.0648045539855957,0.022784285247325897,0.23404185473918915,0.060783155262470245,0.03778805956244469,0.036014847457408905,0.14140762388706207,-0.1220199391245842,0.052215076982975006,0.7582846283912659,-0.03317195922136307,-0.08111273497343063,-0.20686718821525574,0.15421338379383087,0.11080142855644226,0.3735174834728241,0.02663476951420307,-0.09367269277572632,0.06216267868876457,-0.10599438101053238,-0.019585050642490387,0.1733798235654831,-0.0226522795855999,0.04450530186295509,-0.16459648311138153,-0.043910786509513855,-0.07397378981113434,0.34936755895614624,0.0649324506521225,0.01998838596045971,-0.10148663073778152,0.09622382372617722,-0.012416756711900234,0.1444050818681717,0.10653992742300034,-0.020118175074458122,0.004070155322551727,0.10406763851642609,-0.06444669514894485,0.08285683393478394],[-0.021667245775461197,-0.08183138072490692,-0.12363921105861664,-0.0859597697854042,0.04247349500656128,-0.05749385431408882,-0.1857319325208664,0.5369619131088257,-0.06685509532690048,0.15698429942131042,-0.06888590008020401,-0.01090182550251484,-0.3373020589351654,0.010949491523206234,0.06535183638334274,0.31000030040740967,0.06504733860492706,-0.14624916017055511,-0.02095370553433895,0.39784008264541626,0.2932157516479492,-0.0335514172911644,-0.2494271695613861,0.32731837034225464,0.06092861294746399,-0.004766074940562248,-0.2035199999809265,0.06067812070250511,-0.0031302887946367264,0.0045941979624331,0.5848815441131592,0.05397931858897209,-0.04782255366444588,-0.052704233676195145,-0.0016258672112599015,0.035195279866456985,0.16757075488567352,-0.026960652321577072,0.03442259505391121,-0.1348128318786621,-0.025937620550394058,0.0039043782744556665,0.6902285218238831,-0.0053382557816803455,-0.014628086239099503,0.030465003103017807,-0.007270233239978552,-0.015469446778297424,0.36183053255081177,-0.024733174592256546,0.0462549589574337,0.05690508335828781,-0.04222067818045616,0.05326166749000549,-0.38218945264816284,0.02564726397395134,0.014881904236972332,-0.0325155183672905,0.011056323535740376,-0.003273583482950926,0.06838110089302063],[0.08580300211906433,-0.15474486351013184,-0.010996822267770767,-0.04358366131782532,0.025021571666002274,-0.04336390271782875,-0.16546976566314697,0.3271104395389557,-0.018917705863714218,-0.0074419984593987465,0.08119317889213562,-0.0572376549243927,0.03572924807667732,-0.016902854666113853,0.106131412088871,0.10209809988737106,0.09475988894701004,-0.0239546075463295,0.053540948778390884,0.10339227318763733,0.11203000694513321,0.0262844730168581,0.20805980265140533,-0.2577572464942932,0.12532922625541687,0.05520085617899895,0.09903133660554886,-0.05927225947380066,-0.16019238531589508,-0.23587581515312195,0.16639140248298645,0.06356401741504669,-0.016871998086571693,0.022988084703683853,-0.12491942197084427,-0.04990018531680107,0.06393351405858994,-0.029734861105680466,0.03118116967380047,0.07777881622314453,0.05311540141701698,0.08813902735710144,0.30771464109420776,-0.03495024889707565,0.07511333376169205,0.10117276012897491,0.09253350645303726,-0.012451966293156147,0.4671523869037628,-0.07545522600412369,0.034526318311691284,0.018728479743003845,0.11893874406814575,-0.22925834357738495,0.09068537503480911,0.1151401475071907,-0.057266175746917725,-0.10550225526094437,0.03252965211868286,0.01173241063952446,0.1584768444299698],[-0.025814322754740715,0.13276419043540955,0.18301323056221008,0.09648516029119492,0.02267615869641304,-0.002595343627035618,0.3015252649784088,-0.06576927751302719,-0.05541848763823509,-0.06932274997234344,-0.02351638488471508,0.38843390345573425,0.03989730402827263,-0.005059346091002226,0.08690226823091507,-0.0010160122765228152,0.0037004584446549416,-0.04842023551464081,0.05504908412694931,-0.3050388693809509,0.029320983216166496,0.031722292304039,-0.06367548555135727,-0.36748483777046204,0.004207546357065439,0.08483126014471054,-0.05380956828594208,-0.45521265268325806,-0.0003996774321421981,0.0005820391234010458,-0.28875693678855896,0.04234699532389641,0.04082133248448372,-0.033675264567136765,0.007640257943421602,0.049364835023880005,0.04843774810433388,0.05851596221327782,-0.029970526695251465,0.053669799119234085,-0.013681657612323761,0.0039163329638540745,0.11546903848648071,0.004831467755138874,0.0756392776966095,0.05039085075259209,0.027345119044184685,-0.0210126843303442,-0.07243260741233826,-0.006850212812423706,0.07714328914880753,0.06995179504156113,-0.06641127914190292,0.06827885657548904,0.08697237074375153,-0.05057564750313759,0.045005857944488525,0.00399395078420639,-0.09557534009218216,0.03243781998753548,0.14114722609519958],[0.0724739134311676,-0.046485770493745804,-0.05159708112478256,-0.06083151698112488,0.21393421292304993,0.2931862473487854,0.018438320606946945,0.17766913771629333,-0.029149465262889862,-0.08808186650276184,-0.16332374513149261,-0.1272658258676529,0.00838520098477602,0.011213057674467564,-0.0511041022837162,-0.09624838083982468,-0.07323121279478073,-0.05123881623148918,-0.10686216503381729,-0.002433959860354662,-0.07940566539764404,0.060527049005031586,0.0032772182021290064,-0.09822192043066025,-0.02979186736047268,-0.08900618553161621,0.0019360468722879887,0.11864646524190903,0.15759766101837158,-0.08755132555961609,0.011649824678897858,0.038966719061136246,-0.0011855553602799773,0.12935374677181244,-0.11527083814144135,-0.029538145288825035,-0.119081050157547,0.04282737150788307,0.06531279534101486,-0.00830520037561655,-0.007528672926127911,-0.03572211414575577,-0.597583532333374,-0.05143855884671211,-0.03469669818878174,0.012596728280186653,-0.04075124114751816,0.06641092151403427,-0.3279414474964142,0.04334505647420883,-0.07128458470106125,-0.06600413471460342,-0.02993536740541458,0.03574880585074425,0.018197910860180855,0.06603732705116272,0.006770323496311903,-0.11085469275712967,-0.0793769583106041,-0.02685050293803215,-0.14061924815177917],[0.11987214535474777,-0.05582462251186371,0.3674781918525696,0.03235241398215294,-0.03613333776593208,-0.23049193620681763,0.3365322947502136,-0.5965900421142578,-0.009735328145325184,-0.00604097219184041,0.04586204141378403,0.07771404087543488,-0.08226744085550308,0.14424851536750793,0.05412094295024872,-0.06542863696813583,-0.015160439535975456,0.04162519797682762,-0.19441446661949158,-0.008805005811154842,-0.0006781421252526343,0.016358260065317154,0.06292162090539932,-0.0906226709485054,0.01861714944243431,-0.005937010515481234,-0.11299575865268707,-0.028197240084409714,0.1693749874830246,0.06466419994831085,0.36805179715156555,-0.14922772347927094,-0.012002790346741676,-0.09509266167879105,-0.06990575790405273,0.00866477657109499,0.5276150703430176,-0.12994739413261414,-0.02502385899424553,0.008455432020127773,0.09579192101955414,0.04063057154417038,0.36339882016181946,-0.013006411492824554,0.020996160805225372,0.06410040706396103,0.0003569468099158257,-0.019364112988114357,0.39014968276023865,-0.08046960085630417,0.032719358801841736,0.1085699275135994,-0.0036732915323227644,-0.03604860231280327,-0.00449091661721468,5.500043334905058e-05,0.06181662529706955,0.01857408508658409,-0.010116618126630783,-0.05916229635477066,-0.010197003372013569],[-0.011282211169600487,0.006564927753061056,-0.007110839243978262,0.003367700381204486,-0.11698127537965775,0.20230983197689056,-0.3229740858078003,0.33895421028137207,-0.1409461796283722,0.18054929375648499,-0.053300295025110245,0.18143226206302643,-0.04025399684906006,0.12941117584705353,0.02172827534377575,0.11418823897838593,-0.03251764550805092,-0.004080156795680523,0.18489232659339905,-0.039189986884593964,0.02646852843463421,0.04126809164881706,0.05861141160130501,-0.12370569258928299,-0.030059240758419037,0.11028500646352768,0.1567079722881317,-0.11812393367290497,-0.1644412875175476,0.03989754989743233,0.36380213499069214,0.04218897223472595,0.06132896989583969,0.016661107540130615,0.02459310181438923,-0.029027875512838364,0.5726175904273987,0.050038956105709076,0.0530298575758934,-0.02394663728773594,0.05853058770298958,-0.03024354577064514,0.5858508348464966,-0.11066317558288574,-0.08977843821048737,0.017574086785316467,0.009653221815824509,-0.06797517091035843,0.3994479775428772,-0.01638953387737274,-0.038274019956588745,-0.17661809921264648,0.07640178501605988,0.0753684788942337,-0.05688396468758583,0.05046781897544861,-0.09217430651187897,0.012900330126285553,0.1105877235531807,-0.054637789726257324,-0.08348045498132706],[0.18497711420059204,-0.026265084743499756,-0.09572722017765045,-0.07825930416584015,-0.12061417102813721,0.03760267049074173,0.07719111442565918,-0.3141382932662964,-0.15048114955425262,-0.051043540239334106,0.03399164229631424,0.23672711849212646,0.032554373145103455,0.2154144048690796,-0.15605440735816956,-0.03670546039938927,-0.018274672329425812,0.04553636908531189,-0.0964912623167038,0.187736377120018,0.039411745965480804,0.093245729804039,-0.23697373270988464,0.03098377399146557,0.01770537719130516,-0.04912290722131729,-0.41278594732284546,-0.03328374773263931,-0.1072184294462204,-0.01751716062426567,0.027889180928468704,-0.03633279725909233,0.07047127932310104,0.08546517044305801,-0.06829908490180969,-0.051441263407468796,0.10765013098716736,-0.1051531434059143,-0.005438072141259909,0.12602709233760834,-0.07019055634737015,-0.0034593050368130207,0.04674835875630379,-0.09642604738473892,0.08410443365573883,0.16204021871089935,0.04410265386104584,-0.0528976246714592,0.0508929081261158,-0.020824730396270752,0.04798264801502228,0.021089643239974976,-0.12433943897485733,-0.08707226067781448,-0.15347425639629364,0.07694915682077408,0.024196770042181015,-0.06775468587875366,0.11057855188846588,-0.03975345194339752,0.08728113025426865],[0.06689141690731049,0.2973635792732239,0.12193639576435089,0.1283237338066101,-0.008570484817028046,0.02475973218679428,0.20217889547348022,-0.11133404076099396,-0.0975702702999115,0.08475938439369202,-0.10258226841688156,-0.2905498445034027,-0.10386022925376892,0.16072773933410645,-0.22516809403896332,-0.06893423199653625,0.2007087916135788,0.007699578534811735,-0.1690233051776886,-0.23821917176246643,-0.0851755365729332,-0.20860978960990906,0.046116262674331665,-0.12541428208351135,0.02240678295493126,-0.09565688669681549,0.1416740119457245,0.2199065238237381,0.0172877199947834,0.00024031380598898977,-0.7382481098175049,-0.05042706057429314,0.02049832232296467,0.0681721493601799,0.019253982231020927,0.03496188297867775,-0.8109608888626099,0.003426768584176898,-0.03703010082244873,0.02890145778656006,0.03278854861855507,-0.019264791160821915,-0.5940088033676147,-0.030350269749760628,-0.02517625316977501,-0.04261767491698265,0.011757978238165379,-0.0007788831717334688,-0.6645888090133667,-0.010353568010032177,-0.0005729163531213999,0.027095351368188858,0.03722870722413063,0.03123713657259941,0.19486519694328308,0.019394297152757645,0.0038848151452839375,-0.05797389894723892,0.006551635451614857,0.0008589476346969604,0.16276052594184875],[-0.0015121696051210165,-0.07146093249320984,-0.114895299077034,-0.099299855530262,0.25992530584335327,0.0552118681371212,0.07984378188848495,0.430511474609375,0.1122649610042572,-0.03105127438902855,0.007420775480568409,-0.003924644086509943,0.11777853965759277,-0.24922417104244232,-0.19414328038692474,0.13460522890090942,0.01257378701120615,-0.042591411620378494,-0.1944524645805359,0.15039293467998505,-0.13041825592517853,0.0109712490811944,-0.12529616057872772,0.2605820894241333,0.022356458008289337,0.224170982837677,-0.09652053564786911,0.24398685991764069,-0.04524805396795273,-0.03632015734910965,-0.5185773372650146,0.12552529573440552,0.10769742727279663,0.027865715324878693,-0.05847461521625519,-0.03432759642601013,-0.29075461626052856,0.03229735791683197,0.06970054656267166,0.07380986213684082,0.015656856819987297,-0.03875989466905594,-0.4374818503856659,0.001561363460496068,0.06290765851736069,-0.1418929249048233,-0.01633770763874054,-0.004011882469058037,-0.18327945470809937,-0.03999100252985954,-0.025825228542089462,-0.02538699097931385,-0.02010316029191017,0.08382758498191833,0.03964277729392052,0.1818101704120636,0.17447637021541595,0.022060871124267578,0.010696012526750565,0.06284183263778687,0.06113354116678238],[0.15593945980072021,0.12948164343833923,0.2108800709247589,0.029569892212748528,-0.07355447113513947,-0.13161438703536987,0.1954278200864792,0.18993906676769257,-0.044542454183101654,-0.02888987958431244,-0.17511816322803497,0.16514258086681366,0.27162331342697144,-0.10524600744247437,0.017819859087467194,0.13587357103824615,0.08468905836343765,-0.05242359638214111,-0.20138272643089294,-0.0009890742367133498,0.06565479189157486,-0.10796629637479782,0.09188193082809448,0.08336841315031052,0.12560713291168213,-0.06944677978754044,-0.12954965233802795,0.12011060118675232,0.02679646573960781,0.11218323558568954,0.5023916363716125,0.07854937016963959,-0.040202878415584564,-0.18423782289028168,-0.05880269035696983,-0.01869882456958294,0.5436733961105347,0.031027205288410187,-0.12257173657417297,-0.08522592484951019,-0.0037198851350694895,-0.01234208233654499,0.2853357493877411,0.024796651676297188,-0.059900205582380295,-0.03184271976351738,0.039574578404426575,-1.8748029106063768e-05,0.20953507721424103,-0.0867919921875,-0.045331209897994995,0.009117419831454754,0.12871845066547394,-0.1170649379491806,-0.37564751505851746,0.0694161206483841,-0.026054387912154198,0.03431260585784912,0.04724979028105736,-0.07033694535493851,-0.05957059562206268],[0.05174820125102997,-0.08096431940793991,0.038786500692367554,0.1636989563703537,0.21529242396354675,-0.08040906488895416,0.1658504605293274,-0.4856134355068207,-0.2375289648771286,-0.06907054036855698,-0.1138211265206337,0.34639325737953186,-0.06142497435212135,0.03263234347105026,0.04269916191697121,0.03797004744410515,0.102900929749012,-0.03566955029964447,-0.11948604136705399,-0.0382603257894516,-0.03176502510905266,-0.013715031556785107,-0.030880002304911613,-0.026761434972286224,-0.10707628726959229,-0.033657144755125046,0.1520291268825531,0.21049253642559052,-0.13355910778045654,0.13518498837947845,0.01767631620168686,0.014629087410867214,0.06096242368221283,-0.05044873431324959,-0.08349896967411041,0.13694347441196442,-0.44849181175231934,-0.09059000760316849,0.016677888110280037,-0.02538011409342289,-0.014919755980372429,-0.09344062209129333,-0.09283993393182755,0.1805523931980133,0.11323115974664688,-0.000521037436556071,0.04716399684548378,-0.02277327887713909,-0.10740829259157181,-0.16507570445537567,-0.010205456987023354,-0.024406611919403076,-0.01271037943661213,-0.08456811308860779,0.35602134466171265,-0.18593016266822815,0.14326082170009613,0.16279146075248718,0.0762040913105011,-0.02317904494702816,-0.09651016443967819],[0.0027719971258193254,0.08084454387426376,0.10446933656930923,-0.18819750845432281,-0.056550972163677216,-0.025628527626395226,-0.12980835139751434,0.4746580421924591,-0.0290058683604002,-0.07366380840539932,0.22853246331214905,-0.38756653666496277,0.05572274327278137,0.04068620502948761,0.06521174311637878,0.15958748757839203,0.042053040117025375,0.011872709728777409,0.09293827414512634,0.20269647240638733,-0.04476108029484749,-0.0035651936195790768,0.09289541095495224,0.3401763439178467,-0.018632370978593826,0.02922644466161728,0.06606056541204453,0.4608882963657379,-0.015107911080121994,-0.0013532850425690413,1.4644334316253662,-0.01013033464550972,0.040217719972133636,-0.2102668136358261,-0.0275831688195467,0.009776371531188488,0.6624608039855957,0.03427475318312645,0.009723876602947712,-0.39196375012397766,-0.024312565103173256,-0.018163004890084267,0.31627294421195984,-0.0348336361348629,-0.024751883000135422,-0.09845311939716339,-0.009085402823984623,-0.01819063350558281,0.293535053730011,0.0025615752674639225,-0.009751861914992332,-0.10215014219284058,0.03536682575941086,0.017196105793118477,-0.008837617002427578,0.04015709459781647,0.00034022334148176014,-0.15196460485458374,-0.00022483001521322876,-0.03357117995619774,0.02729411981999874],[0.04893789440393448,0.1220838725566864,0.03742055967450142,-0.07858245074748993,0.05275202915072441,-0.28911444544792175,0.25469207763671875,-0.15539811551570892,0.04833492636680603,0.2411801666021347,-0.1801169365644455,0.13540764153003693,0.08543404936790466,0.1647777110338211,-0.04533006250858307,0.12426995486021042,0.08004022389650345,0.05240163579583168,0.1627652496099472,0.19106021523475647,-0.02971145324409008,0.007142231334000826,-0.043589528650045395,0.18007491528987885,0.11276556551456451,0.022340422496199608,-0.002503595780581236,0.3462947607040405,0.11156028509140015,0.07688937336206436,-0.4733733832836151,0.0037929662503302097,0.0003785456356126815,0.10924416780471802,-0.02924344129860401,-0.0867253914475441,-0.05012662336230278,0.12792183458805084,0.0736745148897171,-0.026285823434591293,-0.013190916739404202,-0.0008371036383323371,-0.08372166007757187,-0.02321847900748253,-0.04291849583387375,0.12021033465862274,0.04063985124230385,-0.02225257083773613,-0.22903023660182953,0.02580241672694683,0.033705178648233414,-0.18180684745311737,-0.026272978633642197,0.018785422667860985,0.1998749077320099,0.0027621982153505087,0.026666011661291122,0.16033494472503662,-0.032429251819849014,0.08360165357589722,0.06696170568466187],[0.17788968980312347,-0.0010075700702145696,-0.2532370686531067,-0.1059543713927269,-0.02206333354115486,-0.06838046759366989,-0.0382268987596035,0.12090450525283813,-0.10506079345941544,0.0814887285232544,0.14339402318000793,0.02494637854397297,-0.021738698706030846,0.0845944955945015,0.11757027357816696,-0.08092464506626129,0.006450981833040714,0.10634463280439377,-0.055647626519203186,-0.10133850574493408,-0.10555820912122726,0.01911855675280094,0.2250920534133911,-0.07103656977415085,-0.044820383191108704,0.020118027925491333,0.046625811606645584,-0.08884928375482559,-0.08892185986042023,-0.005165613256394863,-0.3413369655609131,0.015431434847414494,-0.021991170942783356,0.01607559248805046,0.11311965435743332,0.08233892172574997,-0.3959248661994934,0.0540623739361763,-0.11862699687480927,0.11027407646179199,-0.047039080411195755,-0.01552561204880476,-0.5855598449707031,0.20409011840820312,-0.041492048650979996,0.09553104639053345,0.1361875683069229,-0.044283512979745865,-0.5757707953453064,0.104714035987854,-0.0842704176902771,0.01698393188416958,-0.13559174537658691,-9.50659450609237e-05,-0.011255629360675812,-0.01871529221534729,-0.05267598479986191,0.060505617409944534,0.029277386143803596,-0.05416351929306984,-0.07654538005590439],[-0.16895976662635803,-0.17787791788578033,-0.050252389162778854,0.10523945838212967,0.09038843214511871,-0.055274270474910736,-0.10901021957397461,0.11297811567783356,-0.025860346853733063,0.03639809042215347,0.017223315313458443,-0.04945491999387741,0.03502913936972618,0.03970867767930031,0.13841530680656433,-0.013993886299431324,0.04163646697998047,-0.06026115268468857,0.0013066712999716401,-0.1240776851773262,0.07828275114297867,-0.07819394767284393,0.2812965512275696,-0.020997587591409683,0.054644618183374405,0.04023619368672371,0.08320657908916473,-0.1459917426109314,-0.03717946261167526,0.038145117461681366,0.1035514697432518,-0.12518435716629028,0.07081744074821472,0.20186100900173187,-0.11581458151340485,0.03875226154923439,0.33194202184677124,-0.041657704859972,0.00022922821517568082,0.1504160612821579,-0.04923604801297188,0.04983380809426308,-0.08799058198928833,0.0320000946521759,-0.016621287912130356,0.1608615666627884,0.025971125811338425,-0.03348362445831299,-0.05376347899436951,0.05839363485574722,0.049717120826244354,0.18673229217529297,0.24428261816501617,-0.03782212734222412,0.10850539803504944,-0.031771402806043625,0.1016135960817337,0.0736970528960228,-0.11630551517009735,-0.11157157272100449,0.08135891705751419],[-0.001489999471232295,-0.08013219386339188,-0.09063596278429031,0.014756184071302414,0.020380888134241104,-0.04133683815598488,0.06614827364683151,-0.3915373384952545,0.08945036679506302,-0.15555812418460846,-0.04856975004076958,-0.26231345534324646,-0.015713850036263466,0.04964868724346161,-0.0564902164041996,0.17286032438278198,0.010647098533809185,0.17413677275180817,0.1582283228635788,0.3254278004169464,0.08655967563390732,0.10580821335315704,0.03565366193652153,0.2432338297367096,-0.023112323135137558,-0.003294190391898155,-0.198048397898674,0.2361418902873993,-0.19207383692264557,0.18665651977062225,0.4112124443054199,0.07981280982494354,0.01370168849825859,-0.2383882999420166,-0.028331022709608078,-0.08299680799245834,0.38063183426856995,-0.021995440125465393,0.10565739125013351,-0.004536411724984646,0.018240148201584816,0.011191846802830696,0.6949615478515625,0.0044466047547757626,-0.010491720400750637,-0.19847044348716736,0.02548520639538765,0.03591375797986984,0.5426350235939026,-0.012850210070610046,-0.0015263045206665993,-0.18409357964992523,0.009361893869936466,-0.02737276628613472,0.06809332966804504,0.027127571403980255,0.031513236463069916,-0.04746447876095772,-0.04984244704246521,0.01860601268708706,-0.031067566946148872],[0.10379113256931305,0.11121932417154312,0.0022919343318790197,0.04688778147101402,0.03267554193735123,-0.3421369194984436,0.08749721944332123,-0.12374574691057205,-0.11757184565067291,-0.01847943663597107,0.052857283502817154,-0.05231710523366928,-0.007705174386501312,0.12839557230472565,0.08448895812034607,0.23378537595272064,-0.049498140811920166,0.09144552052021027,0.10582928359508514,0.05335405096411705,-0.0780363455414772,0.07971102744340897,0.08235886693000793,-0.07125739008188248,0.05688736215233803,0.03047548048198223,-0.1290961503982544,-0.09803848713636398,0.0838584303855896,-0.0026685993652790785,1.2789865732192993,0.03447015583515167,0.0589158870279789,-0.30517667531967163,-0.01674720272421837,-0.04797127842903137,0.8426814079284668,0.11381345987319946,0.06737338751554489,-0.1307971477508545,0.018524307757616043,0.013967766426503658,0.47009143233299255,-0.07773197442293167,0.011393250897526741,0.15911392867565155,-0.03194426745176315,-0.013922538608312607,0.3986488878726959,0.020802538841962814,-0.020602894946932793,0.03347945213317871,0.12987969815731049,0.10080727189779282,0.08950337767601013,0.020774157717823982,0.031952548772096634,0.05260468274354935,-0.05564358830451965,0.03864859789609909,-0.03686308115720749],[0.039002228528261185,0.054474372416734695,0.029680762439966202,0.1258006989955902,0.020376794040203094,-0.00915681291371584,-0.21151667833328247,-0.09029102325439453,0.042275622487068176,-0.05767202377319336,0.19560213387012482,0.02172235958278179,0.007687824312597513,-0.14033913612365723,0.18944725394248962,0.01820317469537258,-0.020758667960762978,-0.07141917943954468,-0.017158126458525658,-0.049833744764328,0.025309789925813675,-0.010988998226821423,0.15500402450561523,0.03549651429057121,0.02571767568588257,-0.14269647002220154,0.1841089129447937,-0.12978051602840424,0.047163479030132294,-0.05226116254925728,0.16892971098423004,-0.04227374494075775,-0.07722692936658859,-0.0710459053516388,0.022847259417176247,-0.049283791333436966,0.27194762229919434,0.023899033665657043,-0.07519332319498062,-0.018998488783836365,0.014486865140497684,-0.024500736966729164,0.031999923288822174,0.035923246294260025,0.067733533680439,0.11067786067724228,-0.04454221948981285,0.00848327111452818,0.1531173437833786,0.13254979252815247,-0.007338917348533869,-0.1346011757850647,-0.1408672034740448,0.007831071503460407,-0.10314281284809113,0.16683056950569153,-0.08075994998216629,-0.16115346550941467,-0.015672991052269936,-0.019391655921936035,-0.0034511778503656387],[-0.018764741718769073,-0.07969195395708084,0.024127384647727013,-0.14090286195278168,0.06408640742301941,-0.14476478099822998,0.13523288071155548,-0.19720064103603363,-0.07423832267522812,-0.05082416534423828,-0.28250178694725037,0.08962084352970123,-0.042427025735378265,-0.10618890821933746,0.04812142252922058,0.02153724990785122,-0.0029890944715589285,0.17135943472385406,-0.03650398179888725,0.05795037001371384,0.15798918902873993,-0.03549807518720627,-0.024592865258455276,0.08558627218008041,0.177789106965065,0.07095997035503387,-0.027721932157874107,-0.11339087784290314,0.17978881299495697,0.0805417075753212,-0.48235756158828735,-0.13541193306446075,0.06184307858347893,0.06724338233470917,-0.015057045966386795,-0.015913870185613632,-0.37717193365097046,-0.1814417839050293,0.040078941732645035,0.12033791095018387,-0.028943976387381554,-0.0722258910536766,-0.23229652643203735,0.020033810287714005,0.08956748992204666,-0.14119823276996613,0.11269563436508179,-0.09688593447208405,-0.3925381898880005,0.09838952124118805,0.01754026673734188,0.19287213683128357,0.12008257210254669,-0.058834780007600784,0.19865277409553528,0.2228037565946579,-0.025772886350750923,-0.034188948571681976,-0.15657684206962585,0.05795011669397354,0.005852192640304565],[-0.013945179060101509,-0.04764658585190773,-0.0875360295176506,0.007004191167652607,-0.14151480793952942,0.11131783574819565,-0.318515419960022,-0.024345776066184044,-0.076945960521698,0.045013513416051865,0.2606029808521271,-0.1429520845413208,0.019921723753213882,-0.03248872980475426,0.17970943450927734,-0.14870816469192505,-0.061831697821617126,-0.05864623561501503,0.12762558460235596,0.0008466493454761803,0.05389341711997986,-0.014919715002179146,0.24294328689575195,-0.0014621183509007096,-0.01233225129544735,-0.03252430632710457,0.18154199421405792,-0.11152932047843933,0.06139972433447838,-0.07101726531982422,0.16134847700595856,0.04841173067688942,0.087810218334198,0.1590481400489807,0.005466302391141653,0.055750295519828796,-0.15943914651870728,-0.04322099685668945,0.07563774287700653,-0.06651756912469864,-0.03397440165281296,0.04707105830311775,0.12236816436052322,0.08604323863983154,-0.004775109700858593,-0.0573088638484478,0.0875556468963623,-0.054453060030937195,-0.07067038118839264,0.11813899874687195,0.08085218816995621,-0.02405872568488121,-0.4276140034198761,-0.1180063784122467,-0.16417163610458374,-0.06872661411762238,0.09248036891222,0.1109129786491394,-0.0037863627076148987,-0.02374413050711155,0.08556073904037476],[0.013098189607262611,-0.03358297795057297,-0.0308730099350214,-0.26843419671058655,0.0014758349861949682,0.13684619963169098,0.1662876158952713,0.6788530945777893,-0.007143884431570768,-0.06338774412870407,0.00939184706658125,-0.20143669843673706,-0.00465603219345212,0.020572103559970856,0.0015376838855445385,-0.12191728502511978,-0.028357068076729774,0.020703263580799103,-0.020813392475247383,-0.031448863446712494,0.005120642948895693,-0.021704627200961113,0.024374637752771378,0.025944218039512634,0.020502429455518723,-0.002722540870308876,0.043605413287878036,0.19834306836128235,0.07763027399778366,-0.02772453799843788,-0.13861316442489624,0.002685347804799676,-0.06873354315757751,-0.015559001825749874,-0.006795622408390045,-0.037460438907146454,-0.3473391532897949,0.056548088788986206,-0.05944108963012695,-0.05716108903288841,-0.02280322276055813,-0.11783197522163391,-0.7257834076881409,-0.0029312141705304384,-0.06367681920528412,0.017362885177135468,0.03622066229581833,-0.07028736919164658,-0.6177736520767212,-0.07891220599412918,-0.03882395103573799,0.021105395630002022,-0.024748455733060837,-0.02150258980691433,0.25150641798973083,-0.08847853541374207,-0.20855499804019928,0.16090351343154907,-0.10102369636297226,-0.08983568847179413,-0.002429300919175148],[-0.05936671420931816,0.08492009341716766,-0.00577320484444499,0.06627530604600906,-0.2934797704219818,0.22794675827026367,-0.020038502290844917,-0.13316969573497772,-0.07265806943178177,0.02654736302793026,0.04741349443793297,0.15980087220668793,-0.08472000807523727,0.059252526611089706,0.017868390306830406,-0.21379069983959198,-0.12593276798725128,0.09935508668422699,0.14630576968193054,-0.14020340144634247,-0.028682244941592216,0.12420770525932312,0.10789311677217484,-0.1269017904996872,-0.08395383507013321,0.0774361789226532,0.025571107864379883,-0.058794163167476654,0.1906229555606842,-0.01099397987127304,-0.6094709038734436,-0.0012497088173404336,0.030518336221575737,0.07880557328462601,0.022851677611470222,0.06950560212135315,-0.4597335755825043,-0.029862040653824806,0.0660359114408493,0.10507398843765259,-0.0003713876358233392,0.04653441160917282,-0.5079317688941956,-0.07151435315608978,-0.08062713593244553,0.2040129452943802,-0.05331765115261078,-0.048415374010801315,-0.4762868881225586,0.07844915986061096,0.02680116519331932,-0.07452726364135742,-0.0400686040520668,0.1305636465549469,0.23905503749847412,-0.009684315882623196,-0.08152168244123459,-0.0644945353269577,0.06151435896754265,0.006266046315431595,-0.10706674307584763],[-0.13639584183692932,0.06193702667951584,0.11691775918006897,-0.05060620978474617,-0.16266486048698425,0.15274938941001892,0.11974750459194183,0.03871231526136398,-0.10880143940448761,0.019885750487446785,-0.005987437441945076,0.01959231309592724,0.08552283048629761,-0.1301398128271103,0.22636626660823822,-0.08456610888242722,-0.01818658784031868,-0.08418692648410797,0.001246914267539978,0.09411054104566574,0.11201554536819458,0.1265820860862732,-0.049759745597839355,0.14500388503074646,0.05063274875283241,-0.03492256999015808,-0.06756455451250076,0.10245275497436523,-0.0948425754904747,0.09046119451522827,0.2113751918077469,-0.08092256635427475,0.05325809121131897,0.0019740709103643894,0.014742905274033546,0.07975012063980103,0.18608716130256653,0.025968927890062332,-0.05242583900690079,-0.22155383229255676,0.06154666841030121,-0.015853438526391983,0.5985209345817566,0.009108396247029305,0.006511290557682514,-0.13464580476284027,0.08577805757522583,-0.05293165147304535,0.3006060719490051,0.08909313380718231,-0.04243742302060127,-0.03432512655854225,0.010400744155049324,-0.06899170577526093,0.3678019046783447,-0.1401376575231552,0.2336045354604721,-0.08852577954530716,0.06651826202869415,-0.06932391971349716,0.03085310384631157],[0.19637715816497803,0.06932932138442993,0.026083264499902725,-0.17993280291557312,-0.03898172825574875,0.20322637259960175,0.18628768622875214,0.4743594527244568,0.08671928197145462,-0.19080570340156555,-0.23145213723182678,-0.1769447773694992,-0.031188562512397766,-0.05966249108314514,0.01910637691617012,-0.09775780141353607,0.04832525923848152,-0.10058862715959549,0.09064403176307678,0.08858155459165573,0.12517520785331726,-0.09416024386882782,-0.013075954280793667,0.2452803999185562,0.04456362873315811,-0.06888224184513092,-0.0746999979019165,0.16398750245571136,0.0017344647785648704,-0.13249140977859497,-0.02092178352177143,0.038319870829582214,-0.13557668030261993,0.05581572279334068,-0.10510794073343277,0.09297949075698853,0.044065866619348526,-0.18051299452781677,0.10842027515172958,0.09193006157875061,0.09502194821834564,0.07112807780504227,0.12688124179840088,-0.048718228936195374,-0.09965471178293228,0.026851527392864227,-0.0037254933267831802,0.025906866416335106,-0.14636175334453583,-0.030945023521780968,0.08287350088357925,0.01686062477529049,0.06247752532362938,-0.022026751190423965,0.04652489349246025,0.019522303715348244,0.14598596096038818,-0.004875154234468937,-0.11202312260866165,-0.08959881216287613,-0.06656445562839508],[0.16927990317344666,0.3035898804664612,0.2430904060602188,0.21773505210876465,-0.0756755992770195,0.05460559204220772,0.1794547587633133,-0.5612196326255798,-0.020839562639594078,-0.034581590443849564,0.07556141167879105,-0.08439020067453384,0.02856866829097271,0.01722211018204689,-0.062446728348731995,0.06502125412225723,-0.0005435844650492072,0.024968158453702927,-0.07714392244815826,0.10634627193212509,-0.01903044804930687,-0.0007222823332995176,0.01971442997455597,-0.02246309071779251,0.0323350764811039,0.055768609046936035,-0.0013320362195372581,0.11980725079774857,-0.034853771328926086,-0.04778393357992172,1.3288310766220093,0.0096645038574934,0.028050661087036133,-0.3786172866821289,-0.043523386120796204,-0.03977474197745323,0.6273757219314575,-0.026753561571240425,-0.009942307136952877,-0.2182212769985199,0.02174026519060135,-0.05002306029200554,0.4029265344142914,-0.04568934440612793,0.007714199833571911,-0.1720249056816101,0.009897072799503803,-0.00140701187774539,0.18267251551151276,-0.038590431213378906,0.05242925509810448,0.10515853762626648,0.01858554594218731,0.03669485077261925,-0.07436353713274002,0.041536591947078705,-0.03296086937189102,0.14666390419006348,0.0039297351613640785,-0.019180605188012123,-0.022379212081432343],[-0.10010893642902374,-0.007179524749517441,-0.08672301471233368,-0.2428036630153656,-0.015891211107373238,-0.08058173954486847,0.055375032126903534,-0.060107216238975525,-0.08729910850524902,-0.04381664842367172,0.04872145131230354,0.1656462550163269,0.19201089441776276,0.19508317112922668,0.08421482145786285,0.2064189612865448,0.10872165113687515,-0.10110962390899658,0.04786761850118637,0.23602326214313507,0.10522615164518356,0.00409011822193861,-0.13646933436393738,0.014362070709466934,0.0950927585363388,0.13120141625404358,-0.12975773215293884,-0.3384263217449188,-0.0045929718762636185,-0.06978636234998703,-0.6473895311355591,0.015331770293414593,0.12500669062137604,0.06389804929494858,0.10899617522954941,0.07963311672210693,-0.5681442618370056,0.026636561378836632,-0.017792463302612305,0.12683822214603424,0.051346443593502045,-0.07666133344173431,-0.5851282477378845,-0.030425406992435455,-0.026652729138731956,-0.07913270592689514,0.004672938957810402,-0.07960804551839828,-0.16494786739349365,0.04102617874741554,0.046532291918992996,-0.10155334323644638,0.024158207699656487,0.08234398812055588,-0.2775562107563019,0.16134858131408691,0.08289244771003723,0.05024435371160507,-0.000564834161195904,0.060383547097444534,-0.14176714420318604],[-0.12877091765403748,-0.08596204221248627,-0.01971261389553547,0.22505024075508118,-0.09868605434894562,0.015206113457679749,0.031427208334207535,0.36195093393325806,-0.13638418912887573,-0.03373238071799278,-0.019392671063542366,-0.14023429155349731,-0.02638995088636875,-0.07581581920385361,-0.09504999965429306,-0.3267021179199219,-0.03754306584596634,-0.026998445391654968,0.03982137516140938,-0.309996634721756,-0.0317443422973156,-0.047674279659986496,-0.11321626603603363,-0.12128262221813202,-0.04279996454715729,0.006698637269437313,-0.02232411690056324,0.02045595273375511,0.16879203915596008,-0.052429936826229095,-0.09985388070344925,0.11340231448411942,-0.10882101207971573,0.024328108876943588,0.08851532638072968,0.11629480123519897,-0.29002344608306885,0.00915006548166275,-0.0759119987487793,0.006962236948311329,0.055617738515138626,-0.0031413387041538954,-0.2669702172279358,0.1335395723581314,-0.1140587106347084,0.08504803478717804,0.05901322886347771,-0.0053524961695075035,-0.32727909088134766,0.1631496548652649,-0.03950359672307968,0.13300615549087524,0.053451359272003174,0.02483380027115345,0.029414042830467224,0.060854651033878326,0.06871844828128815,0.02488907426595688,-0.021376745775341988,-0.032856378704309464,-0.06981466710567474],[-0.0678798258304596,0.024644136428833008,0.09356564283370972,-0.017191966995596886,-0.08571376651525497,0.06807255744934082,0.23181860148906708,0.10860151797533035,-0.06360000371932983,-0.24086080491542816,-0.10967150330543518,-0.16449853777885437,-0.06955643743276596,-0.1590857058763504,-0.19522050023078918,-0.008700218982994556,0.019810693338513374,-0.08639264851808548,-0.1710709184408188,0.16022685170173645,0.051103442907333374,-0.09036288410425186,-0.11920059472322464,-0.10314390063285828,0.04364889860153198,-0.03601386398077011,-0.08412209898233414,0.2230844348669052,-0.0442710742354393,0.11418627947568893,-0.41345086693763733,-0.012698245234787464,-0.13636213541030884,0.12353464215993881,-0.038516975939273834,-0.0028735024388879538,-0.1335257589817047,0.09094183892011642,0.045598309487104416,0.061909452080726624,0.004432974848896265,0.019145503640174866,-0.4653138816356659,0.016325948759913445,0.027911078184843063,0.03157225623726845,0.011411480605602264,-0.010867689736187458,-0.232870951294899,0.046310942620038986,0.07862622290849686,0.06693901121616364,0.0543489009141922,0.11064621061086655,0.38547658920288086,0.040473952889442444,0.10029430687427521,0.06829999387264252,0.0314827635884285,0.08127674460411072,-0.011442222632467747],[-0.015410770662128925,-0.09592486917972565,-0.20111824572086334,0.13699491322040558,0.09942919760942459,-0.12253723293542862,-0.09825311601161957,0.26683247089385986,0.014256948605179787,0.0661141499876976,0.043067410588264465,0.013508451171219349,-0.07733871787786484,-0.004053047858178616,-0.03674881160259247,0.09855493158102036,-0.0750204473733902,0.005076838191598654,-0.0049089412204921246,-0.019064651802182198,0.02259085141122341,0.046864621341228485,0.022066647186875343,-0.008550385944545269,0.035289693623781204,-0.037009548395872116,-0.1370164155960083,0.019191375002264977,0.13384142518043518,0.18918447196483612,0.6697672605514526,0.058059871196746826,-0.22498251497745514,-0.008937422186136246,0.05168411135673523,0.11400891840457916,0.32223907113075256,0.04803542420268059,0.0007503724773414433,-0.009661257266998291,-0.03249596431851387,-0.053380779922008514,0.19365105032920837,0.05564313754439354,0.04937616363167763,-0.02572411671280861,-0.022516073659062386,-0.011793375015258789,0.2179262936115265,-0.03514162078499794,0.14118467271327972,0.2511110007762909,-0.09427426010370255,0.37101587653160095,-0.1106947734951973,0.08273463696241379,-0.11289512366056442,-0.047798823565244675,-0.03582960367202759,-0.06391437351703644,-0.15240447223186493],[-0.03861698508262634,-0.046083878725767136,0.1516069918870926,0.006453775800764561,-0.01563834398984909,-0.06927081197500229,0.14759507775306702,-0.26221713423728943,0.05977590009570122,0.024495640769600868,0.04183812811970711,0.08813507109880447,0.1502048671245575,0.10929585248231888,-0.021052036434412003,-0.024312127381563187,-0.17684201896190643,-0.033558569848537445,-0.16514572501182556,-0.07929572463035583,0.06339532881975174,-0.1012820228934288,0.06653232127428055,-0.1758585423231125,0.09053649008274078,-0.16449402272701263,-0.24072974920272827,0.07505744695663452,-0.055337172001600266,-0.15091988444328308,-0.5277531743049622,-0.05633833259344101,0.06932637095451355,-0.05766779184341431,-0.10138792544603348,0.06999336183071136,-0.4949311912059784,0.17555907368659973,0.08735430985689163,0.12208592146635056,-0.04328787699341774,0.052177172154188156,-0.38242456316947937,0.2087058126926422,-0.024324214085936546,0.09226500988006592,0.0876794084906578,0.08920112252235413,-0.29654037952423096,0.05332913622260094,0.09670857340097427,0.09934508800506592,-0.023569095879793167,0.049369510263204575,0.3381430506706238,-0.0807826891541481,0.11159154027700424,-0.0674193948507309,-0.08773046731948853,0.00677914172410965,-0.04907701164484024],[0.2156783640384674,-0.05421732738614082,0.10493558645248413,-0.05738718435168266,-0.23678813874721527,-0.22885073721408844,0.13876041769981384,0.1138068288564682,0.09886328876018524,0.046253181993961334,-0.14861178398132324,0.04508570209145546,0.06340651959180832,0.11045091599225998,-0.01445091050118208,-0.07653501629829407,0.108702152967453,-0.052776772528886795,-0.12293819338083267,-0.10690601170063019,0.06941711902618408,0.055181074887514114,-0.2292325496673584,-0.28829994797706604,0.048896949738264084,-0.006111443508416414,0.13344711065292358,-0.030835658311843872,-0.008566221222281456,-0.015006273053586483,0.03345596790313721,0.08291617780923843,-0.024621769785881042,-0.07991757988929749,-0.041817694902420044,-0.17411330342292786,0.21031253039836884,-0.04947933554649353,0.043855663388967514,-0.17711232602596283,-0.05115301534533501,-0.06928926706314087,0.17003197968006134,0.026421017944812775,0.05589938536286354,-0.006041684187948704,-0.06390400975942612,0.04405984655022621,-0.1831364780664444,-0.023089271038770676,-0.022792378440499306,0.04805253446102142,0.03721687197685242,-0.048583850264549255,-0.06423372775316238,0.03598100692033768,-0.03547145053744316,-0.18173804879188538,-0.04481915384531021,-0.04338548704981804,0.07035461068153381],[-0.1322031319141388,0.059448860585689545,-0.0398627445101738,0.0016689267940819263,0.09598622471094131,-0.1415199190378189,0.004820645321160555,0.10197180509567261,-0.007260337006300688,-0.02890297956764698,0.1583256870508194,-0.04483480378985405,-0.02027667686343193,-0.022971071302890778,-0.06840830296278,0.012328187003731728,0.031357113271951675,-0.06047522649168968,-0.037369031459093094,-0.059605155140161514,0.04277654364705086,-0.038515154272317886,0.20794039964675903,0.10156616568565369,0.08872463554143906,-0.04727485403418541,0.03872022032737732,-0.16706909239292145,-0.14936600625514984,0.049258675426244736,-0.1794060915708542,-0.10494015365839005,0.10006722807884216,0.015845948830246925,-0.0025445669889450073,0.016629276797175407,0.14755767583847046,0.011186431162059307,-0.09814497828483582,0.05439550429582596,-0.019377348944544792,-0.014912651851773262,0.038051947951316833,0.04403848573565483,0.010386019013822079,0.0632459968328476,-0.07352286577224731,-0.02963212877511978,0.0545041561126709,-0.021272586658596992,0.005196369718760252,-0.0654391497373581,-0.5427631735801697,0.09633638709783554,0.1531863510608673,0.013522508554160595,0.13151103258132935,-0.11976106464862823,-0.0285763218998909,0.0218083243817091,-0.04227493703365326],[-0.026796109974384308,0.09896591305732727,0.008331435732543468,0.15723104774951935,-0.027715319767594337,-0.07023325562477112,0.19428732991218567,0.21305814385414124,-0.06308583915233612,-0.08387665450572968,-0.06883102655410767,-0.012177507393062115,0.02388244867324829,-0.11697246134281158,-0.13780030608177185,-0.0891864225268364,0.001193724456243217,-0.06259741634130478,0.02655743435025215,-0.3187895715236664,-0.013757498003542423,-0.006804141215980053,-0.17044039070606232,-0.3922522962093353,-0.011940832249820232,-0.057423535734415054,-0.09161794185638428,-0.18263103067874908,0.007603562902659178,0.2133532017469406,-0.32249993085861206,-0.07779251784086227,0.06911355257034302,0.15211713314056396,-0.05697500333189964,-0.03205610066652298,0.1577097773551941,-0.01649460382759571,-0.041311152279376984,0.06969325989484787,-0.029121795669198036,-0.0341552309691906,0.030281078070402145,-0.07415927201509476,-0.001997923944145441,0.04397173970937729,-0.00494412099942565,0.043206360191106796,0.4006209969520569,-0.021783575415611267,-0.11490258574485779,0.06034459173679352,-0.0022422224283218384,0.045838210731744766,-0.06794467568397522,-0.03872072696685791,-0.011165175586938858,-0.037055037915706635,-0.01753677800297737,0.009173732250928879,-0.06223530322313309],[-0.32539671659469604,-0.14879187941551208,-0.24895410239696503,-0.19156965613365173,-0.009389002807438374,-0.003008417319506407,-0.15757536888122559,0.6800615191459656,-0.0031209152657538652,-0.052368659526109695,-0.08934280276298523,-0.10839291661977768,0.024107735604047775,0.007893890142440796,-0.03620414063334465,0.15682385861873627,-0.01613803580403328,0.0021366055589169264,-0.026163186877965927,0.336590051651001,-0.009350687265396118,-0.00024227178073488176,0.14048504829406738,0.3713736832141876,0.0073898606933653355,0.02141532674431801,0.12119413167238235,0.6939183473587036,-0.02064831182360649,0.0068145268596708775,-0.6209347248077393,-0.012597513385117054,0.020940937101840973,0.10746359825134277,-0.01987951062619686,0.03163382038474083,-0.2910726070404053,-0.001516479765996337,0.0012304000556468964,0.08610481023788452,0.002222934039309621,0.007200183346867561,-0.19382625818252563,0.002042908687144518,0.02952641248703003,-0.1652303785085678,-0.0020595237147063017,0.003902878612279892,-0.10361996293067932,0.0009643058874644339,0.004140091594308615,-0.0655059739947319,0.02165820077061653,0.0003402520960662514,0.15195007622241974,-0.01132930163294077,-0.0056790863163769245,-0.04376743733882904,-0.011880907230079174,-0.02920933999121189,-0.024685464799404144],[0.1394394189119339,0.09985937923192978,-0.057952914386987686,-0.016123810783028603,-0.08263348788022995,-0.13584670424461365,-0.12749269604682922,-0.3083609342575073,-0.0874909907579422,-0.11066363006830215,-0.06078149378299713,-0.07262154668569565,-0.05831116810441017,-0.10367554426193237,0.11412839591503143,-0.14754962921142578,-0.09308455139398575,-0.12106578797101974,0.11090443283319473,0.018562424927949905,-0.0744892954826355,-0.015528826974332333,0.20424413681030273,0.05150661990046501,-0.042652711272239685,-0.037280548363924026,0.08453785628080368,-0.06622292101383209,-0.014721709303557873,0.021924607455730438,0.202428936958313,0.024775752797722816,-0.041010692715644836,-0.065313920378685,-0.026727885007858276,0.07693507522344589,0.07432572543621063,0.009559184312820435,0.06603529304265976,-0.03534793108701706,0.0051575941033661366,-0.06442661583423615,-0.11796162277460098,0.12770803272724152,0.037044771015644073,-0.02808324247598648,-0.02126295119524002,-0.029027389362454414,0.30770647525787354,0.09356530010700226,0.030593033879995346,0.03414798527956009,-0.35180941224098206,0.28628548979759216,-0.06296797841787338,-0.10056833922863007,-0.019041528925299644,-0.14021411538124084,-0.04221701622009277,-0.03827633708715439,-0.08542074263095856],[0.1797654628753662,-0.009224098175764084,0.09817668795585632,0.008244102820754051,-0.11516682058572769,-0.009200887754559517,0.08006834983825684,-0.05034789443016052,0.12273294478654861,0.03472050279378891,-0.2313331663608551,-0.05237013101577759,0.025691596791148186,-0.04910684749484062,-0.04679759591817856,-0.07623207569122314,0.018163982778787613,-0.028332600370049477,-0.1353888362646103,-0.05859123542904854,0.03372657299041748,-0.0010554781183600426,-0.12829697132110596,0.15301959216594696,0.03869050741195679,0.10761228948831558,-0.09815048426389694,0.44089430570602417,-0.045179951936006546,0.11098466068506241,-0.2205153852701187,0.10953688621520996,0.0862218514084816,0.018941892310976982,-0.0647924542427063,-0.08893398195505142,-0.15335102379322052,0.1198013424873352,0.10420478135347366,0.042163413017988205,-0.007527672220021486,0.04235435649752617,-0.05749727040529251,0.14617078006267548,0.05311485007405281,0.052876535803079605,-0.037012699991464615,-0.049417249858379364,0.03589516505599022,0.09161121398210526,0.06058996915817261,-0.030495330691337585,-0.12673857808113098,-0.13220477104187012,0.11098065227270126,-0.11007246375083923,0.15570278465747833,0.052933644503355026,-0.08717722445726395,0.0016279168194159865,0.050392720848321915],[0.09991089999675751,0.010296688415110111,-0.16294555366039276,0.0556202232837677,0.043732188642024994,-0.06480032950639725,0.047240834683179855,-0.28029364347457886,0.11197471618652344,-0.1753222495317459,0.08619112521409988,0.011190134100615978,0.12389277666807175,-0.06125839799642563,0.09712226688861847,0.07169143855571747,0.0306463073939085,-0.1253719925880432,0.039523109793663025,-0.023254690691828728,-0.09391309320926666,-0.02801746502518654,0.1811997890472412,-0.008599119260907173,-0.01363672036677599,-0.030027667060494423,0.11560457944869995,-0.32328924536705017,0.04503175988793373,0.07418583333492279,0.11118582636117935,0.028232861310243607,-0.03590388968586922,0.15494823455810547,0.056753840297460556,0.09266872704029083,0.1805916279554367,0.10886064171791077,0.014579757116734982,-0.12427457422018051,-0.027775105088949203,0.07199761271476746,0.2150583565235138,0.06248321384191513,0.07937358319759369,0.05459361523389816,-0.07786841690540314,-0.024270180612802505,0.24285835027694702,-0.007164345122873783,0.12894423305988312,0.032878052443265915,0.04553698003292084,-0.11685047298669815,-0.17723654210567474,0.037441786378622055,-0.11179512739181519,-0.05075674504041672,-0.17874358594417572,0.025051552802324295,-0.07337227463722229],[0.34819647669792175,-0.07772421836853027,0.02758616767823696,0.1930803805589676,-0.02330796979367733,-0.02841350995004177,-0.04386470466852188,-0.31891393661499023,-0.0219317264854908,-0.03270792216062546,-0.012460142374038696,0.043143920600414276,-0.019426601007580757,-0.08987128734588623,-0.13127149641513824,0.06093265116214752,-0.06827127188444138,0.06412568688392639,-0.028194423764944077,-0.2569562792778015,0.027799582108855247,-0.06488336622714996,-0.13830892741680145,-0.06835336983203888,0.0006162813515402377,-0.019591771066188812,-0.022534338757395744,0.027815425768494606,-0.2507783770561218,-0.11699292808771133,-0.2795787453651428,-0.014443609863519669,0.1612274944782257,0.01646159403026104,-0.12107942998409271,0.11481677740812302,0.006249409634619951,-0.008020704612135887,-0.07466208934783936,0.0579468198120594,-0.0722571387887001,0.05422006547451019,-0.007647431921213865,0.04558607563376427,-0.024348923936486244,0.1851670742034912,-0.04415164887905121,-0.004518483765423298,-0.24345308542251587,0.036850396543741226,0.05453120172023773,-0.050342101603746414,-0.13250455260276794,-0.15361402928829193,0.2226210981607437,0.09408514201641083,-0.02214871160686016,-0.059638142585754395,-0.17261917889118195,0.0017273218836635351,-0.06578163802623749],[-0.1534785032272339,0.11183930188417435,0.09518533945083618,0.12388203293085098,-0.17844340205192566,-0.21957556903362274,0.33282047510147095,0.03197823092341423,0.16525809466838837,0.049345713108778,0.13875067234039307,0.10920902341604233,-0.14714160561561584,-0.013573353178799152,0.07828035950660706,-0.0619017630815506,0.03562568128108978,0.00517667643725872,-0.09031860530376434,-0.014282445423305035,-0.04299945384263992,-0.015804367139935493,-0.10832322388887405,-0.32397207617759705,-0.10758848488330841,-0.04462795704603195,-0.3268032968044281,-0.234066903591156,0.1396958827972412,-0.03814813867211342,-0.32285964488983154,0.06200286000967026,-0.05447554215788841,0.031559057533741,-0.028004270046949387,-0.0869111493229866,-0.4417437016963959,0.09920895099639893,-0.0036022027488797903,0.025344649329781532,0.005152787081897259,0.07801033556461334,-0.19981901347637177,0.1269259750843048,0.11689993739128113,0.08142827451229095,0.007237621583044529,0.039612602442502975,-0.49173635244369507,0.03902324661612511,-0.13121666014194489,-0.06069755554199219,0.1140884980559349,0.0028115049935877323,-0.06804658472537994,0.010934892110526562,0.06333200633525848,0.09198087453842163,0.0868166983127594,0.015034311451017857,0.2060147374868393],[0.07127383351325989,-0.04352458193898201,-0.041433848440647125,-0.12136899679899216,-0.02092595212161541,-0.09183815866708755,-0.10492322593927383,0.05106296390295029,-0.04937116429209709,0.11123119294643402,0.09401817619800568,-0.16081425547599792,0.013623314909636974,-0.1167617216706276,-0.011788725852966309,-0.07753442972898483,-0.04040239378809929,0.008844146504998207,0.16191217303276062,-0.019164394587278366,0.0014890545280650258,-0.04302196577191353,0.2352619767189026,-0.015929745510220528,-0.013115671463310719,-0.018330896273255348,0.04086079075932503,-0.08502764999866486,-0.015024330466985703,-0.04837462678551674,0.24227234721183777,0.02471441589295864,0.04066437482833862,0.14097216725349426,-0.009144305251538754,-0.015230506658554077,0.11169164627790451,-0.07269828021526337,0.03900573402643204,0.074094258248806,0.004277353640645742,-0.003095089690759778,0.19714312255382538,0.04978014901280403,-0.03349688649177551,0.10646519064903259,0.023893725126981735,-0.023848798125982285,-0.0687352791428566,0.012528061866760254,-0.056516654789447784,-0.11370081454515457,0.4838235080242157,-0.35102954506874084,0.3175570070743561,-0.045753296464681625,0.027715152129530907,0.005447855219244957,-0.037008244544267654,-0.0067527806386351585,-0.08588238805532455],[0.16151602566242218,0.02027546428143978,0.17289164662361145,0.11066467314958572,-0.03749427571892738,0.2279418259859085,0.06449924409389496,-0.3314719796180725,-0.062137700617313385,-0.15861451625823975,-0.08613092452287674,-0.12234757840633392,0.03839541971683502,0.02829824388027191,-0.07157222926616669,-0.02774011716246605,-0.06356552243232727,0.08255276083946228,-0.1212652176618576,-0.3656698763370514,-0.0165705606341362,-0.04960409924387932,-0.10443265736103058,-0.5072619915008545,-0.04230919107794762,-0.015339802019298077,-0.037469059228897095,-0.16533629596233368,-0.009729779325425625,0.032784976065158844,0.022720132023096085,-0.010446129366755486,0.08030051738023758,0.07792680710554123,0.04546971246600151,0.1589832752943039,-0.35564345121383667,0.006987072993069887,0.07482723891735077,0.06153137609362602,-0.11835405230522156,0.03230084478855133,-0.23904487490653992,-0.012685060501098633,-0.11321070790290833,-0.015003501437604427,-0.03181804344058037,0.011769845150411129,0.05145322158932686,-0.09656418114900589,-0.04329286143183708,0.1912044882774353,0.005178540013730526,0.10101375728845596,-0.08039070665836334,0.14619071781635284,0.11539963632822037,0.03569371998310089,0.06375081837177277,0.06524239480495453,0.030734766274690628],[0.09942755103111267,0.04550196975469589,0.20930951833724976,-0.04257655516266823,-0.05954188480973244,-0.04428870603442192,0.13605010509490967,0.18323461711406708,0.015023958869278431,0.030965691432356834,0.008731166832149029,-0.002760255243629217,0.03639157861471176,-0.04081547260284424,-0.0604064054787159,0.19265450537204742,-0.0014781639911234379,-0.021828800439834595,-0.16022025048732758,0.04612017422914505,0.02914087288081646,-0.08676206320524216,-0.11514758318662643,-0.040606897324323654,0.024617519229650497,-0.1164955347776413,-0.21958811581134796,-0.07254761457443237,-0.035050418227910995,-0.26029303669929504,0.623370349407196,-0.0749172493815422,-0.008803831413388252,0.41421231627464294,0.0369093120098114,-0.011692539788782597,0.7155202627182007,-0.0036954088136553764,-0.0730891153216362,0.17139829695224762,0.029188627377152443,0.024555716663599014,0.5771029591560364,-0.1994430124759674,0.003639081260189414,-0.024546995759010315,0.020564338192343712,0.04649076238274574,0.6263359189033508,0.06980881839990616,0.036765825003385544,-0.0243985578417778,-0.02033308334648609,-0.027564745396375656,-0.23922426998615265,-0.011632162146270275,-0.017646344378590584,-0.06382600218057632,-0.0035087792202830315,-0.016713792458176613,-0.18752822279930115],[0.1400100439786911,-0.08948783576488495,-0.06838904321193695,0.14185480773448944,-0.0888616219162941,0.14154839515686035,0.01823534071445465,-0.29686176776885986,-0.07785988599061966,-0.006778620649129152,0.1172923892736435,-0.1272864043712616,-0.0020034867338836193,0.11961029469966888,0.14769934117794037,0.05865219607949257,-0.022395605221390724,0.11601721495389938,0.026783913373947144,-0.05659615993499756,-0.04043344408273697,0.028804263100028038,0.045644260942935944,-0.017042573541402817,-0.03822852671146393,0.03723689913749695,0.004947641398757696,0.001717864186502993,0.021812299266457558,-0.0984184667468071,-0.2999175488948822,0.0006116231670603156,-0.006018021143972874,-0.14138130843639374,0.023275112733244896,0.032982129603624344,0.04280079901218414,-0.04321577772498131,0.03791625425219536,-0.029425766319036484,0.06837955117225647,0.040460966527462006,0.11357714235782623,0.02607366256415844,-0.005314697977155447,-0.05685554817318916,-0.039529409259557724,0.0039690411649644375,0.028522783890366554,-0.033092349767684937,-0.03120841458439827,0.04204964637756348,0.41232818365097046,0.141198992729187,-0.19117315113544464,0.12278087437152863,-0.10828392207622528,-0.15187659859657288,0.06946058571338654,-0.059052493423223495,0.07052834331989288],[0.10703729093074799,0.07708265632390976,0.010733414441347122,-0.006709410343319178,0.04258650913834572,-0.09043630212545395,0.059516292065382004,0.00639026565477252,-0.06584197282791138,-0.016114629805088043,0.07027708739042282,-0.0799928531050682,