{"obs_dim":62,"act_dim":3,"layers":[{"type":"linear","weight":[[-0.08190646022558212,-0.17554733157157898,0.022751575335860252,-0.0003510527894832194,-0.11669158190488815,0.018153807148337364,0.15683336555957794,-0.3479635715484619,-0.018658876419067383,-0.06375212967395782,0.27026575803756714,0.09007170051336288,-0.003963354509323835,0.026717007160186768,0.18556316196918488,-0.15560294687747955,0.009330891072750092,0.09405998885631561,0.007800280582159758,-0.003367863828316331,0.010779326781630516,-0.03599587455391884,0.15683525800704956,-0.06278122216463089,0.031038222834467888,0.06859059631824493,-0.030409958213567734,0.04628857970237732,-0.11913608759641647,-0.0769212618470192,-0.6520008444786072,-0.013803339563310146,0.0415475033223629,0.08768150955438614,0.06894026696681976,0.049697402864694595,-0.5875240564346313,0.04930347576737404,0.045352138578891754,-0.09148875623941422,-0.06136642023921013,-0.10550500452518463,-0.6641994118690491,-0.03842703998088837,-0.05205386132001877,0.10878325998783112,0.029834698885679245,-0.05132512003183365,-0.3533388376235962,-0.07745829224586487,-0.14340807497501373,0.12379041314125061,-0.1500120759010315,0.09207507967948914,-0.15990489721298218,-0.022846810519695282,-0.054627083241939545,-0.043958816677331924,-0.06660936772823334,-0.029818831011652946,0.08071494847536087,-0.26525357365608215],[0.005939596798270941,0.14297837018966675,0.055201996117830276,-0.02084631659090519,0.05039936676621437,-0.4029269814491272,0.1777457743883133,-0.15872487425804138,0.019190145656466484,0.19508619606494904,-0.07705987989902496,0.1487210988998413,0.03096195124089718,0.05707604065537453,-0.023967912420630455,0.17029240727424622,0.018562525510787964,-0.009335233829915524,-0.043842863291502,0.0012309602461755276,0.0065445262007415295,-0.012863099575042725,-0.03457948938012123,-0.097748763859272,0.010641154833137989,-0.02723916620016098,-0.014337794855237007,-0.09759241342544556,-0.013601833954453468,-0.06965506821870804,0.18694990873336792,-0.022751878947019577,-0.004844813607633114,0.03245958685874939,-0.01303066685795784,0.012835629284381866,0.39098620414733887,-0.06095275282859802,0.26134032011032104,0.07739292085170746,-0.005215486977249384,0.03005894646048546,0.3757002353668213,0.04207884147763252,0.20929574966430664,-0.04290546104311943,0.001867704326286912,0.050877105444669724,-0.004123464226722717,0.005337843205779791,0.045878540724515915,0.12517569959163666,0.03252651169896126,-0.6331140398979187,-0.3854891359806061,0.11576839536428452,-0.007180341985076666,0.13681145012378693,-0.011307088658213615,-0.03372705727815628,0.19199222326278687,-0.7228195071220398],[-0.13048286736011505,0.05110668018460274,0.16533896327018738,-0.03893427923321724,-0.24217329919338226,0.40084108710289,0.11869330704212189,-0.18502792716026306,0.017756344750523567,0.1054149717092514,-0.3472835123538971,-0.006014995742589235,0.054516907781362534,-0.10078968107700348,-0.27548301219940186,0.3443150520324707,-0.02622208371758461,-0.060954347252845764,-0.11374275386333466,0.21128109097480774,0.0014763142680749297,-0.06773477792739868,-0.15497539937496185,0.14328297972679138,-0.06629431992769241,-0.02671988122165203,-0.02350538782775402,0.14668919146060944,0.0416223369538784,-0.10533834248781204,-0.3085101544857025,-0.022375617176294327,0.07132437825202942,0.23039928078651428,0.017403429374098778,-0.06387089192867279,-0.11911723762750626,-0.055731724947690964,-0.20849227905273438,0.15757672488689423,0.02594977244734764,0.030381489545106888,-0.004414665512740612,-0.14331933856010437,-0.11321414262056351,0.1461959034204483,-0.004996399860829115,-0.017184292897582054,-0.2674747407436371,-0.04109073802828789,-0.14982207119464874,0.01609582081437111,0.07461897283792496,0.04207095876336098,0.04809826239943504,-0.049342941492795944,-0.016600724309682846,0.2951814830303192,-0.012815000489354134,-0.06231292709708214,0.19585877656936646,0.22917120158672333],[-0.06699684262275696,0.04444257169961929,0.08403683453798294,-0.1149454340338707,0.2110045850276947,-0.060273177921772,0.4425209164619446,0.19320404529571533,-0.46908631920814514,-0.02874484844505787,-0.23578619956970215,0.2930161952972412,-0.19621823728084564,-0.040537912398576736,-0.14327892661094666,0.28672993183135986,-0.07990197092294693,0.006704092025756836,-0.17194004356861115,0.28404152393341064,0.039234649389982224,-0.0009994697757065296,-0.10563505440950394,-0.03487679362297058,0.010902328416705132,-0.02236979641020298,-0.19886371493339539,-0.016440274193882942,0.06480273604393005,-0.01016636099666357,-0.25187766551971436,-0.04040131717920303,-0.06684280931949615,0.07670419663190842,0.023598168045282364,-0.018272317945957184,0.17581377923488617,0.043558280915021896,-0.09617053717374802,0.1639612317085266,0.02030177414417267,-0.039829008281230927,0.25142887234687805,-0.05673392489552498,-0.09679997712373734,0.23008181154727936,0.005352417007088661,0.007983492687344551,-0.16505959630012512,-0.008101532235741615,-0.03783777728676796,0.10563947260379791,-0.023020431399345398,0.03084060177206993,-0.36001870036125183,0.020165225490927696,0.01557517796754837,0.30053484439849854,0.006554684601724148,0.04063595458865166,0.22568069398403168,-0.06114361435174942],[0.06151259317994118,-0.14455053210258484,-0.09844788163900375,0.005108376033604145,0.11767206341028214,-0.13519015908241272,-0.0021233942825347185,0.39783036708831787,-0.369432657957077,-0.0339415967464447,-0.11510191112756729,0.13772468268871307,-0.012404993176460266,0.01577925682067871,-0.08825507760047913,0.1822371482849121,-0.09174850583076477,0.014742153696715832,-0.029769079759716988,0.11657298356294632,-0.16437947750091553,0.019631439819931984,-0.1995091587305069,0.3359883427619934,-0.0529024712741375,0.03956959396600723,-0.004760067909955978,0.1394314020872116,0.0017234327970072627,0.0329168438911438,0.01837116852402687,-0.007931411266326904,0.03341783210635185,-0.16798608005046844,0.06393005698919296,0.012045292183756828,-0.1896289438009262,-0.07957594096660614,0.12421850860118866,0.008675268851220608,-0.03171781077980995,0.06408052146434784,-0.008642810396850109,0.002939081285148859,0.09789051115512848,0.013653370551764965,0.0022611147724092007,0.04480581730604172,0.2241312712430954,0.029545413330197334,0.10847918689250946,0.028492800891399384,-0.17739641666412354,-0.24788331985473633,-0.164249449968338,-0.05802008882164955,-0.02441447786986828,0.18660008907318115,-0.0038236454129219055,0.04318254441022873,0.1623622179031372,-0.4725206792354584],[0.2003125250339508,-0.000757251342292875,-0.01333671249449253,0.14791883528232574,-0.1183658242225647,-0.14657412469387054,-0.12143270671367645,-0.2025611698627472,0.023106316104531288,-0.03978297859430313,-0.19141452014446259,-0.04906729608774185,-0.02680208906531334,-0.049718547612428665,-0.04897833988070488,-0.0049165706150233746,-0.05478847771883011,-0.04651103913784027,0.027699587866663933,0.07299533486366272,-0.054848238825798035,-0.04210304096341133,0.08462920784950256,-0.09521149843931198,0.025846613571047783,0.02338480018079281,0.11206396669149399,-0.05177322030067444,0.09832274913787842,0.03137032315135002,-0.11406601220369339,0.023234371095895767,0.12813715636730194,-0.002753462176769972,0.022789891809225082,0.0991930142045021,0.07821784913539886,-0.09306326508522034,-0.2563099265098572,-0.09530967473983765,-0.0903303325176239,-0.033932607620954514,0.21649973094463348,-0.01718626730144024,-0.15478301048278809,-0.00633523752912879,-0.21939359605312347,-0.012917719781398773,0.18574438989162445,0.022599289193749428,0.11971500515937805,0.0349244587123394,0.18616920709609985,0.21090084314346313,0.07612423598766327,0.1566321849822998,0.0260193832218647,0.0050246017053723335,0.10345479846000671,0.06056305766105652,0.03823135793209076,-0.0931984931230545],[-0.0001527335261926055,0.2880208492279053,-0.12648312747478485,-0.072319395840168,0.016305968165397644,-0.044649261981248856,-0.07423559576272964,-0.02981247380375862,0.08230777829885483,0.018432319164276123,0.2355690598487854,0.09227295964956284,0.013486200012266636,0.0506647564470768,0.0639915019273758,0.40841272473335266,0.011233935132622719,-0.0023577981628477573,0.09955625236034393,0.434138685464859,0.025542808696627617,-0.0009954421548172832,-0.052101194858551025,0.1653561145067215,-0.06728838384151459,0.0032528359442949295,0.13192066550254822,0.26428139209747314,-0.032620370388031006,0.042408011853694916,0.33872362971305847,-0.0031006396748125553,0.15948054194450378,0.027079792693257332,-0.012486719526350498,-0.018783794716000557,0.16230188310146332,0.0008724452345632017,0.09376519918441772,-0.10498148947954178,-0.018524838611483574,-0.01429666392505169,-0.1381930708885193,-0.10709422826766968,-0.00241460045799613,-0.11118336021900177,-0.009179514832794666,0.01741121895611286,0.21554751694202423,0.003209942253306508,-0.013349396176636219,-0.12425456196069717,0.09869840741157532,-0.23385855555534363,-0.6731806993484497,0.034603871405124664,-0.11366274207830429,-0.009200711734592915,-0.0006515391869470477,-0.02384822629392147,0.024715974926948547,1.4868783950805664],[0.06795399636030197,0.041050024330616,0.06082198768854141,0.07295509427785873,-0.10845118761062622,0.07162366062402725,0.07469196617603302,-0.36014866828918457,-0.3023606836795807,0.04832535982131958,-0.15453658998012543,-0.19227652251720428,0.0616748109459877,-0.0066027557477355,-0.03991787135601044,-0.18893712759017944,0.05776388570666313,0.050951652228832245,0.037792086601257324,0.020651131868362427,0.09010560065507889,0.04095443710684776,0.0346653126180172,0.059388384222984314,0.08636603504419327,0.10133184492588043,0.07760383933782578,0.1784224808216095,-0.09220840781927109,-0.022470952942967415,0.034697096794843674,0.05345888063311577,-0.07639937102794647,-0.02269788272678852,-0.06812925636768341,-0.1484345644712448,-0.2585468590259552,0.016019240021705627,0.02628738060593605,0.11275602877140045,0.03961748629808426,0.16185104846954346,-0.011614562012255192,-0.1600121706724167,-0.14937153458595276,-0.07705971598625183,-0.022881098091602325,-0.03403263911604881,-0.2475186139345169,-0.19149965047836304,0.0710776299238205,-0.013555928133428097,0.06417770683765411,0.10615144670009613,-0.2613154649734497,0.143934965133667,0.04417669028043747,0.09098437428474426,-0.06487438082695007,-0.0016981817316263914,0.03575562685728073,-0.38394004106521606],[0.13955530524253845,0.058657314628362656,0.0346364863216877,-0.06767743080854416,0.06912562251091003,-0.0782770961523056,-0.002039100043475628,-0.2693091928958893,-0.1655588448047638,0.12298385798931122,-0.013238931074738503,0.041616346687078476,-0.023300854489207268,0.06655280292034149,0.23126202821731567,-0.10827081650495529,-0.05982768163084984,0.024658313021063805,0.14491870999336243,0.06475590169429779,0.009045152924954891,0.0549234077334404,0.025967799127101898,-0.049696557223796844,0.01225085649639368,0.14339375495910645,-0.005439211148768663,-0.02230560965836048,0.20803451538085938,-0.018667766824364662,0.2523774802684784,-0.04278496280312538,-0.06660211831331253,0.01685131900012493,0.2739156186580658,-0.1356092095375061,0.08069325238466263,0.07780200988054276,-0.11916152387857437,-0.06587806344032288,-0.010276549495756626,-0.02526901289820671,0.12196522951126099,-0.10056794434785843,0.07168550789356232,0.05044297128915787,-0.1448943316936493,-0.01772785373032093,0.2600655257701874,-0.013360632583498955,-0.01854887790977955,0.039852797985076904,0.02134428545832634,0.04368334263563156,0.1976957768201828,0.018499301746487617,-0.026132570579648018,-0.17534393072128296,-0.05990254878997803,-0.011442937888205051,0.04538343846797943,0.8369091153144836],[0.15379633009433746,-0.02292231284081936,-0.07548491656780243,-0.0610368587076664,-0.29714876413345337,-0.3821001946926117,0.006885451730340719,-0.16913291811943054,-0.1606285572052002,-0.08554977923631668,-0.06629285961389542,0.37819546461105347,0.09679460525512695,0.006277795415371656,-0.06409613788127899,0.34182873368263245,0.027375731617212296,-0.06251213699579239,0.1148160994052887,0.4204021990299225,0.06295335292816162,0.015799855813384056,-0.05898057296872139,0.3698536455631256,0.01882072165608406,0.044087786227464676,-0.05103909969329834,0.23947803676128387,-0.007690232712775469,-0.015221414156258106,0.6379297971725464,0.015998054295778275,-0.005893326830118895,-0.12985840439796448,-0.05190959945321083,-0.01661074161529541,0.5555941462516785,-0.022083275020122528,0.2672775983810425,-0.046357378363609314,0.05408703163266182,0.09811585396528244,0.022046847268939018,-0.04213104397058487,0.08413918316364288,-0.2423730492591858,0.050915610045194626,0.02529972419142723,0.1510884016752243,0.06776142865419388,0.23251847922801971,-0.13545580208301544,0.13876408338546753,0.05646809563040733,0.07080306857824326,0.027396081015467644,0.0017594529781490564,-0.10036792606115341,0.003790435381233692,-0.053329210728406906,0.06167130544781685,0.06933056563138962],[0.12614887952804565,0.05429016053676605,0.15232668817043304,-0.09044304490089417,0.18962015211582184,0.4600575864315033,0.1574670970439911,0.200522780418396,-0.019619468599557877,0.06989375501871109,-0.1397925168275833,0.09249580651521683,0.10997321456670761,-0.03333466872572899,-0.015785381197929382,0.05653731897473335,0.04742053896188736,-0.008501154370605946,0.023806143552064896,-0.14673350751399994,-0.028049832209944725,0.024438094347715378,0.0001936710177687928,-0.03636950999498367,-0.01199908647686243,0.04652649536728859,0.10176333785057068,0.10121829062700272,0.011279762722551823,0.01817196048796177,-0.1417209953069687,0.09260531514883041,0.010257042944431305,-0.005096899811178446,-0.04491964355111122,0.012270449660718441,-0.15520475804805756,0.02555801346898079,-0.1406799852848053,0.04927084967494011,-0.006486461963504553,-0.034627847373485565,0.0010360508458688855,0.030951686203479767,-0.0488269068300724,0.00831459928303957,-0.0069640278816223145,0.01179330050945282,-0.14302900433540344,0.06584897637367249,-0.0679607167840004,0.022449271753430367,0.028498705476522446,0.6340780258178711,-0.4920552670955658,0.05271606519818306,-0.07256213575601578,0.04466146230697632,0.01875857636332512,-0.07731878757476807,0.10946188867092133,-0.5900103449821472],[-0.05912519246339798,0.2010916918516159,0.0715869590640068,0.19354283809661865,-0.07181073725223541,0.2593025267124176,-0.068672314286232,0.42829880118370056,0.0060726054944098,-0.010846334509551525,-0.3090086877346039,0.25705909729003906,-0.1692398637533188,0.0929560586810112,-0.07062198966741562,0.03597204014658928,-0.06043392792344093,0.08896487951278687,0.11392974108457565,-0.006464873906224966,-0.05025099217891693,-0.021572623401880264,0.08746680617332458,0.20452071726322174,-0.03828810155391693,-0.1181720718741417,0.07825791835784912,0.06910520046949387,-0.062338750809431076,0.05878376588225365,-0.6269901394844055,0.010923170484602451,-0.17160557210445404,0.14676420390605927,-0.0008286871598102152,0.012323504313826561,-0.5550592541694641,-0.0072189378552138805,-0.22313261032104492,0.014752354472875595,0.021610883995890617,-0.019987542182207108,-0.3492980897426605,-0.08804620057344437,-0.15374650061130524,-0.14264288544654846,-0.003876244882121682,-0.008469387888908386,-0.1157122477889061,-0.07133449614048004,-0.1366606503725052,0.1335541158914566,0.20201298594474792,-0.3915655016899109,0.02947854809463024,-0.03455016016960144,-0.015599321573972702,0.08613065630197525,0.002388469409197569,-0.04482925310730934,0.059549346566200256,-0.09631967544555664],[0.04893019050359726,-0.06493764370679855,-0.012729727663099766,0.19665321707725525,0.18381260335445404,0.13238875567913055,-0.06693537533283234,-0.19961336255073547,0.05417979881167412,-0.04006447643041611,-0.14549867808818817,0.005635449662804604,0.08253473043441772,-0.02345961518585682,0.020238354802131653,0.09276154637336731,0.09333348274230957,-0.04449158161878586,0.059810344129800797,-0.0455341674387455,0.008666012436151505,0.0018827141029760242,0.05230310931801796,-0.1308133900165558,0.05391624569892883,0.022056302055716515,0.05528070032596588,-0.008718691766262054,-0.06532494723796844,0.07996883988380432,-0.1288832426071167,-0.03218598663806915,0.06992439925670624,0.11943893134593964,0.05202162638306618,0.042004894465208054,-0.10654223710298538,0.0006249305442906916,0.06193842366337776,0.07471786439418793,-0.07503832876682281,-0.00792835745960474,-0.0837995782494545,0.04828358441591263,-0.003360307775437832,0.10071896016597748,-0.005372414831072092,0.08854156732559204,-0.2600938379764557,-0.024340573698282242,-0.12127875536680222,0.18961814045906067,-0.22413299977779388,-0.15388192236423492,-0.4850834310054779,-0.143375962972641,0.07816993445158005,0.061753254383802414,-0.08474069833755493,0.011114729568362236,-0.024212829768657684,1.152579665184021],[0.010832942090928555,0.1461186408996582,-0.03547737002372742,-0.16276367008686066,-0.11277959495782852,0.13939964771270752,-0.026703979820013046,0.09899377077817917,0.07981662452220917,-0.23219789564609528,0.45307040214538574,-0.35271671414375305,0.014278318732976913,0.0219732616096735,0.19066378474235535,-0.37880396842956543,0.010412727482616901,-0.020526433363556862,0.09998036175966263,-0.1333855241537094,0.0074661546386778355,-0.026215357705950737,-0.08504171669483185,-0.14629529416561127,-3.705999188241549e-05,0.0008065223810262978,0.08052325248718262,-0.09200409054756165,-0.013769112527370453,0.025116635486483574,0.20490685105323792,-0.020155178382992744,-0.09728699177503586,0.12134190648794174,-0.02070748433470726,-0.017675649374723434,0.23553718626499176,0.015271235257387161,-0.07900654524564743,0.18393535912036896,0.0044919513165950775,-0.0231496449559927,0.11490080505609512,-0.014729267917573452,-0.0491512194275856,0.04412755370140076,0.016402263194322586,0.03155183047056198,-0.17735308408737183,0.025960946455597878,0.005082327872514725,0.05022802576422691,0.016428949311375618,-0.04886966198682785,0.4713113009929657,-0.0044952621683478355,0.008020751178264618,0.09871671348810196,0.006578969769179821,-0.017194684594869614,-0.00570622319355607,-0.22268137335777283],[0.031472064554691315,-0.041132956743240356,-0.07193945348262787,-0.16847744584083557,0.08766215294599533,-0.2774040400981903,-0.005950096063315868,-0.21488289535045624,-0.032516706734895706,0.07629522681236267,-0.24146440625190735,-0.02706964686512947,0.045672256499528885,0.05254018306732178,-0.04823242872953415,-0.20816610753536224,0.033564791083335876,0.00510444538667798,0.15447302162647247,-0.09376051276922226,0.014939593151211739,-0.03301405534148216,-0.050599850714206696,-0.1161336675286293,-0.00418637041002512,-0.0020718458108603954,0.012611540034413338,0.17123045027256012,-0.003765351139008999,0.005272908601909876,-0.1433822512626648,0.022222451865673065,0.030622314661741257,0.01211584359407425,0.004102760460227728,-0.0038081728853285313,-0.059733834117650986,0.014402048662304878,0.050425343215465546,0.11604922264814377,0.006237851921468973,-0.0008690188406035304,-0.10971958935260773,0.006168377120047808,0.08903533965349197,0.11233365535736084,0.012557596899569035,0.010338367894291878,-0.13362285494804382,0.00027507677441462874,0.0780780166387558,0.027879035100340843,-0.10855652391910553,0.06598063558340073,1.1697238683700562,0.014291184023022652,-0.022473571822047234,-0.04966679960489273,0.0013755261898040771,-0.024526039138436317,-0.03318173810839653,-0.2986135482788086],[-0.04260673001408577,-0.08406100422143936,0.11317957192659378,0.010400518774986267,-0.32642439007759094,0.12123734503984451,-0.17235013842582703,0.1696619987487793,-0.09050285071134567,0.021608524024486542,-0.020815400406718254,-0.17354188859462738,-0.006289346609264612,0.008814956061542034,-0.06465829163789749,-0.1573416143655777,0.035835426300764084,-0.030119748786091805,0.04422536492347717,0.004337978083640337,0.007986984215676785,0.0059007382951676846,-0.0006700929952785373,-0.049972422420978546,-0.008667534217238426,0.012689652852714062,-0.16494306921958923,0.0071968152187764645,-0.08101449906826019,0.020002009347081184,0.4418278634548187,0.03743031248450279,0.01667785830795765,0.053201738744974136,-0.008794751018285751,-0.04197230190038681,0.23479063808918,0.10170835256576538,-0.07448718696832657,0.13340838253498077,-0.014314690604805946,-0.0017920632380992174,0.03527218475937843,0.0035929407458752394,-0.09273900091648102,0.11889864504337311,0.003957945387810469,-0.003924309276044369,0.33661383390426636,0.005308886989951134,-0.20562785863876343,0.05126456171274185,0.801127552986145,-0.11521971970796585,0.031500790268182755,-0.04927631467580795,-0.00314262299798429,0.010086716152727604,-0.01496387179940939,0.031710539013147354,0.12484359741210938,0.5209958553314209],[0.2759080231189728,0.16106835007667542,0.2566823661327362,0.22137893736362457,-0.01128731295466423,0.25953832268714905,0.07254254072904587,-0.05401652678847313,0.17676593363285065,0.08830275386571884,-0.0018928821664303541,-0.34664425253868103,-0.17111237347126007,0.008026777766644955,-0.3414710760116577,-0.3138021230697632,-0.27516812086105347,-0.06030573695898056,-0.17955459654331207,0.06306904554367065,-0.1302485167980194,-0.0323682464659214,-0.2615695297718048,0.07447941601276398,0.020160790532827377,-0.023999392986297607,-0.09421009570360184,0.11022640764713287,-0.014386062510311604,0.009497695602476597,0.400752454996109,0.011783887632191181,-0.0001865601952886209,0.16889438033103943,-0.03296174854040146,-0.0488579198718071,0.21759650111198425,0.09082934260368347,-0.035723648965358734,0.11118277907371521,0.022637074813246727,-0.017067015171051025,0.12820923328399658,-0.030640780925750732,-0.08663003891706467,0.19400587677955627,-0.005060893949121237,0.006763700395822525,0.014403227716684341,-0.042719464749097824,-0.05394705757498741,0.13940922915935516,0.020414019003510475,-0.007605778053402901,-0.12142179906368256,-0.06167406961321831,0.06806175410747528,0.10459302365779877,-0.025886565446853638,0.03164643794298172,0.23167523741722107,-0.5993432402610779],[-0.06152738630771637,0.07203608006238937,-0.038632217794656754,-0.009328761138021946,0.03583837300539017,-0.24319171905517578,-0.10506206005811691,-0.3516634404659271,-0.03652677312493324,0.3687973618507385,-0.06654726713895798,0.1679539829492569,0.051907286047935486,-0.20879000425338745,0.2243068963289261,-0.2627916932106018,-0.01804363541305065,-0.29604843258857727,0.18463405966758728,-0.2954953908920288,0.01275639608502388,-0.22434011101722717,0.17199720442295074,-0.06283176690340042,-0.021576257422566414,-0.10239413380622864,0.08453094959259033,-0.06957069039344788,0.02657949924468994,-0.08722668886184692,-0.07208678126335144,-0.04163001477718353,0.003070687409490347,-0.025094395503401756,-0.009854258969426155,-0.08820739388465881,-0.27182886004447937,0.01144251599907875,0.18510675430297852,0.001598274102434516,-0.06945931911468506,-0.0007000440382398665,0.10128350555896759,0.06575842946767807,0.25665706396102905,-0.0903857871890068,-0.009476619772613049,0.04123916104435921,-0.11687760800123215,0.06628544628620148,0.0533011294901371,-0.01056320033967495,-0.021546870470046997,0.027434716001152992,0.25859594345092773,-0.06867844611406326,-0.0023348568938672543,-0.04130517318844795,0.05337952449917793,0.10455599427223206,-0.04010654240846634,0.4389459192752838],[-0.0018940975423902273,-0.009717021137475967,0.001622731564566493,0.025723714381456375,-0.06481197476387024,-0.35354185104370117,0.209459125995636,-0.7194315791130066,0.03392371907830238,-0.09115142375230789,0.2876056730747223,0.26401519775390625,0.0812850147485733,-0.11921544373035431,0.23228983581066132,0.020151779055595398,0.0381118543446064,-0.07825993746519089,-0.004568040836602449,-0.18644817173480988,0.037429194897413254,0.005910400301218033,0.027592865750193596,-0.0897459015250206,0.062471453100442886,0.04534013569355011,0.06069687381386757,-0.019417913630604744,0.0037211452145129442,-0.06533478200435638,-0.37031787633895874,0.09227810800075531,0.06748497486114502,0.1010599359869957,0.028641561046242714,-0.08042760193347931,-0.13491298258304596,-0.014908507466316223,0.20129366219043732,-0.0358099490404129,0.0795278549194336,0.002218174748122692,-0.1800014078617096,0.06689869612455368,0.09800095856189728,-0.16051217913627625,0.05402929335832596,0.05989144742488861,-0.16511346399784088,0.11992479115724564,-0.0375605970621109,-0.043267738074064255,-0.1358596384525299,-0.4101633131504059,-0.4288730323314667,0.07981085777282715,0.035664282739162445,0.01176168117672205,0.02326170913875103,-0.0018028609920293093,0.12766902148723602,-0.27333560585975647],[-0.08779953420162201,0.026611894369125366,-0.16355469822883606,0.05372833460569382,-0.09166673570871353,0.20940150320529938,0.11311502009630203,0.4863998591899872,0.008220355957746506,0.12101999670267105,0.2865704596042633,0.10523998737335205,0.06506242603063583,0.12986542284488678,0.10798270255327225,-0.003028048202395439,0.013964420184493065,-0.0042534214444458485,0.13522657752037048,-0.06132999435067177,0.034796055406332016,0.06047448515892029,0.08072599768638611,-0.01368086226284504,0.0374264232814312,-0.05868127942085266,-0.10121875256299973,-0.001580562791787088,-0.0012827989412471652,-0.010163391008973122,-0.16432656347751617,0.010806065984070301,0.2579764723777771,0.07728125154972076,-0.045409537851810455,-0.20588287711143494,-0.20893050730228424,0.03757653385400772,0.04763165861368179,0.10396517068147659,-0.003510232549160719,-0.09790172427892685,-0.3841722011566162,-0.0899864211678505,-0.12134075909852982,0.06679659336805344,0.0005814326577819884,-0.007293074391782284,0.008607546798884869,-0.0009830172639340162,0.005047658924013376,-0.019562870264053345,0.0808626040816307,0.07757984846830368,0.0011282720370218158,0.002139501506462693,-0.07144780457019806,-0.09782672673463821,0.04818405956029892,-0.03549954667687416,-0.07793863862752914,0.3365362584590912],[0.24642573297023773,-0.3153417408466339,0.16831474006175995,0.043070606887340546,0.23907332122325897,-0.2676733434200287,0.14439734816551208,-0.2032821774482727,-0.03512655198574066,0.7207956910133362,-0.13292942941188812,-0.01054625678807497,0.05361977219581604,-0.19781184196472168,-0.07963478565216064,0.03645909205079079,-0.006488286890089512,-0.08112727105617523,0.052040353417396545,0.1439405232667923,-0.007525534834712744,0.02172868512570858,0.09164336323738098,-0.028421884402632713,-0.022839663550257683,0.019522149115800858,0.17013484239578247,0.06566492468118668,-0.008562302216887474,-0.0375533364713192,0.29584723711013794,0.1156781017780304,-0.04573695734143257,0.0037242649123072624,-0.044839948415756226,0.015724509954452515,-0.08938046544790268,0.02746482565999031,0.08921249955892563,-0.018774529919028282,0.005565759260207415,0.012669887393712997,-0.26560676097869873,-0.0004467580292839557,0.1458202749490738,-0.04960041120648384,-0.0022796522825956345,0.01573960855603218,-0.312920480966568,0.11481833457946777,-0.022064760327339172,0.11256980150938034,-0.13182038068771362,-0.1582781970500946,-0.12041114270687103,-0.08335484564304352,-0.07898726314306259,0.06157960370182991,-0.06458140909671783,-0.0006422693841159344,0.13285468518733978,0.28817710280418396],[-0.10160046070814133,0.09228477627038956,0.01642482914030552,-0.015322184190154076,0.006404819432646036,0.04806613177061081,-0.04445451498031616,-0.04680728167295456,0.0895131528377533,0.19714194536209106,0.07758308202028275,0.037248287349939346,0.03317948058247566,0.2170269638299942,0.2535267472267151,0.06458789855241776,-0.02902858331799507,0.11414952576160431,-0.044184524565935135,0.06133175268769264,-0.022663891315460205,0.13064086437225342,0.03997160494327545,-0.1335919052362442,0.005089224316179752,0.048753295093774796,0.02540583349764347,-0.2219017595052719,0.03678488731384277,0.04004496708512306,-0.17142298817634583,-0.01520062517374754,-0.12311462312936783,0.16855452954769135,0.0016039032489061356,0.06697320938110352,0.011801088228821754,-0.05877292528748512,-0.034090496599674225,0.24129526317119598,-0.0018078801222145557,-0.016776975244283676,0.48078182339668274,-0.03029782325029373,0.05470199137926102,-0.1116337701678276,-0.0017792315920814872,-0.017967524006962776,0.07525407522916794,0.10007724165916443,0.16345250606536865,-0.024527322500944138,-0.08780105412006378,-0.0922592505812645,-0.23251882195472717,-0.12190482765436172,0.09467417001724243,0.12425108999013901,-0.07342865318059921,-0.0062290336936712265,0.05011962726712227,-0.19114884734153748],[0.03855939209461212,-0.07964707911014557,0.0412617027759552,-0.05558503419160843,0.025570673868060112,0.008453373797237873,0.055804431438446045,0.35217925906181335,0.025472940877079964,-0.07913047820329666,0.06102749705314636,-0.21687912940979004,0.02816014736890793,-0.1255607008934021,-0.028365902602672577,-0.23426297307014465,0.0132375443354249,-0.037918198853731155,0.17307373881340027,0.011464180424809456,0.06034042686223984,-0.007441889960318804,0.08439018577337265,0.18117280304431915,-0.02200216054916382,0.03456505388021469,0.16100414097309113,-0.009069382213056087,0.05957765132188797,-0.18109729886054993,0.08002219349145889,-0.01085063349455595,-0.17268125712871552,-0.02610020525753498,-0.017789140343666077,-0.05916646122932434,0.30095982551574707,-0.04162370786070824,-0.13020293414592743,0.07590704411268234,0.11901529133319855,0.10486982762813568,0.13305869698524475,-0.11704505980014801,-0.027605686336755753,0.14135552942752838,0.061387673020362854,0.010637344792485237,0.3369992971420288,0.015528935007750988,0.05494188144803047,-0.04048697650432587,0.08506523072719574,-0.30215439200401306,-0.24217870831489563,-0.002024784218519926,0.013818513602018356,-0.009363187476992607,0.06833551079034805,0.004570333752781153,0.1611039787530899,-0.01569618284702301],[-0.20951209962368011,0.08049326390028,0.11377521604299545,-0.14511314034461975,-0.35463693737983704,-0.005997279658913612,0.01870557852089405,0.06239219382405281,0.3641233444213867,0.016887687146663666,0.17121918499469757,-0.08137501776218414,0.3338931202888489,0.05005151033401489,0.13449905812740326,0.0275114756077528,0.06304647028446198,-0.02172437123954296,0.16288480162620544,-0.1279415339231491,-0.06202162429690361,0.005631700158119202,0.13238753378391266,-0.03844179958105087,-0.031071430072188377,-0.0423455536365509,-0.02299562469124794,-0.09863827377557755,-0.10264404118061066,-0.03354451432824135,0.1523892730474472,0.11008625477552414,-0.15219426155090332,-0.122623011469841,0.026485377922654152,-0.01610657013952732,-0.5371859073638916,-0.00762596633285284,-0.11368197947740555,0.06947058439254761,-0.1080441102385521,-0.08313506841659546,-0.2638147175312042,0.027522515505552292,0.05250456556677818,0.06654945015907288,-0.03341348096728325,0.03206691890954971,-0.38846150040626526,-0.00971760880202055,0.0008149734348990023,-0.12191416323184967,-0.007465159520506859,-0.08101662248373032,-0.16145503520965576,-0.040451530367136,0.059598639607429504,0.050559740513563156,0.05244285613298416,0.07081109285354614,0.034309931099414825,0.15014871954917908],[-0.08650373667478561,0.09663208574056625,0.046854168176651,0.03111226111650467,-0.08402221649885178,-0.07397694140672684,0.09753018617630005,-0.04114256426692009,-0.003543239086866379,-0.15963949263095856,0.1541202813386917,0.07558728754520416,0.09421258419752121,0.008482110686600208,0.30383366346359253,0.11130765080451965,-0.11366400122642517,0.07770001143217087,0.1076117530465126,-0.04956982657313347,-0.08071386069059372,-0.0068808007054030895,0.15347205102443695,-0.08642113208770752,-0.048424430191516876,-0.003468297654762864,0.17531821131706238,0.1381884515285492,-0.11847452819347382,0.13846206665039062,-0.22977019846439362,0.10672958940267563,-0.17332157492637634,-0.2398434579372406,-0.11575216054916382,0.003173112403601408,-0.24585437774658203,-0.011094295419752598,0.07805110514163971,-0.10551068186759949,-0.10137435048818588,0.07098232954740524,-0.1059916540980339,-0.160104438662529,0.008987192995846272,0.013491976074874401,0.03602008521556854,0.12149134278297424,-0.18086092174053192,-0.03755214810371399,-0.06933451443910599,-0.18619690835475922,0.07995529472827911,-0.005097489804029465,-0.4851849377155304,0.09745638817548752,-0.0062939939089119434,0.18288123607635498,0.198582723736763,-0.062316376715898514,-0.08982905745506287,-0.6421890258789062],[0.03904242068529129,-0.10848614573478699,-0.19670425355434418,-0.1432255357503891,0.020307740196585655,-0.326528936624527,-0.09973285347223282,0.10686570405960083,-0.07951627671718597,-0.004214480984956026,0.2049669772386551,-0.12078798562288284,0.023284785449504852,-0.03343944996595383,0.05075556039810181,0.05445297434926033,-0.036985982209444046,0.018520483747124672,0.003504085121676326,-0.008109570480883121,0.012767101638019085,-0.023230750113725662,-0.03088664822280407,0.05520320683717728,-0.004516400396823883,-0.007338053081184626,0.024109676480293274,-0.01668950729072094,0.04991032928228378,-0.001754551543854177,0.18046815693378448,0.03961953520774841,0.013859172351658344,-0.10963361710309982,0.011331270448863506,0.003898675786331296,-0.13999831676483154,0.021273430436849594,0.0782475396990776,-0.04963385686278343,-0.007807969581335783,-1.7604963431949727e-05,-0.1060556173324585,-0.0363801047205925,0.08933444321155548,0.02472064271569252,0.001916477340273559,0.0259246788918972,-0.020031830295920372,0.009370437823235989,0.02659163810312748,-0.11827997863292694,0.8549465537071228,0.19488871097564697,0.7167418599128723,-0.03370091691613197,-0.026316123083233833,0.001150527037680149,-0.005164454225450754,-0.030297597870230675,-0.09212424606084824,-0.37482383847236633],[-0.02145697921514511,-0.17186345160007477,0.01703972928225994,0.1954917311668396,0.0031442823819816113,0.21770645678043365,0.013557192869484425,0.15242502093315125,-0.03608996421098709,-0.10099757462739944,0.0032191043719649315,0.18325456976890564,0.03044385462999344,0.02559470385313034,0.2506844997406006,-0.010078713297843933,-0.009278622455894947,0.3715294599533081,0.21368472278118134,-0.16452370584011078,-0.004270764999091625,0.29272887110710144,0.23212066292762756,-0.3440561592578888,-0.01604694314301014,0.14046859741210938,0.21597489714622498,-0.3738638162612915,0.0031139326747506857,0.0326995924115181,-0.3024240732192993,0.0011426345445215702,-0.026866214349865913,-0.015423286706209183,-0.03533795848488808,-0.022542791441082954,-0.12705078721046448,-0.059037208557128906,-0.15335698425769806,0.06758858263492584,-0.005106415133923292,0.004641008097678423,-0.05810370668768883,-0.009279213845729828,-0.07181714475154877,0.1494370400905609,0.033289480954408646,-0.010171705856919289,0.0025338339619338512,0.018643539398908615,-0.04331168159842491,0.08000779896974564,-0.04110772907733917,-0.07565701007843018,-0.13307175040245056,0.006308877374976873,0.05036699026823044,-0.16940781474113464,-0.00953852478414774,-0.01209181360900402,-0.14087186753749847,-0.3793867230415344],[0.10771345347166061,0.054250217974185944,-0.024165278300642967,-0.008264373987913132,-0.09373512864112854,-0.052997834980487823,-0.16344119608402252,0.3736989498138428,-0.09883512556552887,0.07856959849596024,0.0748576894402504,-0.21298223733901978,-0.027262665331363678,0.08372778445482254,0.0029939445666968822,-0.03103196807205677,-0.011472057551145554,0.012692325748503208,-0.012687405571341515,0.008825933560729027,-0.09672525525093079,0.06793622672557831,0.08580992370843887,0.014769702218472958,-0.04425045847892761,-0.042162906378507614,-0.018170131370425224,-0.05840647593140602,0.012327080592513084,0.048358235508203506,0.4515884518623352,0.009064819663763046,0.07458464056253433,-0.04691580310463905,0.009788927622139454,0.07341552525758743,0.4450934827327728,0.019071681424975395,-0.03529420122504234,-0.12351002544164658,-0.046650804579257965,-0.015547271817922592,0.5024672746658325,0.04363818094134331,0.002946640131995082,-0.04442555457353592,-0.057901471853256226,0.052746906876564026,0.31152546405792236,0.030082331970334053,0.05143040418624878,-0.15233948826789856,0.44226405024528503,-0.010225437581539154,0.29412901401519775,-0.020150506868958473,0.0646945908665657,-0.016935154795646667,-0.05378396436572075,0.04605916887521744,0.1252920776605606,0.40675339102745056],[0.017042072489857674,0.28598904609680176,0.051145486533641815,-0.0659739151597023,0.03710024431347847,0.18496748805046082,0.14617708325386047,0.08457416296005249,0.03072126768529415,-0.1589050590991974,0.07163337618112564,0.08794543892145157,0.01216261275112629,-0.1384926438331604,0.04648132249712944,0.031074363738298416,-0.03220175951719284,0.05483835190534592,0.04815547913312912,-0.10504065454006195,-0.056004587560892105,0.07157134264707565,0.0854690670967102,0.05059570446610451,-0.04488782584667206,0.004169098567217588,0.017574990168213844,-0.10595621168613434,0.19470269978046417,0.09322606027126312,-0.34422430396080017,0.0863654762506485,0.049665987491607666,0.03233271837234497,0.20637372136116028,0.07440697401762009,0.08765406161546707,0.05972513183951378,0.060907669365406036,-0.009822403080761433,0.06086289882659912,-0.08013340085744858,-0.26556769013404846,-0.025351736694574356,0.11323294043540955,0.09473028779029846,0.017011117190122604,-0.030435835942626,0.06926050037145615,0.0670388787984848,0.059732791036367416,-0.032973986119031906,-0.10581492632627487,-0.12625986337661743,0.1659889817237854,-0.033252742141485214,0.15510764718055725,-0.09331689774990082,0.0049100895412266254,0.08529512584209442,-0.025753771886229515,-0.0962657630443573],[-0.03708598390221596,0.04014604538679123,-0.03991873934864998,-0.10291372984647751,-0.005230216775089502,-0.06720229238271713,0.14443068206310272,0.17323435842990875,0.0693325325846672,0.03377058729529381,0.04275664687156677,0.09925369173288345,0.0025658486410975456,0.05088895931839943,0.2219247967004776,-0.17495696246623993,0.003254061797633767,0.03997974470257759,0.27411824464797974,-0.31299492716789246,0.008790383115410805,-0.10485178232192993,0.28864529728889465,-0.13594821095466614,-0.00921463780105114,-0.054896872490644455,0.22239764034748077,-0.20348337292671204,0.010750450193881989,-0.044190824031829834,0.42380577325820923,-0.03210359439253807,-0.11175067722797394,0.1377374678850174,-0.03860577568411827,0.07821815460920334,0.4877660274505615,0.001703799469396472,-0.06340917199850082,0.2154717594385147,-0.015700845047831535,-0.007283517625182867,0.6015048027038574,-0.04829714447259903,-0.0006510264938697219,-0.1037529706954956,0.011360781267285347,-0.02281646989285946,0.39362937211990356,0.03959750011563301,0.08433499187231064,0.050052739679813385,-0.059206195175647736,0.008828120306134224,0.11329249292612076,-0.04626656696200371,-0.02077554725110531,0.018740065395832062,-0.013752037659287453,-0.04303993284702301,0.059484850615262985,-0.0023516365326941013],[0.08397957682609558,0.042897000908851624,-0.031359508633613586,0.07255451381206512,0.14048629999160767,0.22552454471588135,-0.09594236314296722,-0.1185736209154129,0.15941861271858215,0.10566788166761398,0.13946637511253357,0.1890019029378891,0.17504025995731354,0.051865074783563614,0.1604316234588623,0.14840880036354065,0.10531987994909286,0.046083807945251465,0.16230584681034088,-0.10031101107597351,-0.04787173867225647,0.0006949224625714123,-0.11677362769842148,-0.08337400108575821,-0.04845023527741432,-0.018336188048124313,0.03042038343846798,-0.15004917979240417,0.04095449671149254,0.15411058068275452,0.16918648779392242,-0.010888669639825821,0.15060512721538544,0.03945546969771385,0.10226568579673767,0.11206063628196716,0.13046398758888245,0.05696205794811249,0.27219656109809875,0.011797960847616196,-0.013557840138673782,0.05026010051369667,-0.06721270829439163,-0.07798726111650467,-0.09782832860946655,0.2048066258430481,-0.028810320422053337,0.06081957742571831,-0.0667734146118164,-0.005388813093304634,-0.08515667915344238,0.16173169016838074,-0.3327445387840271,-0.09283483773469925,0.11845389753580093,-0.05920926481485367,0.11290095746517181,-0.07439755648374557,-0.02503419667482376,0.017525427043437958,-0.02358297072350979,-0.23550297319889069],[-0.04905346408486366,-0.4940328299999237,0.09908334910869598,-0.14041990041732788,0.10793819278478622,0.1492333710193634,0.09165734797716141,-0.09597298502922058,0.015382225625216961,-0.110608771443367,0.26274579763412476,-0.11722752451896667,0.07453935593366623,0.0722912847995758,-0.012675810605287552,-0.012019985355436802,-0.07702337950468063,0.036071185022592545,-0.001766979694366455,-0.008563174866139889,-0.09640778601169586,0.025602567940950394,0.010744773782789707,-0.019740208983421326,-0.1346033364534378,0.06167440488934517,-0.026231158524751663,0.15437687933444977,-0.21246659755706787,-0.022632263600826263,0.16690604388713837,0.03577859699726105,0.10234899073839188,0.15784920752048492,-0.012754133902490139,-0.076772540807724,0.1574336588382721,0.048752572387456894,0.09272004663944244,0.04291551932692528,0.10867416858673096,-0.012103190645575523,0.04142215847969055,-0.0455014668405056,-0.018234075978398323,0.07656555622816086,0.025786619633436203,0.0534423403441906,0.06674550473690033,-0.03191106766462326,0.05770442634820938,0.09039925783872604,-0.06858222186565399,-0.07696612924337387,-0.09106618911027908,0.03684572875499725,0.017506763339042664,0.22313955426216125,-0.024134814739227295,-0.0332939475774765,-0.02647508680820465,0.10835682600736618],[-0.12545248866081238,-0.20669077336788177,0.009820954874157906,-0.0722794309258461,-0.03511626273393631,-0.040174584835767746,-0.008685888722538948,-0.1410599946975708,0.07940875738859177,0.02491793781518936,0.19272154569625854,-0.2644486427307129,0.01194604579359293,0.00862529594451189,0.20196597278118134,-0.06864043325185776,-0.03562445193529129,0.08000202476978302,0.005386998876929283,-0.1302923858165741,0.05172615870833397,0.025402387604117393,0.08241744339466095,-0.020302750170230865,0.025630787014961243,-0.0030719495844095945,0.08526202291250229,-0.010140535421669483,0.09117625653743744,-0.03914666548371315,0.21876156330108643,0.015065116807818413,0.019916489720344543,0.19439832866191864,-0.044800929725170135,-0.032580986618995667,0.21590827405452728,-0.05069267377257347,-0.02540665492415428,0.00388406403362751,0.008656976744532585,-0.05515502020716667,-0.05360036715865135,-0.09945884346961975,0.06726454198360443,0.10516642779111862,0.11259516328573227,-0.05333632603287697,-0.20962683856487274,0.025400960817933083,-0.08232930302619934,0.0165399257093668,0.10221392661333084,0.0049053882248699665,-0.017203176394104958,-0.07570232450962067,0.12270533293485641,0.06343691796064377,0.0488404743373394,0.0018991966499015689,-0.05027109384536743,-0.2997974455356598],[0.14868949353694916,-0.05640947073698044,-0.09597453474998474,0.04634860157966614,-0.06782703846693039,0.022287970408797264,-0.11845145374536514,-0.16840678453445435,0.5725974440574646,0.05737045034766197,0.01852770522236824,0.21562613546848297,0.09622158855199814,-0.0006757417577318847,0.22946485877037048,-0.018320046365261078,-0.06453017145395279,-0.0020829534623771906,0.3637688159942627,-0.07029256224632263,-0.03905077651143074,-0.03192692622542381,0.18817497789859772,-0.1397692859172821,-0.02975173108279705,-0.025474634021520615,0.07125257700681686,-0.15344011783599854,0.04865272343158722,-0.017087141051888466,0.0912039652466774,0.1067487969994545,0.002442652825266123,-0.0813838467001915,0.021280847489833832,-0.048873234540224075,-0.007044392637908459,0.08947472274303436,0.05536729842424393,-0.11890359967947006,0.011994450353085995,0.027748584747314453,0.0915859267115593,0.04140634089708328,0.21183708310127258,0.14971160888671875,0.03940269351005554,-0.0004304428002797067,0.034127432852983475,0.11389631778001785,-0.07039317488670349,-0.06719379872083664,-0.06906292587518692,-0.03166705742478371,0.28359854221343994,0.010502859018743038,-0.017015738412737846,-0.1577572375535965,0.0034505794756114483,0.0061029247008264065,-0.08085662871599197,0.7174730896949768],[0.13836319744586945,0.210664764046669,0.1056586354970932,0.1864338368177414,-0.4648604989051819,-0.12186290323734283,0.016920022666454315,-0.0447501540184021,0.4949980080127716,0.1737089604139328,-0.29627975821495056,-0.026347223669290543,0.13655871152877808,-0.05396129563450813,-0.2412090003490448,-0.008590854704380035,0.14267897605895996,-0.017839964479207993,-0.16444556415081024,0.004063273314386606,0.08920998871326447,-0.010988776572048664,0.03805254027247429,0.009958881884813309,0.024177134037017822,0.008419092744588852,-0.02251661755144596,0.08936334401369095,0.033754862844944,-0.023223914206027985,0.03506389632821083,0.16159406304359436,0.028158484026789665,0.21790233254432678,3.901653599314159e-06,-0.0008294742438010871,0.13254088163375854,-0.03417331352829933,-0.13055743277072906,-0.11670759320259094,0.03833509609103203,-0.0091979606077075,0.061200208961963654,0.05064883828163147,0.018264222890138626,0.1898779422044754,0.005197544582188129,0.032343000173568726,0.240106463432312,0.09778818488121033,0.14963014423847198,0.035634249448776245,0.19836750626564026,-0.11788242310285568,0.5609809160232544,0.02769526094198227,0.0179076436907053,-0.04766484349966049,-0.0011421621311455965,-0.009361384436488152,0.05125384032726288,0.8267968893051147],[0.11889903247356415,0.04542996361851692,0.2356378138065338,0.1140553429722786,0.04797334223985672,0.03811997175216675,0.09835293143987656,-0.005279967095702887,0.149642676115036,-0.20272119343280792,-0.22250238060951233,-0.11061666160821915,0.3432496190071106,0.014546814374625683,-0.2724671959877014,-0.10577971488237381,0.05999068543314934,0.03390929847955704,-0.26737767457962036,-0.06448844820261002,0.0176372230052948,-0.01114703994244337,-0.09237354248762131,0.1601584106683731,-0.028744833543896675,0.057427868247032166,0.11953990906476974,0.2326822429895401,-0.07279518991708755,-0.07578254491090775,-0.7785477638244629,-0.059139400720596313,0.017116984352469444,-0.08385779708623886,0.03403109312057495,-0.06812514364719391,-0.6256083250045776,-0.016538215801119804,-0.02372223325073719,0.24821406602859497,0.02863103523850441,0.011879020370543003,-0.7264549136161804,-0.14589525759220123,0.15010716021060944,0.2499958574771881,-0.03150642290711403,-0.022780781611800194,-0.4133547842502594,0.011726699769496918,0.14383815228939056,0.22402869164943695,-0.2719234228134155,0.11383666098117828,-0.12537337839603424,-0.10695206373929977,-0.03310336172580719,0.09545966982841492,-0.004227230325341225,-0.01428682915866375,0.02467145025730133,1.124340295791626],[0.04669720679521561,-0.11398006975650787,-0.028225155547261238,-0.02865588106215,-0.06410624086856842,0.07249446213245392,0.08556126058101654,-0.034621886909008026,-0.10563601553440094,-0.00873232539743185,0.061722081154584885,0.03295532241463661,-0.0524650476872921,0.021436966955661774,0.11269579827785492,-0.030850687995553017,-0.07588499784469604,0.04639381170272827,0.04283296689391136,-0.02773428149521351,1.5347588941949653e-06,0.1431296467781067,0.15748056769371033,-0.1576770842075348,0.09902798384428024,0.09959908574819565,0.23114719986915588,-0.054027117788791656,-0.11833149939775467,0.006380018778145313,-0.40109753608703613,-0.015729930251836777,-0.054282501339912415,0.16696202754974365,-0.04227442294359207,-0.03637455403804779,-0.1933095008134842,-0.04301536828279495,-0.03254859521985054,0.19402647018432617,0.05070161819458008,0.07509083300828934,-0.1995629519224167,0.05180610343813896,0.11624345183372498,0.1858113408088684,0.06338721513748169,0.08802354335784912,-0.3705728352069855,-0.0020289935637265444,-0.07301788032054901,-0.1380956470966339,-0.07671337574720383,-0.1702982634305954,-0.4614064693450928,0.006827904377132654,0.04448208585381508,-0.024656813591718674,-0.07442384958267212,0.037809230387210846,0.06609990447759628,1.307037353515625],[0.11401746422052383,0.03650573641061783,0.1659078598022461,0.14913979172706604,0.014420351013541222,0.44568875432014465,-0.14470432698726654,0.4988776445388794,0.028923584148287773,0.11247611790895462,0.1379484236240387,0.13811518251895905,-0.0042783827520906925,0.16206848621368408,0.03707127273082733,-0.14395834505558014,-0.06312255561351776,0.11497659236192703,-0.08455786854028702,0.027660690248012543,-0.07297877222299576,0.12876039743423462,-0.17797011137008667,0.06232217699289322,-0.0035586897283792496,0.0766521617770195,0.05420732498168945,-0.180558443069458,0.09309028089046478,-0.05761260911822319,-0.48920875787734985,0.01812099665403366,-0.12719355523586273,0.1416756808757782,-0.06073397770524025,0.042639367282390594,-0.05806452035903931,0.06837914884090424,-0.2136075645685196,0.012201649136841297,0.016010014340281487,0.043061986565589905,-0.0894213393330574,-0.016044041141867638,-0.159042090177536,0.10685304552316666,0.004575089551508427,0.11065758764743805,0.05378853157162666,-0.03613165020942688,-0.13116569817066193,0.06300345063209534,0.14606299996376038,-0.39409056305885315,0.2686598002910614,0.020160384476184845,0.03243929147720337,0.03701873496174812,0.02753513678908348,-0.027564989402890205,-0.1081317886710167,0.3829507827758789],[0.054883044213056564,0.09228515625,0.14717604219913483,-0.07586783915758133,0.01173770148307085,-0.17680580914020538,-0.2741222381591797,0.2946963608264923,0.1838756501674652,0.12602055072784424,-0.48051831126213074,0.4479420781135559,-0.07859718054533005,0.06283122301101685,-0.24213957786560059,0.4523443579673767,-0.0003570200933609158,0.051830291748046875,-0.10265962779521942,0.3310409486293793,0.014228371903300285,-0.0007829436217434704,0.03453616425395012,0.12670062482357025,0.05419645085930824,0.0008349812123924494,0.034622497856616974,0.24940992891788483,-0.013909387402236462,0.017774207517504692,0.3476502001285553,-0.008481423370540142,0.055015578866004944,0.015008327551186085,-0.025271065533161163,-0.03745890408754349,0.2981841266155243,0.01535718608647585,0.08452209085226059,0.007368369493633509,-0.026444384828209877,0.012767230160534382,0.5852307677268982,0.007046766113489866,0.008308338932693005,0.04923991486430168,0.013920681551098824,0.01795642264187336,0.3572051227092743,0.05093873664736748,0.06969649344682693,-0.023768264800310135,-0.19196340441703796,0.3103070557117462,-0.01769782230257988,0.06805089861154556,-0.004691625479608774,0.08873073756694794,-0.009358649142086506,-0.041145674884319305,0.07032280415296555,-0.6872586607933044],[-0.012228822335600853,-0.3888491094112396,-0.1493426263332367,0.008985627442598343,-0.0330653116106987,-0.022117260843515396,-0.043872904032468796,-0.34242209792137146,0.28703323006629944,0.051798950880765915,-0.04499038681387901,0.7305706143379211,-0.10277628898620605,0.010834609158337116,-0.016309108585119247,0.3452009856700897,-0.14373546838760376,-0.007373088039457798,0.19181115925312042,0.09128756821155548,-0.03858670964837074,-0.0021921051666140556,0.05812741070985794,0.09582679718732834,0.005850445944815874,0.025254013016819954,0.09804818779230118,-0.061427075415849686,-0.035405635833740234,0.05961459130048752,-0.7298300266265869,-0.07063275575637817,-0.07396884262561798,0.20480284094810486,-0.06327657401561737,-0.011842296458780766,-0.7059149742126465,0.02553516998887062,0.08813852071762085,0.008512085303664207,-0.017893295735120773,0.01265113614499569,-0.42918655276298523,-0.03637624531984329,0.11846373230218887,0.1582491099834442,-0.01625104621052742,0.04455878213047981,-0.3772546052932739,-0.023082271218299866,0.1059928834438324,-0.16420696675777435,-0.0625775009393692,0.030791422352194786,-0.2529481053352356,-0.056259896606206894,-0.058424584567546844,-0.04096706211566925,-0.056670185178518295,-0.05597313493490219,-0.026962919160723686,0.5289012789726257],[0.17437206208705902,0.0681590810418129,0.13000772893428802,0.033400777727365494,0.10487166047096252,-0.17111292481422424,0.10086067765951157,-0.22081957757472992,-0.013744202442467213,-0.05663621798157692,0.1221110001206398,-0.12182489782571793,0.04476771503686905,-0.17438629269599915,0.11242035031318665,-0.24863792955875397,-0.03344106301665306,-0.19373248517513275,0.14106635749340057,-0.046295925974845886,-0.014702689833939075,-0.1354837268590927,-0.048818089067935944,0.03666515275835991,0.011714284308254719,-0.018570585176348686,0.0021986798383295536,-0.04910712689161301,0.10398194193840027,0.12789851427078247,-0.3417004644870758,-0.02462519146502018,0.0721781998872757,0.02446691505610943,-0.10570018738508224,0.05197691544890404,-0.02670029178261757,0.002536321058869362,-0.02959626354277134,-0.12468204647302628,0.008756806142628193,-0.007398699875921011,0.010846942663192749,-0.019422532990574837,0.15162396430969238,0.004055496770888567,0.03367440775036812,-0.04949008300900459,-0.05511375516653061,0.019593875855207443,-0.009317295625805855,0.12947887182235718,0.004451809450984001,-0.024265063926577568,-0.05201736092567444,-0.05122104287147522,0.042283982038497925,-0.042845990508794785,-0.02552853152155876,0.06421544402837753,0.016514940187335014,0.0037311462219804525],[0.14852645993232727,0.0221231821924448,-0.03165731206536293,-0.04689036309719086,-0.10213765501976013,0.012778130359947681,-0.08815672248601913,-0.017692571505904198,0.11448901891708374,-0.09066598117351532,-0.195281520485878,0.2345476746559143,0.04587533324956894,-0.033915214240550995,0.13236327469348907,-0.031588006764650345,0.04472801089286804,-0.0015849971678107977,0.22395583987236023,-0.04425032436847687,0.02887287363409996,-0.0007277915719896555,0.1342858374118805,-0.1299830824136734,0.006198145914822817,-0.04332471638917923,0.042914364486932755,-0.271756112575531,0.11208178102970123,-0.0032224042806774378,0.20288550853729248,-0.048323921859264374,0.061402544379234314,0.020324280485510826,0.07528907060623169,-0.07627257704734802,0.019686656072735786,-0.156356543302536,-0.1462685465812683,0.04036863148212433,0.04423849657177925,-0.0485810749232769,0.20993638038635254,-0.12293596565723419,-0.06417734920978546,0.038191504776477814,0.049359407275915146,0.008896980434656143,0.5451921820640564,-0.02214784175157547,0.010616172105073929,-0.0710369274020195,-0.17663121223449707,-0.13137342035770416,0.2706494629383087,0.25249120593070984,0.010898367501795292,0.04403708502650261,0.014145364053547382,0.08894260227680206,0.023088380694389343,0.11327152699232101],[-0.1147480234503746,0.0960627868771553,0.14067663252353668,-0.1791442483663559,-0.03556908294558525,0.028014831244945526,-0.003002379322424531,-0.2506735920906067,0.046678327023983,-0.20272907614707947,-0.048267047852277756,-0.08304296433925629,0.048177462071180344,0.039724159985780716,0.1303672045469284,-0.26496994495391846,-0.005782571621239185,0.05011754855513573,0.11393573880195618,-0.1582358181476593,0.01049496978521347,0.021021010354161263,0.18279121816158295,-0.08144069463014603,0.0020452977623790503,0.013245471753180027,0.06651440262794495,-0.0513286367058754,-0.10126668959856033,-0.028746552765369415,-0.22095903754234314,0.02888238988816738,-0.16181841492652893,0.0805768072605133,0.035387005656957626,-0.0006514373235404491,-0.09586302191019058,0.015465221367776394,-0.1595851629972458,0.16848072409629822,0.0510244257748127,-0.08937207609415054,-0.29718664288520813,-0.09700794517993927,-0.1393720656633377,0.17609794437885284,0.020086821168661118,0.013558357022702694,-0.13501852750778198,0.03178563714027405,-0.270491361618042,0.09084102511405945,0.0780586525797844,0.31072646379470825,-0.05527838319540024,0.08713819086551666,-0.06738258898258209,-0.015883173793554306,0.04441932216286659,0.010735568590462208,0.14517147839069366,-0.3678966462612152],[-0.035928018391132355,-0.27881675958633423,0.012627591378986835,0.05983353778719902,0.16303718090057373,0.021599143743515015,0.0728309154510498,0.12239917367696762,-0.636655330657959,0.10030944645404816,0.044033441692590714,0.25426149368286133,-0.09475851058959961,-0.013012864626944065,0.11996375024318695,-0.02826276794075966,-0.033363234251737595,-0.015318282879889011,0.02497822232544422,-0.23196452856063843,0.07880239933729172,-0.008863458409905434,0.06927374005317688,-0.19047771394252777,-0.010383293963968754,0.01321254950016737,0.09499587118625641,0.008086321875452995,-0.03294738754630089,-0.012319128960371017,-0.13842104375362396,0.01482594758272171,0.01936013624072075,0.018295565620064735,-0.013301165774464607,-0.08129531145095825,-0.10949116200208664,0.01919211819767952,-0.072451651096344,0.09105280786752701,0.004698579199612141,-0.005219934042543173,-0.5838805437088013,-0.03975784033536911,0.1416788101196289,-0.09616239368915558,0.0014686748618260026,0.019011318683624268,-0.8290263414382935,0.026724284514784813,0.07713975757360458,0.13957832753658295,0.09827042371034622,-0.06446077674627304,-0.15687201917171478,0.022158123552799225,-0.03946375101804733,0.21758905053138733,0.009288568049669266,-0.01912379264831543,0.23643802106380463,0.3183874785900116],[-0.22400380671024323,-0.06932317465543747,-0.05910361185669899,-0.19560295343399048,-0.1749199628829956,-0.08302260935306549,0.034617725759744644,-0.14429868757724762,0.35287603735923767,0.02211178094148636,0.0294084083288908,0.39910730719566345,0.4212678074836731,0.04650387540459633,0.015457588247954845,0.17385520040988922,0.30934590101242065,0.05730846896767616,0.06178835406899452,0.20682013034820557,0.13126884400844574,0.03594271466135979,-0.06193745881319046,0.1211051195859909,0.12033532559871674,0.024858316406607628,0.14515948295593262,0.08969073742628098,0.03987890109419823,0.034744992852211,0.20639623701572418,-0.017312616109848022,0.10034152865409851,-0.12827521562576294,-0.016582245007157326,2.7683283860824304e-06,-0.32519713044166565,-0.0340472012758255,0.08280208706855774,-0.10267721861600876,0.027190571650862694,-0.016482723876833916,-0.34287646412849426,-0.029638830572366714,0.09154950827360153,-0.08103109896183014,-0.017055632546544075,-0.024253081530332565,-0.07508189231157303,0.0026256749406456947,0.026645686477422714,-0.10250032693147659,-0.09276068210601807,0.058186523616313934,-0.08941622078418732,-0.007878088392317295,0.00255203596316278,-0.0346389077603817,-0.025783663615584373,0.011351472698152065,0.06914730370044708,-0.14819692075252533],[-0.038963716477155685,0.04915275797247887,-0.07162173092365265,0.022437607869505882,-0.28035247325897217,-0.7229418754577637,0.051189880818128586,0.15099665522575378,-0.04100971296429634,0.06396059691905975,0.12697561085224152,-0.008931886404752731,0.0742783173918724,0.037793729454278946,0.1445804238319397,-0.08791104704141617,0.0077416482381522655,-0.02699926681816578,-0.02109953761100769,-0.0855642631649971,-0.03622587025165558,-0.04505574703216553,-0.0003817060205619782,0.1216585636138916,-0.025222187861800194,-0.05560017377138138,-0.06543587148189545,0.18116262555122375,0.03121749497950077,0.03848555311560631,0.42002230882644653,0.04049619287252426,0.09101467579603195,-0.19801081717014313,0.033939480781555176,-0.04857958108186722,0.2958754897117615,0.007011701352894306,0.13906480371952057,0.028332384303212166,0.028207257390022278,0.013303249143064022,0.02939445711672306,0.036035794764757156,0.1325065791606903,0.03570690378546715,0.0403488390147686,0.03701721131801605,0.2362699806690216,0.05343601480126381,0.04790021479129791,-0.01021643728017807,0.5225677490234375,0.36288437247276306,0.01730174943804741,0.11680284887552261,-0.1327328383922577,0.04094957560300827,0.01709124632179737,-0.09306469559669495,0.18645456433296204,0.9851656556129456],[0.34258851408958435,0.17159077525138855,-0.08699231594800949,0.16321733593940735,0.07620905339717865,-0.23150396347045898,-0.00563009362667799,0.11804746836423874,0.025853704661130905,-0.24692732095718384,-0.1725439876317978,-0.3238038122653961,-0.03171064704656601,0.06818137317895889,-0.12602046132087708,0.07293788343667984,-0.08707588911056519,0.055758580565452576,-0.21064333617687225,-0.01897154562175274,-0.13218587636947632,0.1132245659828186,-0.24269893765449524,0.15237875282764435,-0.10596192628145218,0.08748654276132584,-0.1875530630350113,0.07712769508361816,-0.022380085662007332,0.1259876787662506,-0.21985022723674774,0.023608947172760963,0.13286960124969482,0.1045016348361969,0.06477689743041992,0.06908952444791794,-0.47878775000572205,-0.015492968261241913,0.1659824252128601,0.044559940695762634,-0.0014968999894335866,0.044858697801828384,-0.49803057312965393,-0.11429409682750702,0.17077742516994476,-0.043738044798374176,-0.021083423867821693,0.03196793794631958,-0.17593374848365784,-0.0020211946684867144,0.07246602326631546,0.17014716565608978,0.034799277782440186,0.07984821498394012,0.5107311010360718,0.15400709211826324,0.07353518903255463,-0.03142883628606796,0.0675167664885521,-0.01240161806344986,-0.11297015845775604,0.42610064148902893],[0.07949487119913101,0.11894707381725311,0.13338199257850647,0.22720296680927277,-0.15757159888744354,0.008271433413028717,0.019090134650468826,-0.009457722306251526,0.29426369071006775,0.013034017756581306,0.25296998023986816,-0.14261621236801147,0.11156215518712997,0.04425990581512451,0.024785282090306282,-0.1586848646402359,-0.010549603961408138,0.02659987471997738,0.13350160419940948,-0.3538764417171478,-0.052544303238391876,0.07893774658441544,0.00571139482781291,-0.04248728230595589,0.01585851050913334,0.14600102603435516,0.019395187497138977,0.034152258187532425,-0.007649437990039587,0.033938050270080566,-0.02312345616519451,0.07213985174894333,0.0850846916437149,0.0057282294146716595,0.08647151291370392,0.05420579016208649,-0.03239641711115837,-0.08999209105968475,0.08507776260375977,-0.12102469801902771,-0.016729915514588356,-0.09053783863782883,0.08217083662748337,0.015976594761013985,0.0807499960064888,0.10459413379430771,-0.0029668796341866255,0.08064620196819305,-0.05757917836308479,0.005383654963225126,0.0677327886223793,-0.0009401072165928781,-0.03925174102187157,-0.03137810900807381,-0.24344444274902344,0.06743291765451431,-0.0714656338095665,0.04747515544295311,-0.1278822273015976,-0.03380770608782768,0.10695907473564148,-0.16526588797569275],[-0.2380957454442978,0.10118493437767029,-0.052684806287288666,0.08593220263719559,0.10693402588367462,0.05985737964510918,-0.0465194396674633,-0.1087905615568161,-0.28648796677589417,-0.02319045551121235,-0.2927810847759247,0.43987390398979187,0.05376286804676056,-0.013060225173830986,0.09198866039514542,-0.07480674982070923,0.05176421254873276,0.0024890904314816,0.19916105270385742,-0.01751132309436798,0.015947038307785988,0.031275853514671326,0.2178661823272705,-0.1405121088027954,0.05768873542547226,0.05503479763865471,0.16049440205097198,-0.3300122618675232,0.03586280345916748,0.0833376944065094,-0.40122976899147034,-0.02853352203965187,-0.011988677084445953,-0.11796499043703079,0.009582850150763988,0.0008657029829919338,-0.30477964878082275,-0.045153237879276276,-0.08318740129470825,-0.012979409657418728,0.06391970813274384,0.02148488163948059,0.07611365616321564,-0.016595536842942238,0.0026728108059614897,0.13441041111946106,0.03525948151946068,0.001336753135547042,-0.1527162492275238,-0.05923077091574669,-0.03976720944046974,0.06382107734680176,-0.15517203509807587,0.04996148496866226,0.5043637752532959,-0.058143146336078644,0.025929993018507957,-0.0706668347120285,-0.00606605876237154,0.0009462187299504876,0.07335435599088669,0.18396222591400146],[-0.27274835109710693,-0.005019024480134249,-0.07642006129026413,0.033630505204200745,-0.019699376076459885,-0.42145371437072754,-0.0006807477329857647,-0.3492339849472046,-0.14402931928634644,-0.09574899822473526,0.1901153028011322,-0.08485161513090134,0.029561929404735565,-0.12675480544567108,0.14488372206687927,0.007240344770252705,-0.061459802091121674,-0.11759521067142487,0.06075557321310043,0.03599704056978226,0.04853002354502678,-0.10785359144210815,0.02927466295659542,0.0008420284721069038,-0.004172469023615122,-0.12065279483795166,0.0028618264477699995,-0.10278701782226562,0.09995990991592407,-0.039040885865688324,-0.5304097533226013,-0.013526697643101215,-0.08049550652503967,0.06195271760225296,0.12972892820835114,-0.04901228845119476,-0.036039240658283234,-0.008993232622742653,0.005379883106797934,0.032662685960531235,0.12465588748455048,0.04664939269423485,-0.0026642889715731144,0.11627206206321716,-0.10241083800792694,0.08931928128004074,0.09009820967912674,0.008135498501360416,-0.0840199813246727,0.15921954810619354,0.06953369826078415,-0.0352340005338192,0.040948186069726944,0.21284787356853485,0.05215778201818466,-0.061670973896980286,-0.17589198052883148,0.10096103698015213,-0.0179988294839859,-0.07857420295476913,-0.11747908592224121,0.2726321220397949],[-0.042021095752716064,-0.027846524491906166,0.12726256251335144,-0.033687181770801544,0.022950666025280952,0.0209256112575531,0.06732165068387985,-0.29638049006462097,0.05086203292012215,0.15212394297122955,0.07040612399578094,0.003909674007445574,-0.07776688784360886,0.039974842220544815,0.15480171144008636,-0.04104933515191078,-0.0546167753636837,0.09500918537378311,0.09808194637298584,-0.23702824115753174,0.07903306931257248,0.026047280058264732,0.20279671251773834,-0.1379999816417694,-0.01700025238096714,-0.03219223767518997,0.034352678805589676,0.11286225914955139,-0.20410071313381195,-0.07340734452009201,0.006125748623162508,0.054768189787864685,0.0642969161272049,-0.10350368916988373,0.03792945295572281,-0.1401538848876953,0.02126154862344265,-0.21618081629276276,0.024779167026281357,-0.05940013378858566,0.06525511294603348,0.045514386147260666,-0.13536523282527924,-0.14468158781528473,0.043356724083423615,0.060642801225185394,0.04966006800532341,0.06254065036773682,-0.08134477585554123,0.04176216572523117,-0.05836688354611397,-0.14884978532791138,-0.09610144793987274,0.048063505440950394,-0.42428603768348694,-0.12584799528121948,-0.10540060698986053,-0.024708092212677002,-0.10927388072013855,-0.12302976846694946,0.12012344598770142,0.6164039969444275],[0.2956360876560211,0.12769244611263275,0.0946415588259697,0.43350258469581604,-0.12943942844867706,0.08373884856700897,-0.024112874642014503,0.28856831789016724,-0.08555979281663895,0.09010720998048782,-0.08976787328720093,0.1571655422449112,0.014290872029960155,0.014427670277655125,-0.04116430506110191,0.0879831537604332,0.037678830325603485,-0.01844489574432373,-0.030343076214194298,-0.09278339147567749,0.012165662832558155,0.03378491476178169,0.09725477546453476,0.02052432857453823,0.006699317134916782,0.057349152863025665,0.06047883629798889,0.07320517301559448,0.0320238433778286,0.02195284701883793,0.4777141809463501,-0.050051480531692505,-0.04481767863035202,-0.04668455943465233,0.019734283909201622,0.0863572433590889,0.36428970098495483,-0.03442733362317085,-0.12492937594652176,-0.02516723796725273,0.020175449550151825,0.03338117152452469,0.13587020337581635,-0.12883439660072327,-0.07799901813268661,0.02772068977355957,-0.006481395568698645,0.023439079523086548,0.0684133917093277,-0.0867651030421257,-0.07681283354759216,-0.2375400811433792,0.10275834053754807,-0.09304589033126831,-0.25864022970199585,0.06888531893491745,0.03684109076857567,0.0850803405046463,-0.03197504207491875,0.07647440582513809,0.09419392049312592,-0.8245735764503479],[0.2470804750919342,0.09856954962015152,-0.03540549799799919,0.3953650891780853,-0.014602958224713802,0.0844000056385994,0.015959475189447403,-0.1754044145345688,0.07264189422130585,-0.07570438086986542,0.26221248507499695,-0.284618616104126,-0.0073049189522862434,-0.025232791900634766,0.2137470841407776,-0.12254530936479568,-0.013199838809669018,0.019727928563952446,0.01405829656869173,-0.1735321283340454,-0.025680487975478172,-0.02808774635195732,0.04656437039375305,-0.13248474895954132,0.009950361214578152,-0.0019754269160330296,0.12562456727027893,-0.22091281414031982,-0.030979745090007782,0.018549269065260887,0.7564657330513,0.03023586794734001,-0.054428961127996445,0.019888605922460556,0.006460702512413263,-0.020034562796354294,0.28865522146224976,0.004429509863257408,-0.03136063367128372,0.21786509454250336,-0.005933825857937336,0.010094698518514633,0.20518432557582855,0.03660065308213234,-0.0067483969032764435,0.00894900131970644,0.010584400035440922,0.023049158975481987,0.18594828248023987,0.031805627048015594,-0.03312777355313301,-0.03843502700328827,-0.06266667693853378,-0.0665879175066948,0.3778308928012848,0.046438802033662796,0.007546109147369862,-0.07317143678665161,0.00783588271588087,-0.006422854494303465,-0.002884478075429797,0.38366347551345825],[0.27051761746406555,-0.08306297659873962,0.05850201100111008,-0.2723512053489685,8.207930659409612e-05,-0.3449593186378479,0.08148956298828125,-0.5929754972457886,-0.017980430275201797,-0.07865959405899048,0.006270313169807196,-0.06411071121692657,-0.05926670879125595,-0.08634121716022491,0.08549004048109055,0.025685176253318787,0.004847331438213587,-0.08604756742715836,0.1426626592874527,-0.09940264374017715,-0.003915899898856878,0.03717891126871109,0.0026532814372330904,0.03293432295322418,-0.023474253714084625,0.0829189345240593,-0.1434861570596695,-0.016761142760515213,-0.018734978511929512,0.015812035650014877,-0.07077351212501526,-0.026051746681332588,0.14968837797641754,0.09698255360126495,0.05866178125143051,0.06266463547945023,-0.49766144156455994,0.0158053170889616,0.12610779702663422,-0.04969165846705437,-0.08556201308965683,-0.04864966869354248,-0.2397291660308838,0.0010156799107789993,0.2213311344385147,-0.044203344732522964,0.016643138602375984,0.049082498997449875,-0.6805105209350586,-0.05452427268028259,0.03245867043733597,0.06520279496908188,0.02007037214934826,-0.46728596091270447,-0.169398233294487,-0.07883618026971817,0.0017682939069345593,0.05651472881436348,-0.006779593415558338,-0.039348114281892776,0.09192969650030136,0.1632653772830963],[0.17670845985412598,0.014757167547941208,0.027859656140208244,0.14202424883842468,0.2913174331188202,-0.07970624417066574,0.12370413541793823,0.029428720474243164,0.16948899626731873,0.024999365210533142,-0.33392876386642456,-0.0530681386590004,-0.2650545537471771,0.004023542627692223,-0.1924104392528534,0.034587312489748,-0.2848203480243683,0.01243018638342619,-0.18838103115558624,0.1830604374408722,-0.16629189252853394,0.02609867975115776,-0.22887872159481049,0.10251813381910324,-0.015046676620841026,0.012208954431116581,-0.03662462905049324,0.22134025394916534,-0.04969104751944542,0.035616837441921234,-0.5399472117424011,0.009984464384615421,-0.1261320263147354,0.053213246166706085,-0.003777134232223034,-0.005657893139868975,-0.3199020028114319,0.0004672527138609439,0.0066408030688762665,0.21320241689682007,-0.006683433894068003,-0.0025832343380898237,-0.39201438426971436,-0.03486935794353485,0.022803179919719696,0.3124538064002991,-0.0054703508503735065,0.04600077494978905,-0.25711119174957275,-0.007578798569738865,-0.15888838469982147,0.15948486328125,-0.0834217369556427,0.031691230833530426,-0.14038105309009552,0.004013430792838335,0.022148728370666504,0.03405366092920303,0.009058942086994648,0.015125753358006477,0.1850970834493637,-0.005556585267186165],[0.1446625292301178,0.11767683178186417,-0.11099542677402496,0.07531353086233139,-0.09809815883636475,0.5502684116363525,0.0012618375476449728,-0.03749479725956917,-0.00351838325150311,0.20417870581150055,-0.01467975415289402,0.05073297768831253,-0.04086863622069359,0.09476538747549057,-0.030444106087088585,-0.10985150933265686,-0.03331021964550018,0.05532578378915787,-0.0638129711151123,-0.010283791460096836,-0.010528611950576305,0.03143870085477829,0.13550767302513123,-0.03857279196381569,0.01732315868139267,0.018371714279055595,0.10168568044900894,-0.2706594467163086,0.06290115416049957,0.0009491289965808392,-0.21871644258499146,0.041273102164268494,-0.131976917386055,0.14688830077648163,0.022819165140390396,0.0027744420804083347,0.1456272304058075,0.01952926628291607,-0.22345860302448273,-0.022349512204527855,0.026895439252257347,-0.005402710288763046,-0.03282716125249863,-0.051658257842063904,-0.1407669186592102,0.015156835317611694,0.007492106407880783,0.01881709136068821,-0.10577961802482605,-0.036701951175928116,-0.118167445063591,0.04817206785082817,0.017505671828985214,0.8314517140388489,-0.18779291212558746,0.010269947350025177,-0.012018147855997086,0.059298671782016754,-0.008565662428736687,0.0314609669148922,-0.04180044308304787,-0.7261310815811157],[-0.055616945028305054,-0.027207618579268456,-0.08478618413209915,-0.13951243460178375,-0.10013741254806519,0.25969088077545166,0.007942021824419498,-0.015359536744654179,0.5839225649833679,-0.0006182745564728975,-0.2719193696975708,0.49089863896369934,-0.0853608250617981,0.0037401763256639242,-0.009481756947934628,0.2945006191730499,0.011936831288039684,0.02637338452041149,-0.047754716128110886,0.16493578255176544,-0.013425108976662159,-0.037470679730176926,0.05966591462492943,0.11628609895706177,-0.030354686081409454,-0.0274826493114233,0.01670834608376026,0.01311770174652338,0.04400892183184624,0.03386985510587692,-0.28717300295829773,0.049802426248788834,-0.04820907488465309,-0.0919627919793129,0.03416600078344345,0.010698029771447182,-0.2544339895248413,0.03360050544142723,-0.09764521569013596,-0.04520729184150696,0.030553726479411125,0.02237286977469921,-0.27238303422927856,-0.10887853056192398,-0.04143528267741203,-0.03141619637608528,0.024882469326257706,0.0092379255220294,-0.1724763661623001,0.11108808219432831,-0.030772404745221138,0.0024283721577376127,0.11409377306699753,0.03449279069900513,-0.15714021027088165,-0.10266073048114777,0.07955403625965118,-0.03693690896034241,0.03532534837722778,0.028291858732700348,0.24177275598049164,-0.8672815561294556],[-0.07720696181058884,0.2166767567396164,-0.037003930658102036,0.1079210564494133,-0.05786546692252159,0.023730166256427765,0.2185642123222351,0.3753209412097931,0.3001159727573395,-0.09204411506652832,0.08515270799398422,-0.07007259130477905,-0.11463083326816559,-0.07920967042446136,-0.046081069856882095,0.10785850882530212,0.06974416226148605,-0.03547379747033119,-0.06239748001098633,0.03972458466887474,0.0954461321234703,-0.03938442841172218,-0.28246620297431946,0.32365649938583374,0.1083265021443367,-0.01148217637091875,-0.06487148255109787,0.4426189064979553,-0.028779568150639534,-0.014409787952899933,0.34328874945640564,0.006773744244128466,-0.014952742494642735,0.03660951182246208,0.06273456662893295,-0.009263229556381702,0.22302094101905823,-0.0046357582323253155,-0.002135844901204109,0.04755992069840431,0.052215561270713806,0.03694838285446167,-0.14602874219417572,-0.03101314790546894,0.04884394630789757,0.03908488154411316,0.049037832766771317,-0.0069193970412015915,0.10440265387296677,0.026198580861091614,0.05664054676890373,-0.07298039644956589,-0.025510156527161598,0.052943598479032516,-0.1869206577539444,0.16346830129623413,0.006575069390237331,0.07786291092634201,0.012957748025655746,-0.08288408070802689,0.0702209547162056,-0.357303649187088],[0.0875888392329216,-0.1083410456776619,0.11067986488342285,0.07263998687267303,-0.03307848051190376,0.3172726035118103,0.26223379373550415,0.14941976964473724,-0.01832820475101471,0.18607021868228912,-0.10435255616903305,0.035881705582141876,0.037712156772613525,0.028937513008713722,-0.06984620541334152,0.042448971420526505,0.06614966690540314,-0.05449702963232994,0.11630400270223618,-0.001354704611003399,0.03257669135928154,-0.03558303415775299,0.06086191534996033,0.06252452731132507,0.030088823288679123,0.038784872740507126,0.05567825958132744,0.03190017119050026,0.024379661306738853,0.06918597221374512,-0.3084004521369934,-0.08344804495573044,-0.17126357555389404,0.06204273924231529,-0.054662272334098816,-0.06405796855688095,-0.08614318072795868,-0.0015693149762228131,-0.14955323934555054,0.08328951150178909,-0.06178659573197365,0.005833675153553486,-0.16183501482009888,0.09457904100418091,-0.2919386029243469,0.11797332018613815,-0.003263449529185891,0.04953131452202797,-0.4411107003688812,0.06461598724126816,-0.09807316213846207,0.06897895038127899,-0.014488404616713524,0.21599845588207245,-0.35661742091178894,0.01877564750611782,0.14749962091445923,0.015061967074871063,0.03849358856678009,0.013404639437794685,-0.022102031856775284,-1.0601329803466797],[0.08568281680345535,0.043313924223184586,0.02011829800903797,-0.12341754883527756,-0.010124118067324162,0.01585370860993862,-0.09974578022956848,0.10774888843297958,0.07398837804794312,-0.22140109539031982,0.13236714899539948,0.049778010696172714,0.06135912239551544,-0.041970379650592804,0.025339506566524506,0.09409252554178238,0.037875935435295105,-0.10998491942882538,0.18926255404949188,0.07260914891958237,0.032594550400972366,-0.1842869520187378,0.26170453429222107,-0.06455984711647034,0.08201956748962402,-0.08799056708812714,-0.06496956199407578,0.0018612270941957831,0.11099354922771454,0.06275264173746109,-0.06253866106271744,0.06754418462514877,-0.004143103491514921,-0.006524313241243362,-0.0372190959751606,0.02685394138097763,0.490115225315094,-0.049063730984926224,-0.09117970615625381,0.04530363157391548,0.002840972039848566,0.00814143382012844,0.22355835139751434,-0.018237048760056496,0.08998619765043259,0.0801999494433403,-0.06568899005651474,0.056773990392684937,0.2679269313812256,-0.06170855835080147,0.020891154184937477,0.02405705489218235,-0.2444644570350647,0.01599876768887043,-0.42833009362220764,-0.1252163052558899,-0.11370976269245148,-0.06155243143439293,-0.1269640177488327,-0.1580415964126587,-0.08316579461097717,0.4181547164916992],[0.3452434837818146,0.24693197011947632,-0.06478559225797653,0.28505635261535645,0.11188666522502899,-0.023192081600427628,0.03664887696504593,0.20809687674045563,-0.13521744310855865,-0.21735349297523499,-0.016365772113204002,-0.1030850037932396,-0.014253927394747734,-0.029096458107233047,-0.3418418765068054,0.278180867433548,0.03651489317417145,-0.010382185690104961,-0.2528950273990631,0.28283584117889404,0.12077026814222336,0.003768370021134615,0.005941634066402912,0.3300834894180298,-0.006917742546647787,-0.0069408416748046875,-0.19484898447990417,0.2517452538013458,0.05209388956427574,0.06549376249313354,0.45753610134124756,-0.040810246020555496,-0.07000665366649628,-0.0014518622774630785,-0.02135160192847252,-0.00542854517698288,0.7184468507766724,-0.04963522031903267,-0.20523613691329956,-0.0501534566283226,0.012793143279850483,0.010062961839139462,0.4617847204208374,0.0481848418712616,-0.19531874358654022,-0.1650315672159195,0.026216452941298485,0.06316681206226349,0.43111133575439453,0.012633553706109524,-0.18037430942058563,0.009026607498526573,-0.15217794477939606,-0.031944744288921356,0.33707162737846375,-0.10155384242534637,0.14258314669132233,0.09381311386823654,-0.06430620700120926,0.1110469177365303,0.024860763922333717,-0.3736991882324219],[0.05999245122075081,0.18309953808784485,-0.13013820350170135,0.18420076370239258,-0.03624892607331276,0.09238523244857788,0.26458966732025146,0.06939629465341568,-0.018374193459749222,0.009086155332624912,0.3907835781574249,-0.3854234218597412,0.012139963917434216,0.0006565981893800199,0.047878772020339966,-0.19589103758335114,-0.00021429199841804802,-0.0031283970456570387,0.16986821591854095,-0.32611504197120667,0.00755347078666091,-0.010584448464214802,0.11748337745666504,-0.2886965870857239,0.004143163096159697,0.005600116681307554,0.14490669965744019,-0.15183869004249573,-0.0018740809755399823,0.007968739606440067,-0.4171755313873291,0.010218431241810322,0.00916101410984993,0.13230161368846893,0.0010175270726904273,-0.015504535287618637,-0.28583112359046936,-0.00959037896245718,-0.0017767768586054444,-0.06394010782241821,0.0034569026902318,-0.004589709918946028,-0.2591724693775177,-0.04032332822680473,0.013554085977375507,0.08880054950714111,0.013702278025448322,0.013234731741249561,-0.23238477110862732,-0.005641895812004805,-0.012160694226622581,0.17410799860954285,-0.017166364938020706,-0.027084454894065857,0.36702680587768555,-0.0008666011271998286,0.012647672556340694,-0.10879185050725937,-0.0014153236988931894,-0.003307879902422428,-0.02517770789563656,-0.12560726702213287],[-0.3008531928062439,-0.05352766811847687,-0.18346981704235077,-0.20264992117881775,-0.049184754490852356,-0.11861293762922287,0.08675073832273483,-0.12801147997379303,-0.382161945104599,-0.08162504434585571,0.21855823695659637,-0.02893773466348648,-0.2679350972175598,0.07622130960226059,0.16990607976913452,0.16035179793834686,-0.07443571090698242,0.051221612840890884,0.08887823671102524,0.18310998380184174,-0.07950592041015625,-0.01582799106836319,0.031828511506319046,-0.01700872927904129,-0.07475967705249786,-0.013301183469593525,-0.00776648661121726,0.21375253796577454,0.04632840305566788,-0.00893324799835682,0.29154491424560547,0.0810762420296669,0.026079867035150528,-0.10906881839036942,0.0359104685485363,0.08095236122608185,0.03730858117341995,0.014941615983843803,0.08132659643888474,0.09409590810537338,0.041449934244155884,0.0543409138917923,-0.19275112450122833,-0.04285908862948418,0.09951481223106384,0.04714002460241318,0.07134024053812027,0.0030239010229706764,0.11002669483423233,0.010551517829298973,-0.10368738323450089,0.0401739627122879,-0.01264876127243042,-0.019423017278313637,0.1567630171775818,-0.13102321326732635,0.041399914771318436,-0.1361446976661682,-0.06466197967529297,0.009700641967356205,0.0739487037062645,0.7823163270950317],[-0.033518724143505096,0.01981780305504799,0.14651961624622345,-0.23992939293384552,0.2951260209083557,-0.9605216979980469,-0.03167049586772919,0.1380554735660553,0.09039842337369919,-0.12165967375040054,-0.03953210636973381,0.16625550389289856,-0.22916309535503387,0.0520569384098053,-0.08054827153682709,0.1251484602689743,-0.2695258557796478,0.08507698029279709,-0.006790567189455032,0.15621516108512878,-0.16220006346702576,0.03785649687051773,-0.007328054402023554,0.2943097651004791,-0.05403471738100052,0.008508912287652493,0.22785760462284088,0.11338336765766144,-0.0574045293033123,-0.009874946437776089,0.5291882157325745,0.031316522508859634,0.04308722913265228,-0.006068069487810135,0.008976811543107033,0.036412108689546585,0.14047856628894806,-0.006807378958910704,0.16950903832912445,-0.006194802932441235,-0.02862328477203846,0.0258360356092453,-0.3117736577987671,-0.05200258269906044,0.3427351117134094,-0.09056058526039124,0.00935237668454647,0.006033724173903465,-0.2198093980550766,0.09503259509801865,0.11682526022195816,0.025368789210915565,-0.05516697093844414,0.11819235980510712,0.21732035279273987,-0.08234615623950958,0.04890558868646622,0.004206419922411442,0.038145847618579865,0.04357702285051346,0.11396630108356476,-0.28434866666793823],[0.18077370524406433,-0.04779988154768944,0.05822288990020752,0.0259621050208807,0.06150718778371811,-0.20385120809078217,-0.010403159074485302,0.09820234030485153,-0.05003093183040619,-0.01739365980029106,0.31542906165122986,0.10207109898328781,0.1254761964082718,-0.025973152369260788,0.03428378328680992,-0.038471635431051254,0.026448097079992294,0.02185661718249321,0.02358153648674488,0.15317392349243164,-0.048630908131599426,0.05786960572004318,-0.0014994344674050808,-0.11176012456417084,0.07257863134145737,0.004498888738453388,0.1390867531299591,0.1267702579498291,-0.0519455149769783,-0.1187816634774208,-0.34284961223602295,0.09988980740308762,-0.009876587428152561,0.06816862523555756,-0.08548480272293091,-0.12500247359275818,0.1884755790233612,0.07386284321546555,0.12017908692359924,0.03733251616358757,-0.063174307346344,-0.07684063911437988,-0.25269782543182373,0.0947723388671875,0.11198493838310242,-0.07424761354923248,-0.03833390399813652,0.013596190139651299,0.05291400104761124,0.1429184228181839,-0.04673778638243675,0.049164239317178726,0.06097671017050743,0.09354014694690704,-0.4442597031593323,-0.10137053579092026,-0.04422340542078018,0.12383299320936203,-0.015195807442069054,-0.1103477030992508,0.19553478062152863,0.5503548979759216],[-0.5002404451370239,0.09818889945745468,0.11402944475412369,-0.14814409613609314,0.13184039294719696,-0.12007807195186615,0.16003859043121338,-0.6250706911087036,0.0034029309172183275,0.1298622190952301,0.1497945338487625,-0.13565532863140106,0.05454801023006439,0.24260176718235016,-0.03744596615433693,-0.22076930105686188,-0.009232275187969208,0.21135833859443665,0.1281442493200302,0.011458758264780045,-0.04984542354941368,0.055897001177072525,-0.04213088005781174,0.0695657730102539,-0.040399350225925446,-0.021910522133111954,0.028048498556017876,0.039174605160951614,0.05834340676665306,0.08347035199403763,-0.025349339470267296,-0.04168858751654625,0.23875407874584198,0.02044869028031826,-0.01436816155910492,-0.015338892117142677,-0.05969298258423805,-0.04899732023477554,-0.06639620661735535,0.22517016530036926,-0.07251632213592529,-0.04390156269073486,-0.1865568459033966,0.10862801969051361,-0.10460732877254486,0.21530555188655853,0.042243052273988724,-0.010498418472707272,-0.2071642130613327,0.01597246341407299,0.1514449417591095,0.15122942626476288,0.10749902576208115,0.10680433362722397,-0.13454729318618774,0.180370032787323,-0.01382008008658886,0.09387067705392838,0.11629783362150192,0.01374116912484169,0.12099672108888626,0.26444005966186523],[-0.26870933175086975,0.09130921214818954,-0.09929411858320236,-0.05778023973107338,0.07326965779066086,0.013011753559112549,-0.12385047227144241,-0.023412181064486504,0.05760601535439491,0.14334893226623535,0.19326505064964294,-0.0573013499379158,0.11939214915037155,0.0990162268280983,0.15939220786094666,0.14491304755210876,0.04882808402180672,0.028215399011969566,0.12849852442741394,0.0831046923995018,-0.01249526347965002,-0.08146026730537415,-0.05625123530626297,-0.03047018125653267,0.016801076009869576,-0.02869139239192009,0.12642185389995575,-0.25951412320137024,-0.03437509387731552,0.06948121637105942,-0.38404056429862976,-0.13906313478946686,-0.15218284726142883,0.0755312442779541,-0.07824039459228516,0.022216271609067917,-0.1927139312028885,0.10417838394641876,0.04836827144026756,0.05993106961250305,-0.034337710589170456,0.09681614488363266,-0.25028926134109497,-0.0848345011472702,0.07339054346084595,0.07110661268234253,-0.022000227123498917,-0.023109011352062225,-0.38528871536254883,0.12339790165424347,0.16443610191345215,0.08610177785158157,-0.10834965109825134,-0.009068170562386513,-0.47535839676856995,0.023539498448371887,-0.0946609377861023,-0.042543187737464905,0.013509172946214676,-0.07699649035930634,0.10789791494607925,-1.0191622972488403],[-0.06983216106891632,0.023340390995144844,0.03339006379246712,-0.021570270881056786,-0.512919545173645,0.3550277054309845,-0.03813198581337929,-0.40783441066741943,0.23768998682498932,-0.25782811641693115,-0.36787378787994385,0.2808544933795929,0.39658090472221375,-0.04693024978041649,-0.22886288166046143,0.40146079659461975,0.22773347795009613,-0.03198480233550072,-0.1520024985074997,0.19531592726707458,0.022998308762907982,-0.04409906268119812,0.004006413742899895,-0.0017990809865295887,0.0063206893391907215,0.013416357338428497,-0.12662972509860992,0.10215023905038834,-0.01221392396837473,0.02999504655599594,-0.1699712574481964,0.09824254363775253,-0.1488237828016281,0.0497274324297905,0.027821019291877747,0.0027548768557608128,-0.20024122297763824,0.07882244884967804,-0.16080749034881592,0.08884307742118835,0.021223342046141624,0.029623432084918022,0.09890346229076385,-0.009067138656973839,-0.15126311779022217,0.0767250657081604,0.020283153280615807,0.047343287616968155,-0.09961092472076416,-0.012337048538029194,-0.20088647305965424,0.2015560269355774,0.09262113273143768,0.19852790236473083,-0.17320013046264648,0.020281044766306877,0.20387184619903564,0.11688385903835297,-0.006362565327435732,0.08206184208393097,0.3670579493045807,-0.8608905076980591],[0.33898064494132996,0.23100218176841736,0.10989652574062347,0.2591361403465271,-0.07666829228401184,-0.017351986840367317,0.27114585041999817,-0.02029840648174286,0.00032794338767416775,-0.04197635129094124,0.016604343429207802,-0.14807531237602234,0.008941657841205597,0.05046234652400017,0.006766044069081545,0.01385077927261591,0.07554414123296738,0.05570942908525467,-0.01670294627547264,0.09021114557981491,0.016886739060282707,-0.06862135231494904,-0.00012250144209247082,0.04656686261296272,0.006068455055356026,-0.022506428882479668,0.13169512152671814,0.0781344398856163,0.08028214424848557,-0.02994401566684246,-0.32426947355270386,0.019917074590921402,-0.04052059352397919,-0.13891759514808655,0.0773344412446022,-0.008483846671879292,-0.23983187973499298,0.022692827507853508,-0.03998385742306709,0.03949269279837608,0.02480348013341427,-0.033016055822372437,-0.1393197774887085,0.039646364748477936,0.006202001590281725,-0.031913548707962036,0.03029182367026806,-0.055530697107315063,-0.2674330472946167,0.011416526511311531,-0.02208520658314228,0.06233233958482742,0.3994116485118866,0.01930919475853443,-0.625927746295929,0.06453186273574829,0.13202331960201263,-0.17323420941829681,0.048968713730573654,0.007419770583510399,-0.06258004158735275,0.8410829901695251],[0.09223330020904541,-0.16358138620853424,0.029393194243311882,-0.07230784744024277,0.1240040734410286,0.0324217863380909,0.23398727178573608,0.43754255771636963,0.06748437136411667,-0.20196810364723206,0.03442693129181862,0.14970891177654266,-0.004510410595685244,-0.14148718118667603,0.24744033813476562,0.027479112148284912,-0.05464843660593033,-0.004609852097928524,-0.04253885895013809,0.06706701219081879,0.027561279013752937,-0.0037549787666648626,0.1214527115225792,0.12655000388622284,-0.028789324685931206,-0.014669647440314293,0.11644192785024643,-0.047711245715618134,-0.07692942023277283,0.16296620666980743,-0.10020855069160461,0.01664700359106064,0.1738673597574234,0.032790329307317734,0.003801126964390278,0.06728274375200272,-0.13378044962882996,0.0012702946551144123,-0.09090481698513031,-0.09583322703838348,-0.053194429725408554,0.057364657521247864,-0.3068332374095917,0.022995391860604286,0.05205860733985901,0.10780017822980881,0.0097328657284379,0.012575965374708176,-0.27698594331741333,0.06707429885864258,0.03417162224650383,0.011456375941634178,0.12047122418880463,0.0988597720861435,-0.286327064037323,0.18185868859291077,-0.04156206548213959,-0.02684023231267929,-0.03983583301305771,0.07398038357496262,0.05636540800333023,-0.09151693433523178],[0.10091699659824371,0.1431107074022293,0.0069207497872412205,0.06876674294471741,0.2539939284324646,0.06744953989982605,0.02184518240392208,0.00872919149696827,-0.09832300245761871,0.06316634267568588,0.05600372329354286,-0.07328493893146515,-0.007638417650014162,0.05548614263534546,0.01795719563961029,-0.1082598939538002,0.01157299429178238,0.06418616324663162,0.12473850697278976,-0.21207638084888458,-0.004499129951000214,0.0254502110183239,0.053770020604133606,-0.05879747122526169,-0.0504537969827652,0.06556473672389984,0.09945501387119293,-0.2123771607875824,-0.0713309794664383,-0.1128518208861351,-0.3618236184120178,0.010533664375543594,0.12298524379730225,0.04170514643192291,-0.09689588844776154,0.01873983070254326,-0.5255372524261475,0.051233578473329544,-0.08475566655397415,-0.11589758098125458,-0.14724095165729523,0.05746513232588768,-0.6454602479934692,-0.0163551215082407,0.08869307488203049,-0.10867417603731155,-0.05420946329832077,0.024303806945681572,-0.2881137430667877,0.11227118968963623,-0.06058639660477638,0.016329091042280197,-0.009916753508150578,0.2522510290145874,-0.16119669377803802,-0.09688059985637665,0.01620151475071907,0.093582384288311,-0.07388538867235184,0.0013046232052147388,0.0439889095723629,-0.6448085904121399],[0.11848367005586624,-0.040344513952732086,-0.028332361951470375,0.1275198608636856,-0.030538519844412804,-0.15380343794822693,0.12807419896125793,-0.28413695096969604,0.013387729413807392,0.058127712458372116,-0.15484833717346191,-0.03548409789800644,0.04363337159156799,0.08230513334274292,-0.11974835395812988,0.14469999074935913,-0.010815036483108997,0.12336218357086182,-0.09825021028518677,0.21140874922275543,0.00993856880813837,0.063720703125,-0.21432611346244812,0.081474170088768,-0.013494140468537807,0.04315061494708061,-0.014098572544753551,0.0045436169020831585,-0.026531405746936798,0.0313151553273201,-0.274356871843338,-0.0059144520200788975,0.12717168033123016,-0.03740950673818588,-0.010265949182212353,-0.044225871562957764,-0.44983890652656555,-0.025822510942816734,0.1192023828625679,0.09020210802555084,0.06614203751087189,-0.025027098134160042,-0.32129746675491333,0.006062287371605635,0.15657153725624084,0.20538750290870667,0.03652927652001381,0.005954379681497812,-0.17668001353740692,0.009079612791538239,0.159006729722023,-0.0431174710392952,-0.02651038207113743,-0.3847583830356598,-0.4140169322490692,-0.02334621548652649,0.010940988548099995,0.18995119631290436,-0.01899460330605507,-0.027086926624178886,0.10174635797739029,-0.6425255537033081],[0.018820086494088173,-0.017924539744853973,0.03666780889034271,0.06633533537387848,-0.23965315520763397,-0.13008186221122742,0.026850132271647453,0.48225781321525574,-0.21188196539878845,-0.0839722603559494,0.3030465543270111,-0.03982241824269295,-0.029149703681468964,-0.02481190301477909,0.10379628092050552,-0.02954777143895626,-0.03564252331852913,0.009646877646446228,0.15143664181232452,-0.04234272986650467,0.07060620933771133,-0.0430709607899189,0.05734990909695625,0.037334755063056946,-0.0022684012074023485,-0.018529951572418213,0.14110657572746277,-0.32813605666160583,-0.09197957813739777,-0.016472192481160164,-0.12110377103090286,0.03203579783439636,0.12308482080698013,0.001679414534009993,-0.01867167465388775,-0.04690902307629585,-0.2930455505847931,0.05538616329431534,0.08337552845478058,0.011583258397877216,0.002608315087854862,0.004614740610122681,-0.18359370529651642,-0.008672944270074368,0.08554534614086151,-0.0540141798555851,-0.05321044474840164,-0.010793585330247879,-0.281849205493927,-0.02848709002137184,0.011768234893679619,-0.13858680427074432,-0.04770468920469284,-0.15048350393772125,-0.18533740937709808,0.0600779764354229,-0.08065754920244217,-0.05454464629292488,-0.05964312702417374,-0.04577198624610901,0.0735725685954094,-0.7573837637901306],[-0.10920010507106781,0.10203859210014343,0.04224167764186859,-0.21970313787460327,-0.0813203752040863,0.08228066563606262,0.039020419120788574,0.24220649898052216,-0.1282467544078827,-0.011848251335322857,0.2295856475830078,-0.030181294307112694,0.1707056611776352,-0.04504692181944847,0.0392773300409317,0.07085653394460678,0.2738123834133148,-0.06041078642010689,-0.09676214307546616,-0.010978491976857185,0.08784443885087967,-0.07867340743541718,0.11801605671644211,-0.013183093629777431,0.025833748281002045,-0.026952743530273438,0.03609321638941765,-0.05443236231803894,-0.1687612533569336,0.12360890954732895,0.24280771613121033,0.013600379228591919,-0.13825184106826782,0.08400014042854309,0.03895030543208122,0.032352082431316376,0.012175686657428741,0.046961355954408646,-0.24035339057445526,-0.014571655541658401,0.021319610998034477,0.018432095646858215,0.011385208927094936,-0.02547299675643444,-0.05666584521532059,0.0322989895939827,-0.015584731474518776,-0.018825462087988853,0.013163436204195023,-0.04933357611298561,-0.05083908513188362,0.04428158700466156,-0.09068279713392258,-0.11966224759817123,-0.1605386584997177,-0.13533201813697815,-0.017473287880420685,0.07004602253437042,0.02015337534248829,-0.005572530906647444,0.20659500360488892,-0.07428503036499023],[-0.212161123752594,0.040022071450948715,0.019711527973413467,-0.11832912266254425,0.29648053646087646,0.34329426288604736,0.06978167593479156,0.10698571801185608,-0.007009983528405428,0.04610886424779892,-0.052586041390895844,-0.026725515723228455,0.03403986990451813,0.027583658695220947,-0.022426383569836617,0.010386805981397629,-0.002445356920361519,0.01602405123412609,0.005924365017563105,0.11403130739927292,-0.0015296979108825326,-0.0005439985543489456,0.04917140305042267,0.030760126188397408,0.0034541974309831858,0.01627970114350319,0.14661796391010284,-0.13789035379886627,-0.004757668357342482,0.024787748232483864,0.1144181489944458,0.022414784878492355,-0.06020697206258774,-0.0043421583250164986,-0.010853968560695648,0.011450388468801975,0.2433156818151474,0.022109944373369217,-0.07718835771083832,0.06179102137684822,-0.010663904249668121,0.007844150066375732,0.31251949071884155,-0.009400535374879837,-0.016055170446634293,-0.007939949631690979,0.01047475915402174,0.01172406505793333,0.0956823006272316,-0.014569757506251335,-0.06876873224973679,0.11097915470600128,-0.9913474917411804,-0.30148079991340637,0.16956984996795654,0.010085170157253742,-0.011091327294707298,-0.04009326174855232,0.008159222081303596,-0.03267812356352806,-0.15426482260227203,0.8737684488296509],[-0.05814228951931,0.06265600770711899,0.11742148548364639,-0.18122372031211853,-0.2570860683917999,-0.11480152606964111,0.04132401943206787,0.12270714342594147,0.03582195192575455,0.047135770320892334,-0.34066861867904663,0.39846205711364746,0.12300308048725128,-0.03790481761097908,-0.2748412787914276,0.6963869333267212,0.033611446619033813,-0.0024936855770647526,-0.21775522828102112,0.5053063035011292,0.007356447167694569,-0.049070075154304504,-0.04240070655941963,0.3554183840751648,0.007630453445017338,0.04273000359535217,-0.09567630290985107,0.056949835270643234,0.01139719970524311,-0.06581570953130722,-0.08690037578344345,0.05231904983520508,0.02667989581823349,0.08438180387020111,0.010803434997797012,-0.02504265494644642,-0.012820360250771046,-0.04570889472961426,0.050162773579359055,0.041234806180000305,-0.024150138720870018,-0.049002427607774734,0.1343517154455185,0.009948424063622952,0.051501207053661346,-0.009234552271664143,0.006139201577752829,0.020503582432866096,0.39273688197135925,-0.009367646649479866,0.019912835210561752,-0.023440612480044365,0.024156326428055763,-0.07427199929952621,0.31128785014152527,0.054896339774131775,-0.08866549283266068,0.16904081404209137,-0.020812591537833214,-0.019362986087799072,-0.1047283336520195,0.16576093435287476],[-0.04511741176247597,0.08994756639003754,0.12527430057525635,0.05357430502772331,0.07342323660850525,-0.06933005154132843,-0.005859570112079382,-0.795502781867981,0.01840740628540516,-0.03539473935961723,0.05156949535012245,-0.09746062010526657,0.04674830287694931,-0.004869256168603897,0.2024257779121399,-0.05720125883817673,-0.038834746927022934,0.04428277909755707,0.23430411517620087,0.0617273673415184,0.07007825374603271,0.07266033440828323,0.06466216593980789,-0.13076667487621307,0.04280570149421692,0.07793458551168442,0.07912079989910126,-0.15018267929553986,-0.12540751695632935,0.08735012263059616,0.3308020830154419,0.02768036723136902,-0.20700176060199738,-0.005438469350337982,-0.1295195370912552,0.0022189063020050526,-0.2641094923019409,0.02206886000931263,-0.06542222201824188,-0.06192710995674133,-0.039047785103321075,0.05011334642767906,0.18625807762145996,-0.1235022246837616,-0.19307707250118256,-0.0456371046602726,-0.004407172556966543,0.02331635169684887,0.18215525150299072,-0.010388510301709175,-0.11206123232841492,-0.06814055889844894,-0.1353905349969864,-0.05369175598025322,-0.148899108171463,-0.15158267319202423,-0.11677020788192749,-0.053670719265937805,0.008902693167328835,-0.04499375447630882,0.20304787158966064,-0.9767143130302429],[0.07679913938045502,-0.11854533106088638,-0.009120306000113487,-0.005687623284757137,0.020797038450837135,-0.6131022572517395,-0.06119723618030548,0.08245580643415451,0.028232207521796227,-0.4747096002101898,0.2909267544746399,0.003903046017512679,0.03117216005921364,-0.16281142830848694,0.05893386900424957,0.13103191554546356,0.011958139948546886,-0.10315639525651932,0.11250698566436768,0.11969462037086487,-0.030826693400740623,-0.1587628573179245,0.062062736600637436,-0.09422114491462708,-0.013692324981093407,-0.07454229891300201,0.13389045000076294,-0.04203099384903908,0.057939667254686356,-0.0069219209253787994,0.13308373093605042,0.07363586127758026,-0.02459954097867012,0.07094535231590271,0.004025848116725683,-0.059363238513469696,-0.15624119341373444,0.029550854116678238,0.1305094212293625,-0.0637335255742073,-0.0004381302569527179,-0.018531357869505882,0.09937278926372528,-0.0015802424168214202,0.06767512112855911,0.026750870048999786,0.019676005467772484,-0.012787791900336742,0.28612440824508667,0.01725040376186371,-0.0011882655089721084,-0.033220235258340836,-0.059061143547296524,-0.23034363985061646,0.2942953109741211,0.053341593593358994,-0.11618248373270035,-0.1712442934513092,-0.016345642507076263,-0.031081905588507652,-0.015597225166857243,0.09654495865106583],[-0.06347528100013733,-0.18843728303909302,