{"obs_dim":86,"act_dim":3,"layers":[{"type":"linear","weight":[[0.20853762328624725,0.26573553681373596,0.1550954431295395,0.22378003597259521,-0.09976401925086975,-0.23544414341449738,0.35489436984062195,1.0489037036895752,0.07332480698823929,0.18511265516281128,-0.46295619010925293,0.23310621082782745,-0.3230467438697815,-0.10710495710372925,0.24964219331741333,0.1677764356136322,-0.1637324094772339,-0.1653062254190445,0.1372460424900055,0.06306703388690948,-0.051403164863586426,-0.10445260256528854,0.2998652160167694,0.14553984999656677,0.011455444619059563,0.01866639405488968,0.19652940332889557,-0.21361389756202698,0.006956278812140226,-0.25340038537979126,0.28003165125846863,-0.033498600125312805,0.07150879502296448,0.14499534666538239,0.11473003774881363,-0.03625689446926117,0.5934498310089111,-0.02475784160196781,0.046293243765830994,0.1551433801651001,0.08855011314153671,0.07783714681863785,0.1946234405040741,0.12097647786140442,-0.0625554621219635,0.1855018585920334,0.08755072206258774,0.09944724291563034,0.2564332187175751,-0.1384851187467575,0.1449354588985443,0.1255304217338562,0.01895694062113762,0.09001746028661728,0.31823667883872986,-0.044209156185388565,0.006567713804543018,0.1041836217045784,-0.03699757903814316,-0.11645852774381638,0.11948099732398987,-0.7426636815071106,-0.07238324731588364,-0.05453348904848099,0.22488564252853394,-0.07552001625299454,-0.05552299693226814,0.1768697053194046,-0.11171147972345352,-0.036828335374593735,0.2259199023246765,-0.059345047920942307,-0.08874303847551346,0.35766205191612244,-0.08391054719686508,-0.06773214787244797,0.25577881932258606,-0.09604087471961975,-0.06391822546720505,0.2942158579826355,-0.11173752695322037,-0.014211784116923809,0.23667380213737488,-0.1015469953417778,-0.056699275970458984,0.3336419463157654],[0.00028545851819217205,0.10534331202507019,0.096159428358078,-0.03495589271187782,-0.03171395882964134,-0.2204303741455078,-0.23492936789989471,-0.6871837377548218,0.02694169618189335,-0.1988365650177002,0.10705354809761047,0.03228949010372162,0.09903958439826965,-0.11143281310796738,0.1882919818162918,0.21390783786773682,-0.005468848627060652,-0.11425686627626419,0.16754168272018433,0.24505415558815002,-0.03308204934000969,-0.17455415427684784,0.21783298254013062,0.09750280529260635,0.009253235533833504,-0.12901072204113007,0.09927412867546082,0.09275396913290024,-0.032644037157297134,-0.06848569959402084,-0.03063015453517437,0.05098096653819084,0.08181868493556976,0.13125713169574738,0.004751392174512148,-0.1662961095571518,-0.2286512553691864,-0.0361560694873333,-0.005187042057514191,-0.06195267662405968,-0.07969536632299423,-0.11872118711471558,-0.11851179599761963,-0.1259685605764389,0.00928798783570528,0.025980934500694275,-0.0122170839458704,-0.03619826212525368,0.5173165798187256,0.12337418645620346,0.09587050974369049,0.02817925624549389,0.24979743361473083,0.4872242510318756,0.9772335290908813,0.18084488809108734,-0.08893494307994843,-0.06002221256494522,0.11938629299402237,-0.022046810016036034,-0.12123993039131165,0.8248255848884583,-0.11864553391933441,-0.20688672363758087,-0.11698664724826813,-0.15137304365634918,-0.12185536324977875,-0.10968345403671265,-0.1080554723739624,-0.244789719581604,0.054710134863853455,-0.054286763072013855,-0.13363754749298096,-0.08834698796272278,-0.09971655160188675,-0.1634141206741333,-0.0947505459189415,-0.09618356078863144,-0.15452437102794647,-0.19957590103149414,-0.06550494581460953,-0.26243969798088074,-0.10628685355186462,-0.04465768113732338,-0.12010366469621658,-0.2780661880970001],[-0.006359318271279335,-0.3865238130092621,0.16090309619903564,0.02436181530356407,0.0857531800866127,-0.0952271893620491,0.5783788561820984,-0.3348122835159302,0.002519201720133424,-0.12767456471920013,0.3068580627441406,0.762194037437439,-0.0449269562959671,0.07778248190879822,0.06107860058546066,0.6866925954818726,-0.033588703721761703,0.10041670501232147,-0.13889595866203308,0.48226499557495117,-0.07493087649345398,0.04728784039616585,0.019813120365142822,0.39648333191871643,-0.0222825575619936,0.02330816350877285,0.08394358307123184,0.19658878445625305,-0.019861968234181404,-0.04708021879196167,-0.3322846293449402,-0.023624848574399948,0.012063139118254185,0.09698411822319031,0.011979413218796253,-0.013618022203445435,0.015664996579289436,-0.07932961732149124,0.052491504698991776,0.01765693724155426,0.06262589991092682,0.003389271441847086,-0.05858440697193146,-0.0922880619764328,0.0388810895383358,0.16014470160007477,0.04611353576183319,-0.024960387498140335,-0.2038714587688446,0.007263270206749439,0.046976298093795776,0.11108209937810898,-0.0423932746052742,-0.03455312177538872,-0.7490025162696838,-0.0531729981303215,-0.11499936133623123,-0.03287135437130928,0.006118479184806347,-0.00849381648004055,0.19750778377056122,-0.7221865057945251,0.12071504443883896,-0.11378580331802368,0.003793424693867564,0.11752024292945862,-0.129200741648674,-0.02700866386294365,0.10627135634422302,-0.11350762844085693,-0.035775769501924515,0.13024984300136566,-0.11323919147253036,-0.032498184591531754,0.08634708821773529,-0.13060501217842102,-0.001860688324086368,0.1168990358710289,-0.16043247282505035,-0.06396523118019104,0.08004250377416611,-0.1373765766620636,-0.10348515212535858,0.11109009385108948,-0.11606204509735107,-0.17549705505371094],[0.0714382603764534,-0.14718025922775269,0.28906506299972534,0.1682249903678894,-0.037884894758462906,0.1495690643787384,0.4483710527420044,-0.036636341363191605,0.5312235355377197,0.13375283777713776,-0.11930187791585922,-0.05658280476927757,0.3035720884799957,0.0625748485326767,0.2396801859140396,0.21209809184074402,0.047101445496082306,0.04922360181808472,0.09626530110836029,0.03337791934609413,-0.21041132509708405,0.06463755667209625,0.05601911619305611,0.07570449262857437,-0.09203740209341049,-0.02682548202574253,0.11328744888305664,0.03427078574895859,-0.33384767174720764,-0.18968996405601501,0.04102632775902748,-0.10215964913368225,-0.10026413947343826,0.3074328601360321,-0.13496775925159454,-0.06918632239103317,-0.18627724051475525,-0.09151678532361984,0.033466603606939316,-0.15638719499111176,-0.062021058052778244,0.1415919065475464,0.06978919357061386,0.0445837639272213,0.012116692960262299,0.22772370278835297,-0.06339684873819351,0.040505725890398026,0.37282171845436096,-0.13984642922878265,-0.025997590273618698,0.20148511230945587,-0.22146156430244446,0.4113534092903137,-0.08716336637735367,0.03263520821928978,-0.24748210608959198,-0.03214402124285698,0.026669219136238098,-0.09571173787117004,0.001532906899228692,-0.600852906703949,-0.12962187826633453,0.04362449049949646,0.05399297550320625,-0.028301525861024857,0.09410395473241806,0.19402574002742767,-0.12703944742679596,-0.13633345067501068,0.20090511441230774,-0.06986063718795776,0.024718351662158966,0.2588993012905121,-0.06667467206716537,-0.06894555687904358,0.1974177062511444,-0.08123121410608292,-0.024387480691075325,-0.08137994259595871,0.009928303770720959,-0.09435557574033737,0.2663215398788452,-0.02527971938252449,-0.015732157975435257,4.30978907388635e-05],[0.11397328972816467,0.1094745621085167,0.15942157804965973,-0.019065413624048233,-0.034434724599123,-0.07573312520980835,0.14037956297397614,-0.9729378819465637,0.18873940408229828,-0.3405851721763611,0.29105013608932495,-0.35377615690231323,-0.2822284996509552,-0.04823773354291916,0.3330423831939697,-0.004157576244324446,-0.11944819241762161,0.024089688435196877,0.20377713441848755,-0.21180418133735657,-0.015932438895106316,0.13612224161624908,0.28971919417381287,0.038010381162166595,0.15277940034866333,0.04718218371272087,0.050771892070770264,0.1326303780078888,-0.28228285908699036,-0.07296121120452881,0.059510212391614914,0.019470814615488052,0.04615611955523491,0.016477717086672783,-0.11550049483776093,0.15710775554180145,0.5121148824691772,-0.03585376590490341,-0.09294675290584564,0.14039573073387146,0.04027990996837616,-0.13351376354694366,0.20471933484077454,-0.11037725955247879,-0.08292071521282196,-0.12395196408033371,-0.10256289690732956,-0.09002761542797089,0.6006276607513428,0.16011154651641846,-0.0689079537987709,0.0729210376739502,-0.11124645918607712,-0.014966673217713833,0.1592409759759903,0.00487030204385519,-0.025080878287553787,-0.06896625459194183,-0.2730989456176758,-0.08237410336732864,0.1378515213727951,-0.4316768944263458,-0.05094797909259796,0.02525942027568817,-0.015391522087156773,-0.06804721057415009,0.18768762052059174,0.0680144801735878,-0.1887996792793274,0.11216386407613754,0.07625932991504669,-0.01658806763589382,0.13494618237018585,-0.01448892429471016,-0.15151451528072357,0.21114037930965424,-0.03067244403064251,-0.16344837844371796,0.16485586762428284,-0.05030439794063568,-0.07539194077253342,0.08629167079925537,0.04629230126738548,-0.053823795169591904,0.23055759072303772,-0.21144288778305054],[0.21098552644252777,0.11752689629793167,0.08159109205007553,0.12196985632181168,0.03083708882331848,0.20391502976417542,0.1371171772480011,-0.34217923879623413,-0.01908399723470211,-0.1354469358921051,0.1660880297422409,-0.31329891085624695,-0.0487377755343914,-0.020188529044389725,0.07074692100286484,0.05619083344936371,0.060997411608695984,-0.036190226674079895,0.1318991631269455,0.07478424161672592,-0.13207271695137024,-0.11954615265130997,0.202096089720726,0.2833302319049835,0.040954526513814926,-0.09070368111133575,0.10289400070905685,0.15749673545360565,-0.030418286100029945,-0.11768602579832077,0.5544213652610779,-0.14767257869243622,-0.023098470643162727,0.20108945667743683,-0.0317978709936142,0.16600756347179413,0.16643773019313812,-0.05059141665697098,-0.0532587431371212,0.05143498629331589,-0.06795211136341095,0.09351801127195358,0.5215494632720947,-0.09658893197774887,0.17099985480308533,0.2186940312385559,-0.0035184104926884174,-0.04642088711261749,0.46850526332855225,-0.03757890313863754,0.05385557562112808,-0.0035783955827355385,0.4734954535961151,-0.5595124959945679,0.4078918397426605,-0.10170301795005798,0.05569860339164734,0.2194695919752121,0.006739026866853237,0.0755719318985939,0.2818378508090973,-0.2154455929994583,-0.04777386784553528,0.08038218319416046,-0.25990402698516846,-0.04364689067006111,0.22003819048404694,-0.14410249888896942,-0.22591598331928253,0.22897878289222717,-0.043439678847789764,-0.0007911791908554733,0.22075113654136658,0.11074632406234741,-0.09350667893886566,0.22858375310897827,-0.14306654036045074,0.016378305852413177,0.17150303721427917,-0.20492516458034515,-0.032550979405641556,0.22662672400474548,0.08124945312738419,-0.028576042503118515,0.30459433794021606,-0.26054221391677856],[0.20892183482646942,-0.07382832467556,0.24381199479103088,0.06926870346069336,-0.01045138482004404,-0.3085503578186035,0.18222177028656006,-0.19757959246635437,-0.004083109088242054,-0.0944116860628128,-0.03870036453008652,0.29183122515678406,0.012315786443650723,-0.029002031311392784,0.022605260834097862,0.1322411745786667,0.005215367302298546,-0.0037680361419916153,0.005258061457425356,0.1442212462425232,0.0014702350599691272,-0.0005632985266856849,0.10457795858383179,-0.07260707020759583,0.01213898230344057,0.005402144510298967,0.049756333231925964,-0.04143882170319557,-0.004869512282311916,-0.00359082012437284,0.12152597308158875,-0.019480876624584198,0.015431181527674198,0.16722634434700012,0.006109884008765221,0.02367364801466465,0.03155532479286194,0.017017865553498268,0.026267198845744133,0.26758331060409546,-0.013097453862428665,-0.01993466168642044,0.22155529260635376,-0.018417425453662872,0.0477282889187336,0.002714973408728838,-0.023325761780142784,0.021353034302592278,0.07331463694572449,-0.019735483452677727,-0.013652006164193153,-0.11087552458047867,0.029794830828905106,-1.524928331375122,-1.0190520286560059,-0.00935919489711523,-0.015810079872608185,0.07243431359529495,0.00470313522964716,0.0059432960115373135,0.12777908146381378,-0.9702931046485901,-0.01286292728036642,-0.19410981237888336,0.0183776393532753,-0.004953203722834587,-0.20319080352783203,0.04691886156797409,-0.021032238379120827,-0.18787117302417755,0.044102564454078674,0.0059318519197404385,-0.19467750191688538,-0.04726670682430267,0.0028587046544998884,-0.18507394194602966,-0.04103242978453636,0.02026938647031784,-0.2025272101163864,-0.0530928373336792,0.013400644063949585,-0.17738327383995056,-0.06263865530490875,0.016445966437458992,-0.1874513328075409,-0.07048019766807556],[0.20047645270824432,0.25099071860313416,0.04315722733736038,0.23849450051784515,-0.24551568925380707,-0.06207142770290375,0.05499466881155968,-0.2782925069332123,-0.06754805147647858,-0.07463067770004272,-0.0902409702539444,-0.7142798900604248,0.48956868052482605,-0.043820593506097794,0.13531319797039032,0.4039697051048279,0.06032799556851387,0.03162078186869621,0.22015810012817383,0.20748122036457062,-0.07493643462657928,0.03983534500002861,0.10530701279640198,0.317966103553772,-0.030706968158483505,0.0637638121843338,0.23675554990768433,0.23305542767047882,0.0652962177991867,0.048532236367464066,-0.26999977231025696,-0.016545750200748444,-0.006268611643463373,0.041192345321178436,0.014985371381044388,0.0358767956495285,-0.09219516813755035,0.08576727658510208,0.0041983602568507195,0.054131753742694855,-0.028036655858159065,0.049139875918626785,0.32321596145629883,0.06791415810585022,0.005802574567496777,-0.0023719186428934336,0.0679456889629364,0.025877660140395164,0.16835187375545502,0.09123215824365616,0.058503564447164536,0.1174962967634201,0.3188510239124298,-0.11394713819026947,-0.38134971261024475,0.1030484065413475,-0.015016417019069195,0.24816466867923737,0.06658576428890228,0.005110722966492176,0.09253745526075363,0.6766599416732788,-0.3623107671737671,-0.039736948907375336,0.2576891779899597,-0.34955137968063354,0.024746917188167572,0.13297241926193237,-0.36499443650245667,0.014877178706228733,0.22463056445121765,-0.43101850152015686,-0.007580605335533619,0.16844740509986877,-0.36624544858932495,-0.06492939591407776,0.11431892216205597,-0.3536852300167084,-0.04212457314133644,0.3694051206111908,-0.38152846693992615,-0.058420103043317795,0.3657931387424469,-0.3678323030471802,-0.09315188974142075,0.3079628646373749],[0.014185682870447636,0.4860089421272278,0.00720145832747221,0.30464088916778564,-0.1820930540561676,-0.05138903483748436,-1.2471041679382324,0.2602314054965973,0.27235114574432373,0.0018795239739120007,-0.2762031555175781,0.3876985013484955,-0.023414185270667076,-0.06262034177780151,0.048509106040000916,1.2336260080337524,0.06048879399895668,-0.041424043476581573,0.02796582132577896,0.6636573672294617,-0.021782562136650085,-0.003536155680194497,0.13751190900802612,0.31176015734672546,0.03125147148966789,-0.017612813040614128,0.06701857596635818,0.1328410506248474,0.05893980711698532,-0.0037997826002538204,-0.006364246364682913,-0.07755616307258606,0.04824630171060562,0.04149362072348595,0.016881421208381653,0.03292470797896385,-0.2552742063999176,-0.011899213306605816,0.08056972920894623,0.04741695523262024,-0.020289257168769836,-0.008238310925662518,-0.1070241704583168,-0.01412114966660738,-0.03421740606427193,-0.04113328456878662,-0.028445472940802574,0.07696359604597092,0.11656678467988968,-0.04527470842003822,-0.009398018009960651,-0.08652479946613312,-0.00875669252127409,0.060330647975206375,0.4770957827568054,-0.0188293494284153,0.052309248596429825,-0.19129513204097748,0.030176350846886635,0.04862478747963905,-0.04915887489914894,0.632909893989563,-0.06247910484671593,0.016879048198461533,0.0938163623213768,-0.08120453357696533,0.021705951541662216,0.053133390843868256,-0.10135643184185028,0.0010788834188133478,0.11940920352935791,-0.1307123750448227,0.03475186973810196,0.15516653656959534,-0.10962937772274017,0.019214674830436707,0.09320852905511856,-0.09774908423423767,0.001817345735616982,0.08315359801054001,-0.11395599693059921,0.016019288450479507,0.3063361942768097,-0.10825887322425842,0.025741327553987503,0.2290038913488388],[-0.03303217142820358,-0.25613072514533997,-0.0572725273668766,-0.012002983130514622,0.17166969180107117,0.13828282058238983,-0.026910996064543724,0.1945313960313797,-0.10116416960954666,-0.10324637591838837,0.2476007342338562,1.517840027809143,0.0051866499707102776,-0.17512910068035126,0.22344428300857544,-0.07862313836812973,-0.10305558890104294,-0.0861835777759552,0.3575391173362732,-0.33759167790412903,-0.024252910166978836,-0.08042484521865845,0.16931909322738647,-0.18502181768417358,-0.006248871795833111,-0.09819716215133667,0.19427214562892914,-0.1684221476316452,-0.04517018795013428,0.11769943684339523,-0.5117239952087402,-0.0528719462454319,0.05812101811170578,0.07312770932912827,0.05420498549938202,0.053029030561447144,-0.1237683966755867,0.019720258191227913,0.05383152514696121,0.019105928018689156,0.13525736331939697,0.021451598033308983,-0.3363717794418335,0.0302521213889122,0.08667538315057755,-0.013143091462552547,0.16065150499343872,-0.04662732034921646,0.029174989089369774,0.06885352730751038,-0.07556168735027313,-0.12620846927165985,-0.19705744087696075,0.11525645107030869,0.07473950833082199,0.04140540957450867,-0.14199650287628174,0.010275053791701794,0.089090995490551,0.11328909546136856,0.0246422179043293,-0.8539561629295349,0.02264506369829178,0.022935355082154274,0.004135380499064922,0.13374964892864227,0.027012288570404053,0.09381861984729767,0.13122953474521637,0.06330198794603348,0.11485131084918976,0.16407711803913116,-0.00540388748049736,0.06872488558292389,0.10297892987728119,-0.02554849348962307,0.09934000670909882,0.19006051123142242,0.0023735687136650085,-0.05515791103243828,0.11125823855400085,0.06594380736351013,0.09914176911115646,0.10542356967926025,-0.04798725247383118,0.05356292054057121],[-0.1756216436624527,-0.12461543828248978,0.011688760481774807,0.061854828149080276,0.07852832973003387,0.031636498868465424,0.24820907413959503,0.46532973647117615,-0.0414714589715004,0.11113206297159195,0.3017570674419403,-0.38039618730545044,0.0032737809233367443,0.12854653596878052,0.15838101506233215,-0.3415870666503906,-0.032846029847860336,-0.05020426586270332,0.26717454195022583,-0.2520151138305664,0.03610963374376297,-0.024186601862311363,0.18048140406608582,0.030301829800009727,0.09295462816953659,-0.05659380182623863,0.1194639652967453,0.12748339772224426,-0.021657714620232582,0.11869238317012787,-0.24349063634872437,-0.035256192088127136,0.01853850856423378,0.1854378879070282,0.16898220777511597,-0.0677172839641571,-0.4636995196342468,0.14051568508148193,-0.1384970098733902,0.174269437789917,0.0026285264175385237,0.1339690238237381,-0.5400972366333008,0.03235597535967827,0.0628475695848465,0.08929688483476639,-0.06332897394895554,-0.11616689711809158,-0.491427481174469,0.18245829641819,-0.08364514261484146,0.31031084060668945,0.006686756387352943,-0.006811069790273905,-0.16994839906692505,-0.031527888029813766,0.15483805537223816,0.07639656960964203,-0.18355771899223328,-0.06635808944702148,0.14648295938968658,-0.6313347816467285,-0.014480146579444408,0.0347738116979599,0.013018161058425903,0.010721820406615734,-0.024208487942814827,0.005763934925198555,-0.016871260479092598,0.04682200029492378,0.06533394753932953,0.03727726265788078,0.022112272679805756,-0.008903727866709232,0.01850135438144207,0.04322616010904312,-0.04295928031206131,0.024640772491693497,0.015408571809530258,-0.07674995809793472,-0.05992090329527855,0.005149588920176029,-0.15959100425243378,0.06511297076940536,0.0490855798125267,-0.10560937970876694],[0.21403537690639496,0.06022383272647858,0.1612890362739563,0.054774947464466095,0.1336044818162918,-0.055787160992622375,0.2768521308898926,-0.07850037515163422,0.2261977195739746,0.22840093076229095,0.5371657609939575,-0.046411603689193726,-0.1103515699505806,0.04315325617790222,0.29624053835868835,-0.6037198901176453,-0.08433827757835388,0.03874075040221214,0.20091231167316437,-0.23762214183807373,-0.08444767445325851,0.10171473771333694,0.15502910315990448,-0.054064761847257614,-0.0019112753216177225,-0.029413798823952675,0.12034940719604492,-0.020791545510292053,-0.19627465307712555,-0.0946352481842041,0.03915475308895111,-0.06295790523290634,0.04557264968752861,-0.13698935508728027,0.11375006288290024,0.0564676858484745,-0.3745235204696655,0.036403294652700424,-0.04826555773615837,-0.03998167812824249,0.14294615387916565,0.05220119655132294,0.15459270775318146,-0.06800076365470886,-0.00743453111499548,0.11425966769456863,-0.09355217218399048,0.10337010025978088,0.07754312455654144,0.06520822644233704,0.03137501701712608,0.00023677751596551389,-0.003770073177292943,-0.08891420066356659,-0.7592868208885193,-0.010152556002140045,0.037504833191633224,0.11002294719219208,-0.010064931586384773,0.06893648207187653,0.30852821469306946,-0.7285817265510559,-0.02590448409318924,-0.1399121880531311,0.3783441185951233,-0.05599259212613106,-0.17133721709251404,0.30864691734313965,0.005853095091879368,-0.10761754214763641,0.27958887815475464,-0.05182981491088867,-0.1581653356552124,0.339537113904953,-0.008373086340725422,-0.13676638901233673,0.5266091227531433,-0.04626600071787834,-0.18869002163410187,0.5831042528152466,-0.05009537935256958,-0.12690767645835876,0.3191908895969391,-0.02901681885123253,-0.1484632045030594,0.4342840611934662],[0.1852646917104721,0.16924604773521423,0.14982767403125763,0.38422754406929016,-0.525359570980072,0.7044357657432556,0.5519225597381592,0.018369175493717194,-0.5752019882202148,0.48076874017715454,0.208889439702034,-0.20394785702228546,-0.026879807934165,0.044221196323633194,0.23084144294261932,-0.07065232843160629,0.0018351784674450755,0.007014534901827574,0.11657840758562088,-0.2824746072292328,-0.0032295044511556625,-0.02381630800664425,0.05600891634821892,-0.0737696960568428,0.05629938468337059,0.005292275920510292,0.08116284757852554,0.11924902349710464,0.030547818168997765,0.018407175317406654,0.016780707985162735,0.06711560487747192,-0.03605005890130997,-0.12945687770843506,0.027103859931230545,0.04730869457125664,0.25567787885665894,0.03974883630871773,-0.06905705481767654,0.13293789327144623,0.007628432475030422,0.0015009804628789425,0.10841595381498337,0.11657796800136566,0.002201581373810768,0.2500598132610321,-0.02750183828175068,0.03486598655581474,0.17842479050159454,0.0249397661536932,-0.047789815813302994,0.16573487222194672,-0.11789756268262863,0.20619304478168488,-0.2475680410861969,-0.005570805631577969,0.00839927513152361,0.1062648594379425,-0.03567104414105415,0.007838902994990349,0.17803339660167694,-1.9476443529129028,-0.3506210148334503,0.5100652575492859,-0.14818044006824493,-0.3152731657028198,0.479938805103302,-0.23137566447257996,-0.26753705739974976,0.44384899735450745,-0.18687504529953003,-0.2483401894569397,0.4532490670681,-0.292163610458374,-0.18855378031730652,0.39245614409446716,-0.35832762718200684,-0.12777255475521088,0.3422492444515228,-0.2792411148548126,-0.057752009481191635,0.25867557525634766,-0.31325945258140564,0.0013633195776492357,0.17155791819095612,-0.3574361801147461],[-0.019912216812372208,0.16727714240550995,-0.010188809596002102,-0.18763408064842224,0.009266137145459652,0.009047209285199642,1.0734976530075073,0.46288540959358215,-0.4383176863193512,0.0354853980243206,0.15106573700904846,0.2764168083667755,0.07096715271472931,0.03761913627386093,-0.18484613299369812,0.3720588684082031,0.04957099258899689,-0.029917467385530472,-0.33245640993118286,0.5223082900047302,0.04907730966806412,-0.06878450512886047,-0.028187638148665428,0.5511289834976196,0.07148297876119614,-0.022323312237858772,-0.15764138102531433,0.30131205916404724,-0.08541987091302872,-0.06881126761436462,-0.638757586479187,0.04987308382987976,0.04686810076236725,0.35505804419517517,-0.013493942096829414,-0.13641846179962158,-1.0262371301651,-0.06171729415655136,-0.04012788087129593,0.14045435190200806,-0.14258302748203278,-0.024385519325733185,-0.6832728385925293,0.06929250061511993,-0.003235687967389822,0.07805003225803375,0.010632461868226528,-0.016036638990044594,-0.16786105930805206,0.016330186277627945,0.08123084157705307,0.018585205078125,0.03275405615568161,0.029751773923635483,0.38588833808898926,0.07155603170394897,0.18769006431102753,0.1270357221364975,0.017323432490229607,0.06493563205003738,-0.1997653841972351,-0.15427032113075256,-0.0701899603009224,0.10859192907810211,0.07362739741802216,-0.11581120640039444,0.12057361006736755,0.011518443934619427,-0.04936477541923523,0.11429818719625473,0.04151047393679619,-0.07737395167350769,0.14233507215976715,-0.10790576040744781,-0.009073915891349316,0.10414853692054749,-0.017412982881069183,-0.03829982131719589,0.06366016715765,-0.052362192422151566,0.04263665899634361,0.05265595391392708,-0.16212938725948334,0.10779064148664474,-0.02313130907714367,-0.15441381931304932],[0.13554751873016357,0.10549617558717728,0.16702900826931,0.18504896759986877,0.7249710559844971,0.2916967570781708,0.14257128536701202,-0.5402361154556274,-0.3946841359138489,0.04289901629090309,-0.05135304853320122,-0.2974718511104584,0.0795569196343422,-0.03874524310231209,0.19810928404331207,-0.0022055907174944878,0.11688987165689468,-0.003586716949939728,0.06175242364406586,0.09228450804948807,0.023887882009148598,-0.04917243868112564,0.1427118480205536,-0.03960449621081352,0.03442632779479027,-0.05768467113375664,0.06882550567388535,0.22650672495365143,0.0372488908469677,0.026192542165517807,-0.003789092181250453,-0.135537251830101,-0.11451455950737,-0.023749979212880135,-0.04947049170732498,0.07626668363809586,0.1014413982629776,-0.0676519125699997,0.034563541412353516,0.10324461758136749,-0.009336451068520546,-0.03938344120979309,0.36886531114578247,-0.029253177344799042,-0.08028057217597961,0.11485738307237625,0.018447887152433395,-0.015567459166049957,0.08000115305185318,0.08085159957408905,0.0658196285367012,0.3154151439666748,0.821186900138855,0.2892029285430908,-0.28059282898902893,0.060116950422525406,-0.006918005645275116,0.05870271101593971,0.04211954027414322,-0.07244919240474701,0.20858745276927948,-1.1204993724822998,0.4747646749019623,0.2624891698360443,0.07508090883493423,0.47210267186164856,0.31150227785110474,0.08266863226890564,0.5046123266220093,0.31530898809432983,0.05881379544734955,0.5559896230697632,0.2683907151222229,0.13269862532615662,0.566519558429718,0.29008105397224426,0.1390044093132019,0.5279839634895325,0.25038591027259827,0.15527351200580597,0.57831209897995,0.251605749130249,0.09311486780643463,0.5369576811790466,0.2253050059080124,0.16653750836849213],[0.32833757996559143,0.16100920736789703,0.25272130966186523,0.4185850918292999,-0.2830469012260437,0.16646037995815277,0.28315386176109314,0.6611096262931824,0.35874149203300476,-0.13727284967899323,-0.05486832931637764,-0.25387316942214966,0.1771734207868576,-0.07363852858543396,-0.07094132155179977,-0.05505368858575821,0.20613783597946167,-0.0791553407907486,0.038056425750255585,0.07463498413562775,0.160558819770813,-0.07499467581510544,0.06488009542226791,0.036267079412937164,0.055736057460308075,0.06225508078932762,0.004922144114971161,0.029637811705470085,0.08659904450178146,0.11343487352132797,0.3191532492637634,0.10124701261520386,0.03030625730752945,-0.08176620304584503,0.10916735976934433,0.10262351483106613,0.04659617319703102,-0.01568124070763588,-0.07989835739135742,0.03599850460886955,-0.02619946375489235,0.08832316845655441,0.29598426818847656,0.013879350386559963,0.11417464911937714,0.07717952877283096,-0.10924548655748367,0.08374807238578796,-0.1638023853302002,0.002802817616611719,-0.037742044776678085,0.14206402003765106,-0.6382802128791809,0.266295850276947,-0.38062071800231934,-0.02147039584815502,-0.12414245307445526,0.25980913639068604,-0.03808511421084404,-0.14450934529304504,0.20973961055278778,-0.9849345684051514,-0.20202329754829407,-0.013999509625136852,0.10418371111154556,-0.2002846896648407,0.019731199368834496,0.11061126738786697,-0.11792321503162384,0.21399274468421936,0.0818048045039177,-0.12231916189193726,0.05668194591999054,-0.13171134889125824,-0.08600679039955139,0.08547719568014145,0.10551012307405472,-0.1557687371969223,0.01674393005669117,0.03572072833776474,0.015435051172971725,0.023867208510637283,-0.11650791019201279,0.02476326748728752,-0.02909763716161251,-0.015645166859030724],[0.08882076293230057,0.31858646869659424,-0.1319655478000641,0.09175003319978714,-0.5315139889717102,-0.1888788640499115,-0.2716321349143982,-0.08328917622566223,-0.06512293964624405,0.19007326662540436,-0.03762146085500717,0.24539537727832794,0.026663314551115036,-0.029295584186911583,0.028933988884091377,0.36217206716537476,0.0204277615994215,0.06904258579015732,0.03238809108734131,0.25431206822395325,-0.06678254157304764,0.06581723690032959,0.03456053137779236,0.06313987076282501,-0.0038675805553793907,0.030437573790550232,0.03530266508460045,0.1775355488061905,-0.03956596553325653,-0.06914517283439636,0.27698764204978943,-0.021331103518605232,0.033142946660518646,0.23020727932453156,-0.04409323260188103,0.12097661942243576,0.6024184226989746,0.06229333579540253,-0.058000169694423676,-0.03635378181934357,-0.0655403807759285,0.011251059360802174,-0.07084615528583527,0.053575240075588226,-0.07763291150331497,-0.10635992884635925,-0.030583811923861504,0.0346972718834877,-0.14759282767772675,-0.02686580829322338,0.07330695539712906,0.1405598670244217,0.8146327137947083,0.4550842344760895,1.2738070487976074,-0.1775854080915451,0.00949094071984291,-0.21286478638648987,0.013148215599358082,-0.030570752918720245,-0.1393662989139557,1.69193696975708,-0.35399189591407776,-0.16862180829048157,-0.1157442033290863,-0.297076016664505,-0.10189469158649445,0.026715101674199104,-0.32076627016067505,-0.23589220643043518,0.0951029434800148,-0.2863330543041229,-0.10318218171596527,0.11140555143356323,-0.33194953203201294,-0.15515467524528503,-0.12097251415252686,-0.2847064137458801,-0.1615910828113556,-0.22441169619560242,-0.29653429985046387,-0.1451643407344818,-0.056644584983587265,-0.2676219046115875,-0.1496092975139618,-0.009876926429569721],[0.10206833481788635,0.1146232858300209,0.3162974417209625,0.28842246532440186,-0.9531307220458984,-0.8776318430900574,0.38947975635528564,0.06172468513250351,-0.8417962789535522,-0.9346590042114258,0.1977146863937378,-0.40789029002189636,0.012968413531780243,0.020733019337058067,0.0743732824921608,-0.08000906556844711,0.02961769886314869,-0.004778341390192509,0.010987524874508381,-0.010419975034892559,-0.002670916495844722,-0.014464055188000202,0.13451430201530457,0.05210905149579048,0.027040263637900352,-0.0028759909328073263,0.11195360869169235,0.0046598101034760475,0.0003556360607035458,0.001287254854105413,-0.03057924099266529,0.04020611196756363,0.06187420338392258,0.1328616887331009,-0.005942078307271004,0.008732965216040611,-0.006787839811295271,0.04725024849176407,0.05332120507955551,0.08257046341896057,-0.005917860195040703,-0.01022020447999239,0.030513986945152283,0.02915341407060623,0.03129171207547188,0.0040910798124969006,-0.003575414652004838,0.011768362484872341,-0.10485371202230453,0.058700431138277054,0.028982235118746758,0.0766373723745346,0.0048581864684820175,0.019423101097345352,-0.13329750299453735,-0.00675076013430953,0.017391640692949295,0.12653791904449463,-0.0019717831164598465,0.015163903124630451,0.21896231174468994,0.23006832599639893,-0.5828442573547363,-0.5494640469551086,-0.09062877297401428,-0.4849804937839508,-0.48084330558776855,0.021127015352249146,-0.3795144855976105,-0.37950390577316284,-0.08355071395635605,-0.2734306752681732,-0.32025039196014404,-0.06912417709827423,-0.18195518851280212,-0.24418245255947113,0.023091556504368782,-0.09173053503036499,-0.15676788985729218,0.11039324849843979,0.043978504836559296,-0.016478896141052246,-0.054256487637758255,0.2034848928451538,0.09343107789754868,0.01695919595658779],[0.0977494940161705,-0.33026638627052307,0.3836868405342102,0.18668299913406372,0.010666150599718094,0.08633142709732056,0.3145648241043091,0.27753934264183044,-0.6916250586509705,0.1194775402545929,0.3173072636127472,-1.0823856592178345,-0.18738925457000732,-0.037801504135131836,0.1891505867242813,-0.1557607650756836,-0.026599692180752754,0.02018599957227707,0.1520152986049652,0.20630286633968353,-0.0077933515422046185,-0.05181468278169632,-0.029480597004294395,0.06501029431819916,0.0034178129862993956,-0.03903752937912941,0.09032624214887619,0.07733338326215744,-0.07372626662254333,0.08620021492242813,-0.058652330189943314,0.03659205883741379,-0.04332396760582924,0.04968518763780594,-0.04002662003040314,0.10597692430019379,0.03477542847394943,-0.0204782672226429,-0.012410329654812813,0.09116332978010178,0.008006079122424126,0.02825215458869934,-0.14055490493774414,-0.04224896803498268,-0.02236846089363098,0.10879666358232498,7.107493001967669e-05,0.04965588077902794,-0.0037697560619562864,0.021042250096797943,0.057155586779117584,0.2472132444381714,-0.16044284403324127,0.09954175353050232,0.029283814132213593,0.08279914408922195,0.1327250450849533,0.14140678942203522,-0.02720920369029045,0.09420713037252426,0.2506784498691559,0.12342067807912827,0.018128231167793274,0.09442401677370071,0.19102604687213898,-0.036953408271074295,0.06414307653903961,0.08816976845264435,0.005021188873797655,0.1205272376537323,-0.02871408313512802,-0.006596888415515423,0.053436439484357834,0.06195114925503731,-0.010373704135417938,0.08069562911987305,0.22502468526363373,-0.1023445650935173,-0.026473158970475197,0.12547361850738525,-0.11190909147262573,0.0493258573114872,0.08587589859962463,-0.061873652040958405,0.05867892503738403,0.0926511213183403],[0.18218441307544708,0.1740933507680893,0.21975356340408325,0.16363270580768585,-0.2982144355773926,-0.10956840217113495,0.162005215883255,0.5197776556015015,0.18225429952144623,0.3093668520450592,-0.07820571213960648,-0.47521984577178955,0.0513228140771389,-0.027413802221417427,-0.2518436014652252,-0.21584713459014893,-0.0383419394493103,-0.011377531103789806,-0.162554532289505,0.3035307824611664,-0.02481164038181305,0.05656062811613083,-0.21365965902805328,0.4362103044986725,-0.04912790656089783,0.13571973145008087,-0.11861046403646469,0.5643609762191772,0.2527187764644623,0.14818298816680908,-0.3747921884059906,0.04092457890510559,0.13749520480632782,0.28255701065063477,-0.11128155142068863,-0.027537213638424873,-0.541404664516449,0.04931207001209259,-0.06663826107978821,0.20657970011234283,-0.13764676451683044,-0.19312076270580292,0.06300030648708344,-0.12941686809062958,-0.043944232165813446,0.21475189924240112,-0.11842092871665955,-0.05934463441371918,0.06892272084951401,0.007186245173215866,0.03763807937502861,-0.03075285814702511,0.2533993422985077,0.044863373041152954,0.534668505191803,-0.07978405803442001,0.1108822226524353,0.1614619493484497,0.16942018270492554,0.07613200694322586,0.15867559611797333,0.8970359563827515,-0.052865538746118546,-0.11777137219905853,-0.007811371237039566,-0.040893152356147766,-0.035988710820674896,0.04158193990588188,-0.12270113080739975,-0.11799191683530807,0.13186509907245636,-0.1484365165233612,-0.11329405754804611,0.08038900047540665,-0.22396185994148254,-0.10467483103275299,-0.019896075129508972,-0.2060929536819458,-0.03896332159638405,0.1436925083398819,-0.20529551804065704,-0.08749447017908096,0.23311664164066315,-0.2746105492115021,-0.00957877840846777,0.10639481991529465],[0.329353004693985,0.2480970174074173,0.22243927419185638,0.14795847237110138,0.30692052841186523,0.3605569005012512,0.005139213055372238,0.07978540658950806,-0.16036880016326904,-0.15669332444667816,0.2648106515407562,-0.011905597522854805,-0.09610997885465622,-0.0304239671677351,0.037825021892786026,-0.04163161665201187,-0.011542098596692085,-0.005901219788938761,0.1425601691007614,-0.09424686431884766,-0.09399997442960739,-0.039871275424957275,-0.08309254795312881,0.08459960669279099,-0.02834532968699932,0.01246089767664671,0.07808093726634979,0.05212010070681572,-0.09062433242797852,0.01488329004496336,0.1285257786512375,0.002277338644489646,0.10363183915615082,0.3371158242225647,0.06876984238624573,-0.044122107326984406,0.4990983009338379,0.03943885862827301,0.06873690336942673,0.13515891134738922,0.058296699076890945,-0.1261165589094162,0.11808009445667267,-0.0023550500627607107,0.07226530462503433,0.11736369878053665,-0.03576527535915375,-0.09996099025011063,-0.08423161506652832,0.13071921467781067,-0.002335790079087019,0.07220624387264252,-0.35122114419937134,-0.4686754047870636,-1.1790475845336914,0.08597135543823242,-0.13741658627986908,0.2954096794128418,-0.04021522030234337,-0.07151560485363007,0.29764559864997864,1.5228664875030518,0.11879013478755951,0.21015703678131104,-0.006895000115036964,0.17589011788368225,0.22726532816886902,0.09734298288822174,0.10546543449163437,0.28871598839759827,0.18449504673480988,0.2068241536617279,0.17575867474079132,-0.027136050164699554,0.19875924289226532,0.21803231537342072,-0.15497986972332,0.3412565588951111,0.2824707329273224,-0.13220623135566711,0.1791442483663559,0.274931937456131,0.05289735645055771,0.1340464949607849,0.15147238969802856,-0.1038987785577774],[0.11624034494161606,0.0008640571031719446,-0.17880131304264069,-0.008393470197916031,0.469166100025177,-0.002217052038758993,-0.1074075698852539,0.07409737259149551,-0.4471355974674225,0.034562595188617706,0.1676192730665207,1.990501880645752,-0.02346055395901203,-0.008603782393038273,0.11635465174913406,-0.05006248503923416,0.014340064488351345,-0.010002808645367622,0.07940707355737686,0.12843917310237885,-1.598452217876911e-05,-0.010460758581757545,0.05381524935364723,-0.07418785244226456,0.02118961326777935,0.004824118688702583,0.07837102562189102,0.07197822630405426,0.018020642921328545,0.010341293178498745,0.02328316867351532,-0.033529531210660934,0.014331689104437828,0.11970116198062897,0.004664290696382523,0.019582074135541916,-0.025592690333724022,-0.014945292845368385,-0.011122639290988445,0.028428006917238235,-0.00975121557712555,0.0008142553269863129,0.013914688490331173,-0.014062360860407352,-0.004077835939824581,0.13912540674209595,-0.024266941472887993,0.02481733448803425,0.043028123676776886,0.0049032187089324,0.00042233403655700386,0.038660358637571335,0.026021812111139297,0.02849254384636879,-0.014831917360424995,-0.006422925274819136,0.02039651945233345,-0.01804601401090622,-0.004074181895703077,0.022731492295861244,0.05550520494580269,-0.43298497796058655,0.34999004006385803,0.0025996086187660694,-0.03388131037354469,0.32044777274131775,0.016433604061603546,-0.0018816102528944612,0.2904076874256134,0.010267187841236591,0.03112862817943096,0.2608487010002136,0.014399395324289799,-0.051531121134757996,0.20437540113925934,-0.003835465759038925,0.004163546487689018,0.14528796076774597,-0.018471067771315575,-0.09485973417758942,0.07567766308784485,-0.00658302940428257,-0.05934750661253929,0.017860455438494682,-0.023680739104747772,-0.07677953690290451],[0.06221706420183182,0.43513453006744385,-0.13578741252422333,0.06045141443610191,-0.06307875365018845,-0.138875812292099,0.552850604057312,0.9272758364677429,-0.027569426223635674,-0.0809144601225853,-0.2917831540107727,0.17423692345619202,-0.07228696346282959,0.09900384396314621,-0.15948563814163208,0.3233925998210907,0.029998453333973885,0.046603571623563766,-0.1137026995420456,0.24383965134620667,-0.083455391228199,-0.008644782938063145,-0.1141493171453476,0.24767206609249115,-0.011227336712181568,-0.03303973749279976,-0.023715587332844734,0.20070937275886536,0.05245550349354744,-0.04513081908226013,-0.711228609085083,-0.05002959072589874,0.12233933061361313,0.09228125214576721,0.10255350917577744,0.1505030393600464,-1.0758264064788818,0.05932252109050751,0.023241493850946426,0.09485261887311935,0.03389306366443634,-0.06416372209787369,-0.759181559085846,0.02026371657848358,0.12496970593929291,0.013358933851122856,-0.09130685776472092,-0.07087236642837524,-0.5380681157112122,0.020312994718551636,0.11806432157754898,-0.025206811726093292,-0.23789291083812714,0.11388804763555527,1.397298812866211,-0.1432812213897705,-0.08942343294620514,0.17818878591060638,-0.13068218529224396,-0.04668181762099266,-0.05752115324139595,0.03220626339316368,0.020674947649240494,-0.08450496196746826,0.2869117856025696,0.03229961544275284,-0.08304375410079956,0.27438175678253174,-0.009736340492963791,-0.023226121440529823,0.22670765221118927,0.02987625263631344,-0.12326144427061081,0.25821420550346375,0.0365229994058609,-0.11494577676057816,0.28894224762916565,0.04204458370804787,-0.1941264122724533,0.4666144549846649,0.03766704350709915,-0.17614391446113586,0.40713125467300415,0.10846102982759476,-0.16261808574199677,0.4708186984062195],[-0.017152387648820877,0.09266006946563721,0.11577647179365158,0.15583465993404388,-0.09190782904624939,0.02894764207303524,0.2667553424835205,0.7925513982772827,0.21844489872455597,0.1328497976064682,0.13733594119548798,0.029836026951670647,-0.05418083816766739,-0.05163853242993355,0.18280209600925446,0.05735025554895401,0.05023299902677536,-0.07849743217229843,0.2609177231788635,-0.08021371811628342,0.021425627171993256,-0.07398244738578796,0.13950495421886444,0.2192949503660202,-0.02882247604429722,-0.12166133522987366,0.13545635342597961,0.015508502721786499,0.15989673137664795,-0.02413858473300934,-0.8174983859062195,0.0030327520798891783,0.10680685937404633,-0.06939780712127686,0.10806170850992203,0.0766509547829628,-1.3565986156463623,0.09962669759988785,-0.09498528391122818,0.3200867176055908,0.10689163208007812,-0.0882481038570404,-0.7472447156906128,0.01646500639617443,0.05402481183409691,0.15807373821735382,0.08094306290149689,0.06922992318868637,-0.6094402074813843,0.0008664678316563368,0.08714728057384491,0.15261609852313995,-0.38568514585494995,-0.04431312158703804,-0.4858378767967224,0.33751600980758667,0.067237488925457,-0.005947903264313936,0.16768111288547516,0.05071345344185829,0.06004725769162178,-1.4369220733642578,0.026293419301509857,-0.06343985348939896,0.20420525968074799,-0.0035228014457970858,-0.029075441882014275,0.11990854889154434,-0.01829657331109047,-0.16557680070400238,0.1416948437690735,-0.025707323104143143,-0.13742700219154358,0.092613086104393,-0.04782696068286896,-0.06307335197925568,-0.051327213644981384,-0.14167290925979614,-0.07165122777223587,-0.03775924816727638,-0.0975782573223114,-0.0004040679195895791,0.024985838681459427,-0.03719697147607803,0.06228611618280411,0.04843366891145706],[0.07843147963285446,0.03360424563288689,0.02336045354604721,0.24595335125923157,0.022532673552632332,-0.027967017143964767,-0.4518814980983734,-0.12035710364580154,-0.010455192998051643,0.062430400401353836,0.1887436956167221,-0.09751217067241669,0.02280149981379509,0.028022445738315582,-0.0013521092478185892,0.14649586379528046,0.016395052894949913,0.026509594172239304,0.06945107132196426,0.05772868171334267,-0.022274842485785484,-0.019241470843553543,0.09912624210119247,0.055666446685791016,-0.0005108590121380985,-0.013856508769094944,0.16818280518054962,-0.054471660405397415,0.11231458932161331,0.019458821043372154,0.8798006772994995,0.00787226390093565,0.024096835404634476,0.15041960775852203,0.01567000523209572,0.038521312177181244,1.0682026147842407,0.009871192276477814,-0.07430562376976013,0.010054449550807476,0.08663772791624069,0.005540830083191395,0.9131720066070557,-0.022210370749235153,-0.024910520762205124,0.06799158453941345,-0.004003157839179039,0.03487338498234749,0.2534455955028534,-0.014781812205910683,-0.00016178065561689436,0.12492227554321289,-0.09176301211118698,0.06824589520692825,1.8323111534118652,-0.025907475501298904,-0.03583943471312523,-0.2541489899158478,0.03694296255707741,0.027075236663222313,-0.22335390746593475,1.3915481567382812,0.03789287433028221,-0.0017888175789266825,-0.039313942193984985,0.05743683874607086,0.03817548602819443,-0.011524524539709091,0.034540556371212006,-0.024329962208867073,0.02921196073293686,0.06640763580799103,0.040454935282468796,0.06942003965377808,0.045593567192554474,0.028127186000347137,-0.030604589730501175,0.05643431469798088,0.023464908823370934,-0.05403340235352516,0.04021398723125458,0.024921968579292297,0.054427944123744965,0.08747291564941406,0.035808537155389786,-0.008138809353113174],[-0.07476041465997696,0.04092574492096901,0.10259507596492767,0.053641997277736664,0.1892562359571457,-0.1659771203994751,0.3818386495113373,0.36092397570610046,-0.33090803027153015,0.1913236826658249,0.22488802671432495,0.40394672751426697,0.003155765123665333,-0.17711493372917175,0.47234123945236206,-0.17466342449188232,0.09987282752990723,-0.14986908435821533,0.2965187430381775,-0.16305528581142426,0.1371387392282486,-0.0703655406832695,0.26460030674934387,0.010551522485911846,0.04826604202389717,-0.019140983000397682,0.1406303197145462,-0.0921039879322052,-0.12178092449903488,0.08306721597909927,-0.4614441692829132,-0.047803737223148346,0.006347110494971275,-0.09491724520921707,0.019007042050361633,0.13620565831661224,-0.2379947304725647,0.07329551130533218,0.04688849672675133,0.0166963841766119,-0.007751973811537027,0.1919151246547699,-0.5410048961639404,0.015601019375026226,0.07210524380207062,0.20579896867275238,-0.06687537580728531,0.2827351987361908,-0.21840497851371765,0.06793767958879471,0.09868279844522476,0.16407983005046844,-0.3570597767829895,0.5231399536132812,-0.667151927947998,-0.28108468651771545,0.13639096915721893,0.06893636286258698,0.020991893485188484,0.04781937226653099,0.28727221488952637,1.171514630317688,0.20374193787574768,-0.11906812340021133,0.1056821346282959,0.22339574992656708,-0.20955081284046173,0.018876617774367332,0.1918085366487503,-0.15109004080295563,0.09465783834457397,0.2254517525434494,-0.04239819943904877,0.0177846048027277,0.16259166598320007,-0.037359245121479034,0.2649059593677521,0.2608407735824585,-0.18962973356246948,0.11859481036663055,-0.01727014034986496,-0.19636014103889465,0.07382670044898987,0.2503697872161865,0.04675950109958649,0.03259223327040672],[-0.28722044825553894,-0.021769030019640923,-0.13613565266132355,-0.17236721515655518,-0.03210068121552467,-0.07916205376386642,0.12076368182897568,0.5639505982398987,-0.021763496100902557,0.03485257551074028,-0.118498794734478,0.19900493323802948,0.003919340670108795,-0.04094020649790764,0.09176481515169144,0.4894568622112274,-0.042135678231716156,-0.005060671828687191,0.09722539782524109,0.15933510661125183,-0.014764065854251385,-0.02155950479209423,0.12676620483398438,-0.08760541677474976,0.013427513651549816,0.028664911165833473,0.24388240277767181,0.019317815080285072,-0.04221142455935478,0.019154099747538567,-0.3586694598197937,-0.004799599759280682,-0.05060678347945213,0.14229992032051086,-0.029503988102078438,0.011986121535301208,-0.028427960351109505,-0.04228708893060684,-0.017467577010393143,0.06501913070678711,-0.011839000508189201,-0.003795207478106022,-0.0340367928147316,-0.008531948551535606,-0.039711520075798035,0.053478874266147614,0.010400621220469475,0.05236632004380226,-0.3501526117324829,0.001463095541112125,-0.0017719089519232512,0.05713226646184921,0.10803770273923874,0.12263254821300507,2.0630645751953125,0.010712133720517159,0.030936378985643387,-0.11745917052030563,-0.021467015147209167,0.024988189339637756,-0.21081602573394775,-0.2731325328350067,-0.03821256384253502,-0.03618021309375763,0.07102767378091812,-0.02846301719546318,0.009336387738585472,0.04009895771741867,-0.019836843013763428,0.010519941337406635,0.09261875599622726,0.008650745265185833,-0.0076201376505196095,-0.04093009978532791,-0.004014680627733469,-0.021103255450725555,0.057151343673467636,0.002457167487591505,-0.030252663418650627,-0.036591120064258575,-0.01967170089483261,0.00828199926763773,-0.005627442616969347,-0.005686887074261904,-0.02143295295536518,0.0031051458790898323],[0.23539549112319946,0.3053474426269531,0.1233852207660675,0.17261211574077606,0.6895584464073181,-0.6842799186706543,0.31793248653411865,0.10448513925075531,0.883326530456543,-0.9548908472061157,0.35615456104278564,-0.3208962082862854,-0.08080189675092697,0.04868064448237419,0.011007181368768215,-0.061759088188409805,-0.021496623754501343,0.007542748469859362,0.08367722481489182,0.025999566540122032,-0.009917001239955425,-0.005527500528842211,-0.0068544489331543446,-0.08410497009754181,0.047557100653648376,0.018571753054857254,0.01573421061038971,0.11951401084661484,0.011730837635695934,0.00615526782348752,-0.3001996874809265,-0.05068839713931084,0.011652961373329163,0.017506366595625877,0.005471053533256054,0.017939487472176552,-0.07627367973327637,-0.06184662878513336,0.044865526258945465,0.10147043317556381,-0.011238881386816502,0.01944497972726822,-0.11344683170318604,-0.027263600379228592,0.07622155547142029,0.13470274209976196,-0.011445805430412292,0.02042298950254917,0.06811370700597763,-0.09733126312494278,0.04602418094873428,0.24932822585105896,0.022503208369016647,0.04829566553235054,-0.4706359803676605,-0.011436397209763527,0.03411636874079704,0.2840125858783722,-0.025503341108560562,0.01816425658762455,0.22421513497829437,-0.989949643611908,0.4642253816127777,-0.4681597054004669,-0.08933881670236588,0.4102139174938202,-0.4360807240009308,-0.01875215955078602,0.3524434268474579,-0.37766116857528687,-0.06948811560869217,0.30889806151390076,-0.30438652634620667,-0.045167967677116394,0.2744489908218384,-0.2783496081829071,0.05422237515449524,0.22976498305797577,-0.2208154946565628,0.028772829100489616,0.1713779717683792,-0.13690033555030823,0.07532079517841339,0.08665420860052109,-0.03098510019481182,0.014633916318416595],[-0.05899132415652275,-0.06363236159086227,-0.04562721773982048,-0.17692308127880096,-0.018929213285446167,0.05908700451254845,0.2944052815437317,0.5005625486373901,0.03038257732987404,0.034501027315855026,0.05983015149831772,0.29373985528945923,0.11688397079706192,-0.1628517061471939,0.1850348711013794,-0.3658996522426605,0.18482185900211334,-0.08688312023878098,0.07783783227205276,-0.3787432909011841,0.05633092671632767,-0.07372279465198517,0.2385440319776535,-0.2524629533290863,-0.0027186661027371883,-0.09247289597988129,0.1478627771139145,-0.2991599440574646,0.08013647049665451,-0.048934586346149445,-1.422282099723816,-0.08280214667320251,-0.001011182670481503,-0.12894433736801147,0.054404713213443756,0.1815347969532013,-0.7308952212333679,0.04559744521975517,0.03286152705550194,0.03166842460632324,-0.011117949150502682,-0.06700591742992401,-0.22039839625358582,0.10800556093454361,0.08907783776521683,0.19086001813411713,0.147597074508667,-0.034044165164232254,-0.7301814556121826,0.030606497079133987,0.019810443744063377,0.07600773870944977,0.11583507806062698,0.3669331967830658,0.43890538811683655,-0.010018867440521717,0.03428519889712334,0.09013278037309647,0.1940890997648239,-0.007217625621706247,0.1397600919008255,-1.1036227941513062,-0.030672553926706314,0.005367720499634743,0.2007172405719757,-0.05482453480362892,-0.016261396929621696,0.07073197513818741,-0.01268116757273674,0.09029480814933777,0.008721396327018738,-0.006627071648836136,-0.002740228781476617,0.07604764401912689,0.042245857417583466,-0.014560901559889317,0.2335115671157837,-0.002853406360372901,-0.06400850415229797,0.22073955833911896,0.036646049469709396,-0.050049811601638794,0.10479792207479477,0.07366472482681274,-0.0397135429084301,0.16584821045398712],[0.1416940689086914,0.0735950767993927,0.003228172892704606,0.1955738067626953,0.04302544891834259,-0.034997694194316864,0.3405134081840515,0.570527195930481,0.4258264899253845,0.08704252541065216,0.016668954864144325,0.07175835222005844,-0.032503653317689896,-0.08155308663845062,0.1322975605726242,-0.2134498953819275,-0.00785929337143898,-0.02340523526072502,0.39982596039772034,-0.21484950184822083,0.0443374402821064,-0.06426627933979034,0.10194147378206253,-0.10126432776451111,0.1086837574839592,-0.04998598247766495,0.029806630685925484,0.05393048748373985,-0.39945298433303833,0.0786566361784935,0.58961021900177,0.0529656857252121,-0.07596556842327118,0.26114654541015625,0.04953576996922493,0.0040220459923148155,0.7488082051277161,0.1546621322631836,-0.18106499314308167,0.1929742842912674,-0.1515655666589737,-0.045896925032138824,0.5066521167755127,-0.0045133125968277454,-0.008170589804649353,0.08380486816167831,-0.03847481682896614,-0.13425342738628387,-0.1324051022529602,-0.021224411204457283,0.11748572438955307,0.31353724002838135,0.24929814040660858,-0.022381946444511414,-0.7057536840438843,-0.07252638787031174,-0.1463831663131714,0.18558287620544434,0.18646809458732605,-0.05915612354874611,0.12471060454845428,0.27034085988998413,-0.1743992418050766,0.07877355068922043,-0.0683494359254837,-0.05348949879407883,0.019052987918257713,0.0747324526309967,-0.06283339858055115,-0.17601928114891052,0.1844652146100998,0.034584879875183105,0.09691208600997925,0.18040476739406586,-0.26356619596481323,0.07497651875019073,0.12545272707939148,-0.041886135935783386,0.04162256419658661,0.14251549541950226,0.03203657269477844,-0.06706289201974869,0.14973360300064087,-0.060352522879838943,0.0029587300959974527,0.30834102630615234],[-1.3971412181854248,0.10054733604192734,0.14284253120422363,0.09723976254463196,-0.16301380097866058,-0.01607052981853485,0.10843639820814133,-0.09349852055311203,-0.04207726940512657,0.0012789585161954165,0.45775583386421204,0.2695218324661255,0.018457984551787376,-0.0218232162296772,0.1990322470664978,-0.14562459290027618,0.07269171625375748,-0.01584038697183132,0.2512994408607483,-0.07125476002693176,0.10499615967273712,-0.009732626378536224,0.21477413177490234,0.10648879408836365,0.0735493078827858,-0.012544356286525726,0.09664152562618256,0.15880055725574493,0.39106541872024536,-0.008742586709558964,-0.35548147559165955,0.05182333290576935,-0.022360900416970253,0.030483439564704895,0.20588478446006775,0.018975308164954185,-0.5262855887413025,-0.0002495325170457363,-0.019875140860676765,0.19727206230163574,0.12601904571056366,-0.008876978419721127,-0.14646263420581818,-0.003732837038114667,0.00628861878067255,0.17297759652137756,0.16083648800849915,0.023510679602622986,-0.3669065833091736,0.026240462437272072,0.00650737015530467,0.01629594713449478,0.42920202016830444,-0.1278393268585205,-1.0040501356124878,0.1713203489780426,-0.025815924629569054,0.1518336683511734,0.08230658620595932,0.02884260006248951,0.19847887754440308,0.1244657039642334,-0.18093200027942657,0.004319897387176752,0.13641077280044556,-0.17979981005191803,0.01901691034436226,0.13243500888347626,-0.1627068966627121,0.05857917666435242,-0.0196577999740839,-0.14928026497364044,0.02311793714761734,0.06973183155059814,-0.14261376857757568,0.0018935339758172631,0.21679019927978516,-0.18252599239349365,-0.010775560513138771,0.2805717885494232,-0.15996825695037842,0.031543076038360596,0.020272955298423767,-0.13239383697509766,0.0033807619474828243,0.13421502709388733],[-0.19446422159671783,0.1692485809326172,-0.1981675624847412,-0.06987107545137405,-0.0012748339213430882,0.0840824544429779,-0.17783969640731812,0.4887170195579529,0.008147801272571087,0.09863296896219254,0.1155872717499733,0.2091449350118637,0.03488818183541298,0.006290346384048462,0.19267438352108002,0.039947688579559326,0.005128799472004175,-0.001991900382563472,0.1754605770111084,-0.033126428723335266,-0.011280936188995838,0.05485577881336212,0.1382158398628235,-0.14339540898799896,0.034427493810653687,0.0038612603675574064,0.11292664706707001,-0.13131563365459442,0.040793098509311676,0.0349547453224659,0.12961143255233765,-0.012170656584203243,0.038006532937288284,0.1504002958536148,-0.011363327503204346,0.04024878144264221,0.03912293538451195,0.025034025311470032,-0.010588123463094234,0.23126770555973053,-0.026710808277130127,-0.01736794412136078,0.08526857197284698,0.024883320555090904,0.032382216304540634,-0.04029679670929909,-0.022172508761286736,0.02322559431195259,0.2973957657814026,0.06857147812843323,0.02774690091609955,-0.054281216114759445,-0.12252477556467056,-0.14141999185085297,1.945909857749939,0.025847241282463074,0.01988454908132553,-0.18216049671173096,-0.013934564776718616,0.021231072023510933,0.0036123592872172594,-0.25334927439689636,-0.0025694463402032852,0.01853862963616848,-0.012318653985857964,-0.014553559012711048,0.033721014857292175,-0.005976651795208454,-0.0007010950357653201,0.03742246329784393,-0.059408366680145264,0.025417650118470192,0.02141004614531994,-0.044349610805511475,-0.00022730744967702776,0.015680400654673576,-0.025219304487109184,0.021792884916067123,-0.007091316860169172,-0.020813634619116783,0.02203272469341755,0.02096007764339447,-0.0002875221543945372,0.04090156406164169,0.009135376662015915,0.056893300265073776],[0.2025109976530075,0.05024544149637222,0.235225647687912,0.10451217740774155,-0.052430421113967896,-0.008007874712347984,0.3199472725391388,-0.09198784083127975,0.633366048336029,0.3148626983165741,0.08855093270540237,0.1358533501625061,0.08161590248346329,-0.13051748275756836,-0.08404773473739624,0.0428268238902092,0.05803696811199188,0.05290078744292259,-0.05415646359324455,0.15156720578670502,-0.038108326494693756,0.07169251143932343,-0.17385254800319672,0.01547026727348566,-0.0404602475464344,0.02817794494330883,0.043751370161771774,0.1254781037569046,-0.12171518057584763,-0.08622189611196518,-0.660120964050293,-0.0018811865011230111,0.07161726802587509,0.14913202822208405,-0.0807209387421608,0.03462744504213333,-0.5285427570343018,0.03381739929318428,-0.00015760163660161197,0.23010344803333282,-0.029404951259493828,-0.029330942779779434,-0.7737184166908264,0.034886252135038376,-0.02657032385468483,-0.09054715931415558,-0.08734530955553055,0.0021976239513605833,-0.34217652678489685,0.06789141893386841,0.02949226088821888,0.18126071989536285,0.37555429339408875,0.09252113103866577,-0.797199547290802,-0.14227642118930817,-0.0020661253947764635,0.3957417607307434,-0.0616271086037159,0.018993737176060677,0.2866610884666443,-1.4160244464874268,-0.050742171704769135,-0.07116508483886719,0.08619645237922668,-0.05997525155544281,-0.012719823978841305,0.1279114931821823,-0.067239910364151,-0.1027778834104538,0.14395856857299805,-0.07986021786928177,-0.008317157626152039,0.18193495273590088,-0.05308682844042778,-0.038843784481287,0.08967322111129761,-0.07104599475860596,-0.0796332061290741,0.033404767513275146,-0.07184819132089615,-0.08426561951637268,0.002628245623782277,-0.004508665297180414,-0.0037198206409811974,0.09258754551410675],[0.05951685830950737,0.09189655631780624,-0.0813816487789154,0.06875936686992645,0.8132696747779846,0.7090209722518921,0.0034214784391224384,0.13798567652702332,-0.13243429362773895,-0.04760097339749336,-0.12291499227285385,-0.055009469389915466,-0.05763094872236252,-0.09450620412826538,-0.06305079162120819,0.1733231246471405,0.05067014694213867,-0.015663504600524902,0.096227265894413,0.037052497267723083,0.0011309882393106818,-0.026674926280975342,0.12582920491695404,0.12030274420976639,0.06478157639503479,-0.01753167435526848,0.1073438972234726,0.12588092684745789,-0.02931777946650982,0.04387960955500603,-0.20166617631912231,-0.042441606521606445,-0.12414857000112534,-0.07491110265254974,-0.0008198595023714006,-0.021934445947408676,-0.20331531763076782,-0.09676064550876617,-0.03933262452483177,0.05692649632692337,0.00036869285395368934,-0.02906012535095215,-0.05511670559644699,-0.11031105369329453,-0.032900236546993256,0.11309251934289932,0.03136765956878662,-0.01618640497326851,-0.021006792783737183,-0.12177618592977524,-0.05188335105776787,0.14937888085842133,-1.215429425239563,-1.2002043724060059,0.8281976580619812,0.05930429697036743,0.07262289524078369,0.029636798426508904,0.07532314956188202,0.02007599174976349,0.05390696972608566,1.4726024866104126,0.6245766282081604,0.540112316608429,0.12815417349338531,0.5856093168258667,0.5131431221961975,0.14878280460834503,0.598838746547699,0.4928465187549591,0.07801932096481323,0.6252588033676147,0.5131291747093201,0.18104153871536255,0.6053830981254578,0.4933059513568878,0.14146435260772705,0.5902233123779297,0.46097996830940247,0.12941761314868927,0.5837293267250061,0.4829953908920288,0.13610902428627014,0.5796267986297607,0.48574239015579224,0.15433701872825623],[-0.11543915420770645,-0.347930908203125,0.1523248851299286,-0.15483908355236053,-0.31823962926864624,0.03460634499788284,-0.04130908474326134,0.08104773610830307,0.40056997537612915,0.026213232427835464,0.22450926899909973,2.1337201595306396,-0.007860730402171612,-0.018554003909230232,0.06284395605325699,0.0008163378806784749,0.016469046473503113,-0.01274594571441412,0.09933260083198547,-0.010421058163046837,0.001785178086720407,-0.010510141961276531,0.09678953886032104,0.17789235711097717,0.0247629527002573,-0.005703487433493137,0.07131973654031754,0.15835535526275635,0.01207631453871727,0.013938047923147678,0.023562975227832794,0.017590487375855446,-0.009463847614824772,0.10559599846601486,0.004429519642144442,0.019256364554166794,0.0008321845671162009,0.02946883626282215,-0.015241788700222969,0.1464834064245224,-0.002269561868160963,0.0027290587313473225,0.0147342374548316,0.0041329143568873405,-0.015323330648243427,-0.028018055483698845,-0.021327538415789604,0.017811687663197517,0.029409563168883324,0.04504464194178581,0.01736115664243698,0.11275583505630493,0.014737757854163647,0.03304724395275116,0.0012532691471278667,-0.009775773622095585,0.01842750422656536,0.031852416694164276,-0.0027854915242642164,0.019580163061618805,0.027170512825250626,0.054046716541051865,-0.29847702383995056,0.025912072509527206,-0.0916019007563591,-0.28944581747055054,0.0334387868642807,-0.09257963299751282,-0.26134276390075684,0.031093405559659004,-0.15980425477027893,-0.22111746668815613,0.030445365235209465,-0.3389472961425781,-0.17686733603477478,0.018080873414874077,-0.3742341697216034,-0.12959735095500946,0.0015246081165969372,-0.4960406720638275,-0.06249130144715309,0.024578312411904335,-0.6479025483131409,0.024143321439623833,0.0137927932664752,-0.5965820550918579],[0.32704249024391174,0.6277886033058167,0.26344552636146545,0.47087299823760986,0.12674720585346222,-0.2687133550643921,0.40360933542251587,-0.5807746052742004,0.24451926350593567,0.20355932414531708,0.05019215866923332,-0.15341302752494812,0.08335322886705399,-0.043197136372327805,0.475283682346344,-0.31371501088142395,0.02670258842408657,-0.005626268219202757,0.2409011274576187,-0.2844076156616211,-0.06288981437683105,0.024053066968917847,0.3723279535770416,-0.20323032140731812,0.03246975690126419,0.01679127663373947,0.25792932510375977,0.032102469354867935,0.07635681331157684,0.05083265155553818,0.09178134799003601,0.03709876909852028,-0.009870713576674461,0.015261473134160042,-0.038302116096019745,-0.002291229786351323,-0.5573840737342834,0.07296201586723328,0.038829684257507324,0.1431993991136551,-0.022198420017957687,-0.018440186977386475,-0.1186012327671051,0.033149804919958115,-0.027069859206676483,0.12356814742088318,0.0012796857627108693,0.05940493941307068,0.05159449577331543,0.024733606725931168,-0.08255691826343536,0.2438562661409378,-0.1065295860171318,0.07223247736692429,-0.9351310729980469,0.07538627833127975,-0.03259160369634628,0.49297773838043213,-0.0254844818264246,-0.022076250985264778,0.06331364065408707,0.1513078808784485,-0.0020992429926991463,-0.12241819500923157,-0.007564347703009844,0.08919325470924377,-0.09332341700792313,-0.10131899267435074,0.05228284373879433,-0.07580439001321793,-0.10647309571504593,0.0720025897026062,-0.11514632403850555,-0.07042397558689117,0.037172187119722366,-0.07309191673994064,-0.03336578235030174,0.049118828028440475,-0.06952045857906342,-0.06903918087482452,0.06299971789121628,-0.039860766381025314,0.03521797060966492,0.06584005802869797,-0.06137145310640335,-0.1549440175294876],[0.13745160400867462,0.13464131951332092,0.2635667026042938,0.12566938996315002,-0.04304153472185135,0.032785624265670776,0.04604416340589523,0.1324145793914795,-0.02877454273402691,0.24106937646865845,0.09900907427072525,-0.18092402815818787,0.09011014550924301,0.08147384226322174,0.18389356136322021,-0.09293588250875473,0.13681288063526154,-0.05556855350732803,0.11205428093671799,0.06588634848594666,0.2162950187921524,0.051411740481853485,0.2445404976606369,-0.08174648135900497,0.01220872811973095,0.10021238774061203,0.18387818336486816,0.23317618668079376,-0.02205703593790531,0.13897660374641418,0.35226720571517944,-0.15191145241260529,0.05717405304312706,-0.2536029517650604,-0.02319103665649891,-0.22533361613750458,0.12808488309383392,-0.0903385579586029,0.08364062756299973,0.0847489982843399,-0.0269387885928154,0.22668690979480743,-0.20972856879234314,-0.0009508358780294657,-0.00530069787055254,0.1299002319574356,0.03853055462241173,-0.019337544217705727,0.379273921251297,0.07283169776201248,0.06627403199672699,0.1131846159696579,0.19109205901622772,0.022185785695910454,0.03439606726169586,0.17990988492965698,0.14560608565807343,0.20964315533638,0.048947833478450775,0.0726185068488121,0.0077318246476352215,-0.14285103976726532,0.0492420457303524,0.027775976806879044,-0.09593840688467026,0.06475215405225754,0.10596261918544769,0.04031437635421753,0.04363993555307388,0.036414261907339096,0.10726413130760193,0.1027417927980423,0.10115794837474823,0.07493235170841217,0.049684345722198486,0.11474211513996124,-0.02875858172774315,0.05390380695462227,0.10997045785188675,0.07815329730510712,0.025433726608753204,0.07822886109352112,0.12684863805770874,0.03274434804916382,0.05420290678739548,-0.014158078469336033],[0.13739937543869019,-0.484180212020874,-0.035055018961429596,0.03997199237346649,0.17123204469680786,-0.048538122326135635,0.18388020992279053,0.014411751180887222,0.060764383524656296,0.1660315841436386,0.18505117297172546,0.2338792085647583,-0.2118712067604065,0.23290789127349854,0.09012836962938309,0.019263729453086853,0.02230389229953289,0.0013095983304083347,0.02868254855275154,0.09379426389932632,-0.11800484359264374,-0.008447552099823952,0.14799320697784424,0.12953439354896545,-0.010372763499617577,0.04259762912988663,0.1047944650053978,0.1414758563041687,-0.009512001648545265,0.02367458865046501,0.01919947750866413,-0.09753107279539108,0.09982805699110031,0.05841083452105522,-0.2349408119916916,0.03747726231813431,0.01051169540733099,-0.061179451644420624,0.021105485036969185,0.2237301468849182,-0.02049083635210991,-0.12001469731330872,-0.5034506320953369,-0.19595883786678314,-0.07724861055612564,0.10002299398183823,0.02231297269463539,-0.07135143876075745,-0.24594354629516602,-0.04951081797480583,0.02766207605600357,0.2041805535554886,-0.026783771812915802,-0.298242449760437,-0.3863566815853119,-0.14082635939121246,0.28936105966567993,0.09137897193431854,0.19550015032291412,0.1976562887430191,-0.024250468239188194,-0.04530021920800209,0.12634946405887604,-0.0882156640291214,0.08337175101041794,0.1381138563156128,-0.0965091660618782,0.20191101729869843,0.1318730264902115,-0.08386759459972382,0.26049014925956726,0.134440079331398,-0.07416835427284241,0.08694472163915634,0.16230054199695587,-0.06547805666923523,0.06970865279436111,0.18678896129131317,-0.05821434408426285,0.005072006490081549,0.1061134934425354,-0.015558073297142982,0.061883345246315,0.16361777484416962,-0.08540943264961243,0.17185990512371063],[-0.0487680658698082,-0.09980891644954681,-0.15611742436885834,-0.11988840997219086,0.09709387272596359,0.06473017483949661,0.5214726328849792,0.13437916338443756,-0.02232738584280014,0.13668374717235565,0.09216157346963882,-0.19426831603050232,-0.03969169408082962,-0.03685940429568291,-0.1071949154138565,0.15225206315517426,0.04813629388809204,-0.08179419487714767,-0.057726193219423294,0.3801092803478241,0.06262409687042236,-0.020457332953810692,0.0872894898056984,0.16952285170555115,0.06621934473514557,-0.0059537505730986595,-0.012845924124121666,0.21684323251247406,0.08295629918575287,0.023934660479426384,0.056462302803993225,-0.04812249168753624,0.02502671256661415,0.09742795675992966,0.06675571203231812,0.017662549391388893,0.4281461238861084,0.009471132420003414,0.004312585107982159,0.060903921723365784,0.06620515137910843,-0.043404728174209595,0.04308778792619705,0.07071956247091293,-0.01822546310722828,0.04600385203957558,0.03806393966078758,0.025693463161587715,0.2658621668815613,0.010626542381942272,-0.044788703322410583,-0.0673445388674736,-0.03666769713163376,-0.0556415393948555,1.8648929595947266,0.04193741828203201,-0.0010942857479676604,-0.11869292706251144,0.04624572768807411,0.0006112319533713162,-0.1028413474559784,-0.731822669506073,0.017254924401640892,0.053250011056661606,-0.06238987296819687,0.034459058195352554,0.021516820415854454,-0.0055501931346952915,0.05609044432640076,0.052685126662254333,-0.1578783243894577,0.030650924891233444,0.017608918249607086,-0.1802547723054886,0.06531231105327606,0.04248375818133354,-0.15006914734840393,0.024218937382102013,0.03789014741778374,-0.2100890576839447,0.07990308851003647,0.06255251169204712,-0.3659670054912567,0.05725356563925743,0.04794362932443619,-0.3580898642539978],[0.31481799483299255,0.1204293891787529,0.20154662430286407,0.18129085004329681,0.4217666685581207,0.4983217418193817,0.3390023410320282,0.3028216063976288,0.9012999534606934,0.38311323523521423,0.47706887125968933,-0.4319811463356018,0.06068022921681404,-0.04920753091573715,0.16135923564434052,-0.16920317709445953,0.07198622077703476,-0.012469281442463398,0.010264545679092407,-0.20119161903858185,0.00934699084609747,0.007515340577811003,0.19241413474082947,0.05237157642841339,0.015033893287181854,-0.026082944124937057,0.11630836129188538,0.09551512449979782,0.009492912329733372,0.014045638963580132,0.3394274115562439,-0.02186708152294159,-0.007360443472862244,0.07964659482240677,0.018458759412169456,0.020518338307738304,0.27806541323661804,0.029733281582593918,-0.008972828276455402,0.12521763145923615,0.01796865649521351,-0.006414008792489767,0.04139523580670357,-0.05005846917629242,-0.14140930771827698,0.17125603556632996,0.019234325736761093,0.01161105278879404,-0.03080061823129654,0.09817421436309814,-0.006944152992218733,0.007569706067442894,-0.03177323564887047,0.1065167710185051,0.017097655683755875,0.007069534156471491,0.03958098217844963,0.04592544212937355,-0.004957560449838638,0.0025559065397828817,0.07840460538864136,-0.8138870000839233,0.24451637268066406,0.33898863196372986,-0.0739879161119461,0.23363949358463287,0.35182130336761475,-0.10500527918338776,0.29429149627685547,0.3833771347999573,-0.10255381464958191,0.2574760913848877,0.31183600425720215,-0.13293203711509705,0.28238826990127563,0.299685537815094,-0.21626797318458557,0.28148382902145386,0.21515242755413055,-0.21832385659217834,0.27619993686676025,0.19727560877799988,-0.10913966596126556,0.2839512825012207,0.13697084784507751,-0.04405137151479721],[-0.11187340319156647,-0.10412231087684631,0.07949021458625793,-0.007867000997066498,0.17166516184806824,0.17614497244358063,0.14034922420978546,0.299117773771286,0.061207305639982224,0.10333040356636047,0.1341800093650818,0.3712098300457001,-0.14391246438026428,-0.11271554231643677,-0.07024305313825607,0.8394081592559814,-0.04535449668765068,-0.04416990652680397,0.14301159977912903,0.5658759474754333,-0.030453871935606003,0.0028935151640325785,-0.0646335706114769,0.2527519762516022,0.02120748907327652,0.010130184702575207,0.0818360298871994,0.3022979497909546,0.03620940074324608,0.024714574217796326,0.3933659493923187,2.633482108649332e-05,0.10616742074489594,0.029017986729741096,-0.05173139646649361,0.041870370507240295,0.33460336923599243,0.015757163986563683,-0.03759568929672241,-0.06174523010849953,-0.04006471857428551,-0.020168451592326164,-0.2085045874118805,-0.015972290188074112,-0.048118531703948975,-0.09337754547595978,-0.026231059804558754,0.008799956180155277,-0.2759896516799927,-0.026256022974848747,-0.005480012856423855,-0.0014092688215896487,0.03340485319495201,0.0631709173321724,0.1591705083847046,-0.027639146894216537,0.005647359881550074,-0.08737809211015701,-0.009182753972709179,0.010391687043011189,0.11993899196386337,-0.7525433301925659,0.1464722603559494,0.15791484713554382,-0.9090448617935181,0.22403155267238617,0.15248708426952362,-0.9482972025871277,0.17471909523010254,0.1315668672323227,-0.9988017678260803,0.1842612326145172,0.17634780704975128,-1.304783821105957,0.19146691262722015,0.1809276044368744,-1.2113611698150635,0.20532070100307465,0.1856645792722702,-1.4109935760498047,0.20590738952159882,0.17916573584079742,-1.6413111686706543,0.18878892064094543,0.11925507336854935,-1.9440187215805054],[0.1275402307510376,0.1991320699453354,0.022686200216412544,0.02787899598479271,0.020845066756010056,0.1396176517009735,0.15546461939811707,0.24738916754722595,0.02275347337126732,-0.0656920000910759,0.3780219852924347,-0.0738590732216835,-0.2545158565044403,-0.008203128352761269,0.25479620695114136,-0.29610157012939453,0.11879589408636093,0.22301718592643738,0.21485504508018494,-0.3009503185749054,0.08487419784069061,0.09977007657289505,0.2581079304218292,-0.12011666595935822,0.059430696070194244,-0.04519147053360939,0.15377335250377655,0.05669039860367775,-0.10326344519853592,0.12790195643901825,-0.5921253561973572,0.019079651683568954,0.028178123757243156,-0.12456171214580536,0.0024096921551972628,0.013415799476206303,0.1400229036808014,-0.0021745890844613314,0.009784829802811146,-0.08464036881923676,0.0321226641535759,0.09415292739868164,0.2375210076570511,-0.001853816444054246,-0.008117935620248318,0.20249773561954498,0.08749482035636902,0.002235327148810029,0.11663752049207687,0.04861373081803322,0.022033318877220154,0.21769388020038605,-0.15720278024673462,0.19769394397735596,-0.4616198241710663,0.08691192418336868,-0.07870326191186905,0.18951380252838135,0.05117538571357727,0.016002196818590164,0.10116198658943176,-0.6445043683052063,-0.017079778015613556,0.00481313606724143,-0.08745460957288742,0.011616178788244724,0.0005025449208915234,-0.12278001755475998,0.0005653246189467609,-0.009458483196794987,-0.08797959983348846,0.015363707207143307,0.01604010909795761,-0.10993538051843643,-0.00326460856013,0.010321326553821564,-0.1412634253501892,0.010655096732079983,-0.0314321294426918,-0.12228246033191681,0.017960235476493835,-0.001770226750522852,-0.12173781543970108,0.04711996763944626,-0.015358268283307552,-0.11550400406122208],[0.10410052537918091,0.3384043872356415,0.254344642162323,0.12981544435024261,-0.12734250724315643,0.13588964939117432,0.32417869567871094,0.7622588276863098,0.008577764965593815,0.276839941740036,0.08641649037599564,-0.2919914424419403,0.06692768633365631,-0.03986026346683502,0.2455870360136032,-0.30515366792678833,-0.09618672728538513,-0.11176291853189468,0.13108623027801514,-0.24332623183727264,-0.11362247169017792,-0.03703787550330162,-0.09250359237194061,-0.03529055416584015,0.01094208937138319,0.15708082914352417,-0.05244443193078041,0.050881560891866684,0.16713927686214447,-0.05194534361362457,-0.3906729221343994,0.022128980606794357,0.12032382190227509,0.1269785612821579,-0.27563363313674927,-0.156838059425354,-0.3589785099029541,-0.08621499687433243,0.019214626401662827,0.2695191204547882,0.25921064615249634,-0.268339067697525,-0.6137505173683167,-0.0965111255645752,0.032038819044828415,0.08626344799995422,0.043988652527332306,-0.10614638030529022,-0.11249011754989624,-0.014670293778181076,0.04518057778477669,0.15547563135623932,-0.05534597486257553,0.09330864995718002,-0.49137356877326965,-0.04168408364057541,0.03444695845246315,0.08803059160709381,-0.09355665743350983,0.17584751546382904,0.1382112205028534,-1.7248265743255615,-0.08825252950191498,-0.015977054834365845,0.06877168267965317,-0.09822732210159302,-0.04962780326604843,0.056713610887527466,-0.13765157759189606,0.10707035660743713,0.0035411734133958817,-0.1369670033454895,0.07725473493337631,-0.05040565878152847,-0.12821052968502045,0.05710139125585556,0.06014212593436241,-0.14913882315158844,0.07803057134151459,0.05335497856140137,-0.008994762785732746,0.025258377194404602,0.02662801183760166,0.041450779885053635,0.06269897520542145,0.23605237901210785],[0.06429340690374374,-0.030360637232661247,0.136351078748703,0.21855953335762024,0.07178960740566254,0.07051398605108261,0.6516939401626587,0.7416601181030273,0.31652259826660156,0.41199982166290283,0.30488327145576477,0.29122936725616455,0.2614347040653229,0.27310219407081604,0.1237764060497284,-0.42986544966697693,0.14634732902050018,0.1238299012184143,0.07319358736276627,-0.23442764580249786,0.05180511251091957,0.07201533019542694,0.21802698075771332,-0.15957850217819214,0.05715649574995041,0.05679304152727127,0.13172206282615662,0.03412015363574028,0.01801699958741665,0.006535267923027277,0.10968583822250366,-0.08994141221046448,-0.0678332969546318,0.16561472415924072,0.055126551538705826,0.01855510100722313,0.2795015275478363,-0.0810152217745781,-0.07099222391843796,0.07130558788776398,-0.002041551750153303,-0.05880049988627434,0.1283993422985077,-0.11004624515771866,-0.07998906075954437,0.10811347514390945,-0.04559953510761261,-0.09175296127796173,-0.17046266794204712,0.0009101041941903532,-0.09958691149950027,0.06985046714544296,0.20221102237701416,0.1886405050754547,-0.4361226558685303,0.019392121583223343,-0.10314220935106277,0.2891135811805725,0.01912296935915947,-0.06739029288291931,0.1365538090467453,0.14502568542957306,0.13973753154277802,0.16033506393432617,-0.14486315846443176,0.15158650279045105,0.161436066031456,-0.21044692397117615,0.06216464936733246,0.21071140468120575,-0.14595375955104828,0.1047816202044487,0.18606267869472504,-0.21682648360729218,0.09250660985708237,0.1532433182001114,-0.16986015439033508,0.09616982936859131,0.1512463241815567,-0.2222554087638855,0.05269142985343933,0.17406725883483887,-0.28775936365127563,0.09499421715736389,0.13189826905727386,-0.31273987889289856],[0.15393716096878052,-0.09498907625675201,0.17910531163215637,0.23061096668243408,0.012592817656695843,0.11379449814558029,0.16774144768714905,-0.12447727471590042,0.19164671003818512,0.25456875562667847,0.2566366195678711,0.7189907431602478,0.02201836183667183,0.2420704960823059,0.21696914732456207,-0.03402993083000183,0.08181078732013702,0.17592914402484894,0.17447662353515625,-0.47635579109191895,0.0961730107665062,0.2253423035144806,0.11910665780305862,-0.25950804352760315,0.173366978764534,0.15418463945388794,-0.017493339255452156,-0.3106031119823456,0.014395447447896004,0.03318667411804199,0.8321164846420288,0.0022143288515508175,-0.0026685744524002075,0.05572183057665825,0.06627871841192245,-0.10570448637008667,0.11152318120002747,0.014444961212575436,0.06872525811195374,0.09212468564510345,0.12767012417316437,-0.06309445947408676,0.4344874322414398,-0.05046919733285904,0.07890975475311279,0.07864625006914139,-0.015398385003209114,0.06951981782913208,-0.1981445997953415,0.030151981860399246,0.017005229368805885,0.3592393398284912,0.11308163404464722,0.05245998501777649,-0.7911587357521057,0.13017477095127106,0.03335625305771828,0.3674605190753937,0.003639037488028407,0.0009051297092810273,0.1567060351371765,-0.4234740734100342,-0.003814738243818283,-0.13079890608787537,0.18612456321716309,-0.001597458845935762,-0.109595887362957,0.20453767478466034,0.020201342180371284,-0.08530718088150024,-0.011984179727733135,0.09594879299402237,-0.019117293879389763,0.2065991759300232,0.0517248660326004,-0.048215266317129135,0.22972124814987183,0.10285252332687378,-0.07140599936246872,0.18521933257579803,0.0817733034491539,-0.04588041454553604,0.1720295399427414,0.07968807965517044,-0.0565374381840229,0.1204875037074089],[0.30402401089668274,0.1450110524892807,0.12498185783624649,0.0615113228559494,0.02343147248029709,0.10023916512727737,0.2859213650226593,-0.25369787216186523,-0.20344609022140503,-0.0855397880077362,-0.10763301700353622,0.13869814574718475,-0.060148272663354874,-0.10936994105577469,0.19663392007350922,-0.04698874056339264,0.08820478618144989,-0.08698250353336334,0.03150487691164017,-0.16808576881885529,0.06649801880121231,-0.021621257066726685,-0.09851574897766113,-0.06635827571153641,0.12754464149475098,-0.024885030463337898,-0.11799702048301697,-0.10763129591941833,0.06597356498241425,0.12922167778015137,-0.37907829880714417,-0.012078050523996353,0.026212545111775398,0.21251270174980164,0.024844940751791,0.13031980395317078,-0.2956269085407257,0.07171962410211563,0.004742927383631468,0.19925740361213684,0.01904917135834694,0.06605248153209686,-0.7711946368217468,0.008559768088161945,-0.049008194357156754,0.1370876431465149,-0.0135439308360219,0.05980703607201576,-0.46239978075027466,0.0020059370435774326,-0.10550741851329803,0.04893628880381584,0.18349750339984894,0.4245775640010834,-0.5084024667739868,0.013545524328947067,-0.01621364615857601,0.3069216012954712,0.05590473860502243,-0.09867428243160248,0.1461229771375656,-0.9712210893630981,0.005645694676786661,0.20858095586299896,-0.07404566556215286,-0.01875738613307476,0.21379561722278595,-0.2545824646949768,-0.015662189573049545,0.24381932616233826,-0.15737241506576538,-0.06802726536989212,0.18568351864814758,-0.3118729889392853,-0.019356757402420044,0.20873239636421204,-0.21750126779079437,-0.018468545749783516,0.15372896194458008,-0.30624303221702576,-0.00023418167256750166,0.17228692770004272,-0.3126692771911621,0.022409241646528244,0.1284101903438568,-0.27746424078941345],[-0.1156710684299469,0.110432930290699,-0.03944592922925949,0.022911345586180687,-0.013224422931671143,-0.19841375946998596,-0.4309709072113037,0.010229992680251598,-0.11940153688192368,-0.5453241467475891,-0.3175792992115021,0.40280985832214355,0.025657890364527702,0.10442531108856201,-0.17808260023593903,0.4210980534553528,0.031797390431165695,0.01288157980889082,0.014781573787331581,0.2594424784183502,-0.003464836860075593,0.07059231400489807,0.009025254286825657,0.19936542212963104,0.012845655903220177,-0.007706914562731981,0.05197479948401451,0.20597144961357117,-0.0032865887042135,0.024826813489198685,-0.0015528849326074123,-0.050091180950403214,-0.01461742166429758,0.14177767932415009,0.036384157836437225,-0.020015088841319084,-0.3048837184906006,0.004078109283000231,0.05926404893398285,0.014910348691046238,-0.007182773668318987,0.017380734905600548,0.14050152897834778,-0.004195908084511757,0.1552746742963791,0.18531487882137299,0.042739398777484894,0.03564950078725815,0.06996135413646698,-0.04385729879140854,0.04699728265404701,-0.215194970369339,0.07972988486289978,0.5677934288978577,1.3306728601455688,-0.13462665677070618,-0.01765170507133007,0.046270206570625305,-0.005220883525907993,0.03236624598503113,0.0010993203613907099,-0.14878594875335693,0.039886970072984695,-0.2516954243183136,0.07365363091230392,-0.01615288108587265,-0.2520658075809479,-0.011421808041632175,-0.05462965369224548,-0.15723323822021484,-0.019817925989627838,-0.031072081997990608,-0.24537453055381775,-0.1360502988100052,-0.08375397324562073,-0.20592796802520752,0.017103683203458786,-0.03371777385473251,-0.2927185893058777,-0.02729211002588272,-0.015574751421809196,-0.26159903407096863,-0.15306583046913147,-0.002809511497616768,-0.31052032113075256,-0.06882685422897339],[0.13510553538799286,0.16408339142799377,0.17968721687793732,0.2809673845767975,-0.21925735473632812,0.24760472774505615,-0.4158751666545868,0.04003453254699707,0.30946338176727295,0.14023537933826447,-0.5046474933624268,0.7825762629508972,-0.026332035660743713,0.044296227395534515,-0.10554223507642746,0.10829943418502808,-0.04800117760896683,0.009980668313801289,-0.06266657263040543,0.17060042917728424,-0.04337959736585617,-0.03010302409529686,-0.07522035390138626,0.38243237137794495,-0.07796457409858704,-0.03731675446033478,-0.10495473444461823,0.1281222552061081,0.09601318091154099,0.015773966908454895,0.15813201665878296,-0.0014652551617473364,-0.03086952678859234,0.36430853605270386,-0.008702581748366356,0.12299050390720367,0.273249089717865,0.07868251204490662,0.035389918833971024,0.17041659355163574,0.010591741651296616,0.04360174760222435,-0.05251280963420868,0.04328126460313797,0.02168850786983967,0.07961060851812363,-0.02278575487434864,-0.02059180475771427,0.1514245867729187,-0.014727158471941948,-0.07347555458545685,-0.006799112539738417,-0.04063988849520683,-0.033519841730594635,-0.10627035051584244,-0.1391657441854477,-0.007247244473546743,0.3140402138233185,-0.07120159268379211,0.04848940670490265,0.1012398973107338,0.8044154644012451,-0.2612902522087097,0.13552583754062653,0.04083056375384331,-0.18681931495666504,0.1847909688949585,-0.002348662121221423,-0.2416101098060608,0.09789980947971344,0.0978301391005516,-0.22197172045707703,0.11938629299402237,0.17492453753948212,-0.29615798592567444,0.0887734442949295,-0.23032574355602264,-0.2637268304824829,0.0694253146648407,0.06557034701108932,-0.29537805914878845,-0.018927117809653282,0.35917770862579346,-0.3712694048881531,0.049701061099767685,0.20912052690982819],[0.33678656816482544,0.45263591408729553,0.09333959966897964,0.25990059971809387,0.11004979908466339,-0.21169015765190125,0.09169384092092514,-0.2287960648536682,-0.048258572816848755,0.006691956426948309,0.12123354524374008,0.26394540071487427,0.09245701879262924,0.19855950772762299,0.0984959751367569,-0.0883556455373764,-0.039750535041093826,0.04198504984378815,-0.0886417031288147,0.16521017253398895,0.050283707678318024,0.12844747304916382,-0.06657634675502777,0.0727415680885315,-0.05388706550002098,0.02864481508731842,-0.18313349783420563,-0.0035435864701867104,0.11169003695249557,-0.19766080379486084,0.5071001052856445,-0.019411057233810425,0.031059255823493004,0.08641241490840912,-0.0660732239484787,0.003966879565268755,0.6270300149917603,-0.0805516391992569,0.061664313077926636,0.06288570910692215,0.004137756768614054,0.03641905263066292,0.3722025752067566,-0.05452297255396843,0.11848717927932739,0.0866614505648613,-0.19553424417972565,-0.02678038738667965,-0.04421567916870117,-0.025304168462753296,-0.06196748465299606,0.055435799062252045,-0.5907509922981262,0.14207974076271057,0.257807195186615,0.02262951247394085,0.0020830517169088125,0.21166211366653442,-0.04111258685588837,0.08651293069124222,0.09779592603445053,1.0917130708694458,0.0886135920882225,-0.1544375866651535,0.056481268256902695,0.21689312160015106,0.013489189557731152,-0.027354516088962555,0.19038650393486023,0.007188350893557072,0.08887424319982529,0.14963403344154358,-0.13572488725185394,-0.0440497025847435,0.15639689564704895,-0.07930006086826324,-0.0741460770368576,0.036138247698545456,-0.14784716069698334,-0.10533960163593292,0.07765845954418182,-0.08532919734716415,0.20092123746871948,0.06128641590476036,-0.17508342862129211,-0.0537160187959671],[0.1413298398256302,-0.037251006811857224,-0.053165290504693985,0.13519370555877686,-0.2328796684741974,0.4003607928752899,0.35410523414611816,-0.017575925216078758,-1.0646979808807373,0.9487137198448181,0.40155020356178284,-0.3941926062107086,-0.06967703253030777,0.06021450459957123,0.14426350593566895,-0.10635347664356232,-0.012064977549016476,0.02240755967795849,0.10868600755929947,-0.08332497626543045,0.0018629797268658876,0.012252732180058956,-0.026341481134295464,0.14925171434879303,0.03567562252283096,0.01627056486904621,-0.019785361364483833,0.2524559795856476,0.06571804732084274,-0.03823796287178993,-0.08915223926305771,-0.05435052886605263,0.034646909683942795,0.045412883162498474,0.0070832399651408195,0.01238309871405363,-0.26609891653060913,-0.0038597439415752888,0.025405846536159515,0.26641860604286194,-0.022110454738140106,0.00344532891176641,-0.04213317856192589,-0.02680955082178116,0.022693341597914696,-0.0015952917747199535,-0.040332723408937454,0.04540615901350975,0.018037455156445503,0.021939553320407867,0.0323052853345871,0.11345783621072769,0.1127866581082344,-0.048776064068078995,0.28785282373428345,-0.0067335255444049835,0.01308179646730423,0.151625856757164,-0.010994311422109604,-0.0020611502695828676,0.02538895420730114,-0.22412823140621185,-0.13801796734333038,0.17196372151374817,0.07594560831785202,-0.1640971302986145,0.20047596096992493,0.10423776507377625,-0.19030851125717163,0.24480046331882477,-0.06943519413471222,-0.22203092277050018,0.2443506419658661,-0.03835179656744003,-0.2501489520072937,0.26404643058776855,-0.024960793554782867,-0.27594122290611267,0.2871224582195282,0.10619165003299713,-0.31798267364501953,0.32738885283470154,0.10561839491128922,-0.3583279252052307,0.34425002336502075,0.11279520392417908],[-0.017330821603536606,-0.0839877650141716,0.13931234180927277,0.21464838087558746,0.0603148452937603,0.07680870592594147,0.4065374732017517,0.30925077199935913,0.17136172950267792,0.014906437136232853,0.29663804173469543,-0.22431936860084534,0.13051775097846985,0.01678316667675972,-0.0033950023353099823,-0.15317416191101074,0.2573525011539459,-0.01787535846233368,0.05001894012093544,-0.03258521482348442,0.012911316007375717,0.10922902822494507,0.11618133634328842,-0.06368750333786011,-0.015420453622937202,-0.017683856189250946,0.1925303339958191,-0.1372663527727127,-0.0694212019443512,-0.20810143649578094,-0.053782809525728226,-0.028320331126451492,0.1705586016178131,-0.06948386132717133,-0.003356686094775796,-0.07819677144289017,-0.5041809678077698,-0.016817685216665268,-0.003979309927672148,0.21700552105903625,-0.12703384459018707,0.29356589913368225,-0.6150837540626526,-0.012174899689853191,0.053215786814689636,0.12730772793293,0.04799364134669304,-0.12633463740348816,-0.061556778848171234,-0.03625979647040367,-0.0075486041605472565,0.14446432888507843,0.05890779569745064,-0.19104889035224915,-0.6208623051643372,-0.01684710942208767,0.1223958432674408,0.26398342847824097,-0.19293567538261414,0.04274040833115578,0.09654020518064499,-1.42482590675354,0.1617518663406372,-0.07171428948640823,-0.07953383028507233,0.12247501313686371,-0.04909922182559967,-0.06630593538284302,0.16925077140331268,-0.07047821581363678,-0.05511525273323059,0.19006475806236267,-0.05045771971344948,-0.1920863389968872,0.16462841629981995,-0.08012589812278748,-0.19449251890182495,0.20602163672447205,-0.04712895676493645,-0.04034914821386337,0.18606151640415192,-0.09400498867034912,-0.07637468725442886,0.19343264400959015,-0.09872835129499435,-0.1423802375793457],[0.060627225786447525,0.27535831928253174,0.06863585859537125,0.15329816937446594,0.10508524626493454,0.14184638857841492,0.38274314999580383,0.2370726466178894,0.048970647156238556,-0.9418272376060486,0.2912478744983673,0.059970542788505554,0.06970811635255814,-0.20835211873054504,0.29066339135169983,-0.1472347229719162,0.04219802841544151,-0.08813861757516861,0.17071253061294556,-0.19136376678943634,-0.035292740911245346,-0.04134749248623848,0.24161137640476227,-0.18977683782577515,0.0017366039101034403,-0.007785835303366184,0.1339220255613327,-0.10340474545955658,0.05515981838107109,0.06182084605097771,0.10748704522848129,0.027149204164743423,0.006440939847379923,0.10149085521697998,-0.02630419284105301,0.0058711254969239235,0.09372417628765106,-0.04207697883248329,0.02604563906788826,-0.0455920472741127,-0.018488172441720963,0.03101542219519615,-0.020085176452994347,0.013020429760217667,-0.027798399329185486,-0.050951071083545685,-0.04000933840870857,0.0006174047593958676,0.1288064569234848,0.039589542895555496,0.08725391328334808,0.09140246361494064,-0.0011531651252880692,0.0488102026283741,0.10932854562997818,-0.003204112173989415,0.06435730308294296,0.23651212453842163,0.0074365208856761456,-0.00014759604528080672,0.2538343071937561,0.21598827838897705,-0.029529593884944916,0.04356413334608078,-0.182111456990242,-0.025980453938245773,-0.012767639942467213,-0.15877863764762878,-0.0354185476899147,-0.03992941603064537,-0.1851484775543213,0.020165158435702324,-0.08682793378829956,-0.18338552117347717,0.026760846376419067,-0.13157625496387482,-0.25734466314315796,0.06450793892145157,-0.22746320068836212,-0.26075419783592224,0.05619277432560921,-0.2648475170135498,-0.28490447998046875,0.1081012412905693,-0.3959674835205078,-0.20733876526355743],[0.43809404969215393,0.5055289268493652,0.0456964410841465,0.30484071373939514,-0.12321410328149796,-0.06543499231338501,-0.7616580128669739,-0.2676047384738922,0.02353028580546379,-0.2491888403892517,-0.1678365021944046,-0.30840420722961426,0.1395760327577591,0.033811524510383606,-0.03926029056310654,0.35289281606674194,0.021813612431287766,0.06263139843940735,-0.11046560108661652,0.5144414901733398,0.17363376915454865,0.06427259743213654,0.14208272099494934,0.294399619102478,0.06534168869256973,-0.0335376039147377,0.11473386734724045,0.15588665008544922,-0.021364565938711166,0.12613660097122192,1.3044168949127197,0.06881491839885712,-0.05201195925474167,0.10433679819107056,0.006813856773078442,0.12083544582128525,1.3765004873275757,0.04984581470489502,-0.03117150068283081,-0.02899215929210186,-0.06170010194182396,0.07694759964942932,1.2091822624206543,-0.109059177339077,-0.06764151901006699,-0.10299944132566452,-0.09412360191345215,0.14209848642349243,0.8982840776443481,0.10020908713340759,-0.07250078022480011,0.04464814066886902,-0.11755742877721786,-0.12363505363464355,0.052258532494306564,0.05686170607805252,-0.01966080442070961,0.21179531514644623,-0.0014383286470547318,0.10885583609342575,-0.017541171982884407,2.1036722660064697,-0.24171693623065948,0.025906741619110107,-0.05733807757496834,-0.17649933695793152,0.08269593864679337,0.022047797217965126,-0.1787623167037964,-0.04526181146502495,0.08604133129119873,-0.10190451145172119,0.022465458139777184,0.17387068271636963,-0.10619726032018661,0.01815105602145195,-0.09661397337913513,-0.0801982432603836,0.0297196414321661,0.0035068425349891186,-0.04384743422269821,0.0006882530287839472,0.2413649559020996,0.06293144822120667,-0.012353938072919846,0.1190444678068161],[0.05419786646962166,0.014261693693697453,-0.07854249328374863,-0.014990445226430893,-0.08606979250907898,0.03430735319852829,0.33854809403419495,-0.30530205368995667,-0.029188910499215126,-0.10451128333806992,-0.04755165055394173,-0.2882842421531677,-0.02037826180458069,0.060418542474508286,0.28994590044021606,-0.006275565829128027,-0.26126500964164734,0.14339418709278107,-0.004150313790887594,0.14841069281101227,-0.061616815626621246,0.14388293027877808,-0.022774159908294678,0.061834368854761124,0.07839863747358322,0.0864546000957489,-0.10684774816036224,0.21203184127807617,0.0024066700134426355,-0.040606509894132614,-0.04457433894276619,-0.008911402896046638,-0.08451039344072342,0.07520537078380585,-0.0004706907784566283,-0.11166962236166,-0.11504168808460236,-0.04491586983203888,0.02741856500506401,0.1975318342447281,0.22229084372520447,0.0853026956319809,0.011392047628760338,0.01752297952771187,-0.12856236100196838,0.03356817737221718,0.09966568648815155,0.19960205256938934,0.16059374809265137,-0.0255434550344944,-0.01658410206437111,0.21492238342761993,0.5241575837135315,0.19555503129959106,-0.833536684513092,-0.2932037115097046,-0.08515682816505432,0.10608825087547302,0.30158060789108276,0.14506971836090088,0.2751489579677582,0.7950006723403931,-0.1395120918750763,0.08588490635156631,-0.14075468480587006,-0.1593749225139618,0.05950990319252014,-0.09220441430807114,-0.1157536581158638,0.10012035071849823,0.030235793441534042,-0.15463285148143768,0.06186821684241295,-0.14726795256137848,-0.11502355337142944,0.03660488873720169,-0.08831378072500229,-0.11775527149438858,0.023768069222569466,-0.004084647633135319,-0.07234629988670349,0.04909491911530495,-0.19566960632801056,-0.10319467633962631,0.03027399443089962,-0.051394421607255936],[0.1899198740720749,-0.2171056568622589,0.2760149836540222,0.16701659560203552,0.1654292494058609,0.00024292650050483644,0.14195044338703156,-0.3254415988922119,0.19633281230926514,0.11925569176673889,0.47235730290412903,-0.16503603756427765,0.08023319393396378,0.04450621455907822,0.3673897385597229,-0.1805267632007599,0.10173977166414261,0.06180918589234352,0.3833535611629486,-0.4133370816707611,0.07559135556221008,-0.028694339096546173,0.13889366388320923,-0.34903427958488464,0.07905448973178864,0.014363210648298264,0.06096792221069336,0.11829960346221924,-0.08267468959093094,-0.011875100433826447,-0.27379727363586426,0.03464628756046295,-0.02159988321363926,0.20163758099079132,-0.041188448667526245,0.009258439764380455,-0.272887259721756,0.06841059774160385,-0.04159407690167427,0.04785275459289551,-0.03142058104276657,-0.10972929000854492,-0.25685641169548035,0.06351292878389359,0.024472493678331375,0.15337589383125305,-0.0867149606347084,0.013038665987551212,0.12556716799736023,0.03844471275806427,0.0651884526014328,0.16629339754581451,0.14964298903942108,0.11397933214902878,-0.608971118927002,0.045636627823114395,-0.16887319087982178,0.29033026099205017,0.04903336241841316,-0.01813419535756111,0.15708108246326447,-0.2079772800207138,0.0033759952057152987,0.03079645149409771,0.0789804756641388,0.003508700290694833,0.02439098432660103,-0.0027080813888460398,-0.024934617802500725,0.05933066084980965,0.00021681212820112705,0.013577798381447792,0.061188530176877975,0.090610072016716,0.019988955929875374,0.07926885038614273,0.06265975534915924,0.008391247130930424,0.041444163769483566,-0.04913416877388954,0.04158126562833786,0.04687768965959549,-0.04353425279259682,0.07744662463665009,0.06250475347042084,-0.04076999053359032],[0.07177280634641647,0.34588226675987244,0.17290590703487396,0.021808821707963943,0.24250826239585876,0.1965823620557785,0.28419971466064453,-0.17465844750404358,0.011987974867224693,0.0470169261097908,0.20874769985675812,-0.035664938390254974,-0.2048618048429489,-0.024286912754178047,0.327706515789032,-0.24517285823822021,0.02913820929825306,-0.0898459255695343,0.38973528146743774,-0.1976221650838852,0.0378854013979435,-0.0011148650664836168,0.1994842290878296,-0.08383096754550934,-0.02147464081645012,-0.04335913062095642,0.018902698531746864,0.058422643691301346,-0.056925658136606216,0.18818716704845428,-0.7562429308891296,-0.07213294506072998,-0.04779592528939247,0.19250939786434174,-0.03240136802196503,0.006329603027552366,-0.9443815350532532,0.037916067987680435,-0.009210795164108276,-0.022179018706083298,-0.16188515722751617,0.03013024665415287,-1.1321372985839844,-0.07141780853271484,-0.029732536524534225,-0.022851591929793358,-0.0611252635717392,0.16563813388347626,-0.6280112266540527,0.10350498557090759,-0.058686885982751846,-0.026443397626280785,0.5151508450508118,0.07408710569143295,-1.3321958780288696,-0.09031040966510773,-0.10461674630641937,0.15354353189468384,-0.03839537128806114,-0.059883955866098404,0.11649350076913834,0.35595330595970154,0.1580735445022583,0.012695840559899807,0.05975965037941933,0.16195107996463776,0.08143311738967896,-0.1052456945180893,0.21300390362739563,0.08636517077684402,0.11555137485265732,0.2127353698015213,0.11712919920682907,-0.0910453051328659,0.2279258519411087,0.05967673286795616,-0.022697601467370987,0.22982613742351532,0.06998168677091599,-0.07223068922758102,0.22903591394424438,0.1030801460146904,0.018382562324404716,0.2638449966907501,0.06053420528769493,-0.03416850417852402],[0.03368999436497688,0.40063583850860596,0.07056361436843872,0.3104907274246216,-0.02997688204050064,0.019585395231842995,0.5903567671775818,-0.20075899362564087,0.1386396586894989,0.1840074509382248,-0.0021343117114156485,-0.8962094783782959,0.11049064993858337,-0.0815521702170372,-0.09557938575744629,0.19302870333194733,0.09008576720952988,0.0042391372844576836,-0.031297992914915085,0.11208286881446838,0.01623777486383915,0.027446752414107323,-0.11877117305994034,0.24964535236358643,-0.02670624665915966,0.013988540507853031,0.027354691177606583,0.2620314359664917,0.07637307792901993,-0.04947938770055771,-0.6652838587760925,-0.010402117855846882,0.03745194151997566,0.36857739090919495,0.014226908795535564,0.01503430213779211,-0.9565919637680054,-0.02383979968726635,-0.0682610273361206,-0.005725370720028877,0.06206304207444191,-0.05479859560728073,-0.46576833724975586,0.08952660858631134,-0.02907591685652733,0.05179252102971077,0.008378143422305584,0.033755525946617126,-0.445154070854187,0.03672610968351364,0.00402415543794632,0.07597869634628296,-0.0559983067214489,-0.1211666464805603,1.220913052558899,0.044502537697553635,-0.008947337977588177,-0.16391420364379883,-0.0960715189576149,-0.05212254822254181,-0.023856330662965775,0.5098546147346497,-0.032844021916389465,-0.01607791893184185,0.020795414224267006,