{"obs_dim":42,"act_dim":2,"layers":[{"type":"linear","weight":[[0.01811506599187851,-0.11778648942708969,0.03754037246108055,0.16760732233524323,0.07012367993593216,0.06643155217170715,-0.3352063000202179,0.3732943534851074,-0.08916418999433517,-0.5305339097976685,0.3693605363368988,0.1126423254609108,0.13852384686470032,0.0035649805795401335,0.05482691898941994,0.01216267328709364,0.026586171239614487,-0.0216160099953413,0.04296265169978142,0.04769052192568779,0.05754116550087929,-0.05284912511706352,-0.13059571385383606,0.19573283195495605,-0.0956588163971901,-9.34984054765664e-05,0.12794120609760284,-0.03564482182264328,0.07429736852645874,-0.15927670896053314,0.03630556911230087,-0.010404332540929317,0.09269755333662033,0.04944426938891411,-0.20242713391780853,-0.18874037265777588,-0.03525200113654137,-0.24342449009418488,-0.14849479496479034,-0.08943424373865128,-0.004725640174001455,0.06297184526920319],[0.044788721948862076,0.13301756978034973,0.053726475685834885,-0.015576631762087345,0.05868837237358093,0.09805860370397568,0.04554219916462898,-0.10119318217039108,-0.1704084575176239,-0.14850008487701416,-0.16541169583797455,0.019751258194446564,-0.28238752484321594,-0.07139420509338379,0.10926906019449234,-0.23179422318935394,-0.1797008365392685,0.013695086352527142,-0.15017984807491302,0.06986724585294724,0.01290221605449915,-0.0679098591208458,0.07606388628482819,-0.06442736834287643,-0.030979972332715988,-0.08602018654346466,-0.13644680380821228,-0.0037302514538168907,-0.0381227545440197,0.07916826009750366,0.04155711829662323,-0.036259185522794724,-0.012923670001327991,0.043837618082761765,0.22392503917217255,-0.03421975299715996,-0.2518492341041565,0.044399410486221313,0.016457688063383102,-0.03376014530658722,0.0817721039056778,0.0004762418975587934],[0.06962116062641144,-0.02381923422217369,-0.06583057343959808,0.016271181404590607,0.03892495110630989,-0.07351960986852646,0.3730567991733551,-0.16476528346538544,0.1385630965232849,0.125825434923172,0.1006225198507309,0.0030205713119357824,0.07318925112485886,-0.19441163539886475,-0.0019286327296867967,0.06310699135065079,0.03382498398423195,0.11087183654308319,-0.007031428627669811,-0.03412625938653946,-0.03249838203191757,-0.018950361758470535,-0.03728756681084633,-0.07532993704080582,-0.06432690471410751,-0.01927664875984192,0.08036104589700699,-0.02408754639327526,0.07551014423370361,0.06145124137401581,0.07715075463056564,-0.03917396068572998,0.02396457828581333,0.11817909777164459,-0.09980940073728561,0.044908683747053146,-0.027270041406154633,-0.3003993630409241,-0.14156293869018555,-0.03678586333990097,0.05636747553944588,0.025087077170610428],[-0.009552876465022564,0.103141650557518,0.2270461469888687,-0.10114376991987228,0.18135187029838562,-0.024408286437392235,-1.593249797821045,1.534042239189148,-0.03849833831191063,0.17439909279346466,-0.030217908322811127,0.019574308767914772,0.17095759510993958,0.0025449327658861876,0.05011580139398575,0.09309003502130508,-0.005097887944430113,0.04725721850991249,0.002197839552536607,0.004123603459447622,0.026590220630168915,-0.0294658150523901,0.013277439400553703,0.07722468674182892,0.006503029726445675,-0.02083074301481247,-0.023233871906995773,-0.04113992303609848,0.004485262092202902,-0.044012293219566345,0.015144840814173222,0.007344662677496672,0.01166060846298933,-0.04780526086688042,0.14675481617450714,-0.157417893409729,0.050267234444618225,0.007179171312600374,-0.020977187901735306,-0.03489784523844719,0.055455759167671204,0.13644911348819733],[-0.0231084655970335,0.108241006731987,0.06739959865808487,-0.03759419545531273,0.1621919721364975,-0.007714306470006704,0.15448927879333496,-0.3638111352920532,0.016568098217248917,-0.08529926091432571,-0.014511166140437126,0.06213359162211418,0.002229139441624284,-0.018760133534669876,0.06227491423487663,0.08342158049345016,-0.17728359997272491,0.13862597942352295,-0.029612461104989052,-0.04829934984445572,0.07417874783277512,0.015446514822542667,-0.17829614877700806,0.07917755842208862,-0.08908511698246002,0.026301879435777664,-0.023557128384709358,0.13232462108135223,-0.02819492109119892,0.04361305385828018,-0.0038352126721292734,0.16148997843265533,-0.00743826711550355,-0.05085945501923561,0.25797611474990845,0.04315126687288284,-0.06798240542411804,-0.12367168813943863,-0.01591787114739418,0.00397955346852541,-0.025804538279771805,-0.05374724417924881],[0.0013114892644807696,-0.07360929250717163,-0.22492827475070953,0.13264191150665283,0.0679272934794426,-0.06464377790689468,0.840545654296875,-0.9455868601799011,0.21873921155929565,-0.1562635898590088,0.03218353912234306,-0.030136870220303535,-0.276502400636673,0.015510071069002151,0.029018394649028778,-0.1351303607225418,0.004598187282681465,-0.003253622679039836,-0.028431236743927002,0.007252302952110767,-0.014195574447512627,0.03013136237859726,0.14857013523578644,0.11346957087516785,-0.20726920664310455,-1.7028905858751386e-05,-0.03354291990399361,-0.07204471528530121,0.008557545952498913,-0.07489371299743652,-0.03156023100018501,-0.015166700817644596,0.06483200937509537,0.047046974301338196,-0.136625275015831,0.021479450166225433,-0.037465594708919525,-0.07779766619205475,0.10605239868164062,-0.07667912542819977,0.043987762182950974,0.0784449651837349],[0.12441651523113251,-0.09498494863510132,-0.12783238291740417,0.049814373254776,0.06120092049241066,0.009148335084319115,0.3573925495147705,-0.43312394618988037,-0.011291922070086002,-0.08276335895061493,-0.11186853051185608,-0.053912483155727386,-0.08619826287031174,-0.1858692318201065,-0.06744346767663956,-0.009339227341115475,-0.16692964732646942,0.10830982774496078,0.07972610741853714,-0.09952991455793381,-0.03634016215801239,-0.05546172335743904,-0.14362910389900208,0.0017371459398418665,-0.045871198177337646,0.09590833634138107,-0.19622309505939484,-0.13749530911445618,0.007036624941974878,0.1195584237575531,0.039484113454818726,-0.03777652606368065,0.06196406111121178,0.21026726067066193,-0.03758516535162926,0.09869632869958878,0.023989558219909668,-0.006019094027578831,-0.2132023572921753,-0.01871504820883274,0.0531482920050621,0.06768988817930222],[0.006277258973568678,-0.1095774844288826,0.0910847932100296,-0.19033506512641907,-0.0615200437605381,0.15658019483089447,-0.6268846392631531,1.6674294471740723,0.04490010067820549,-0.09301593899726868,0.0012121202889829874,-0.05151998996734619,-0.10760283470153809,-0.027604831382632256,-0.06485849618911743,-0.03142645210027695,-0.04539184272289276,-0.029946736991405487,0.03565603494644165,0.04955347254872322,0.031443629413843155,0.07705704867839813,0.05277514085173607,-0.00766036007553339,0.010184532031416893,0.024251116439700127,-0.03947374224662781,-0.029870405793190002,0.031434208154678345,0.02404654584825039,0.02648862637579441,0.0005053429631516337,0.12194903939962387,-0.019588632509112358,-0.13687202334403992,0.12145252525806427,-0.04936940595507622,-0.0452556237578392,-0.0032816175371408463,-0.028054874390363693,0.0114405183121562,-0.019896667450666428],[-0.07215657085180283,0.09860412031412125,-0.13997907936573029,-0.11127645522356033,0.2426460087299347,0.22210678458213806,1.0943379402160645,-0.012008137069642544,0.05590224638581276,-0.21089008450508118,0.09076093882322311,-0.01336175948381424,-0.15816490352153778,-0.0071847643703222275,-0.16475209593772888,-0.11205099523067474,0.01839829608798027,-0.035142093896865845,-0.03249537572264671,0.01564532332122326,-0.015757055953145027,-0.20242172479629517,0.006668898742645979,-0.0820382833480835,-0.02367108128964901,-0.004271896556019783,-0.10687465965747833,-0.06983199715614319,-0.008676406927406788,-0.052876584231853485,0.06277916580438614,-0.051717255264520645,0.06676416844129562,-0.3179776966571808,0.02683255448937416,-0.26144173741340637,0.1070384830236435,0.14930693805217743,0.2005869746208191,-0.0390799343585968,0.05352616310119629,0.01894182339310646],[0.03309788554906845,0.10300104320049286,0.23137564957141876,-0.11229366809129715,-0.035013630986213684,0.1745658665895462,-1.0377919673919678,0.09180295467376709,-0.14933891594409943,-0.015506239607930183,0.503593385219574,0.002951175207272172,-0.1939431130886078,0.17841601371765137,-0.190782830119133,-0.07510711997747421,-0.11662834137678146,0.04209859296679497,0.010104320012032986,-0.0060770041309297085,-0.041817355901002884,0.05332498997449875,-0.05433152616024017,0.028097134083509445,0.013587776571512222,-0.0027581399772316217,0.022084509953856468,0.03566734120249748,0.0470869205892086,-0.05178382620215416,0.0032325107604265213,0.023861516267061234,-0.014051791280508041,-0.25888359546661377,-0.08410031348466873,0.0473732128739357,-0.037265289574861526,0.013258816674351692,-0.05172465741634369,0.0028385850600898266,0.09208706021308899,0.11125677824020386],[-0.09303390234708786,0.14982475340366364,0.1347293108701706,-0.11844760179519653,-0.04511013999581337,0.029661953449249268,0.08737065643072128,0.22372958064079285,-0.11189045011997223,0.09399252384901047,0.06508120894432068,0.026797976344823837,0.014892011880874634,-0.08359877020120621,0.03868994116783142,0.02101113833487034,-0.06860867142677307,-0.005067115183919668,-0.02340266853570938,-0.02148880809545517,0.009919892065227032,-0.0380648672580719,0.0008448045700788498,-0.026669111102819443,0.031107448041439056,-0.01213648822158575,-0.01289614662528038,-0.0023692725226283073,-0.002216258319094777,-0.03502503037452698,0.025749526917934418,0.0294880960136652,0.057484742254018784,-0.44215428829193115,0.09167096763849258,-0.0437009371817112,-0.11247324198484421,0.25516223907470703,-0.08918745815753937,0.013287520967423916,0.015392975881695747,-0.12537765502929688],[0.05656876042485237,0.020725363865494728,-0.14246051013469696,-0.09557107090950012,0.23810656368732452,0.1496509611606598,1.0949337482452393,0.18692417442798615,0.15517579019069672,0.014868882484734058,-0.016439102590084076,-0.07784285396337509,0.02850610762834549,0.04214371368288994,-0.07028605788946152,-0.04809356480836868,-0.10676166415214539,0.047767553478479385,-0.07301657646894455,-0.08385322988033295,0.08547462522983551,0.07149913907051086,-0.0719890296459198,-0.05426691472530365,0.06667295843362808,-0.10574913024902344,0.0824040025472641,-0.03737010806798935,0.05998781695961952,-0.049708299338817596,0.019803082570433617,0.056645188480615616,-0.14383412897586823,0.1721850335597992,-0.04187476262450218,0.043040383607149124,-0.010144698433578014,-0.10269959270954132,0.18082988262176514,-0.04918595403432846,0.0409974567592144,-0.11438202857971191],[0.0673014223575592,0.08365581184625626,0.030240757390856743,0.026401419192552567,-0.04087038338184357,0.03239737078547478,-0.22890368103981018,-0.18273909389972687,0.14325112104415894,-0.19079014658927917,0.15762199461460114,-0.13091735541820526,-0.14680899679660797,-0.013600687496364117,-0.12699465453624725,-0.07392985373735428,0.044757481664419174,-0.04540257155895233,-0.08081185817718506,0.03314771503210068,-0.07950480282306671,0.1528271734714508,0.001703894347883761,0.029168803244829178,0.126273974776268,0.04304962605237961,-0.011265764944255352,-0.04992029070854187,0.06470705568790436,0.02521386370062828,-0.07221996039152145,0.03066004253923893,0.0036936826072633266,0.2149517983198166,0.3158724009990692,-0.10219238698482513,-0.1775939166545868,0.13408870995044708,-0.02222425304353237,-0.026079656556248665,0.06267786026000977,0.051348183304071426],[-0.06981593370437622,-0.1007956713438034,0.03183518722653389,0.24063462018966675,-0.049526337534189224,0.12096847593784332,0.0682167038321495,0.06415430456399918,-0.015304488129913807,0.11059339344501495,-0.046524446457624435,0.018042761832475662,0.005127702374011278,-0.09088190644979477,0.06685736030340195,0.02337668091058731,-0.007176938466727734,-0.08164968341588974,0.004541603848338127,0.01094171591103077,0.05510175600647926,-0.036073241382837296,-0.18025599420070648,-0.006025530397891998,-0.061071671545505524,0.052023205906152725,0.027441367506980896,-0.07010224461555481,0.05939898267388344,-0.0464598685503006,0.04662331938743591,-0.05124688521027565,0.09731744229793549,-0.040065571665763855,-0.8686273694038391,-0.23242054879665375,0.01629791408777237,0.006101337727159262,-0.013853087089955807,0.03397979959845543,0.06921741366386414,-0.0620320662856102],[0.04295409470796585,0.17793646454811096,-0.03334920480847359,0.09852637350559235,-0.06459156423807144,0.02122238278388977,1.2951738834381104,-0.9359276294708252,-0.09130755811929703,0.31154751777648926,-0.026765113696455956,0.03814571350812912,0.08317805081605911,0.12056145071983337,-0.045000143349170685,0.07485155016183853,0.02159617654979229,0.009315205737948418,0.05376715213060379,0.04636453092098236,0.02646597847342491,-0.015938233584165573,0.05034605786204338,-0.03823285549879074,-0.0018379244720563293,0.024539954960346222,0.00489126006141305,-0.04497894272208214,0.008463887497782707,-0.08589672297239304,0.01446395181119442,-0.009342222474515438,0.06768999248743057,-0.0384216345846653,0.07394997775554657,0.20095166563987732,-0.026687199249863625,0.002668235916644335,0.052068255841732025,0.04609124734997749,0.04740669205784798,-0.040749650448560715],[0.2363315373659134,0.13889439404010773,-0.03931497782468796,-0.06224624440073967,0.21080748736858368,-0.06111873313784599,-0.000981311546638608,0.5860292911529541,-0.06175209954380989,-0.00861351564526558,0.033999472856521606,0.03942004218697548,0.05491214618086815,0.05203373730182648,0.014578367583453655,0.0015543451299890876,-0.028640761971473694,0.041837699711322784,0.04586441069841385,-0.001750665483996272,0.04591680318117142,0.12389407306909561,-0.27136293053627014,0.05060436576604843,-0.034376081079244614,0.08421643078327179,-0.021590540185570717,-0.01583951525390148,0.08728334307670593,-0.12402591854333878,0.025275077670812607,0.008208611980080605,-0.07267886400222778,-0.04952026903629303,-0.2268686443567276,0.03756743669509888,0.13065092265605927,0.0027982136234641075,0.017079200595617294,-0.0763094574213028,-0.06818199157714844,0.0663994625210762],[-0.16526983678340912,-0.020752200856804848,-0.10737719386816025,0.19830676913261414,-0.0809721052646637,-0.053569916635751724,-0.2514995336532593,-0.3171888291835785,0.07688715308904648,0.26698222756385803,-0.09425375610589981,-0.011626385152339935,-0.0827302560210228,-0.04139665514230728,0.014226501807570457,-0.15256981551647186,0.10085752606391907,0.03867342323064804,0.07164151966571808,0.10624819248914719,-0.13424181938171387,-0.04073579981923103,-0.07598336786031723,0.04319385439157486,-0.11407358944416046,0.07295943796634674,0.08785849064588547,-0.09967057406902313,0.06818937510251999,0.0033826581202447414,-0.12661096453666687,-0.05880197137594223,0.0505039244890213,-0.03098604828119278,-0.0931277796626091,-0.07391611486673355,-0.0008358089835382998,-0.12842154502868652,-0.10130275040864944,0.043723635375499725,0.180189311504364,-0.23674367368221283],[-0.15329161286354065,0.0796068087220192,-0.12351716309785843,0.09861390292644501,0.07153338938951492,0.15551000833511353,-0.2713855504989624,-0.14824862778186798,0.1219664141535759,-0.039759311825037,0.08081493526697159,0.11000963300466537,0.03040444105863571,0.2554289698600769,-0.06298621743917465,0.06863295286893845,0.06604383885860443,0.049512606114149094,0.06138306111097336,0.07399147748947144,-0.053507160395383835,-0.11762790381908417,0.009836174547672272,0.062461744993925095,0.06919517368078232,-0.022278960794210434,-0.03396794572472572,-0.05730923265218735,-0.05846783146262169,-0.06252071261405945,-0.04939594864845276,-0.01977253146469593,0.026523666456341743,-0.26683682203292847,-0.20025399327278137,0.0308156069368124,0.08534898608922958,0.0646224245429039,-0.1684173345565796,0.02540494129061699,-0.007172787096351385,0.029996592551469803],[-0.012316418811678886,-0.008842729032039642,-0.1066063791513443,0.043606020510196686,-0.02613692171871662,0.1310950666666031,1.1273653507232666,1.2894002199172974,-0.0315120667219162,-0.09346175938844681,-0.6097654700279236,0.09779466688632965,-0.09860137850046158,-0.1273277848958969,-0.02561395987868309,0.0420956164598465,-0.07429765164852142,0.045403845608234406,0.022263826802372932,0.030215352773666382,0.03523033857345581,0.04863174259662628,0.10081598907709122,0.10761541873216629,-0.08868665248155594,-0.04315299913287163,0.0011273029958829284,0.0459853857755661,0.01999073289334774,-0.13334554433822632,0.03244205191731453,0.03068006969988346,-0.04536488279700279,-0.03451206535100937,0.014850981533527374,0.036694806069135666,0.04168358072638512,-0.05942269787192345,0.31705376505851746,-0.029281483963131905,0.00014715042198076844,0.019460443407297134],[-0.07264925539493561,0.03597123175859451,-0.03894515335559845,-0.0013047317042946815,-0.045366205275058746,0.1041974350810051,0.16112564504146576,0.08984029293060303,0.03875698149204254,0.09435509145259857,0.034790053963661194,-0.04432888329029083,-0.03076068125665188,-0.005552360787987709,-0.10961584746837616,-0.044266607612371445,0.039761219173669815,-0.1124776229262352,0.037971317768096924,0.052806705236434937,-0.03096226043999195,-0.03523321822285652,0.04798155277967453,0.11146394908428192,0.01660246215760708,0.04950958862900734,-0.02715015411376953,-0.017462197691202164,0.08060839027166367,-0.00907852128148079,-0.017829520627856255,0.08812493830919266,0.09556964039802551,-0.500999927520752,-0.11065973341464996,0.04140099510550499,0.11763039231300354,-0.20892281830310822,-0.1005835309624672,0.015874193981289864,-0.02583281695842743,-0.018443526700139046],[0.10712146759033203,0.029670914635062218,0.20194867253303528,-0.06045963242650032,0.08566700667142868,0.08321712911128998,-0.553869366645813,0.5857869982719421,-0.0724525898694992,-0.2474951297044754,0.04159949719905853,0.14985527098178864,-0.2815777063369751,-0.21330827474594116,0.08670517802238464,-0.13760732114315033,-0.06260471791028976,0.025497976690530777,-0.008724258281290531,0.0745626911520958,0.05393940955400467,0.06737866997718811,0.06746574491262436,-0.06965258717536926,0.012135233730077744,-0.0901896208524704,0.09430232644081116,-0.007805902510881424,0.036576319485902786,-0.13992762565612793,0.09474536031484604,0.04579135775566101,0.061970192939043045,-0.3005102872848511,0.3701796233654022,0.0393860749900341,-0.07844094932079315,-0.13440802693367004,0.06447110325098038,-0.009811155498027802,0.02773956209421158,-0.15678037703037262],[0.014627693220973015,-0.02853037416934967,0.09196418523788452,0.03430192545056343,0.1110532358288765,0.0726625844836235,-0.6068856120109558,-0.15727999806404114,-0.007565209176391363,0.026550112292170525,-0.16152244806289673,-0.07005367428064346,-0.04071247577667236,-0.14590048789978027,0.16073104739189148,-0.04737410694360733,-0.10599244385957718,-0.10834936797618866,-0.04351961612701416,-0.07336251437664032,-0.050014346837997437,-0.19067077338695526,-0.04956952854990959,-0.08372442424297333,0.14151352643966675,0.14175860583782196,0.1496393084526062,0.02551446110010147,0.004431512206792831,0.06257479637861252,-0.010108783841133118,-0.14293037354946136,-0.04583299160003662,-0.21514423191547394,0.16592517495155334,0.006169316824525595,-0.16040632128715515,-0.11208798736333847,0.011900186538696289,-0.10698719322681427,0.056791145354509354,0.02527407929301262],[-0.0796537920832634,0.011539368890225887,0.034353435039520264,0.03903055191040039,-0.1807938516139984,-0.0019295996753498912,-0.17447641491889954,-0.06731094419956207,-0.05228584259748459,-0.10560222715139389,0.08261862397193909,0.11476799100637436,-0.038419242948293686,-0.02013523504137993,0.08863718062639236,-0.054004523903131485,-0.05326519533991814,0.018847793340682983,0.024945812299847603,-0.0064494372345507145,0.1283794343471527,0.17444926500320435,0.21453528106212616,0.0583924762904644,-0.011980876326560974,0.01668606698513031,0.08672928065061569,-0.0775035172700882,0.02337471954524517,-0.027808459475636482,-0.0632360503077507,0.035867638885974884,-0.06762664765119553,0.7149559855461121,-0.23224586248397827,-0.04514908418059349,0.002929567126557231,-0.04462951794266701,0.0024636988528072834,-0.04190363734960556,0.02743712067604065,-0.011344636790454388],[-0.03232987970113754,-0.0865972712635994,0.02888023853302002,-0.14306394755840302,0.005956360138952732,0.08815073221921921,-0.34890154004096985,-0.3594793975353241,0.026240572333335876,0.06730946153402328,-0.13114766776561737,0.02867911010980606,-0.06615467369556427,-0.0318518728017807,0.202938050031662,0.15732543170452118,-0.13848477602005005,0.032696548849344254,0.057188913226127625,0.007497748360037804,0.010133911855518818,-0.1711696982383728,-0.020265568047761917,0.08593018352985382,0.0460924468934536,0.052299853414297104,0.10114505887031555,-0.03665703907608986,-0.0286107175052166,0.028150413185358047,0.03272359073162079,0.01613616570830345,-0.016434339806437492,0.24832463264465332,0.2194894254207611,-0.14390969276428223,-0.006532433908432722,0.003709376323968172,-0.14249897003173828,-0.09798149019479752,-0.017937060445547104,0.04167034849524498],[-0.007001995109021664,0.06095894053578377,0.3342798948287964,0.3760286569595337,-0.28627198934555054,0.10366792231798172,-1.3139245510101318,-2.072000026702881,-0.0021624250803142786,0.01987568661570549,-0.01651303470134735,0.004274500999599695,-0.007757310755550861,-0.0020809362176805735,0.004481771029531956,-0.002148050582036376,-0.03027896024286747,0.02117314748466015,0.0022502385545521975,0.006668486632406712,0.02023722603917122,0.00474518071860075,0.026136860251426697,0.03347748517990112,0.00045897378004156053,0.011800505220890045,0.0008047873270697892,-0.03038199432194233,0.008212839253246784,-0.004610764794051647,0.007816371507942677,0.003760858438909054,-0.028991764411330223,-0.01674145646393299,-0.010984528809785843,0.05745188891887665,-0.01325185876339674,-0.01203212607651949,-0.012123008258640766,-0.01791459135711193,0.01809745840728283,0.05013479292392731],[-0.0530170276761055,0.040339354425668716,-0.09144069254398346,0.16102083027362823,0.058031052350997925,0.07717908173799515,-0.1192152202129364,-0.6403532028198242,-0.11515820026397705,-0.12474896758794785,-0.11148537695407867,0.12368511408567429,-0.1601562201976776,-0.021776137873530388,0.08434046804904938,-0.11586136370897293,-0.1251949667930603,-0.0036322823725640774,-0.056319188326597214,-0.02016480080783367,-0.07044628262519836,0.006683836225420237,-0.09792663156986237,-0.04971381649374962,0.05605177581310272,0.07581775635480881,-0.020860105752944946,0.007986594922840595,0.04591697081923485,0.010695824399590492,-0.0601721927523613,-0.02360982820391655,0.015486874617636204,0.2034067064523697,-0.4748293161392212,-0.04484390467405319,-0.00625169463455677,0.02622809447348118,0.05090329051017761,-0.0483575202524662,0.018132323399186134,-0.01055299211293459],[-0.12306924164295197,0.03538373485207558,0.06056364253163338,0.011912503279745579,-0.021065544337034225,0.0002626967616379261,-0.2167118787765503,0.05845579877495766,-0.14613500237464905,-0.0199873223900795,-0.02145463228225708,-0.052895139902830124,-0.07582881301641464,0.07766437530517578,0.07721593976020813,-0.08989477902650833,0.060867246240377426,0.05076799914240837,-0.0581204853951931,-0.0338410884141922,-0.08329769968986511,0.009863204322755337,0.015405711717903614,0.15580347180366516,0.1480228751897812,0.117221899330616,0.02836170606315136,0.009651611559092999,-0.026002438738942146,-0.03986883535981178,0.0015650071436539292,0.047904398292303085,0.13920527696609497,0.24785979092121124,0.198818638920784,0.05143909528851509,0.016354139894247055,0.12205518782138824,0.11983832716941833,-0.11669754236936569,0.0595243014395237,0.001860570628196001],[0.01146415900439024,-0.06298011541366577,0.08887618035078049,0.141553595662117,-0.10525225102901459,0.03409162536263466,-0.40340456366539,-0.440620481967926,0.18180353939533234,0.08552507311105728,0.08439894020557404,0.04448262229561806,0.07543464750051498,0.0534101277589798,-0.04288360849022865,0.07525359839200974,0.02826179377734661,0.040605396032333374,0.10381713509559631,0.025585047900676727,-0.08340376615524292,0.04494499787688255,0.148591548204422,0.03939298167824745,-0.052506979554891586,-0.045893166214227676,0.03841494023799896,-0.028274644166231155,0.005879951640963554,0.05977191776037216,0.06600680202245712,-0.0486389696598053,-0.025767609477043152,-0.34505799412727356,-0.09003785997629166,-0.12726545333862305,0.04119670018553734,0.011632222682237625,-0.017853692173957825,0.06764905154705048,0.05504240095615387,0.02611166425049305],[0.04322175309062004,0.03607321158051491,-0.08595836907625198,0.03379664197564125,-0.09417581558227539,-0.07062270492315292,0.16724343597888947,0.3839235007762909,-0.16466699540615082,0.18539394438266754,-0.2623668611049652,0.19306202232837677,0.10442106425762177,0.06329327076673508,0.12560325860977173,0.0338432714343071,0.06265665590763092,0.07556384056806564,-0.01796489581465721,-0.0017467483412474394,0.016132144257426262,-0.08503001928329468,-0.18550163507461548,0.0964178591966629,0.02981112338602543,-0.03429130092263222,-0.038118865340948105,-0.07928518950939178,-0.05933361127972603,0.17303714156150818,-0.02739017829298973,0.011172120459377766,-0.032849494367837906,-0.052402205765247345,-0.23692470788955688,-0.06646036356687546,0.06768187880516052,-0.07345067709684372,0.12334616482257843,-0.05090199038386345,-0.07407007366418839,-0.0018896703841164708],[0.07960166782140732,0.13130973279476166,0.017356958240270615,0.1382933408021927,-0.060956649482250214,-0.1416303813457489,0.17918024957180023,0.011918113566935062,0.20462459325790405,0.23568956553936005,0.11253050714731216,-0.27437853813171387,0.17976833879947662,0.12829536199569702,0.06601736694574356,0.09713888168334961,-0.033182114362716675,0.13344472646713257,0.03222419694066048,-0.07926366478204727,0.049086738377809525,0.08444921672344208,0.18668243288993835,-0.04478738456964493,0.05690130591392517,0.11425342410802841,0.008631856180727482,-0.05461805313825607,0.032679006457328796,0.03614379093050957,0.03961529955267906,-0.018275441601872444,-0.0188241358846426,0.2610928416252136,-0.26918089389801025,-0.030135927721858025,-0.10255490988492966,-0.0348845049738884,-0.03507208451628685,0.011928286403417587,-0.000536474515683949,-0.23229029774665833],[0.021445732563734055,-0.14319884777069092,0.06410473585128784,0.049653857946395874,-0.1105615571141243,-0.0038492789026349783,0.43139001727104187,-0.5124348402023315,-0.12226708233356476,0.10603443533182144,-0.07968127727508545,-0.13686785101890564,-0.044212456792593,0.037063080817461014,0.06935339421033859,-0.09323909878730774,-0.001969316741451621,0.1786230057477951,-0.0036756654735654593,-0.08843487501144409,0.12756477296352386,0.008600393310189247,0.10602666437625885,0.0765848159790039,-0.07178105413913727,-0.10393460094928741,0.13687960803508759,-0.06912273168563843,0.10360576212406158,0.10606363415718079,-0.0008905410650186241,-0.10194605588912964,-0.04834819212555885,-0.15512345731258392,0.15072749555110931,-0.04392937943339348,0.07715176790952682,0.047484442591667175,-0.04007991403341293,-0.12642426788806915,0.14658333361148834,-0.045795902609825134],[-0.0188816636800766,0.2074594646692276,0.31026414036750793,-0.16847245395183563,0.12797535955905914,-0.07384449988603592,-0.44050246477127075,0.7594248652458191,-0.17363190650939941,-0.1853424608707428,0.17194636166095734,-0.0410393625497818,0.10573571920394897,0.026103848591446877,0.009173193946480751,0.017285246402025223,0.01988743618130684,-0.0024272033479064703,-0.030956121161580086,0.050838176161050797,0.018737973645329475,-0.03651300445199013,-0.035637494176626205,0.026137230917811394,0.08621330559253693,0.010951442644000053,0.06947319209575653,0.02473302371799946,0.0428827665746212,-0.022341299802064896,-0.03598276898264885,-0.012120228260755539,0.008852875791490078,-0.12481380999088287,-0.031081456691026688,0.021236244589090347,-0.21242454648017883,0.1612592190504074,0.14397959411144257,-0.03085480071604252,0.00884279701858759,0.09768913686275482],[0.09162940829992294,-0.2276083379983902,-0.1091749295592308,-0.02075650356709957,-0.030600229278206825,0.10555648803710938,0.06665525585412979,0.7719916701316833,0.07877272367477417,-0.02610642835497856,0.5380216240882874,0.09286293387413025,-0.23166215419769287,0.038903478533029556,-0.04558601230382919,-0.11488711088895798,-0.015324058011174202,-0.040671102702617645,-0.034636322408914566,0.0048305559903383255,-0.030551176518201828,0.20216375589370728,0.11695779860019684,-0.06331788003444672,0.08153881877660751,-0.0314679816365242,0.0029873414896428585,0.051306359469890594,-0.001884659519419074,0.10160651057958603,0.000776376691646874,0.0229333583265543,0.19878169894218445,-0.4052588641643524,-0.011223183944821358,-0.16645334661006927,0.04583827033638954,0.008790428750216961,-0.08542412519454956,-0.031730420887470245,-0.015162745490670204,0.0010692382929846644],[-0.014242241159081459,-0.012434408068656921,0.014420113526284695,0.08374007046222687,0.09937455505132675,0.017656778916716576,0.27150145173072815,-0.34568509459495544,-0.08814464509487152,-0.0740325078368187,-0.17919734120368958,-0.04710246995091438,-0.23583006858825684,-0.18052831292152405,0.06425394117832184,-0.13871411979198456,-0.029639365151524544,0.11053722351789474,-0.04217394068837166,0.06324361264705658,0.06816287338733673,0.221722811460495,-0.12679870426654816,0.08109365403652191,0.12211635708808899,0.04147498682141304,-0.03651656210422516,-0.08317457884550095,0.014622103422880173,0.014857780188322067,-0.09686385095119476,0.02352770045399666,-0.009478818625211716,-0.17272259294986725,-0.05013733729720116,0.11050370335578918,-0.017680559307336807,-0.022274257615208626,0.20486700534820557,0.04329666867852211,0.01519722118973732,-0.011860494501888752],[0.07617444545030594,0.030720368027687073,0.00277589145116508,0.094491146504879,-0.032704729586839676,0.022599175572395325,-0.12720240652561188,-0.26198917627334595,0.17642150819301605,0.12881402671337128,-0.06423944979906082,0.06635573506355286,0.11987213045358658,-0.01859171874821186,-0.0962287038564682,-0.06876314431428909,-0.059791117906570435,-0.05413549393415451,0.02982974424958229,-0.0075879269279539585,-0.0008891188772395253,0.022099243476986885,0.02135348878800869,0.02720382995903492,0.06575792282819748,0.009492475539445877,0.07242665439844131,0.005055109038949013,0.011806702241301537,-0.00675295852124691,-0.10130853205919266,-0.027962809428572655,0.022583121433854103,-0.1330891102552414,-0.2956734001636505,0.1228058785200119,0.06751710176467896,0.1404377818107605,-0.0959274172782898,0.033752668648958206,0.05971311032772064,-0.08017215132713318],[0.09688520431518555,0.018263671547174454,-0.03965555876493454,-0.013969076797366142,-0.0577506348490715,0.09410610049962997,0.25148725509643555,-0.3220326006412506,0.24789051711559296,0.2524818778038025,-0.1297430843114853,-0.07722044736146927,0.02130643092095852,0.040220845490694046,-0.07916339486837387,0.10064402967691422,-0.05152459442615509,-0.02912735566496849,0.10653543472290039,-0.005216651596128941,-0.14896734058856964,-0.12965472042560577,0.23545436561107635,-0.052456147968769073,0.059387195855379105,-0.16090291738510132,-0.08649104833602905,0.022098468616604805,-0.02767409197986126,-0.24551653861999512,0.00508926110342145,0.029453594237565994,0.07551063597202301,-0.14070361852645874,0.36199668049812317,0.1607881784439087,-0.052807845175266266,0.02960786409676075,0.09505565464496613,0.058382902294397354,0.014295320026576519,-0.006429673638194799],[-0.021180320531129837,0.049738187342882156,-0.20377783477306366,0.025061821565032005,-0.12227491289377213,-0.06632736325263977,0.9549436569213867,0.05205897241830826,0.10088513791561127,-0.27374646067619324,-0.009064709767699242,0.14812979102134705,0.2584845721721649,-0.08257659524679184,0.18767888844013214,0.10808543860912323,-0.04304422438144684,0.06367884576320648,-0.026151716709136963,-0.021526863798499107,-0.006001278292387724,-0.07578393816947937,-0.04051477834582329,0.12026084214448929,0.09514021873474121,-0.09538249671459198,-0.008861331269145012,-0.010455506853759289,0.0478794127702713,-0.09484618902206421,-0.045131124556064606,0.06961407512426376,-0.08145512640476227,0.016488613560795784,-0.07166336476802826,-0.04354243353009224,0.12764911353588104,0.0068989903666079044,0.02465014159679413,0.02835761569440365,-0.08531519025564194,-0.04303296282887459],[-0.30633771419525146,0.12947416305541992,0.00924450159072876,-0.15909919142723083,-0.13698700070381165,0.023745618760585785,0.08044165372848511,0.23736301064491272,0.10756080597639084,-0.20164403319358826,0.10172542929649353,0.10104964673519135,0.038060467690229416,0.11030768603086472,0.005166638642549515,0.00048043698188848794,-0.06012634187936783,-0.024728603661060333,-0.007702860049903393,0.03143361210823059,-0.18526189029216766,0.09350350499153137,0.01166287250816822,0.003828080603852868,-0.09289852529764175,0.05227261781692505,-0.035476259887218475,-0.061263661831617355,-0.06631195545196533,0.0217194315046072,-0.0254344679415226,-0.00011995279783150181,0.07954227924346924,0.11800055205821991,-0.19419004023075104,0.066950723528862,-0.04903831705451012,0.14321821928024292,0.14180822670459747,-0.20164994895458221,-0.0528755746781826,-0.29489466547966003],[0.00727745471522212,0.07236813008785248,-0.12152878940105438,0.06659018993377686,0.08160432428121567,-0.024697180837392807,0.08363233506679535,0.27331361174583435,-0.14955289661884308,-0.1412038654088974,-0.015541152097284794,-0.13027670979499817,-0.0695335865020752,-0.06651851534843445,0.034278035163879395,-0.006645943503826857,0.03110523149371147,0.06686857342720032,-0.007792143616825342,0.07130525261163712,0.06768861413002014,0.04315881431102753,0.0464552566409111,0.02621356211602688,-0.04985766112804413,-7.185345748439431e-05,0.1262444108724594,0.09260860830545425,0.020960232242941856,0.036297332495450974,0.11744975298643112,0.048672839999198914,0.018527774140238762,0.23253348469734192,0.022390112280845642,0.12240709364414215,0.05329778417944908,-0.12223697453737259,-0.022795317694544792,0.004529798869043589,0.013215187005698681,0.08023864775896072],[0.008606800809502602,-0.03661192208528519,0.1946435123682022,-0.010706941597163677,-0.07379362732172012,0.0726126879453659,-1.8571879863739014,0.1008969396352768,-0.07712839543819427,-0.14782902598381042,-0.6857699751853943,0.06314443051815033,0.11843826621770859,-0.05829887464642525,-0.029145406559109688,-0.009709907695651054,-0.09698041528463364,-0.018266571685671806,0.05384979024529457,-0.0066397180780768394,0.008713801391422749,-0.06987223774194717,-0.017232799902558327,0.041811197996139526,0.04449711740016937,-0.004337094724178314,-0.011995559558272362,-0.04665791988372803,0.021827075630426407,0.026132211089134216,0.04819897934794426,0.020807387307286263,0.03558354079723358,-0.0041160378605127335,-0.10984855890274048,0.08893921226263046,0.02711620181798935,-0.018286757171154022,-0.03136979043483734,0.01528862677514553,0.005247958470135927,0.0508941113948822],[0.06695526838302612,0.09798500686883926,0.05960243195295334,0.007004184648394585,0.08972515165805817,-0.02129044011235237,-0.3718510568141937,0.2699454724788666,0.20197750627994537,-0.09210389852523804,0.2959625720977783,-0.06512344628572464,-0.14507178962230682,0.012124450877308846,-0.02700261026620865,0.2694662809371948,-0.04701188579201698,0.01799551211297512,0.21013961732387543,0.0014303381321951747,0.0814860612154007,0.043435897678136826,0.08493804186582565,0.04597299173474312,0.09590988606214523,-0.08095874637365341,-0.005733512341976166,-0.0462862104177475,0.002801366616040468,-0.05768894776701927,0.0017833815654739738,0.051121924072504044,-0.059997785836458206,0.12070220708847046,0.12018763273954391,0.10200867801904678,0.15493826568126678,0.09881693124771118,0.009714560583233833,-0.06151264160871506,-0.0940701812505722,-0.08736705780029297],[0.015575828030705452,0.06608384102582932,0.09890494495630264,-0.13285879790782928,0.1374780535697937,0.024344315752387047,-0.09331519156694412,0.5438255667686462,0.036883655935525894,0.08080606907606125,0.11509029567241669,0.05439469963312149,0.4559972584247589,0.2800690233707428,0.05111416429281235,0.1382424384355545,0.03678295761346817,-0.1256060004234314,0.1281789094209671,0.07901009917259216,-0.0007468803669326007,0.1289537250995636,0.06269307434558868,0.04868745803833008,0.008916833437979221,-0.12540307641029358,-0.016207309439778328,-0.1195652112364769,0.07046382874250412,-0.02690962329506874,0.0222166795283556,0.013270965777337551,-0.010394527576863766,-0.011009102687239647,0.06848570704460144,0.08401937782764435,0.05738179385662079,0.15590670704841614,0.03849402442574501,0.03038210980594158,0.048321980983018875,0.10764847695827484],[-0.0531516969203949,0.021751796826720238,-0.05786735564470291,-0.11014233529567719,-0.03973205387592316,0.008754178881645203,0.35471537709236145,0.7346762418746948,-0.040625572204589844,0.23380647599697113,0.20796139538288116,-0.023440685123205185,0.19677549600601196,-0.30793672800064087,0.08367209881544113,0.17780764400959015,-0.14785024523735046,-0.054900623857975006,0.2182176113128662,0.061089739203453064,0.0960594043135643,-0.14316029846668243,-0.005896573420614004,-0.0038283290341496468,-0.07107754051685333,0.003701406065374613,0.16071973741054535,-0.11004313826560974,0.0025768729392439127,0.04705895110964775,-0.00395244499668479,0.013677782379090786,-0.11398705095052719,-0.21199938654899597,-0.12814077734947205,0.13906829059123993,0.20646452903747559,-0.0029805649537593126,-0.0045357439666986465,0.029745567589998245,0.026220884174108505,-0.02278890460729599],[0.05469059571623802,0.051962077617645264,0.04627189785242081,0.04846807196736336,-0.06156144291162491,-0.08500593155622482,0.6074966788291931,0.3298424780368805,-0.12406943738460541,-0.4792117476463318,-0.00793702993541956,0.1159266009926796,0.0163574181497097,-0.1711476743221283,0.040044043213129044,-0.057766422629356384,-0.12472766637802124,-0.11516600847244263,-0.16911770403385162,-0.10404471307992935,0.10024773329496384,0.14290820062160492,0.174822136759758,0.06249381601810455,0.06641450524330139,0.0549916997551918,-0.015457178466022015,-0.04050050675868988,0.009354285895824432,-0.03838583827018738,0.03680653125047684,-0.027743786573410034,0.054193560034036636,0.18801982700824738,0.2195075899362564,0.22119785845279694,0.15118791162967682,0.0039909775368869305,0.2402767539024353,0.041642699390649796,0.05019069463014603,-0.03850286453962326],[0.14554433524608612,-0.07657475769519806,0.10096675902605057,0.027056561782956123,-0.10069312900304794,-0.07066182792186737,-0.6766768097877502,-0.9315837621688843,-0.11860189586877823,0.19243642687797546,-0.1688479781150818,0.0071467021480202675,0.1894911229610443,0.01568552851676941,0.06249314919114113,0.09417824447154999,-0.04404975101351738,0.11335918307304382,-0.003207245608791709,0.040178004652261734,0.1049758791923523,-0.14495627582073212,-0.009151007980108261,0.013606217689812183,0.032246027141809464,-0.13172578811645508,0.0954425260424614,-0.022733472287654877,0.06291773170232773,0.02659369260072708,-0.04954073205590248,0.09608378261327744,-0.10495785623788834,0.32043135166168213,-0.05575230345129967,0.0560184121131897,0.13120990991592407,0.1184837818145752,0.03557092696428299,-0.08274459093809128,0.008479457348585129,0.10820657759904861],[0.12117244303226471,0.050485968589782715,0.09490978717803955,0.09521484375,-0.0354185588657856,-0.03642085939645767,0.13619260489940643,-1.1008561849594116,0.2044314444065094,-0.10857570916414261,-0.19739599525928497,0.014693041332066059,0.07375277578830719,0.04426568001508713,-0.09088368713855743,-0.0036245642695575953,-0.0134279765188694,0.009827755391597748,-0.14653608202934265,0.040623120963573456,-0.031795430928468704,-0.12268102914094925,0.10174067318439484,0.016833819448947906,0.08149082958698273,-0.02625276707112789,-0.1296054571866989,0.05307537317276001,-0.04819141700863838,0.11416155844926834,-0.100523941218853,-0.011476957239210606,-0.12764587998390198,-0.05285629630088806,-0.09556438773870468,-0.026334134861826897,-0.0201575867831707,0.010822420008480549,0.06930099427700043,0.05380517616868019,0.02402343600988388,0.07642491906881332],[-0.12373590469360352,0.0968930646777153,-0.0387309268116951,-0.003710655029863119,0.09078337252140045,0.012449194677174091,-0.2577117681503296,-0.14095234870910645,-0.025936102494597435,0.41107070446014404,0.011852916330099106,0.014600922353565693,0.1962127834558487,-0.07620175182819366,0.0248732790350914,0.06578659266233444,-0.09776732325553894,0.10992784798145294,0.030435999855399132,-0.006391978822648525,-0.006762637756764889,0.10696777701377869,0.05213465169072151,-0.05229007825255394,0.07131671160459518,-0.15893720090389252,-0.033134642988443375,-0.17335443198680878,-0.05540671944618225,0.07602743804454803,-0.10156137496232986,0.008152961730957031,0.149716317653656,-0.2062041461467743,0.013287910260260105,0.10171014070510864,0.14603328704833984,-0.05275900289416313,0.06261925399303436,-0.032864369451999664,0.03967387601733208,0.02536938153207302],[0.02682071551680565,0.07407431304454803,-0.46763837337493896,0.11144571006298065,-0.1617026925086975,-0.12420491874217987,2.1840145587921143,-0.8527427911758423,-0.0033777623903006315,0.05486276373267174,0.011257433332502842,-0.009113891050219536,0.015236997976899147,-0.028426518663764,0.021215442568063736,-0.002390052657574415,-0.028517767786979675,0.03465145453810692,-0.005247402470558882,0.0163045022636652,0.018862854689359665,0.017285892739892006,0.021053923293948174,0.054152850061655045,-0.0047706011682748795,0.008748648688197136,0.04702914133667946,-0.025701718404889107,0.0013888125540688634,-0.053489625453948975,0.011205451563000679,0.014980865642428398,0.08308777213096619,0.009580365382134914,0.0038835431914776564,0.01534011960029602,0.0008120086276903749,0.007790177594870329,0.03015405498445034,-0.021570242941379547,0.03248259425163269,0.09132556617259979],[0.0216908510774374,0.1120259165763855,0.27309516072273254,-0.16601893305778503,-0.014799827709794044,0.2128354161977768,-0.14446289837360382,0.020107196643948555,0.06203509122133255,0.11851708590984344,-0.22958634793758392,0.06466895341873169,0.12430652976036072,-0.042020656168460846,0.14746475219726562,-0.06383711099624634,-0.05511302500963211,0.03187936916947365,0.07661429792642593,0.035247575491666794,0.022370634600520134,-0.035343073308467865,0.014208219014108181,0.027034055441617966,0.1408020257949829,-0.11626982688903809,-0.0872434601187706,-0.044513117522001266,0.0028017761651426554,-0.007290510460734367,-0.021929699927568436,0.03387530893087387,-0.17108957469463348,-0.09772945195436478,0.07177137583494186,-0.10455134510993958,0.0056325108744204044,-0.13348916172981262,0.1713453084230423,0.10702592134475708,0.05476892367005348,0.22424238920211792],[-0.008247916586697102,0.03500037267804146,0.14286911487579346,-0.11696288734674454,0.16788862645626068,0.0711820125579834,-0.16853955388069153,-0.02793719433248043,-0.07014084607362747,0.05094410851597786,-0.1125316396355629,-0.0032514226622879505,0.014275038614869118,-0.12455626577138901,0.06502807885408401,0.09432536363601685,-0.09100852906703949,0.03690085932612419,-0.01335460226982832,-0.03849252685904503,0.02434028871357441,0.14035150408744812,0.042529091238975525,0.012489557266235352,-0.023850811645388603,0.1437084674835205,0.065695621073246,-0.08967161178588867,0.04095974192023277,-0.08807026594877243,-0.09989791363477707,-0.0365552194416523,-0.07149392366409302,-0.18865731358528137,-0.06533808261156082,0.14309944212436676,0.04082794860005379,-0.04420439898967743,0.06213453784584999,-0.07147428393363953,0.09039994329214096,0.09522642195224762],[0.1342153698205948,0.10422598570585251,-0.028369780629873276,0.11509031802415848,0.01611139625310898,-0.041118551045656204,-0.43808576464653015,0.02039371058344841,0.02029617689549923,0.029707254841923714,-0.21808673441410065,0.020084677264094353,0.10784810781478882,-0.07942163199186325,0.012552614323794842,0.07634422183036804,0.038521908223629,0.012928051874041557,0.09126760810613632,0.004761707503348589,0.05208245664834976,0.18853425979614258,-0.04220404848456383,0.053061552345752716,-0.059885408729314804,-0.041820965707302094,0.012248892337083817,-0.05585996434092522,0.009354529902338982,-0.0975932702422142,0.11435312777757645,0.09637216478586197,0.05824730172753334,-0.14183369278907776,0.11194636672735214,0.0429820641875267,-0.1159479022026062,0.08091660588979721,0.11837323755025864,-0.1367827206850052,0.00501592829823494,0.11595767736434937],[0.008071903139352798,0.01591133140027523,0.029277419671416283,-0.2364816665649414,0.05879974737763405,0.01769137755036354,-1.170954704284668,1.4405508041381836,0.1667940318584442,0.27789506316185,0.2595101296901703,-0.05114210397005081,0.015976794064044952,-0.09135911613702774,-0.05001292750239372,0.03255246952176094,-0.08572879433631897,0.044399555772542953,0.06407622992992401,-0.010697830468416214,-0.027670780196785927,-0.013444438576698303,0.06306789070367813,0.17933206260204315,0.025039514526724815,0.0020321188494563103,0.0759563222527504,-0.015509874559938908,-0.007210960146039724,-0.08406631648540497,-0.012360423803329468,-0.009134641848504543,-0.06638903170824051,0.05499567463994026,0.030465219169855118,-0.053720321506261826,0.01211797259747982,0.040108572691679,0.07716946303844452,0.011664602905511856,0.033397652208805084,-0.08832128345966339],[0.06608960032463074,0.14306886494159698,0.027042796835303307,-0.04646740108728409,-0.18548139929771423,0.06489543616771698,-0.10951630771160126,0.5983456373214722,0.06493619084358215,-0.17886967957019806,0.03559877723455429,-0.037635449320077896,0.03772802650928497,0.08025908470153809,-0.06798150390386581,-0.1065824031829834,0.052410539239645004,0.1100887730717659,-0.17517279088497162,0.024537278339266777,0.011320024728775024,-0.16048526763916016,-0.011840183287858963,0.015124139375984669,0.020248036831617355,0.07556172460317612,-0.13244067132472992,0.023396342992782593,-0.04996200278401375,-0.007963653653860092,-0.04178546741604805,-0.004816580098122358,0.013656262308359146,-0.2761440873146057,-0.4118975102901459,-0.180966317653656,0.09479834884405136,0.008799209259450436,-0.015246293507516384,0.08626403659582138,0.023514216765761375,-0.029471317306160927],[-0.04498260095715523,0.03459584340453148,-0.04943842440843582,-0.05085727572441101,0.13512393832206726,0.04764672368764877,0.2816109359264374,0.07143183797597885,0.008601779118180275,-0.07033592462539673,0.05852624401450157,0.040782127529382706,0.03001152165234089,0.04126128554344177,0.04522399604320526,0.11415738612413406,-0.0591278113424778,0.05397389829158783,0.014380798675119877,0.03335196524858475,0.0660136267542839,0.0738445520401001,-0.1056261658668518,-0.06308361887931824,0.026506680995225906,-0.10460597276687622,-0.07656767964363098,-0.14380048215389252,-0.007695550564676523,0.21522413194179535,-0.01822405681014061,0.0022899420000612736,-0.017560943961143494,0.21590556204319,0.6879589557647705,0.053261592984199524,-0.14585702121257782,0.074866883456707,0.18070240318775177,-0.0351412370800972,0.01865531876683235,0.15546907484531403],[-0.06768672168254852,-0.04653589800000191,0.17731307446956635,0.07285783439874649,-0.055284157395362854,-0.05799324810504913,0.4891298711299896,-1.1150277853012085,0.1080375537276268,0.1420588344335556,-0.3670538365840912,0.10980547219514847,0.14324206113815308,-0.06384105980396271,0.027682479470968246,0.07312218844890594,0.015227469615638256,0.012502353638410568,0.016914481297135353,0.061463043093681335,-0.015439724549651146,0.0683872401714325,-0.12105749547481537,-0.07623732835054398,-0.011762866750359535,0.06096785515546799,0.055976565927267075,-0.10528049618005753,0.03662858158349991,0.027352655306458473,0.09037179499864578,0.09610157459974289,0.1359429508447647,0.2118619829416275,0.16536521911621094,-0.13811881840229034,0.08202475309371948,0.0521198995411396,0.027244022116065025,0.06067505106329918,-0.003441845066845417,0.20988400280475616],[-0.049597300589084625,0.018835410475730896,-0.006683549378067255,-0.14130020141601562,0.13345655798912048,0.06866677105426788,0.05632340908050537,0.02385466918349266,0.047147367149591446,0.06818848103284836,0.011842135339975357,0.0727817565202713,-0.018746230751276016,0.05778687447309494,-0.1224001869559288,0.07426135987043381,-0.08912347257137299,0.00970503780990839,0.014377745799720287,-0.09174124151468277,0.05117841064929962,-0.06506037712097168,0.0541941337287426,0.09454856067895889,-0.021629998460412025,-0.0011443688999861479,-0.11654538661241531,-0.05122419446706772,-0.0026860355865210295,-0.010457572527229786,0.05683998018503189,0.009724928997457027,-0.03758983686566353,0.12642648816108704,0.07174792885780334,0.13389553129673004,-0.12002455443143845,0.14680127799510956,0.009071992710232735,-0.1551395207643509,-0.12929856777191162,-0.13400544226169586],[0.24488237500190735,0.10631590336561203,-0.10837272554636002,-0.07455576956272125,0.08274367451667786,0.05803320184350014,0.1864861249923706,-0.1752418875694275,0.08517754822969437,0.16981272399425507,-0.3389537036418915,0.0383819080889225,-0.03343508392572403,-0.004497088026255369,-0.09410805255174637,-0.09315883368253708,0.011880043894052505,-0.03045068122446537,0.05654619634151459,0.04873958230018616,-0.1007307693362236,0.012512796558439732,0.18581901490688324,-0.04072868078947067,-0.12684352695941925,0.05567123368382454,0.07803461700677872,0.049121346324682236,-0.05316316708922386,-0.10779771208763123,0.06115138903260231,-0.04355613887310028,-0.08240048587322235,0.19704104959964752,-0.14347907900810242,-0.08066193759441376,0.03885185346007347,0.08097579330205917,-0.1296187937259674,0.006443970371037722,0.09988485276699066,-0.030318336561322212],[0.05948377773165703,0.0006506058853119612,-0.01929338462650776,0.17329047620296478,0.16851121187210083,0.026274414733052254,-0.010314363054931164,-0.30674776434898376,-0.10508993268013,0.0019217714434489608,0.41191568970680237,0.01627114787697792,-0.35347047448158264,0.049972567707300186,0.13518090546131134,-0.21849454939365387,-0.02646912820637226,0.13073749840259552,0.026049518957734108,0.005299486219882965,0.03256261348724365,-0.027068832889199257,-0.060171812772750854,0.041580382734537125,0.09530528634786606,-0.013197529129683971,-0.008752905763685703,-0.08028729259967804,0.038311414420604706,-0.08515606820583344,0.02307184785604477,0.03804962709546089,0.004475809633731842,0.47511929273605347,-0.02539496310055256,0.1379825919866562,-0.0311441607773304,0.06136126443743706,-0.09127646684646606,-0.05040809139609337,-0.04763658344745636,0.0023794693406671286],[0.026441233232617378,-0.03240634873509407,-0.11530174314975739,-0.1233527660369873,0.05365251004695892,-0.06933364272117615,-0.37946218252182007,-0.06444555521011353,0.18902093172073364,0.06717696040868759,-0.04924050346016884,-0.033346887677907944,0.01686866767704487,0.014637197367846966,-0.05155162140727043,0.007046449929475784,-0.015474898740649223,0.01429801993072033,0.006593391764909029,-0.004603113979101181,-0.053170476108789444,-0.002504318952560425,0.13045702874660492,0.05745801702141762,-0.08708889782428741,-0.03740356117486954,-0.036364033818244934,-0.02523895911872387,-0.011465372517704964,0.03153955563902855,0.02885633334517479,-0.03929838538169861,0.1961241513490677,0.9775843620300293,0.18987955152988434,-0.01480278093367815,-0.0800396054983139,-0.03190363571047783,0.17516399919986725,-0.09282410144805908,0.047969236969947815,0.20582056045532227],[-0.0990523099899292,-0.03896591067314148,-0.09658510237932205,-0.005159614607691765,0.11143183708190918,0.03898889943957329,-0.20436081290245056,-0.10877777636051178,0.12543703615665436,-0.17603163421154022,-0.11273325979709625,0.11902792006731033,-0.042930636554956436,0.05074330419301987,0.03904672712087631,-0.06789316236972809,-0.08673662692308426,0.06299545615911484,-0.0856436938047409,0.10125396400690079,0.13946552574634552,0.14038385450839996,-0.12791380286216736,0.03742028772830963,0.017077438533306122,-0.027865327894687653,-0.015452507883310318,0.004555098246783018,0.025511987507343292,0.0771789476275444,-0.11482299119234085,-0.03838051110506058,0.019442277029156685,0.04457135125994682,0.06728771328926086,-0.03679962083697319,0.1746785044670105,-0.06815508753061295,-0.003881164826452732,0.010476728901267052,0.03442882373929024,-0.046952225267887115],[-0.024720722809433937,0.1359727531671524,0.15222646296024323,-0.032069578766822815,0.17877230048179626,0.05003767088055611,-0.005920196883380413,-0.026531323790550232,0.036604154855012894,0.28364431858062744,0.11473903059959412,-0.07209768146276474,0.17423509061336517,0.1373467743396759,-0.07966157793998718,0.2436399906873703,0.07850198447704315,0.02368803881108761,0.09757647663354874,0.07005680352449417,0.008781270124018192,0.04403877630829811,0.2567153573036194,-0.037768397480249405,0.18575619161128998,-0.04321089759469032,0.015736231580376625,-0.02932083234190941,0.0052738431841135025,0.050067782402038574,0.04093478247523308,0.021856781095266342,0.13721376657485962,-0.044346828013658524,-0.006333546247333288,-0.011636286042630672,-0.08528386056423187,0.01527595054358244,-0.17964525520801544,-0.08226500451564789,0.06696870177984238,-0.11863633990287781],[-0.06317714601755142,-0.10568886250257492,0.03884432837367058,0.03006511554121971,0.0947013720870018,0.2174959033727646,0.09887473285198212,-0.24757251143455505,-0.01574755646288395,0.09133730828762054,-0.23230256140232086,0.004048359114676714,0.0420440249145031,-0.1649182289838791,0.029992621392011642,0.05247161537408829,-0.09647209197282791,0.13038308918476105,0.06278914213180542,0.011682695709168911,0.001798798213712871,0.03742191568017006,-0.05884398892521858,0.24843396246433258,-0.17049194872379303,-0.13183467090129852,-0.14622928202152252,0.09508644789457321,0.13289855420589447,-0.11366084963083267,0.023136775940656662,0.03204052895307541,-0.057576488703489304,-0.05088832601904869,-0.0741259902715683,0.10357871651649475,0.057384978979825974,-0.11284186691045761,-0.030349453911185265,0.022471748292446136,-0.08771049976348877,0.19484658539295197],[-0.036328092217445374,0.08360566943883896,-0.045750897377729416,-0.1507158726453781,-0.037019576877355576,0.10788671672344208,0.4170088768005371,0.18833786249160767,-0.05340469256043434,0.3833490014076233,0.37310096621513367,0.06775416433811188,0.20189201831817627,0.1450822800397873,0.07688364386558533,-0.014484459534287453,0.0626082718372345,-0.05009519308805466,0.04019095003604889,0.029603328555822372,0.09712135791778564,0.058921754360198975,0.14253132045269012,0.0018018699483945966,0.051619455218315125,0.14338192343711853,-0.11585470288991928,-0.04349958896636963,0.057333193719387054,0.15967987477779388,-0.03286637365818024,-0.06181395798921585,-0.17175854742527008,0.10336251556873322,0.001984050963073969,-0.130009725689888,-0.10135924071073532,0.01525096595287323,-0.030498620122671127,0.026372550055384636,0.06110059469938278,-0.12300601601600647],[0.013378184288740158,0.004383580293506384,-0.06829871237277985,0.035869065672159195,-0.023038292303681374,-0.07341145724058151,0.8204247355461121,-0.10209400951862335,0.14159271121025085,0.08407697081565857,-0.005167550407350063,0.05226833000779152,0.07376743108034134,0.03581983968615532,0.13664132356643677,-0.07977621257305145,-0.0011820235522463918,0.043399710208177567,0.003351885359734297,-0.1269504278898239,-0.0062141213566064835,0.011519339866936207,0.004024166613817215,0.0864458680152893,4.2798328649951145e-05,-0.052329279482364655,-0.07043543457984924,-0.1098584234714508,-0.005100629758089781,0.09498468786478043,0.009486029855906963,0.016419805586338043,-0.02481929212808609,-0.10167351365089417,-0.30396580696105957,0.049192532896995544,0.02298206090927124,-0.1178039014339447,-0.10824316740036011,-0.058146458119153976,-0.0046720379032194614,-0.0211396012455225],[-0.08734288066625595,0.12299113720655441,-0.1049918383359909,-0.01654830202460289,0.06714203208684921,0.17614975571632385,0.054554130882024765,-0.14670851826667786,-0.1549559086561203,-0.07454835623502731,-0.06856867671012878,-0.016419196501374245,-0.026794880628585815,-0.06468278914690018,0.039085566997528076,-0.020700547844171524,0.060972899198532104,0.09051555395126343,0.003783176885917783,-0.0039160898886621,0.1481817066669464,0.09942560642957687,0.10425848513841629,-0.043159741908311844,0.18073031306266785,0.037279367446899414,0.049379248172044754,-0.018337490037083626,-0.056106314063072205,-0.11925859749317169,0.07739123702049255,-0.11632433533668518,-0.00037345621967688203,-0.2232092171907425,0.09734026342630386,-0.03993355110287666,-0.1458064168691635,0.08886472135782242,-0.09232349693775177,-0.059902943670749664,-0.008404840715229511,-0.0634760707616806],[-0.08320096880197525,0.20506338775157928,-0.004800737369805574,0.06092269718647003,0.0648997351527214,-0.0034691744949668646,0.6457093358039856,0.40371522307395935,-0.00309000420384109,0.09897740185260773,-0.09848091751337051,0.13302826881408691,0.16444279253482819,-0.05777297168970108,-0.013574410229921341,0.13847628235816956,0.14611095190048218,-0.05375451222062111,0.07634644955396652,0.013183614239096642,-0.0535871647298336,0.11438239365816116,0.03759545832872391,0.003581825876608491,-0.28166663646698,-0.09484392404556274,0.08630239963531494,-0.08302974700927734,-0.0688340961933136,-0.006617136765271425,0.10876729339361191,0.035119567066431046,-0.20238254964351654,-0.01331815030425787,0.2201731652021408,-0.09357768297195435,-0.042156096547842026,0.002549534197896719,0.049686986953020096,-0.014177088625729084,0.12346116453409195,0.02772502414882183],[-0.03192053735256195,0.06449433416128159,-0.11638268083333969,0.09487875550985336,-0.09250835329294205,-0.11926545947790146,0.24939975142478943,-0.3796290159225464,-0.11656640470027924,-0.012152238748967648,-0.027926485985517502,0.038453541696071625,0.024668673053383827,-0.19808468222618103,0.0906774029135704,0.09315777570009232,-0.08756746351718903,0.08641412854194641,0.03673575818538666,-0.03416365012526512,-0.003346757497638464,-0.06568610668182373,0.044970810413360596,0.10254649072885513,0.08608370274305344,0.06385921686887741,0.10158346593379974,-0.13529153168201447,0.07109369337558746,0.03861480951309204,-0.057483039796352386,0.016937345266342163,-0.0007334874244406819,0.2659091353416443,0.25300437211990356,-0.018715878948569298,0.07711667567491531,-0.06394479423761368,0.13311831653118134,-0.028491435572504997,0.011399253271520138,-0.020315095782279968],[-0.12230920046567917,-0.006592678837478161,0.0866023376584053,-0.19065295159816742,-0.02073531039059162,-0.10277830809354782,-0.04506531357765198,-0.1686452031135559,0.0372236967086792,-0.019924083724617958,-0.06346911191940308,0.010432662442326546,0.1647128015756607,0.2497081607580185,-0.025693774223327637,-0.02088765613734722,0.0365712009370327,0.08445107191801071,0.07129701226949692,0.026131754741072655,0.1557493507862091,0.014750314876437187,-0.10813462734222412,0.0916295126080513,-0.01975861005485058,0.085976243019104,0.07878401130437851,-0.007416001055389643,0.0833456739783287,-0.023848947137594223,-0.022619936615228653,0.010065227746963501,0.030742891132831573,0.16309267282485962,0.17679113149642944,-0.22636297345161438,-0.25275304913520813,-0.20990988612174988,-0.027711190283298492,-0.13121847808361053,-0.019802700728178024,-0.03604889661073685],[-0.11934972554445267,-0.0249144546687603,0.18930573761463165,-0.14548572897911072,-0.019618244841694832,-0.04065408557653427,0.06179258972406387,-0.24263519048690796,0.14511488378047943,0.011578232049942017,0.10903789103031158,0.02455032989382744,-0.20585741102695465,0.06755448877811432,-0.07101064920425415,-0.18776993453502655,-0.007680901791900396,-0.13407090306282043,-0.06769246608018875,0.06665611267089844,0.06911652535200119,-0.06626465171575546,-0.0388655811548233,-0.002997727133333683,-0.000928079301957041,0.12455607950687408,0.0693124383687973,0.050513118505477905,-0.039027225226163864,0.05867225304245949,0.023514507338404655,0.03200356662273407,0.10378985852003098,-0.20819227397441864,-0.13176357746124268,-0.12755540013313293,-0.018146589398384094,-0.061013638973236084,-0.06773310154676437,-0.018277142196893692,0.03282959759235382,-0.07357899099588394],[0.038734663277864456,-0.014991799369454384,-0.013233146630227566,0.10434642434120178,0.06799355894327164,0.026802662760019302,-0.06249479949474335,0.31239211559295654,-0.09327884018421173,-0.06287381798028946,0.19492493569850922,-0.04915639013051987,0.019240014255046844,0.254594624042511,0.08706057816743851,0.01756010204553604,0.12017630785703659,0.06317181885242462,-0.0031571919098496437,0.0487930104136467,0.021613622084259987,0.03256184607744217,0.12899662554264069,-0.008494403213262558,0.10448955744504929,-0.05242639780044556,0.06863301992416382,-0.004230754915624857,0.019499903544783592,-0.010783100500702858,-0.015297634527087212,0.04872817546129227,-0.020982526242733,0.202133446931839,-0.33154866099357605,-0.030427396297454834,0.12466339766979218,-0.08824963122606277,-0.1136600598692894,-0.06039959192276001,0.05517818406224251,0.022557027637958527],[0.0412062406539917,0.07188566774129868,0.16380566358566284,0.13629573583602905,-0.07736149430274963,0.08327759057283401,-0.044609133154153824,0.1668340116739273,0.09533866494894028,0.004536133259534836,0.020425237715244293,-0.09027740359306335,0.16297733783721924,0.2611958384513855,0.15494859218597412,0.0007115143234841526,0.1894591748714447,-0.13437381386756897,-0.12619611620903015,0.1693899780511856,0.027411138638854027,-0.010116811841726303,-0.02818920649588108,0.11141475290060043,0.05349229276180267,0.004225542303174734,-0.24122214317321777,-0.06922037154436111,0.04008466377854347,0.05607474595308304,-0.07535796612501144,-0.046815551817417145,-0.0015725562116131186,-0.23695331811904907,0.1816752552986145,-0.17053918540477753,0.22118814289569855,-0.019043490290641785,0.08551129698753357,0.049912627786397934,0.08199095726013184,-0.028062090277671814],[0.054447073489427567,0.07176229357719421,-0.06850435584783554,-0.03145302087068558,-0.08251679688692093,0.010089813731610775,0.014834689907729626,-0.32190683484077454,-0.020436687394976616,0.14277146756649017,0.06061425432562828,0.06677807867527008,0.048483073711395264,0.03885911777615547,-0.08597634732723236,0.0288921557366848,-0.13758903741836548,0.016696158796548843,0.10147640854120255,-0.06523393094539642,0.09484007954597473,0.045705124735832214,-0.040662601590156555,0.02337501384317875,0.04016384854912758,0.07933477312326431,0.261004239320755,0.11648132652044296,0.041895542293787,-0.15707601606845856,0.04693716764450073,0.064471036195755,-0.07460661977529526,-0.12718020379543304,-0.49582991003990173,0.07982020080089569,0.18828782439231873,0.08432198315858841,0.10223408043384552,-0.08360612392425537,-0.102121502161026,0.3135088384151459],[-0.030275965109467506,0.032647229731082916,0.07282532006502151,0.09447703510522842,-0.03406823053956032,0.16580718755722046,0.3229590952396393,-0.19180867075920105,-0.04312041774392128,0.14938166737556458,-0.08914348483085632,-0.019288601353764534,0.14267796277999878,-0.21182717382907867,-0.08776954561471939,0.04690931364893913,-0.12278930097818375,0.015487462282180786,-0.054188940674066544,-0.11050933599472046,-0.0051959664560854435,-0.3391454219818115,0.02832379750907421,0.05067590996623039,0.036330584436655045,0.016820399090647697,0.09506642073392868,-0.09319920837879181,0.007681270129978657,-0.08995852619409561,0.03776456043124199,-0.0007959805661812425,-0.04400600120425224,0.1090536117553711,-0.1772633045911789,0.11587368696928024,-0.15661939978599548,-0.13893741369247437,0.10991046577692032,-0.05646912381052971,-0.032048650085926056,0.04019796848297119],[-0.13012905418872833,-0.01921907253563404,-0.005532667972147465,-0.0180530846118927,-0.027529453858733177,-0.10992223024368286,0.5027628540992737,0.059317078441381454,-0.05925622582435608,0.03349871188402176,-0.08086732029914856,-0.0733126774430275,-0.06520003080368042,-0.08018030971288681,-0.02062011882662773,-0.06766768544912338,0.0847032442688942,0.14132405817508698,-0.018877187743782997,-0.00042806906276382506,0.02428775280714035,-0.05480901524424553,-0.11487513780593872,0.08385073393583298,-0.014637688174843788,0.030677959322929382,0.03153122216463089,-0.01313698012381792,0.07585272192955017,0.15183919668197632,0.02771032229065895,-0.02226545475423336,0.023827970027923584,0.28944242000579834,-0.4887441396713257,0.011465726420283318,0.0032805015798658133,0.1084112897515297,0.03139696270227432,0.05891077220439911,0.059450458735227585,0.05865023285150528],[-0.0607309564948082,0.11321757733821869,0.23003841936588287,0.045584142208099365,0.05071732774376869,0.030025625601410866,0.4383671283721924,-0.06023484840989113,0.12175750732421875,0.1354173868894577,-0.03334295377135277,-0.05649055913090706,0.23347386717796326,0.11598612368106842,0.1857229471206665,0.0022093949373811483,0.05728472024202347,0.006303121335804462,-0.0005718939937651157,-0.057180944830179214,-0.088927261531353,-0.004325679503381252,0.019159357994794846,0.003798759775236249,0.030429840087890625,0.09259907901287079,0.047997817397117615,-0.0690125972032547,0.032454945147037506,-0.04524809494614601,-0.06595290452241898,0.018211498856544495,-0.00454489141702652,-0.18282487988471985,0.05532732233405113,0.11514176428318024,0.04022138565778732,-0.13498644530773163,-0.005127157084643841,0.08994229882955551,0.03143758326768875,-0.024200808256864548],[-0.1134830191731453,0.05203224718570709,-0.07139850407838821,-0.060412533581256866,-0.016781708225607872,0.043909840285778046,0.543725848197937,-0.09526362270116806,-0.030629143118858337,0.6212177872657776,-0.010031422600150108,-0.0980008989572525,-0.0023565678857266903,-0.07873079180717468,0.0583733469247818,-0.060902394354343414,-0.04066760465502739,-0.09646117687225342,-0.01016117725521326,0.09166522324085236,0.06847038865089417,-0.0558883473277092,0.0800379067659378,0.09220735728740692,-0.044340744614601135,0.015278339385986328,-0.1301039606332779,-0.0340195931494236,0.08469133824110031,-0.04937717691063881,0.04648987948894501,0.027199577540159225,0.1587151288986206,0.06244632601737976,0.08720093965530396,0.11176981031894684,-0.01875828020274639,0.09906716644763947,0.010443219915032387,-0.07205070555210114,-0.0191985834389925,0.13486990332603455],[0.005174192134290934,-0.17693477869033813,0.014389466494321823,0.19433195888996124,-0.0654180496931076,0.12677595019340515,0.0718853697180748,-0.21585819125175476,-0.19458961486816406,-0.0784209817647934,0.12344983965158463,0.058606959879398346,0.023816190659999847,-0.06460461765527725,0.10795336961746216,0.049058955162763596,-0.003980501089245081,0.19497019052505493,0.005968971643596888,0.142930805683136,-0.005024461541324854,-0.09749842435121536,0.2717735767364502,-0.08205663412809372,-0.049371715635061264,0.013410406187176704,0.09313420206308365,0.06578680872917175,-0.022374192252755165,0.09867310523986816,0.08893246203660965,0.04682250693440437,0.007888494990766048,-0.007935010828077793,0.04122137650847435,-0.09114731848239899,-0.08463764935731888,-0.03660720959305763,-0.02158343605697155,-0.006734316237270832,-0.011388679966330528,-0.11206144094467163],[-0.027193583548069,0.02591586671769619,-0.11742421984672546,0.0700712576508522,-0.09390673786401749,0.05103714391589165,-0.32070475816726685,-0.013448162004351616,0.1681404560804367,-0.03707483783364296,0.22289322316646576,-0.08798694610595703,-0.0868610292673111,0.08142401278018951,-0.0710081085562706,-0.21322640776634216,0.08709968626499176,0.012327075935900211,-0.01688503846526146,-0.011082874611020088,0.008280256763100624,0.13041457533836365,-0.0043426454067230225,0.01686140149831772,-0.005506190471351147,0.10501715540885925,0.09463732689619064,0.029870983213186264,-0.01715228706598282,-0.08908931165933609,0.0023959947284311056,-0.059105951339006424,0.041395872831344604,0.07363813370466232,0.08989027887582779,-0.03805743530392647,-0.0701657384634018,0.01091044582426548,-0.04009775444865227,0.15025180578231812,0.1025557816028595,0.010547236539423466],[0.0388423427939415,-0.05106097087264061,0.13186277449131012,0.0853961855173111,-0.1111474335193634,-0.0021001913119107485,0.05088070407509804,0.2957925796508789,-0.0417473241686821,-0.08652519434690475,0.15425346791744232,0.12819799780845642,-0.19497768580913544,-0.017666105180978775,-0.04150601848959923,-0.15990839898586273,0.07639169692993164,0.0817471444606781,-0.0896729901432991,-0.0050277928821742535,-0.032873984426259995,-0.06305824965238571,-0.14388500154018402,0.07392318546772003,-0.04444892704486847,-0.17483538389205933,0.08555283397436142,-0.09784898906946182,0.0983210876584053,-0.09791495651006699,0.028888467699289322,0.10665883123874664,0.04926817864179611,-0.2399720996618271,-0.011524602770805359,0.18751293420791626,-0.07702157646417618,-0.04932592064142227,0.04160623252391815,0.04077395796775818,0.03561396896839142,0.004460243508219719],[0.007846741937100887,-0.024537209421396255,0.17412489652633667,-0.06905968487262726,0.027948925271630287,0.07469804584980011,0.05558706447482109,-0.1185116097331047,0.06590394675731659,0.09946820884943008,-0.06296813488006592,-0.07574929296970367,0.06341780722141266,0.03261851519346237,-0.12902379035949707,0.025920050218701363,-0.052893780171871185,-0.020382322371006012,-0.0065950690768659115,0.024852633476257324,-0.0427534393966198,0.06664609909057617,-0.006708811037242413,0.2816833257675171,0.05906706675887108,-0.023137306794524193,-0.055878590792417526,0.012650449760258198,0.058763738721609116,0.006129562389105558,-0.009174641221761703,-0.012735625728964806,-0.013762880116701126,-0.6423224806785583,-0.48971760272979736,0.0034524768125265837,-0.013463476672768593,0.005317173432558775,-0.18320190906524658,0.03526008501648903,-0.00665736710652709,-0.21626722812652588],[0.050987012684345245,0.038473643362522125,-0.008014355786144733,0.015026292763650417,0.14433886110782623,0.10698219388723373,-0.4769947826862335,0.19353501498699188,-0.05781778320670128,0.10336054116487503,0.005499207880347967,0.0846782699227333,0.1312205046415329,0.10215845704078674,0.23496529459953308,0.11045762896537781,-0.0007756193517707288,0.01094961166381836,0.055925268679857254,-0.05274498835206032,0.013286398723721504,0.008875587955117226,0.0157376229763031,0.025303203612565994,-0.19214025139808655,-0.04497155547142029,-0.13282489776611328,-0.034606561064720154,0.16958500444889069,-0.07696206122636795,-0.0231514610350132,0.004990522284060717,0.027516961097717285,0.20900295674800873,0.02711433544754982,0.04739302396774292,0.11649118363857269,-0.06126653030514717,0.1609608381986618,0.08070025593042374,-0.06818428635597229,-0.014401493594050407],[-0.03055434487760067,0.05292143672704697,0.11893969774246216,-0.2060856819152832,0.07410795986652374,0.27191275358200073,0.07071312516927719,0.3113636374473572,-0.18878021836280823,0.012927334755659103,0.25879326462745667,-0.14642244577407837,0.047697003930807114,0.09064982831478119,-0.09834760427474976,0.027198344469070435,0.01626930758357048,-0.10269734263420105,0.004658195655792952,0.12330081313848495,-0.028630517423152924,-0.030360721051692963,0.19591696560382843,-0.20923517644405365,-0.008059940300881863,0.09838534146547318,-0.08173081278800964,0.03458625450730324,-0.026099923998117447,0.05404512584209442,-0.0018868822371587157,0.05995756760239601,-0.04231994226574898,0.04725918546319008,-0.08327116072177887,0.19232970476150513,-0.14020517468452454,0.004653077572584152,-0.10272583365440369,-0.10817601531744003,0.11159307509660721,0.12207800149917603],[-0.10401180386543274,-0.02334008179605007,-0.052966758608818054,0.01251388993114233,-0.055365972220897675,-0.04251915588974953,-0.08057663589715958,0.4323970079421997,0.04980109632015228,0.008684996515512466,0.20592375099658966,-0.0487758107483387,-0.08159363269805908,0.24552404880523682,0.0994078740477562,0.017007391899824142,0.21708621084690094,-0.1394638866186142,0.018642008304595947,0.14113019406795502,-0.10569152235984802,0.07044919580221176,0.10159231722354889,0.13515061140060425,0.16492700576782227,0.0556425042450428,0.018101360648870468,-0.04763993248343468,0.04233115538954735,0.0026439197827130556,0.12672749161720276,0.03516625985503197,0.07192505896091461,-0.308237761259079,0.11697287857532501,-0.03825685381889343,0.11347750574350357,-0.09319791942834854,0.01675472967326641,0.058710526674985886,0.074454165995121,-0.11591845750808716],[-0.04311368986964226,0.14016470313072205,-0.0856633260846138,0.11543862521648407,0.05172168090939522,0.06833747774362564,0.2609890103340149,0.12307292968034744,-0.1418725550174713,-0.3548617362976074,-0.041464947164058685,-0.006140252109616995,0.018549561500549316,-0.018348442390561104,-0.06193866580724716,-0.023235509172081947,-0.0814596489071846,0.028873341158032417,-0.013355783186852932,0.01156355906277895,-0.08506398648023605,-0.01811889372766018,0.2167905867099762,0.03374093025922775,-0.031465038657188416,0.08575896918773651,0.06635395437479019,-0.0583115853369236,-0.025596192106604576,0.01670661009848118,-0.010615012608468533,-0.056620415300130844,-0.008680376224219799,0.3655160069465637,0.07657584547996521,0.011372847482562065,-0.1476821005344391,0.04815969616174698,0.07824371755123138,0.04893568158149719,0.07884629815816879,0.25757235288619995],[0.05741314962506294,0.0011656931601464748,-0.07075580954551697,0.05814573913812637,-0.011198055930435658,0.05933181196451187,0.2095828354358673,0.2202707976102829,0.02467026375234127,0.07963897287845612,-0.15030688047409058,-0.08540798723697662,0.07806666195392609,-0.1803790032863617,-0.07845444232225418,0.042170580476522446,-0.15593300759792328,-0.04358956962823868,0.016328400000929832,-0.04573148861527443,-0.08720695227384567,0.020414331927895546,-0.11278689652681351,-0.05487638711929321,0.042320962995290756,0.05839685723185539,0.07233531773090363,0.025006480515003204,-0.0017041151877492666,0.048963066190481186,0.07686731964349747,0.003019033931195736,0.0027289476711302996,0.3817964196205139,-0.3321349620819092,0.0782039538025856,-0.13158437609672546,0.027224499732255936,0.11843200773000717,-0.08910612016916275,0.00926473643630743,-0.08885294944047928],[0.021370122209191322,-0.04550962522625923,-0.24326112866401672,0.19832950830459595,-0.19247443974018097,-0.08868787437677383,-0.20775598287582397,0.16764332354068756,-0.005328828003257513,-0.17960135638713837,0.2521083354949951,0.08768715709447861,-0.08244933187961578,-0.008126679807901382,0.012882315553724766,-0.030654320493340492,0.0008601178415119648,0.08859345316886902,0.07974956929683685,-0.025299472734332085,0.08263780921697617,-0.09940828382968903,-0.02983464114367962,0.05960087105631828,-0.027353676036000252,0.04621599242091179,0.05936954542994499,-0.054508522152900696,0.03141099214553833,-0.09544900059700012,0.015568078495562077,0.0407029390335083,0.0821150541305542,0.5268470048904419,0.4472421705722809,-0.24594435095787048,-0.13877741992473602,-0.10564497113227844,-0.10057287663221359,-0.02796909399330616,-0.029152335599064827,0.046825096011161804],[0.10378814488649368,-0.0029379152692854404,-0.09357980638742447,0.05914338305592537,0.03957191854715347,-0.05415691062808037,0.6114703416824341,-0.3589951694011688,0.1474130004644394,0.1862507164478302,0.2565765976905823,0.021091481670737267,0.0720258355140686,0.05227237567305565,-0.004799914546310902,-0.06610915809869766,-0.09031536430120468,0.0446273572742939,-0.11987686157226562,-0.007703408598899841,0.07320252060890198,0.00469604367390275,0.021521952003240585,0.0837445855140686,0.09796100854873657,-0.007912304252386093,-0.06171537563204765,0.048715945333242416,-0.04984714835882187,-0.09802474826574326,0.014965544454753399,-0.0031882310286164284,0.18282882869243622,0.14824721217155457,0.03157547116279602,-0.09559784829616547,0.08665094524621964,0.08294598013162613,-0.11863772571086884,0.0340111181139946,0.056974977254867554,0.11918715387582779],[0.02661656029522419,-0.0540582500398159,-0.10601074248552322,-0.0725395455956459,0.01750241033732891,0.12605208158493042,0.4728882610797882,0.38241496682167053,0.002616880927234888,0.24193017184734344,0.1450541764497757,-0.024915313348174095,0.027213027700781822,0.0290435329079628,0.06103997305035591,0.15142950415611267,0.15609458088874817,-0.015468989498913288,0.16803494095802307,-0.25409427285194397,-0.03736305236816406,0.004495846573263407,-0.08635084331035614,-0.0682150274515152,-0.03295287862420082,0.12647607922554016,0.11488854885101318,-0.010247140191495419,-0.0456990972161293,0.027592940255999565,0.002629671711474657,-0.04011780396103859,-0.006408844608813524,0.20098258554935455,-0.07314445823431015,0.15496276319026947,0.16722416877746582,0.03650989383459091,-0.002500260481610894,0.06563816964626312,0.08629485219717026,0.11593005061149597],[-0.07251176983118057,0.1662285327911377,-0.10471133142709732,0.09526883810758591,-0.012897448614239693,-0.03448503091931343,-0.020315824076533318,-0.02913007140159607,0.0779217928647995,0.025068260729312897,-0.014692324213683605,0.20869864523410797,-0.025025051087141037,-0.06682641804218292,0.2000565230846405,-0.043083418160676956,-0.09198339283466339,0.1334889680147171,0.030613670125603676,0.010035271756350994,0.12421202659606934,-0.12680964171886444,-0.03478467836976051,-0.10302060842514038,-0.08621049672365189,0.005875508300960064,-0.16805818676948547,-0.07573621720075607,-0.047487225383520126,-0.12684230506420135,-0.03198222815990448,-0.00848339218646288,0.033002424985170364,0.3172619044780731,0.2920963764190674,0.04562637582421303,-0.12660641968250275,-0.07460784167051315,-0.2591618299484253,-0.09621033072471619,0.04887113720178604,0.0967312902212143],[-0.09557635337114334,0.08029340207576752,-0.038571689277887344,-0.06226600334048271,0.06824830919504166,-0.07408928126096725,-0.4897843301296234,0.41977137327194214,0.05593199282884598,-0.018362686038017273,-0.06813398748636246,-0.06297264248132706,-0.13341835141181946,-0.12081025540828705,0.05488047003746033,-0.09170284122228622,-0.15243804454803467,-0.0063883098773658276,0.01718173362314701,0.009143523871898651,-0.05596991628408432,-0.01575261726975441,-0.039269205182790756,0.09410248696804047,0.06510931998491287,0.0965288057923317,0.03851121664047241,-0.006733306217938662,0.04386605694890022,0.10043330490589142,0.011438185349106789,-0.012206800282001495,-0.07514652609825134,-0.1773630827665329,-0.27848345041275024,0.2463371604681015,0.19127331674098969,-0.0474989116191864,-0.008213630877435207,0.21195098757743835,0.10027743130922318,0.17462730407714844],[0.0987788736820221,-0.08281096816062927,-0.05906179919838905,-0.18987683951854706,0.20616655051708221,0.02263195812702179,0.6078294515609741,0.7365307807922363,0.012183234095573425,0.34412476420402527,-0.06918419152498245,0.0029780955519527197,0.1496061235666275,0.11637686938047409,-0.03223559260368347,0.13932327926158905,0.014691350981593132,-0.04134714603424072,0.07440377026796341,-0.012682890519499779,0.0945696234703064,-0.14467711746692657,-0.16245344281196594,0.05198609083890915,-0.07811424136161804,0.048935484141111374,0.04299672693014145,-0.024020468816161156,-0.10043298453092575,0.06285101175308228,0.010264065116643906,-0.04112258553504944,-0.005910919047892094,0.11760351806879044,0.14801499247550964,0.08142367750406265,-0.0975886732339859,0.06834562122821808,0.1067735105752945,-0.0463152751326561,0.005488491151481867,0.08893845230340958],[-0.09973379969596863,0.12810246646404266,0.37025347352027893,-0.06445430964231491,0.14670729637145996,0.0380009301006794,-0.14102540910243988,0.07707700878381729,0.008660920895636082,-0.08838888257741928,0.0269613079726696,-0.07842880487442017,-0.015223133377730846,-0.07909753173589706,0.10543113201856613,0.006860679015517235,-0.13373707234859467,0.10995792597532272,-0.011593462899327278,-0.009583736769855022,0.04233290255069733,0.00921186525374651,-0.007506673689931631,-0.08926358073949814,-0.052007805556058884,0.08694422990083694,-0.16132110357284546,-0.06049575284123421,-0.036187175661325455,0.051372796297073364,-0.08031363785266876,0.01154059637337923,0.007001051213592291,-0.15722917020320892,0.050117406994104385,-0.18798194825649261,-0.0896957740187645,-0.16109269857406616,0.12931694090366364,-0.15350341796875,-0.020231518894433975,-0.10636929422616959],[-0.08146513253450394,0.07708478718996048,0.09562729299068451,0.11519672721624374,0.047963641583919525,-0.10078305751085281,0.06552526354789734,-0.22646185755729675,0.035762637853622437,0.21051211655139923,-0.061554793268442154,0.06518028676509857,0.06081358343362808,0.05882956460118294,-0.07978368550539017,0.015293756499886513,0.021599657833576202,-0.039695776998996735,-0.05274468660354614,0.04767121002078056,0.10594961792230606,-0.014585577882826328,0.3749547004699707,0.11097124963998795,-0.08620404452085495,-0.03563989698886871,-0.079093798995018,-0.13567714393138885,-0.05326187238097191,0.056765079498291016,-0.09977635741233826,-0.04448752477765083,-0.012891451828181744,0.08420327305793762,-0.02790691889822483,0.058968573808670044,0.039106741547584534,0.1189199686050415,-0.039070550352334976,0.20562413334846497,0.03988758102059364,0.03724651038646698],[-0.00535809900611639,0.03743521496653557,0.060496874153614044,-0.07273831218481064,-0.184605672955513,-0.059196751564741135,-0.41010749340057373,0.3755437135696411,0.32409825921058655,-0.030917374417185783,0.17905306816101074,-0.08777081221342087,-0.06959003955125809,0.3124220669269562,-0.06838394701480865,0.03025585412979126,0.04980917647480965,0.07781918346881866,0.005470898002386093,0.03516367822885513,0.1465490460395813,-0.06632930040359497,-0.027332255616784096,-0.0710258036851883,-0.032899972051382065,-0.023173147812485695,0.12007887661457062,0.03632495552301407,-0.006542528979480267,-0.10871351510286331,0.055250149220228195,0.06213408336043358,-0.07042315602302551,0.08902164548635483,-0.2026095688343048,0.05596860125660896,0.01110448781400919,0.0026866637635976076,-0.11088888347148895,0.04130150377750397,0.06397131085395813,-0.10600850731134415],[-0.08772012591362,-0.030055031180381775,0.0889277532696724,-0.035695236176252365,-0.0031620708759874105,0.08008898794651031,0.13190798461437225,-0.021578865125775337,0.04168271645903587,0.05467554181814194,-0.10863839834928513,-0.04227422550320625,0.013194214552640915,-0.13557963073253632,-0.1732751429080963,0.04086430370807648,-0.0905713140964508,0.06568754464387894,0.08060736954212189,0.07875839620828629,0.07944364845752716,-0.14449547231197357,0.01578320935368538,0.17162252962589264,-0.031237643212080002,-0.040673207491636276,-0.07143077999353409,-0.0809735581278801,0.07595052570104599,-0.03386455029249191,0.0873507708311081,0.05111655965447426,-0.04257001727819443,0.007418978959321976,0.13997229933738708,0.11340446025133133,0.021953342482447624,0.1156405434012413,0.05324782431125641,-0.041289012879133224,0.10869823396205902,-0.04414048790931702],[0.06184806674718857,-0.1082177609205246,0.026079585775732994,0.17389419674873352,-0.003139419248327613,0.17777861654758453,-0.3962254822254181,-0.6364971399307251,0.08158476650714874,0.12141148000955582,0.21695756912231445,-0.10476430505514145,0.05246525630354881,0.12185962498188019,0.15427766740322113,0.019318915903568268,0.028159165754914284,0.07462262362241745,-0.017704211175441742,-0.01811133697628975,-0.05543382465839386,0.006537811830639839,-0.08870252966880798,-0.002489459700882435,0.05567210540175438,0.04275340586900711,-0.018875617533922195,-0.016829954460263252,0.03518640622496605,-0.027806038036942482,-0.112453892827034,-0.05457209423184395,-0.05765289068222046,0.22657138109207153,0.0053949858993291855,0.09563560038805008,0.1009015366435051,0.015339345671236515,0.011432301253080368,-0.12056169658899307,-0.08464135229587555,-0.09071911871433258],[0.06402725726366043,0.013782662339508533,0.019413521513342857,0.01464883703738451,0.07222305238246918,-0.06058884412050247,-0.05216604843735695,-0.06599435955286026,0.1396571397781372,-0.1635041981935501,0.008181031793355942,0.05824010446667671,0.01762166991829872,-0.010808447375893593,0.08559923619031906,0.07777808606624603,0.05391799286007881,0.0027176188305020332,-0.04689062759280205,0.03780171275138855,-0.02348341792821884,-0.10678497701883316,0.1835339367389679,0.030481580644845963,-0.10038018226623535,0.012794687412679195,0.050713371485471725,0.05489371344447136,0.03173275291919708,-0.03749629110097885,0.12324460595846176,-0.056246619671583176,0.08131954073905945,-0.37751370668411255,0.09424985945224762,0.073222316801548,0.1451684534549713,-0.10037688910961151,-0.047013040632009506,0.005580822937190533,-0.1547139436006546,-0.07215087860822678],[-0.015317165292799473,0.05456339195370674,0.16971485316753387,-0.0038607942406088114,0.06527348607778549,-0.10321594774723053,-0.5405934453010559,0.17562773823738098,-0.18773630261421204,-0.11056958138942719,-0.2669767141342163,-0.04276414215564728,0.011641529388725758,-0.29702070355415344,0.026914110407233238,0.036000121384859085,-0.1383180469274521,0.034893929958343506,-0.007035787682980299,-0.014147534035146236,-0.07429205626249313,-0.0018671489087864757,0.08782654255628586,0.14123399555683136,0.03716443106532097,0.012620970606803894,0.021821146830916405,0.0856737494468689,-0.015447650104761124,0.02528212033212185,0.048405371606349945,0.0051677050068974495,0.02952633425593376,-0.5744985342025757,-0.5117520093917847,-0.015362908132374287,0.15607371926307678,0.06252212822437286,0.2597390413284302,0.042869336903095245,0.07192765176296234,-0.18233151733875275],[0.11595063656568527,0.11494619399309158,0.06213098391890526,0.1806109994649887,-0.03779323771595955,-0.029840148985385895,0.1705629676580429,-0.0414668507874012,-0.28500497341156006,0.1286703646183014,0.07507194578647614,-0.003012789646163583,0.004764391575008631,-0.07403461635112762,0.013412194326519966,-0.009508674032986164,-0.07517998665571213,0.0634269267320633,0.01544363982975483,0.022233881056308746,0.01579992100596428,0.07840970158576965,-0.09197688102722168,-0.12235266715288162,-0.002538381377235055,0.13127383589744568,0.10210590064525604,0.03648960590362549,0.08515479415655136,-0.022542152553796768,0.05367324873805046,0.0025861854664981365,0.15030065178871155,-0.6822327375411987,-0.24921628832817078,-0.03498426079750061,0.103902667760849,-0.01870924048125744,0.10081200301647186,0.18248440325260162,-0.02073824778199196,0.01339658536016941],[0.1173119768500328,-0.004218436311930418,0.024682842195034027,0.11774756014347076,-0.04406397044658661,-0.07718699425458908,0.2123796045780182,0.1012265607714653,0.01512148417532444,0.26129934191703796,-0.2592281997203827,0.1031450480222702,0.13446161150932312,-0.03679880499839783,-0.15608209371566772,-0.21720467507839203,-0.032380953431129456,0.13195475935935974,-0.02815345674753189,0.025949515402317047,0.13062843680381775,-0.14829762279987335,0.04318644478917122,0.12182527035474777,-0.00922009814530611,0.08487270772457123,-0.029042696580290794,-0.16111187636852264,0.015502886846661568,-0.013995181769132614,-0.05799426510930061,-0.024194559082388878,-0.06220409646630287,0.22720126807689667,0.10494118183851242,0.02769063040614128,0.0684201642870903,0.04530089721083641,-0.10393226146697998,0.07650518417358398,-7.682068826397881e-05,0.055569712072610855],[0.1012539491057396,-0.10731492191553116,-0.049733296036720276,0.06593120843172073,0.054104212671518326,0.11753048747777939,-0.19975101947784424,-0.1817370355129242,-0.10366424918174744,0.10020050406455994,-0.008736548945307732,-0.010739186778664589,0.10430733859539032,0.08688504993915558,-0.08216521888971329,0.026009926572442055,-0.015708912163972855,0.14030233025550842,-0.07857662439346313,0.012310282327234745,0.0260601919144392,0.3676084280014038,-0.003712648991495371,0.061849433928728104,0.025199806317687035,-0.031289756298065186,0.16603432595729828,-0.12543463706970215,-0.0753600001335144,-0.11054684966802597,-0.04618418216705322,0.018781863152980804,0.06145000830292702,0.3642439544200897,0.014436070807278156,-0.11228509992361069,-0.03909480944275856,0.025017473846673965,0.05772598832845688,-0.07039492577314377,0.10141696035861969,-0.04682454839348793],[-0.03389180824160576,0.0678911879658699,0.10889308154582977,-0.08905293047428131,0.17379415035247803,0.013346145860850811,0.14720389246940613,-0.24663737416267395,0.1669723242521286,0.12619344890117645,-0.23081067204475403,-0.03628261759877205,-0.03651934862136841,-0.018657367676496506,-0.16240015625953674,-0.06081192195415497,0.04403256997466087,-0.01281947735697031,0.007788004353642464,-0.01904575526714325,-0.02528812736272812,0.08960989862680435,-0.03117406740784645,-0.011060323566198349,0.025052182376384735,-0.00033049940248019993,0.004954575560986996,-0.057576827704906464,0.0310065858066082,0.065384142100811,0.09613160043954849,0.004999381024390459,0.024943768978118896,0.1315154880285263,-0.01528577134013176,0.050746314227581024,-0.008508584462106228,-0.012496478855609894,0.06469690054655075,-0.1689128428697586,-0.0026806567329913378,-0.06384774297475815],[-0.015796711668372154,-0.0011517415987327695,0.002541160210967064,-0.023721184581518173,0.005979017820209265,-0.011304100044071674,-0.3105093538761139,-0.04177388176321983,0.04661067575216293,-0.13010478019714355,-0.0012237519258633256,0.11259590089321136,-0.17282208800315857,-0.06322755664587021,-0.018902165815234184,-0.05535878613591194,-0.050135642290115356,0.030870797112584114,-0.04043672978878021,0.013710463419556618,0.06847720593214035,0.0950213223695755,-0.03335953503847122,-0.017857395112514496,0.01055386196821928,0.03913325443863869,0.03434126824140549,0.020163968205451965,-0.0873265415430069,0.04854793846607208,-0.06633210182189941,-0.07533363997936249,0.07095103710889816,0.46882256865501404,-0.2659318745136261,-0.06590978801250458,-0.09314653277397156,-0.019667506217956543,-0.04876905679702759,0.1178186759352684,-0.011042102240025997,0.20170368254184723],[-0.06579209864139557,-0.01952817104756832,0.005682800430804491,-0.1788914054632187,-0.17952336370944977,0.10407918691635132,0.02767788991332054,-0.08214513957500458,0.01816973276436329,0.17261306941509247,-0.1495276242494583,-0.025201955810189247,0.28855714201927185,0.08632116764783859,-0.028733205050230026,0.13856767117977142,0.04487986862659454,-0.056940656155347824,0.027729341760277748,-0.04306484013795853,-0.03195502981543541,-0.08992034941911697,-0.05161924660205841,0.10331379622220993,-0.07959979772567749,-0.055805593729019165,0.04241291806101799,-0.01998092047870159,0.014897671528160572,0.061617251485586166,0.13601231575012207,0.07312209159135818,-0.12314014881849289,-0.09073565900325775,-0.13779908418655396,-0.03357722982764244,-0.1416795700788498,-0.0003164576773997396,0.0735563337802887,-0.037829358130693436,0.03046979382634163,0.04779404401779175],[-0.07816201448440552,0.23136568069458008,-0.0668797716498375,-0.10760566592216492,-0.09067368507385254,-0.020116930827498436,-0.15571005642414093,0.3021300733089447,0.12733891606330872,0.04342260956764221,0.12128754705190659,-0.15197283029556274,0.1034061461687088,0.10108833760023117,-0.0964927226305008,0.013841119594871998,0.08004830777645111,0.04593861103057861,-0.022191783413290977,0.04976930841803551,0.08052365481853485,0.05990567430853844,0.012692153453826904,-0.015420901589095592,0.09176632016897202,0.06558604538440704,0.003331714076921344,-0.15955038368701935,0.04954810068011284,-0.011098800227046013,-0.02605605497956276,-0.03304324671626091,-0.03954436257481575,0.13904689252376556,-0.08415455371141434,0.01558950450271368,-0.1378103792667389,-0.05114615708589554,0.01338634081184864,-0.13114796578884125,-0.008185666985809803,0.053061593323946],[-0.1434367448091507,-0.0005517599056474864,0.06946023553609848,-0.0023285711649805307,0.06613881140947342,-0.06370490789413452,0.07676900923252106,-0.1968771070241928,0.10602044314146042,-0.05081075802445412,-0.1648537963628769,0.22245986759662628,-0.10369628667831421,0.026563100516796112,-0.0340215340256691,-0.014780334196984768,-0.07099231332540512,-0.046439215540885925,-0.012671397998929024,0.029298771172761917,-0.01746458001434803,0.10034797340631485,0.04457177221775055,-0.0692233294248581,-0.05443328991532326,0.028175681829452515,0.05154440924525261,-0.20943990349769592,-0.00390981649979949,0.014281113632023335,-0.062068670988082886,-0.10404419153928757,0.02566085010766983,0.1519881635904312,-0.04509463161230087,0.08786039799451828,0.06827453523874283,-0.04410965368151665,0.11707811802625656,0.07300913333892822,0.05312316119670868,0.12886850535869598],[0.054615769535303116,0.014238366857171059,-0.16461631655693054,-0.0011978221591562033,-0.15429426729679108,-0.010108648799359798,-0.5567330718040466,0.11249752342700958,0.1168883815407753,-0.15593327581882477,-0.3961821496486664,0.17260050773620605,0.07723382860422134,-0.05974452570080757,-0.01527376938611269,0.012750870548188686,-0.25280165672302246,-0.01213360857218504,-0.0768212303519249,-0.15058138966560364,0.01130114309489727,-0.02183772809803486,0.12914390861988068,-0.1951926052570343,0.03707299754023552,-0.007386777549982071,0.05451476573944092,0.03207281231880188,-0.006920365151017904,0.11158007383346558,-0.006828072480857372,-0.02648822031915188,0.05226614326238632,0.1688210517168045,0.16510464251041412,0.10033105313777924,-0.11327564716339111,-0.12092941254377365,0.0348387137055397,0.07187225669622421,-0.00551498681306839,0.03324535861611366],[-0.14261119067668915,0.09224110096693039,-0.032760754227638245,0.09250534325838089,0.04613146185874939,-0.06164834275841713,-0.020744314417243004,0.6578217148780823,0.051512159407138824,0.024229871109128,-0.27479395270347595,-0.0731377974152565,0.14752550423145294,-0.1099817231297493,-0.07660077512264252,0.056687403470277786,-0.2325221300125122,0.18234366178512573,0.04295317828655243,-0.12102045118808746,0.18446311354637146,-0.07884224504232407,0.1506553292274475,0.027805311605334282,-0.14934790134429932,-0.05339948832988739,0.10109855234622955,-0.07107485085725784,0.011415524408221245,-0.044421326369047165,0.08634351193904877,-0.00680330116301775,-0.15241298079490662,-0.09596142172813416,0.1625588834285736,-0.05169682577252388,0.012045425362884998,0.021792730316519737,-0.11971954256296158,0.012748431414365768,-0.0696888417005539,0.05403265729546547],[0.10139525681734085,-0.20186135172843933,-0.059729740023612976,-0.015911903232336044,-0.19204065203666687,-0.06148326396942139,-0.19722071290016174,-0.03841963782906532,0.02288081869482994,-0.24074770510196686,0.30201256275177,0.06304877251386642,0.08806559443473816,0.017361532896757126,-0.026900120079517365,-0.1347489058971405,0.1157388910651207,-0.08663982897996902,-0.12267503887414932,0.07034741342067719,-0.03408213332295418,-0.07161334902048111,0.0847603976726532,0.06043967977166176,0.004978313110768795,0.029313934966921806,-0.0608338862657547,0.14725543558597565,-0.02887878753244877,0.06748352944850922,0.006138750817626715,0.017112210392951965,0.14880849421024323,0.10774509608745575,-0.1820565164089203,-0.2190978229045868,0.029188530519604683,0.05951371043920517,0.03595300018787384,-0.012105661444365978,-0.01697169616818428,-0.23771415650844574],[0.01424366794526577,0.09992043673992157,0.10729490965604782,-0.07271793484687805,0.3584786355495453,0.17755694687366486,-0.7762563824653625,0.21224184334278107,-0.0854731947183609,-0.6447300910949707,-0.0021867735777050257,0.04353766888380051,-0.24830523133277893,0.06557268649339676,-0.014703968539834023,-0.14054685831069946,0.08494634926319122,0.042828261852264404,-0.04012138396501541,0.0481024831533432,0.015830116346478462,0.07274334877729416,0.09387172013521194,-0.039605118334293365,0.03973094001412392,-0.03662002086639404,-0.06480853259563446,0.02513175457715988,0.006913849618285894,-0.0590532124042511,0.012807350605726242,0.027991265058517456,0.03188979625701904,0.1757337749004364,0.09901300817728043,-0.044991251081228256,-0.002004469744861126,0.06378281861543655,0.08097842335700989,0.05170485004782677,0.011758849024772644,-0.1457902193069458],[0.013678423129022121,0.09118873625993729,0.017665373161435127,-0.014809143729507923,0.08601216971874237,0.004840858746320009,-0.2195766419172287,0.19572584331035614,0.11968766897916794,-0.1571502685546875,0.044037673622369766,0.0783737525343895,0.044953249394893646,-0.03205253556370735,-0.04417620599269867,-0.04085985943675041,0.05447639897465706,-0.12887994945049286,0.05659656971693039,0.06382100284099579,-0.015629516914486885,0.04883270338177681,0.08926946669816971,-0.0744844451546669,0.07716120779514313,0.009580295532941818,0.0037419560831040144,-0.08015904575586319,0.06483383476734161,-0.07397474348545074,-0.11230209469795227,-0.034330446273088455,0.09547793120145798,-0.2789929211139679,-0.025933310389518738,0.05383463576436043,0.08585251867771149,0.05893800035119057,0.028550056740641594,0.07390053570270538,-0.026401514187455177,0.15312273800373077],[-0.04891064763069153,-0.08746388554573059,-0.09220593422651291,0.03163626417517662,0.012094804085791111,0.16438505053520203,-0.06546014547348022,0.18169760704040527,-0.029670745134353638,-0.03147780895233154,-0.11298559606075287,0.10766677558422089,0.011283512227237225,-0.06892218440771103,0.09681254625320435,0.010905020870268345,0.016620667651295662,0.06634107232093811,0.016318297013640404,0.02698124386370182,0.021532975137233734,-0.08170663565397263,-0.08794041723012924,0.011815260164439678,0.13051505386829376,0.07730281352996826,0.0986776128411293,0.06487409770488739,0.01147043239325285,0.1129247322678566,0.011683691293001175,0.028810899704694748,-0.20523907244205475,0.1818007230758667,0.3489803075790405,-0.12158412486314774,0.13522878289222717,0.0024703978560864925,0.06363149732351303,0.03695935010910034,0.05919087678194046,0.03161127492785454],[0.09720709919929504,0.12094946205615997,-0.10079177469015121,0.053828638046979904,0.10301090776920319,0.06090857833623886,0.3835589587688446,-0.19177992641925812,0.02788512408733368,-0.13571101427078247,-0.2408437728881836,0.045937132090330124,0.05041324719786644,-0.027784697711467743,-0.014261404983699322,0.09846384823322296,0.02826264500617981,-0.06916040927171707,0.06786663085222244,0.0962047129869461,0.03795947879552841,0.16247788071632385,0.1422826498746872,-0.13802705705165863,-0.033386994153261185,0.12930728495121002,-0.045743703842163086,0.06764145195484161,0.03148535266518593,-0.008179085329174995,0.004607964772731066,0.02917943149805069,0.08869659900665283,-0.009279865771532059,-0.09873911738395691,0.17927607893943787,-0.14379312098026276,-0.071445032954216,0.10164584964513779,0.04913155734539032,0.02973153255879879,-0.16158244013786316],[0.08856126666069031,0.020806731656193733,0.04038573056459427,-0.05353096127510071,0.1892617642879486,-0.01846829615533352,0.03189993277192116,0.42837899923324585,-0.0008354270248673856,0.350384384393692,-0.05157846212387085,0.04928620904684067,-1.1818378879979718e-06,-0.03661993145942688,0.1523655205965042,0.02093283087015152,0.05755951628088951,0.027276603505015373,-0.037849828600883484,-0.017276454716920853,0.034281887114048004,-0.06647121161222458,-0.0016557056223973632,0.05857544019818306,-0.021689733490347862,0.11264391243457794,-0.00412866473197937,-0.048701658844947815,-0.1500779539346695,-0.10211170464754105,0.022359469905495644,0.14584706723690033,-0.1252029985189438,-0.01457748282700777,0.2508939802646637,-0.040292154997587204,-0.02049524523317814,-0.07143545895814896,-0.030325831845402718,-0.07833925634622574,-0.030532563105225563,0.07116527110338211],[0.08741296827793121,-0.05057687684893608,-0.02415752038359642,-0.23541231453418732,-0.02067585662007332,-0.05676405504345894,-0.17357321083545685,0.2984658181667328,-0.011891577392816544,-0.024453207850456238,0.20942039787769318,-0.19741712510585785,-0.01641678437590599,0.13446137309074402,-0.02623189054429531,0.04642236977815628,0.07650434970855713,-0.02001413330435753,0.029495077207684517,0.046297043561935425,-0.03889148309826851,0.2754097878932953,-0.04734136164188385,0.11566638201475143,0.13707493245601654,0.11495009064674377,0.11603588610887527,0.01815309375524521,0.05175910145044327,0.13696494698524475,0.00508476747199893,-0.03193478658795357,-0.04605673998594284,-0.08461551368236542,0.3027762472629547,0.019345466047525406,0.06224294379353523,0.054592207074165344,-0.014683392830193043,-0.09805504977703094,0.014688003808259964,0.23283150792121887],[0.028352463617920876,0.05328988656401634,0.00646611675620079,0.006938673090189695,-0.03222711756825447,0.07745815813541412,-0.2549593150615692,