{"obs_dim":62,"act_dim":3,"layers":[{"type":"linear","weight":[[-0.048360731452703476,0.19076108932495117,-0.050960272550582886,-0.06961643695831299,-0.04291592538356781,-0.014308474957942963,0.03106575831770897,0.38612741231918335,0.038761429488658905,-0.0056573632173240185,0.10909917950630188,-0.005327142309397459,0.06870808452367783,0.05423189699649811,0.09410344064235687,0.025421028956770897,-0.18724364042282104,0.11959262192249298,-0.1934947967529297,0.025414545089006424,-0.06488291919231415,0.09389933198690414,0.07623227685689926,0.0014744456857442856,-0.09523067623376846,0.16946977376937866,-0.023615432903170586,0.05529196187853813,0.03161599114537239,0.06224551424384117,0.01612093113362789,0.0008164308965206146,0.04437112435698509,0.05545153096318245,0.12723521888256073,0.012962596490979195,-0.05095706135034561,-0.023639077320694923,-0.008947068825364113,-0.009233844466507435,0.042526524513959885,-0.10895984619855881,0.06718289107084274,0.007791905198246241,0.04254896938800812,-0.1031837910413742,0.018995171412825584,0.12539243698120117,0.08543068915605545,-0.14617802202701569,0.007084675133228302,0.009805476292967796,-0.03797562047839165,0.02699274569749832,0.610817015171051,-0.009715955704450607,-0.09531180560588837,-0.11136995255947113,0.012001319788396358,0.037121303379535675,-0.1466173231601715,-0.01045218575745821],[0.040464580059051514,-0.012236980721354485,0.02831086330115795,0.08847618103027344,-0.18783266842365265,-0.028176449239253998,0.16737136244773865,-0.24750564992427826,-0.04639942944049835,0.020301515236496925,-0.028537346050143242,-0.03565967082977295,0.07509566098451614,0.1442282795906067,0.07740040868520737,-0.12786050140857697,0.09502606838941574,0.05088474974036217,0.04981764778494835,0.11866094172000885,0.015723109245300293,0.10425452888011932,0.04230708256363869,0.05994945392012596,0.045417167246341705,-0.04691215604543686,-0.07571222633123398,0.11589916050434113,0.17361502349376678,0.1719476878643036,0.00854435097426176,0.15122593939304352,-0.04764851927757263,0.11006002128124237,-0.08515246212482452,-0.07095132768154144,-0.1194087341427803,-0.1578439623117447,0.01774829439818859,0.030475417152047157,-0.011181343346834183,-0.05416596308350563,0.04462079331278801,0.09538625925779343,-0.01824513077735901,-0.11148582398891449,-0.03632921725511551,-0.06569033116102219,-0.11011318862438202,0.14284951984882355,-0.06897739320993423,0.016620058566331863,-0.22693949937820435,0.050187867134809494,-0.27866774797439575,-0.04357617348432541,0.12679195404052734,0.0158533975481987,0.07876268029212952,-0.06540755182504654,-0.04824874550104141,-0.2618889808654785],[0.1586652398109436,0.07607749849557877,0.08609239012002945,0.1334644854068756,0.1082405224442482,0.01571093499660492,0.0058550043031573296,-0.1330787092447281,-0.02106688730418682,-0.007312689442187548,0.09078311920166016,-0.07135137915611267,0.06685221940279007,-0.09150665253400803,0.026203107088804245,-0.014513024128973484,0.13242661952972412,-0.036353882402181625,0.07129666954278946,0.10864313691854477,-0.11075242608785629,-0.030929692089557648,0.11982801556587219,0.11400938034057617,-0.09644497185945511,0.03645261749625206,0.22490471601486206,-0.053750522434711456,0.0755215659737587,0.0017269550589844584,-0.0359349250793457,-0.10421901941299438,0.012586846947669983,0.09174094349145889,-0.049287427216768265,0.11393782496452332,0.10358385741710663,-0.12121511995792389,0.011238744482398033,0.07449966669082642,-0.14201538264751434,-0.04033071547746658,0.11545557528734207,-0.06468609720468521,0.0009526246576569974,0.030241137370467186,-0.01134215947240591,0.14365537464618683,-0.003305914578959346,-0.1733325719833374,-0.14754226803779602,0.03184988349676132,0.11093971133232117,-0.0496564656496048,-0.2085922509431839,0.03901776298880577,0.027171334251761436,-0.12003684788942337,-0.08209485560655594,0.05585272237658501,0.056713949888944626,-0.5079882740974426],[-0.029546521604061127,0.19622865319252014,0.1490449160337448,-0.05468543991446495,-0.1254855841398239,-0.29979607462882996,-0.039160341024398804,-0.14173182845115662,-0.08247368782758713,0.17150568962097168,-0.016956372186541557,-0.008808084763586521,0.13153663277626038,0.05066525191068649,-0.014841174706816673,0.01875527948141098,0.0068929605185985565,0.08991359174251556,-0.010483454912900925,0.11753711104393005,0.10009172558784485,-0.022982165217399597,-0.0416036956012249,0.017771359533071518,0.0714593306183815,-0.035569604486227036,0.08570288866758347,-0.14531898498535156,0.09762224555015564,0.14659734070301056,0.1813259869813919,0.17686975002288818,0.07078763842582703,0.018480652943253517,-0.1265116035938263,0.03753133490681648,-0.10313846915960312,0.08995747566223145,0.014300701208412647,-0.0659218430519104,0.09871665388345718,-0.07953870296478271,0.03098272532224655,0.0831206664443016,-0.0017973859794437885,0.0737076997756958,-0.002818256849423051,-0.009760203771293163,0.13354434072971344,0.10600502043962479,-0.01717795617878437,-0.08244962245225906,0.3483482897281647,0.26194173097610474,0.06986403465270996,-0.09085788577795029,-0.036419861018657684,-0.08778678625822067,0.1922781616449356,0.025904450565576553,-0.09848515689373016,0.41862601041793823],[-0.06795211136341095,-0.03859173506498337,-0.012142452411353588,0.02848358266055584,0.180556520819664,-0.07117002457380295,-0.09838484972715378,0.08990141749382019,-0.13470691442489624,0.0045997039414942265,-0.15209779143333435,0.11652759462594986,0.05140452831983566,-0.0891663134098053,0.10538256913423538,0.007880077697336674,0.08412905782461166,-0.10286524146795273,0.162623330950737,-0.11323618143796921,-0.06214149668812752,0.11884821951389313,0.13062334060668945,-0.13663332164287567,-0.030089404433965683,0.02872023545205593,0.11996427178382874,-0.019688189029693604,0.12264078855514526,-0.09385037422180176,-0.1304846853017807,0.018961824476718903,0.02934560738503933,0.01967783086001873,-0.020421380177140236,0.2339499592781067,0.21952204406261444,-0.04381997883319855,-0.08873136341571808,0.0459708534181118,-0.014155394397675991,-0.0789557546377182,-0.0356815904378891,-0.13181500136852264,0.02864622138440609,0.027827458456158638,-0.12228783965110779,-0.12292398512363434,0.08957456797361374,-0.014049887657165527,0.04576452448964119,-0.03544391691684723,-0.312453031539917,0.0908346176147461,0.3635447919368744,0.04277605190873146,-0.07937513291835785,0.002774689346551895,0.021558647975325584,-0.04845266416668892,-0.08259855955839157,0.2526525557041168],[-0.017611628398299217,-0.06708389520645142,0.04907261207699776,-0.038617368787527084,0.13200414180755615,0.11272916942834854,0.02688084915280342,0.0072848005220294,-0.002107699168846011,-0.08181799203157425,-0.10379502177238464,0.004897969774901867,0.023921215906739235,0.0016963010421022773,0.2039342224597931,0.05650295317173004,0.12191508710384369,-0.07708974927663803,0.11920800060033798,-0.03287958726286888,0.11982806026935577,-0.07746178656816483,0.01599525660276413,0.11284463107585907,0.01147819496691227,-0.08815591037273407,0.02815576083958149,-0.11185000091791153,0.05684742331504822,-0.045958030968904495,-0.008758733049035072,-0.1041848286986351,0.10411753505468369,-0.003299959236755967,0.025395795702934265,-0.08070783317089081,-0.24834886193275452,-0.04832879453897476,0.1649428755044937,-0.09372411668300629,0.11046132445335388,-0.0485110878944397,-0.1071561798453331,-0.17969772219657898,0.026939308270812035,0.11645655333995819,0.017399754375219345,0.021987736225128174,0.10527193546295166,-0.059008531272411346,0.03871668875217438,-0.034923747181892395,-0.18552114069461823,-0.35001981258392334,-0.2639399468898773,-0.013147741556167603,0.07677549868822098,0.10344772785902023,0.07051950693130493,0.035612333565950394,0.036151543259620667,-0.549599826335907],[0.011458993889391422,-0.09693054109811783,0.04605742171406746,0.07397862523794174,-0.019308874383568764,-0.12112972140312195,-0.08285243809223175,-0.31278377771377563,-0.09511994570493698,-0.09151556342840195,0.05707279592752457,-0.1695411503314972,0.0010642909910529852,0.03580137714743614,0.13446469604969025,0.10393699258565903,0.13868045806884766,-0.15270885825157166,-0.11672282963991165,0.042019739747047424,0.012567907571792603,0.18968304991722107,0.047794222831726074,-0.11386329680681229,-0.06888745725154877,0.19321048259735107,0.024750966578722,0.09493554383516312,0.020195551216602325,0.053069889545440674,0.1142837256193161,-0.09396400302648544,0.08253226429224014,-0.1394018530845642,0.06515870988368988,0.02315371297299862,0.23868024349212646,0.09703592956066132,0.003251763992011547,0.05272043123841286,-0.02790537290275097,0.06157328188419342,-0.02530723065137863,-0.003311700653284788,-0.1496516615152359,0.006014776881784201,-0.0536678209900856,-0.10093582421541214,0.05083272233605385,-0.14492087066173553,-0.07143638283014297,-0.0890267863869667,-0.11752621829509735,-0.04118707776069641,-0.22646881639957428,0.02307875081896782,0.02897355705499649,-0.08510462939739227,-0.12206161767244339,-0.15812210738658905,0.20588833093643188,0.08793938159942627],[-0.05308062210679054,-0.012383192777633667,-0.010367376729846,-0.1510961502790451,0.10324732214212418,-0.05555789917707443,0.027546193450689316,0.18982714414596558,-0.09736350923776627,0.06861121207475662,-0.11311966925859451,-0.059014804661273956,0.06519754976034164,0.03220941498875618,-0.010888775810599327,0.020857932046055794,0.0006266079726628959,-0.01062000636011362,0.1366107314825058,-0.0726502388715744,-0.05283451825380325,-0.008850802667438984,0.0013648098101839423,0.01787855103611946,0.033373404294252396,-0.03233794495463371,0.13129189610481262,0.21107782423496246,-0.014114492572844028,0.009370239451527596,0.02626800909638405,-0.008756734430789948,0.019103605300188065,-0.017692528665065765,0.0034054380375891924,-0.021086420863866806,0.2897742986679077,-0.10576475411653519,-0.02291381172835827,0.05758993700146675,0.019495658576488495,-0.06199943646788597,0.04293803870677948,-0.09120695292949677,0.08383968472480774,-0.07191239297389984,0.008475867100059986,0.05454864352941513,0.1415017992258072,0.08050989359617233,-0.051604174077510834,0.08508561551570892,-0.16500543057918549,0.13302826881408691,0.7499451041221619,0.015848862007260323,-0.04360111802816391,-0.0463671050965786,0.026256607845425606,-0.0196091178804636,-0.1328660547733307,0.08618957549333572],[0.058682817965745926,-0.18604394793510437,0.033871155232191086,0.08061785250902176,0.032042860984802246,-0.14013682305812836,0.030955765396356583,0.054665256291627884,-0.01652618870139122,-0.03501901775598526,0.11490097641944885,0.03496725484728813,-0.004308104515075684,-0.05249839276075363,0.06579331308603287,-0.13756494224071503,0.07210693508386612,-0.05781594291329384,0.21698616445064545,0.04664114490151405,-0.06819240003824234,-0.1195458397269249,0.05449327453970909,0.03726887330412865,-0.062013376504182816,-0.07239070534706116,0.13298416137695312,0.036581553518772125,0.033641282469034195,-0.038551028817892075,0.14492571353912354,-0.013247364200651646,-0.0007546067354269326,0.14261893928050995,0.15757784247398376,0.08692421019077301,0.32757294178009033,0.12411453574895859,0.06711935997009277,0.015314850956201553,0.0005296550807543099,-0.09820034354925156,0.10010568052530289,-0.15491877496242523,0.3181241452693939,-0.12140995264053345,-0.021954167634248734,0.04032951593399048,0.07069867104291916,-0.002320550149306655,0.10837160050868988,0.06025218218564987,-0.20855914056301117,0.3627530634403229,-0.2474534660577774,0.10334134101867676,0.029103830456733704,-0.06592138111591339,0.14646434783935547,-0.016089264303445816,0.15234296023845673,0.45474374294281006],[-0.08417783677577972,0.02239176072180271,0.03602297976613045,0.03963664919137955,0.041979145258665085,0.14200197160243988,-0.09267900139093399,0.18165259063243866,0.10746283084154129,-0.012469924055039883,-0.11561009287834167,0.13399453461170197,0.06451625376939774,-0.12849654257297516,-0.24239800870418549,0.012404708191752434,0.09386258572340012,-0.17839203774929047,-0.18638476729393005,-0.008997236378490925,0.12440083920955658,0.03461596742272377,-0.05452943220734596,-0.004074282944202423,-0.23007376492023468,-0.12431308627128601,-0.005529907066375017,-0.06263358891010284,-0.1889002025127411,-0.03242718055844307,0.005674466490745544,0.009658640250563622,0.04049535468220711,0.0448438823223114,-0.298043817281723,-0.0761699452996254,-0.03544068709015846,-0.08463802188634872,-0.19457851350307465,0.07959215342998505,-0.09719216078519821,0.19652292132377625,0.09853935241699219,-0.08835532516241074,-0.005552035290747881,-0.05568239465355873,0.005825068801641464,0.054142337292432785,-0.1919681280851364,-0.06506127864122391,-0.05053655058145523,0.13833585381507874,0.06800996512174606,-0.12652114033699036,0.06354599446058273,0.005765753332525492,0.04632341489195824,0.08023738116025925,0.04548127204179764,0.0031798917334526777,-0.020480209961533546,0.21388126909732819],[0.06326505541801453,-0.08325577527284622,0.10252777487039566,-0.04941563308238983,0.09244169294834137,-0.11588817834854126,0.13813994824886322,-0.06530129909515381,0.08579152077436447,0.008536901324987411,0.024828767403960228,-0.08502588421106339,-0.12916070222854614,-0.1863635927438736,0.050228018313646317,-0.0849187970161438,0.036479800939559937,0.006210424471646547,0.16326642036437988,0.1156095489859581,-0.07121843844652176,0.046644747257232666,-0.03872035816311836,0.08611425012350082,-0.058420732617378235,-0.07921247184276581,-0.0008224318153224885,-0.11575470119714737,-0.08341719210147858,0.06958197802305222,-0.1279466301202774,0.022054215893149376,-0.022116271778941154,-0.04413922503590584,0.07078762352466583,0.009795159101486206,-0.05344267189502716,-0.048578280955553055,0.10083433985710144,0.011513006873428822,-0.1550881266593933,-0.09388028085231781,0.010960218496620655,-0.05348975583910942,0.06204918026924133,0.14874188601970673,0.07800761610269547,-0.07189485430717468,-0.17486104369163513,-0.04506147280335426,-0.11088132858276367,0.09448490291833878,-0.14071433246135712,0.03575131297111511,-0.4361278712749481,0.027598116546869278,0.05689912289381027,0.12523582577705383,-0.03018847480416298,0.006277260836213827,0.013456931337714195,-0.14628377556800842],[-0.16860903799533844,-0.015066680498421192,-0.06869926303625107,0.1611170619726181,0.3358410894870758,0.03493760526180267,-0.060802437365055084,-0.048799920827150345,0.23925456404685974,-0.10582397133111954,0.042323000729084015,0.1655844748020172,-0.14160391688346863,0.024202456697821617,-0.08843488991260529,0.14262136816978455,0.08734996616840363,0.017659591510891914,0.14346909523010254,-0.002723795361816883,-0.1518515646457672,0.02879421040415764,0.041061535477638245,0.13698704540729523,0.1396571546792984,-0.03594949096441269,-0.009758170694112778,-0.050937507301568985,-0.07862678915262222,-0.018695378676056862,-0.04423626512289047,-0.3368602395057678,-0.07558497786521912,0.11864853650331497,0.024613169953227043,0.10102449357509613,-0.10184378921985626,-0.11220528185367584,-0.06114223971962929,0.07498834282159805,0.11234711855649948,0.04601595178246498,-0.15283732116222382,-0.0061923605389893055,0.005254633259028196,-0.0787707194685936,-0.02448842115700245,-0.043287500739097595,-0.2925720512866974,-0.03792448341846466,0.0321570448577404,-0.07309121638536453,0.052180349826812744,-0.04434727132320404,-0.3012981414794922,0.007595050148665905,-0.0801323801279068,0.163818821310997,0.019473571330308914,0.030819812789559364,0.06799595803022385,-0.3867616057395935],[0.02089729532599449,-0.035818420350551605,0.054352469742298126,0.1581721305847168,0.1090577021241188,0.15548327565193176,0.018580982461571693,-0.16833466291427612,0.1405876874923706,0.041852500289678574,0.22605188190937042,0.027361325919628143,-0.1360001266002655,-0.17411547899246216,-0.008419115096330643,0.047277044504880905,-0.11310514807701111,-0.11202497035264969,0.004363760817795992,-0.06427980214357376,-0.02094905450940132,0.025403639301657677,-0.043354470282793045,0.023470498621463776,-0.0393296554684639,-0.0040452741086483,0.0052902959287166595,0.03892132639884949,-0.08367288112640381,0.056523922830820084,0.07575713843107224,0.02378840744495392,0.0654970109462738,-0.21826153993606567,-0.08785737305879593,-0.04166621342301369,0.23307527601718903,-0.05715783312916756,-0.09403152763843536,0.07074223458766937,-0.046687059104442596,-0.043138012290000916,-0.023708516731858253,-0.15436692535877228,-0.007959090173244476,0.09724219143390656,-0.03784968703985214,-0.09685288369655609,0.0691380724310875,-0.06652235239744186,-0.15791639685630798,0.0821046531200409,0.2367979735136032,-0.2706019878387451,-0.16036298871040344,0.04250473529100418,0.18834368884563446,0.038328513503074646,0.03534524142742157,0.16155025362968445,0.14823301136493683,0.18658564984798431],[0.13042478263378143,0.07431535422801971,-0.18289223313331604,-0.07299626618623734,0.2644476592540741,0.004182773642241955,0.010267693549394608,0.28904205560684204,0.02088690735399723,-0.09834499657154083,0.04538068175315857,-0.04652131721377373,-0.05012594163417816,0.12260578572750092,-0.08320031315088272,0.14615444839000702,-0.025558553636074066,-0.15384766459465027,0.030699510127305984,-0.22982631623744965,0.026865718886256218,-0.027655761688947678,0.015024501830339432,-0.10003960132598877,-0.08073113858699799,0.06323853880167007,-0.07812177389860153,0.012519355863332748,-0.1781458705663681,-0.08555220067501068,0.24011783301830292,0.06143353506922722,-0.05747082829475403,-0.004473061766475439,0.0573529377579689,-0.041510939598083496,0.2193816602230072,-0.07266878336668015,0.07700357586145401,0.046963922679424286,0.02321629971265793,-0.026844974607229233,0.2145654708147049,0.06706474721431732,0.016498342156410217,0.026395590975880623,0.06272301822900772,-0.12862226366996765,0.02159343846142292,0.07372234016656876,0.054759446531534195,-0.0020384963136166334,-0.10739552229642868,0.16650943458080292,0.634522557258606,0.12781549990177155,0.0006631703581660986,0.018559765070676804,0.12714847922325134,0.04505172371864319,-0.1448705494403839,0.2893499732017517],[0.13237281143665314,-0.33657193183898926,-0.02367279678583145,0.05875719338655472,0.15801340341567993,0.12131806463003159,0.07317326962947845,-0.09130456298589706,0.12455449998378754,-0.0858212485909462,0.13879495859146118,-0.1344628483057022,0.14103707671165466,0.14782750606536865,0.031571898609399796,-0.03522197902202606,0.0378083772957325,-0.011249391362071037,0.14508432149887085,-0.006347207818180323,-0.041558437049388885,-0.035738587379455566,0.08194060623645782,0.061268772929906845,-0.006713075563311577,0.16888856887817383,0.11480432748794556,0.1686164289712906,-0.0021152948029339314,0.11475569754838943,-0.03194060176610947,-0.152584046125412,0.06648577749729156,0.1146988645195961,-0.0809038057923317,0.06624981015920639,-0.11450465023517609,0.018388569355010986,0.025344939902424812,0.08889598399400711,0.0063568903133273125,-0.04713718593120575,0.010684649460017681,-0.054456111043691635,-0.024207673966884613,0.11839786916971207,0.00298794056288898,0.11672534048557281,-0.03989313915371895,-0.22012852132320404,-0.057612575590610504,0.16794593632221222,0.04967041686177254,0.316130131483078,-0.3313412666320801,-0.30348727107048035,-0.14684690535068512,0.15723589062690735,-0.0784505307674408,0.07139894366264343,0.1960294246673584,0.44353848695755005],[-0.26941725611686707,0.17462851107120514,-0.19343067705631256,-0.10510451346635818,-0.22001978754997253,-0.18567249178886414,-0.16589944064617157,0.20094743371009827,0.21893946826457977,-0.19280220568180084,-0.04558023065328598,0.07421857118606567,0.2830241322517395,-0.05272991210222244,0.00259701581671834,0.04277870059013367,-0.1617831438779831,0.03524501621723175,0.09683269262313843,0.04513931646943092,-0.047952696681022644,0.13562926650047302,-0.08503876626491547,0.030131815001368523,0.08155695348978043,0.14287690818309784,-0.06841688603162766,-0.08959835022687912,-0.05750575661659241,0.06059664487838745,0.05234597623348236,0.14409051835536957,0.023288430646061897,0.03316272422671318,-0.07155004888772964,-0.020279131829738617,-0.09671329706907272,-0.004789599683135748,-0.08991767466068268,-0.08514044433832169,-0.05550488457083702,0.06320206820964813,0.04571283236145973,-0.036810267716646194,-0.050090014934539795,0.03289658576250076,0.14761698246002197,0.0859711766242981,-0.003937640693038702,0.03117736242711544,-0.05979328230023384,-0.012532590888440609,-0.01216554269194603,0.16793639957904816,0.3295096755027771,0.1474679559469223,0.19037635624408722,-0.01705005392432213,0.010313831269741058,0.10770352929830551,0.057544607669115067,0.41358691453933716],[0.013382522389292717,-0.213868647813797,-0.00013726079487241805,-0.012841006740927696,0.37050995230674744,0.07953885942697525,-0.008750650100409985,0.03847743570804596,0.05636969581246376,0.007777131628245115,0.13251498341560364,-0.17307092249393463,-0.12416289001703262,-0.11249355971813202,0.1774861365556717,-0.10990369319915771,0.018966346979141235,-0.07551189512014389,0.11586077511310577,0.08626095205545425,-0.09819328784942627,0.0752645879983902,0.05461576581001282,0.033030007034540176,-0.17984263598918915,0.008187728002667427,-0.04447998106479645,-0.10519569367170334,-0.17847201228141785,0.11494740843772888,-0.2670988142490387,0.14672242105007172,0.06557652354240417,-0.07306835055351257,-0.1357094645500183,0.047610167413949966,-0.032365281134843826,0.04777955263853073,0.05914190039038658,0.03159031271934509,-0.1279161423444748,0.05551767349243164,0.07131686806678772,-0.10096851736307144,0.0019226704025641084,0.05277162417769432,-0.12387001514434814,-0.04052911698818207,-0.16845345497131348,-0.13091574609279633,0.08775657415390015,-0.015169289894402027,-0.29847729206085205,-0.03415378928184509,0.15362893044948578,-0.024922555312514305,-0.02272057719528675,-0.12310637533664703,-0.07064303755760193,-0.07603051513433456,-0.026065459474921227,0.049361515790224075],[0.022617913782596588,0.014047072269022465,0.022465992718935013,0.006241637282073498,-0.10755348950624466,-0.026173913851380348,-0.16053059697151184,0.5673654079437256,0.0789431780576706,0.04486937075853348,0.0037936868611723185,0.09718301147222519,0.1428547501564026,-0.004310186952352524,-0.04997040331363678,-0.10910974442958832,0.01378864049911499,-0.00677016656845808,-0.09291411936283112,0.16109837591648102,-0.024248411878943443,0.004658947233110666,-0.05290771648287773,0.06485572457313538,0.05453445762395859,-0.006211220286786556,-0.0895429253578186,0.00978558324277401,-0.010484077967703342,0.12068267911672592,0.14352351427078247,0.04132136330008507,0.07913041114807129,-0.11849109828472137,0.08317460119724274,0.0779789537191391,0.05384457856416702,-0.051046162843704224,-0.09869959950447083,-0.0981605052947998,-0.014904734678566456,-0.06201762333512306,0.2462613433599472,0.05135197564959526,-0.03388064354658127,-0.07842788845300674,-0.08676048368215561,0.018290381878614426,0.20918795466423035,-0.010391692630946636,-0.052181173115968704,0.009047044441103935,-0.0514783076941967,-0.20075121521949768,0.8394014835357666,-0.06282411515712738,0.12846432626247406,-0.11407925188541412,0.04259410500526428,0.05886031314730644,0.1435663253068924,-0.2799205183982849],[-0.08385121077299118,0.02019917406141758,0.04349930211901665,0.09411917626857758,-0.016135869547724724,0.060785483568906784,0.02224782481789589,0.18543654680252075,0.11344902217388153,0.10316772013902664,-0.03555510565638542,-0.05075153335928917,-0.012186534702777863,-0.06756726652383804,-0.0914914533495903,-0.016929250210523605,0.02789529785513878,-0.10424672067165375,0.07558099180459976,-0.018748333677649498,-0.18205879628658295,-0.1453835517168045,0.07714897394180298,0.03678087517619133,0.021148165687918663,0.026261629536747932,0.007507754024118185,0.11135134100914001,0.22689908742904663,-0.021168174222111702,0.2277728021144867,0.16936030983924866,-0.20551054179668427,-0.18833811581134796,-0.04605889320373535,0.01998668536543846,0.07915224879980087,-0.03614182770252228,0.04508006572723389,0.057241182774305344,0.02644774131476879,0.038970835506916046,0.15412576496601105,0.03982944414019585,-0.06211847439408302,-0.04515128582715988,-0.1614307314157486,-0.013207209296524525,-0.11231282353401184,-0.032488804310560226,0.007941466756165028,-0.11122541129589081,-0.10484327375888824,-0.11389780044555664,0.20770397782325745,-0.05055002123117447,-0.19715449213981628,-0.10052777081727982,0.006557194981724024,-0.016638020053505898,-0.0565803125500679,-0.005294322967529297],[-0.060042303055524826,0.17558008432388306,0.020293375477194786,-0.12398681044578552,0.11938058584928513,-0.09358251094818115,0.012754786759614944,0.2875440716743469,0.06522984057664871,-0.027769753709435463,0.13974882662296295,0.09345223009586334,-0.05960980802774429,-0.05085095763206482,0.043740108609199524,-0.006290407385677099,0.046125978231430054,0.25627321004867554,-0.16183723509311676,-0.013226591050624847,-0.05070364847779274,0.002097370568662882,-0.13522031903266907,-0.016404034569859505,0.001229611225426197,-0.05687858536839485,-0.25336214900016785,-0.08986587822437286,-0.0625588670372963,-0.07635284960269928,0.21965506672859192,0.039138663560152054,-0.025940362364053726,0.06474589556455612,0.07777740806341171,-0.04973413050174713,0.2397652268409729,0.036290623247623444,0.06506890803575516,-0.03169218450784683,-0.11554339528083801,0.0857647955417633,-0.1978907585144043,0.04250158742070198,-0.08862434327602386,-0.048064712435007095,-0.10811566561460495,0.007308154366910458,0.016427628695964813,-0.10695608705282211,-0.09095961600542068,0.02484251745045185,0.09556938707828522,0.14381317794322968,0.2689344584941864,-0.2704166769981384,-0.0835631936788559,-0.036280080676078796,0.0508408397436142,0.0613732784986496,-0.013237915001809597,0.33909523487091064],[-0.008365197107195854,0.024320688098669052,0.11459305137395859,-0.11681585758924484,-0.026496894657611847,-0.07212994992733002,0.14927445352077484,-0.44491705298423767,0.05795585736632347,0.0014767724787816405,-0.03919878974556923,-0.10308156162500381,0.02177872695028782,-0.11351936310529709,0.06291258335113525,0.17400559782981873,-0.05142975598573685,0.06871528923511505,0.059086404740810394,-0.01788969337940216,0.058029770851135254,-0.014863661490380764,-0.042633529752492905,0.0713731199502945,-0.03184444084763527,-0.09535552561283112,0.09434432536363602,0.04506032168865204,0.1397477388381958,-0.012051880359649658,-0.14729470014572144,0.04225607588887215,-0.02863035537302494,0.2658517062664032,-0.06679246574640274,-0.050380632281303406,-0.16206692159175873,-0.10565131157636642,0.07662439346313477,0.14614492654800415,-0.025229187682271004,-0.04208481311798096,-0.06352222710847855,-0.007693365216255188,-0.04416130855679512,-0.12918320298194885,0.07234448194503784,-0.11085012555122375,-0.22059790790081024,0.01101433765143156,0.01898670569062233,-0.02496251091361046,-0.2571110129356384,-0.4171670079231262,-0.3432530462741852,0.04349958151578903,-0.12062650173902512,0.08077896386384964,0.14306874573230743,-0.0643579438328743,0.05225792154669762,-0.5332834720611572],[0.025227751582860947,-0.1617814600467682,0.11338116228580475,0.13927538692951202,0.050856515765190125,0.2967846691608429,0.21756181120872498,-0.09393886476755142,-0.031377941370010376,0.18817175924777985,-0.02315237931907177,0.027055200189352036,0.014247164130210876,0.0038566438015550375,0.11177923530340195,-0.00506898108869791,0.004699979908764362,0.08210975676774979,0.18622827529907227,0.09010789543390274,-0.032239679247140884,-0.07332803308963776,0.1737583577632904,0.05427524819970131,-0.05156485363841057,0.0866498351097107,-0.10671139508485794,-0.03214011713862419,0.03310041502118111,0.08930019289255142,0.13515642285346985,0.1304304003715515,-0.163710817694664,-0.13701936602592468,-0.16435222327709198,0.09926916658878326,0.16662989556789398,0.024908384308218956,0.03266572952270508,0.02930309809744358,0.0675237774848938,-0.054614171385765076,0.030945586040616035,0.13461904227733612,-0.025287697091698647,-0.07504349201917648,0.12024582177400589,0.08551105111837387,0.1601782888174057,-0.14217081665992737,0.028397217392921448,0.14414595067501068,-0.19464150071144104,-0.001090038800612092,-0.35707223415374756,-0.1368711292743683,-0.0004508084966801107,0.18807147443294525,-0.00707902992144227,-0.0890694111585617,0.06759434193372726,-0.5278040170669556],[0.039288587868213654,-0.10405058413743973,0.08097502589225769,-0.07648664712905884,-0.09446056932210922,0.031101802363991737,-0.09639012068510056,0.22022120654582977,0.1503472775220871,-0.060031209141016006,-0.0010176748037338257,0.14878948032855988,-0.1930972784757614,0.08300987631082535,0.11756869405508041,-0.002978360280394554,0.05391324684023857,0.16922570765018463,0.1317274570465088,-0.21809731423854828,-0.08381962776184082,-0.05036584287881851,0.07525953650474548,-0.06632920354604721,0.09129827469587326,0.05272338539361954,0.07250682264566422,0.08211436122655869,0.05447887256741524,0.04647815227508545,-0.01108105480670929,-0.04953921213746071,0.09214881807565689,0.003757984610274434,-0.01287997979670763,-0.004716686438769102,-0.12460969388484955,0.015165669843554497,-0.12215545028448105,-0.03654693067073822,-0.0904097855091095,0.07398685812950134,0.06647802889347076,0.04475681483745575,-0.058244626969099045,-0.002403303747996688,-0.05211597681045532,0.06674793362617493,0.07822738587856293,0.030009031295776367,-0.055037252604961395,-0.048165708780288696,0.01921333558857441,-0.24780063331127167,0.13836953043937683,0.2875862419605255,-0.1958741843700409,0.17412689328193665,-0.005854686722159386,-0.1279457062482834,0.016908012330532074,0.20536746084690094],[-0.022343143820762634,0.10121168196201324,0.008903900161385536,-0.05335353687405586,0.029794996604323387,-0.16133756935596466,0.11369764804840088,-0.3490087687969208,0.0024090793449431658,-0.1746707558631897,-0.16430486738681793,0.021547546610236168,0.06642606854438782,0.001041320851072669,-0.12506727874279022,0.14334407448768616,0.026320820674300194,-0.07504893094301224,-0.11148381978273392,0.1443859040737152,-0.04768433794379234,-0.027056606486439705,0.06840680539608002,-0.02463504858314991,0.07486284524202347,-0.04266376420855522,0.11869949102401733,-0.13645146787166595,0.097653329372406,0.021612687036395073,-0.05554884672164917,-0.027168555185198784,-0.05389591306447983,0.13664257526397705,0.16474825143814087,0.17768101394176483,-0.046039219945669174,-0.08545428514480591,0.08746257424354553,0.039864782243967056,-0.08676907420158386,0.012604741379618645,0.04782162234187126,0.04957887902855873,0.06219710409641266,-0.05240096524357796,0.00684861047193408,-0.011834382079541683,-0.07412102073431015,-0.04555843397974968,0.004330565221607685,0.13703924417495728,-0.19142863154411316,0.0573788620531559,-0.1123548075556755,0.10623082518577576,0.18942317366600037,0.17972582578659058,0.1746116280555725,0.02217390201985836,0.20496268570423126,-0.07933839410543442],[0.04065824672579765,0.03551984205842018,-0.09197142720222473,0.005929775070399046,0.09001953899860382,0.05662686750292778,0.03702429309487343,-0.1595785766839981,0.04937410354614258,-0.028830330818891525,0.08673422783613205,0.15525902807712555,0.14002625644207,-0.07211869210004807,0.15797773003578186,0.08148112148046494,-0.10336034744977951,-0.08949892967939377,0.10543207079172134,-0.00045860017416998744,-0.04022311046719551,0.11826866865158081,0.1303834617137909,0.09972921758890152,-0.08532103151082993,0.07038799673318863,0.13643667101860046,0.06966917961835861,-0.12759791314601898,0.08431392908096313,0.031878650188446045,0.022600967437028885,0.09190922230482101,-0.06971995532512665,-0.0140204057097435,0.11473437398672104,0.01947508193552494,-0.09627515077590942,0.008050383068621159,0.023763181641697884,0.2207833081483841,-0.04747990146279335,0.1217297688126564,0.0763346403837204,0.01578003168106079,-0.01992875710129738,0.062236685305833817,0.15124790370464325,-0.007063343655318022,0.014197652228176594,-0.06235133856534958,-0.11810002475976944,0.21686728298664093,0.021178483963012695,-0.2725820541381836,-0.04321461170911789,0.09939607232809067,0.09098874032497406,0.03407922014594078,0.09751163423061371,0.08993108570575714,0.2028699368238449],[0.019354412332177162,0.10171549022197723,-0.14289730787277222,0.2880361080169678,-0.04796510934829712,-0.18523330986499786,0.0791655033826828,0.10181431472301483,-0.14268282055854797,0.08898068219423294,-0.09671305119991302,0.012003522366285324,-0.14100021123886108,-0.017346911132335663,0.12837977707386017,0.27265873551368713,-0.049100734293460846,0.010134485550224781,0.08352147042751312,0.08547810465097427,0.12581852078437805,0.09772859513759613,-0.04447503015398979,0.040320269763469696,0.05306335538625717,-0.027843596413731575,-0.08565172553062439,-0.015459301881492138,0.08648672699928284,0.09397921711206436,0.07988009601831436,-0.1349954903125763,-0.018662218004465103,-0.09316640347242355,-0.08126424252986908,-0.024390336126089096,0.022811580449342728,0.07164900749921799,0.03579694405198097,0.04925917834043503,0.08339637517929077,-0.08500245213508606,-0.14296576380729675,0.04663906618952751,-0.02704765275120735,0.01279571745544672,-0.10274852067232132,-0.014225640334188938,-0.06082950904965401,0.017342139035463333,-0.14155356585979462,0.2806825637817383,0.08999380469322205,0.03724616765975952,-0.2903009057044983,-0.04135000333189964,0.24380619823932648,-0.02298036217689514,-0.0860418826341629,0.08993667364120483,0.1013767197728157,0.007297143805772066],[-0.03970785811543465,0.2674560546875,0.09044791013002396,-0.046606604009866714,0.1280168890953064,-0.07760735601186752,0.02329588495194912,-0.18462568521499634,-0.12017067521810532,0.05861265957355499,-0.008589396253228188,0.11720608919858932,0.13092166185379028,-0.044526319950819016,-0.031184865161776543,0.22393916547298431,0.08884763717651367,-0.009317521937191486,0.03482786566019058,0.13321778178215027,-0.03472750633955002,0.007131197024136782,0.05971040576696396,0.09507061541080475,0.019688820466399193,0.11562637984752655,0.05289360135793686,-0.00876680202782154,0.02554900199174881,-0.035392437130212784,0.018724823370575905,0.07629558444023132,0.026309382170438766,0.09084386378526688,-0.0056816693395376205,0.042298417538404465,-0.15391278266906738,-0.01432522851973772,0.05652005970478058,0.21359118819236755,0.04375375434756279,0.009501063264906406,0.04134100675582886,-0.04549074545502663,0.08198300749063492,-0.12053509056568146,-0.1028108075261116,-0.09640520811080933,-0.13762995600700378,0.07274974137544632,-0.0232644472271204,-0.09096897393465042,-0.1400361955165863,-0.1402130126953125,-0.31420305371284485,0.33268916606903076,-0.07434573769569397,-0.03444919362664223,-0.00901625957340002,-0.079109326004982,0.039407916367053986,-0.5761164426803589],[0.10439140349626541,0.12289179116487503,0.020111294463276863,0.08186566084623337,-0.2662695646286011,0.07161656022071838,-0.018048815429210663,0.1259642392396927,-0.00369741627946496,0.0031974210869520903,0.0051244767382740974,0.1361854523420334,-0.023321935907006264,0.051273565739393234,-0.091944620013237,0.10267087072134018,-0.03154306858778,-0.033102888613939285,0.1193261668086052,0.08576619625091553,0.13318632543087006,0.0889851450920105,0.09444819390773773,0.06971720606088638,0.11913257837295532,0.024577008560299873,0.171642005443573,0.0650382861495018,-0.03423258662223816,0.13121767342090607,-0.04783981665968895,0.057761192321777344,0.03363792598247528,-0.01976977102458477,0.054113514721393585,-0.00498515460640192,0.0635940432548523,0.08482236415147781,-0.021255655214190483,0.002895925659686327,0.006932222284376621,-0.047531381249427795,-0.10851916670799255,-0.004897935315966606,-0.09892058372497559,0.1344997137784958,-0.01725054532289505,-0.10382615774869919,-0.0053827459923923016,-0.07604889571666718,-0.05267859995365143,-0.038967035710811615,0.4036043882369995,0.2774119973182678,0.25250256061553955,0.07853883504867554,-0.006063932552933693,-0.11304811388254166,0.09858362376689911,-0.0023838134948164225,-0.018099570646882057,0.4018257260322571],[-0.059300705790519714,-0.28444623947143555,0.21094508469104767,-0.093413345515728,0.03220495581626892,-0.02670978009700775,-0.028884736821055412,-0.2021981179714203,-0.23721224069595337,-0.1281938999891281,-0.034043289721012115,0.044693510979413986,-0.23742640018463135,0.019626550376415253,0.05522286146879196,-0.03148096054792404,-0.09983088821172714,-0.05425673723220825,0.11410786956548691,0.025258686393499374,0.05199504271149635,-0.19640491902828217,-0.1613067239522934,-0.07204809039831161,0.08233343809843063,0.0030655902810394764,0.14251017570495605,0.10709548741579056,-0.1855166107416153,-0.1401456892490387,-0.02631881833076477,0.09375482052564621,0.001562120160087943,0.030595071613788605,-0.09840752929449081,0.021970180794596672,0.050167810171842575,0.040549714118242264,0.022901691496372223,-0.02091721072793007,-0.06488753110170364,-0.004960282240062952,0.1019073873758316,0.04240069165825844,0.002703752601519227,0.05764201283454895,-0.03951389342546463,-0.05258534848690033,0.07712740451097488,0.04837754741311073,0.06717029958963394,0.0821918249130249,-0.00875887367874384,0.07453544437885284,-0.3862915337085724,-0.055320046842098236,-0.10874107480049133,0.030133847147226334,-0.0742955431342125,-0.00931441131979227,0.17019794881343842,-0.4726775288581848],[0.014721174724400043,0.04206365719437599,0.11303316056728363,-0.02002214640378952,-0.04622741416096687,0.008756699971854687,0.12327492237091064,-0.05835416167974472,-0.07183358073234558,0.03920914977788925,0.028658868744969368,-0.11031418293714523,-0.23902088403701782,0.02984495647251606,-0.008443216793239117,0.0676642581820488,0.07306511700153351,0.08271176367998123,-0.08233089745044708,-0.05758034437894821,0.06309086829423904,0.05579306557774544,0.07993776351213455,-0.003843058366328478,0.07817274332046509,0.03101174905896187,0.08067028969526291,0.0987391546368599,-0.03937618061900139,-0.12760688364505768,-0.007692346349358559,-0.0592149943113327,0.12434045970439911,0.03463312238454819,0.05994781106710434,0.10952430963516235,-0.1682441234588623,-0.10614292323589325,0.18679575622081757,0.10819502174854279,-0.12531033158302307,0.09183133393526077,0.12763556838035583,0.1383708417415619,-0.02959313802421093,0.0980549082159996,-0.0937589630484581,-0.007270364556461573,0.018886499106884003,-0.051265548914670944,-0.09352126717567444,-0.06986286491155624,-0.028780966997146606,0.05562470108270645,-0.08755645900964737,-0.09442248940467834,0.035237256437540054,0.09060337394475937,0.04816767945885658,-0.1653406322002411,0.1881689429283142,-0.25722628831863403],[0.13844092190265656,0.12351725995540619,0.004217092879116535,-0.05150798335671425,0.1630948781967163,0.008931790478527546,0.1068558394908905,-0.057956259697675705,-0.11588408052921295,0.0019661011174321175,0.10198188573122025,-0.04173453152179718,0.03822890296578407,0.02171572856605053,0.13053393363952637,-0.04741193726658821,-0.14984293282032013,0.18363073468208313,0.1026792898774147,0.22549258172512054,-0.14832212030887604,-0.08119146525859833,-0.00961622130125761,-0.11723951995372772,-0.03597890958189964,0.0035926783457398415,0.07799485325813293,0.06762401759624481,-0.027437979355454445,0.10741939395666122,-0.0592687614262104,-0.16432219743728638,0.08880395442247391,0.0001373080158373341,-0.07140367478132248,-0.004585593473166227,-0.27902984619140625,-0.038568802177906036,-0.04645904153585434,0.028343811631202698,-0.19069857895374298,-0.0725313201546669,-0.013688391074538231,0.00495242839679122,0.03353923559188843,0.06898574531078339,-0.038059718906879425,0.10140027850866318,0.009905001148581505,0.049826089292764664,-0.2796063721179962,-0.10940127074718475,0.02279864065349102,0.21693521738052368,-0.42083609104156494,0.07919231802225113,-0.001256119692698121,0.17256085574626923,0.06928138434886932,-0.09222687035799026,0.05403784662485123,0.08512953668832779],[-0.08614760637283325,0.15959946811199188,-0.09818317741155624,0.15215571224689484,0.22975745797157288,-0.02417246624827385,-0.09230376780033112,0.06054004654288292,-0.13387133181095123,0.1887959986925125,0.14124883711338043,0.05446774885058403,-0.07511106878519058,-0.0068810079246759415,-0.06038539484143257,-0.08401526510715485,0.03339571878314018,-0.020097574219107628,0.0420493446290493,0.08079467713832855,0.09623352438211441,0.0012414350640028715,-0.052458055317401886,-0.0022748152259737253,0.11311256140470505,-0.0033950975630432367,0.19754353165626526,-0.045299872756004333,0.18861405551433563,-0.14881174266338348,-0.05334596708416939,0.02340788021683693,0.11388219147920609,0.1096111536026001,-0.06346189975738525,0.013331337831914425,0.0760316476225853,0.010772813111543655,-0.23684407770633698,0.10425712913274765,-0.032582685351371765,-0.0065550063736736774,-0.23637259006500244,-0.07880175113677979,-0.13418062031269073,-0.074012890458107,0.07424162328243256,-0.04148062691092491,0.036489736288785934,-0.06543321907520294,0.06103832647204399,0.011677559465169907,-0.13251930475234985,0.0007940399227663875,0.30025744438171387,-0.131226047873497,-0.1127544417977333,-0.1588650494813919,0.00019805863848887384,-0.11328916996717453,-0.04843461513519287,0.13697372376918793],[-0.04319227114319801,-0.03890199214220047,0.12557120621204376,-0.07905957847833633,0.059468187391757965,0.1460607498884201,-0.028952481225132942,-0.08118193596601486,0.04399058595299721,-0.02503618411719799,-0.02724691852927208,-0.04676569998264313,-0.14572341740131378,0.06905749440193176,0.12512865662574768,0.03823021054267883,-0.07144366204738617,0.05034370720386505,-0.011039378121495247,0.07977694272994995,-0.10670094192028046,0.08662348240613937,0.09557069092988968,0.1281958818435669,-0.14721179008483887,0.044291622936725616,-0.0012403829023241997,-0.03918806463479996,0.09831240028142929,-0.06166616827249527,0.09405660629272461,-0.011429284699261189,-0.016667233780026436,-0.033840760588645935,0.015046745538711548,0.17347516119480133,0.2131527066230774,-0.05325393006205559,0.04137486219406128,-0.05451511964201927,-0.15279673039913177,0.10628856718540192,0.048710908740758896,0.05549418926239014,0.00844504963606596,-0.004150060936808586,-0.0952841266989708,-0.03481263294816017,0.08996009826660156,-0.13194118440151215,-0.03593343496322632,0.05056494474411011,0.026821687817573547,-0.19760604202747345,0.115120068192482,-0.07868116348981857,0.0033910388592630625,-0.0751633495092392,-0.08919722586870193,0.19004788994789124,0.1351575255393982,0.14559122920036316],[0.049641698598861694,-0.053609173744916916,0.15941932797431946,0.11307599395513535,0.09822334349155426,-0.08301632106304169,0.061332978308200836,-0.31438642740249634,0.01478346437215805,0.10636793076992035,0.020924270153045654,0.07856352627277374,0.07222657650709152,0.004805723205208778,-0.012785318307578564,-0.05647332966327667,0.11345025897026062,-0.058418627828359604,0.0116157541051507,0.05005921423435211,0.02710380032658577,0.025771860033273697,-0.10738003998994827,0.026645472273230553,-0.169285848736763,0.06566474586725235,0.0295853354036808,-0.07815754413604736,-0.1858307421207428,0.10047084093093872,0.2697407305240631,-0.03648877143859863,0.050366394221782684,0.07642308622598648,0.2708018720149994,0.1537005752325058,0.03352075070142746,-0.10175753384828568,-0.04676597937941551,0.04499243199825287,0.020186608657240868,-0.024929217994213104,0.11400667577981949,0.15462017059326172,0.021769197657704353,0.05939006432890892,0.06497421115636826,-0.12741531431674957,0.24066179990768433,-0.15545342862606049,-0.1132218986749649,-0.031016109511256218,-0.051701150834560394,-0.24697136878967285,-0.13876710832118988,0.18790292739868164,-0.08919500559568405,-0.06758037209510803,0.05208536237478256,0.19199664890766144,0.23330189287662506,-0.21798810362815857],[0.19877545535564423,0.08503052592277527,0.08603229373693466,-0.12146427482366562,-0.02958596870303154,-0.12107594311237335,0.18310707807540894,-0.03993431106209755,-0.0826028510928154,-0.030629245564341545,-0.08014855533838272,-0.051602303981781006,-0.0035975072532892227,0.006008520256727934,0.054856643080711365,0.19557803869247437,0.06938032060861588,0.1222062036395073,-0.016077758744359016,0.13200190663337708,-0.16435448825359344,0.031496670097112656,-0.008787775412201881,0.13290537893772125,0.01510533969849348,-0.06508967280387878,0.014959818683564663,0.13522765040397644,-0.08046464622020721,-0.03852183371782303,-0.14612458646297455,-0.020475363358855247,-0.00046375716920010746,-0.01101894211024046,-0.02512124367058277,0.036223433911800385,-0.0513543076813221,-0.06270138919353485,-0.04700322449207306,-0.12344799190759659,-0.0592026561498642,-0.13809995353221893,0.2170373499393463,-0.020690204575657845,0.07466085255146027,0.050734326243400574,0.007806946057826281,-0.0019867594819515944,-0.022019056603312492,-0.1257929801940918,0.067217618227005,0.09141964465379715,0.09497290849685669,0.049330614507198334,-0.42170581221580505,-0.020436635240912437,-0.07102672755718231,0.2220914661884308,-0.07023303955793381,0.06549647450447083,0.04945647343993187,-1.037695288658142],[0.11478634178638458,0.06377345323562622,-0.04186628386378288,0.018270816653966904,0.00016278252587653697,0.026007913053035736,0.16486084461212158,0.1074889674782753,0.08777385205030441,0.2897593677043915,-0.04583844915032387,0.0513436384499073,0.1277291625738144,0.09075422585010529,0.030425583943724632,-0.02371894381940365,0.012657984159886837,0.17173145711421967,-0.10209215432405472,-0.034061044454574585,0.008678408339619637,-0.04871298372745514,-0.04707900434732437,-0.012850138358771801,-0.1131066232919693,-0.023324131965637207,0.055071402341127396,0.01581406407058239,-0.06651902943849564,-0.003794877789914608,-0.23167231678962708,0.07066503912210464,-0.07781656086444855,0.13379256427288055,-0.135018989443779,-0.036843061447143555,-0.15423235297203064,0.056153662502765656,-0.04850621148943901,0.1161789819598198,0.020750612020492554,-0.12179460376501083,-0.2888214886188507,0.06478877365589142,0.01917237415909767,0.021410729736089706,-0.0376405231654644,0.1049971729516983,-0.14088572561740875,0.029313532635569572,-0.01945972628891468,-0.02637084759771824,0.31542614102363586,-0.09769053012132645,-0.3752247393131256,-0.05484946817159653,0.10377097874879837,0.04828822240233421,-0.15806907415390015,0.09087266027927399,-0.14182241261005402,0.7212790250778198],[-0.050316788256168365,0.09785542637109756,0.027409255504608154,0.21427325904369354,-0.08112452924251556,-0.13079291582107544,0.0557323582470417,-0.21459664404392242,0.10960707068443298,-0.06717758625745773,-0.08184227347373962,-0.052062854170799255,0.0635814294219017,-0.07443780452013016,-0.10471289604902267,0.01458420418202877,-0.04843699559569359,0.0013653868809342384,-0.06783450394868851,0.07100127637386322,-0.03541622310876846,-0.032267794013023376,-0.025853533297777176,-0.10542180389165878,-0.07571665942668915,0.035631418228149414,0.031925465911626816,0.15432913601398468,0.06288271397352219,-0.02110510878264904,-0.21429035067558289,-0.020909788087010384,-0.0967491939663887,0.1291075050830841,-0.007991621270775795,0.040480975061655045,-0.0036238788161426783,0.18867488205432892,0.036992017179727554,0.07009704411029816,-0.03224753960967064,-0.03341376408934593,-0.13482694327831268,0.05585851892828941,0.06997662037611008,0.14898020029067993,0.13583727180957794,0.13825099170207977,-0.249945268034935,0.17948511242866516,0.02022731676697731,0.058141980320215225,-0.26297086477279663,-0.1243174746632576,-0.3635507822036743,0.10155966877937317,0.015952877700328827,0.015384447760879993,-0.07006479799747467,0.010881750844419003,0.1281934231519699,-0.5250275135040283],[0.03011961467564106,0.015362903475761414,0.02439243160188198,0.10455550253391266,-0.06618914008140564,-0.05791826918721199,0.028755895793437958,0.032271575182676315,-0.23017919063568115,-0.02698373794555664,-0.0014124310109764338,0.22896108031272888,0.05170882120728493,0.042340680956840515,0.0373372845351696,0.06065134331583977,0.18783244490623474,-0.09576591104269028,0.044437069445848465,0.06362498551607132,0.02408909797668457,0.0962277203798294,-0.034198563545942307,0.1131647378206253,0.0303153358399868,0.12258302420377731,0.029304305091500282,0.04551355913281441,-0.11365015059709549,-0.09841667860746384,0.27726414799690247,0.04168371111154556,0.1435537487268448,0.07245487719774246,-0.029515108093619347,-0.09354278445243835,0.16179406642913818,0.05576881393790245,0.045694395899772644,-0.06478623300790787,-0.08332636207342148,0.0223136767745018,-0.2260928452014923,-0.11305152624845505,-0.11211567372083664,-0.009987829253077507,-0.0752074271440506,0.061928071081638336,-0.10602110624313354,0.09059658646583557,-0.05475863441824913,0.0875459685921669,-0.01562628149986267,0.1673307716846466,0.2723110020160675,0.07090970873832703,-0.11954497545957565,-0.10189457982778549,-0.04253342002630234,0.07766623795032501,0.05603593587875366,0.745935320854187],[0.23784393072128296,0.11153016239404678,-0.06482431292533875,-0.005486116744577885,0.08528947830200195,-0.01847810111939907,0.02594553492963314,0.05294805020093918,-0.16438430547714233,-0.04457956179976463,-0.12595415115356445,-0.11457078903913498,0.08578363806009293,0.015595589764416218,0.026759637519717216,-0.053693197667598724,0.040683384984731674,-0.004411276429891586,0.008706020191311836,0.03983689844608307,0.014988402836024761,0.01795828342437744,0.06478721648454666,0.1314200609922409,-0.00014930297038517892,-0.0639420598745346,-0.0693640410900116,0.00682852603495121,-0.0337715670466423,0.1796126365661621,0.10998538881540298,-0.10004343837499619,-0.02662339061498642,-0.0565824881196022,0.04411688446998596,0.015277315862476826,0.22004777193069458,0.03108120895922184,0.017875472083687782,-0.10096416622400284,0.04392332583665848,-0.08770282566547394,0.05577535182237625,0.17343831062316895,-0.019634738564491272,-0.06496068835258484,0.10285570472478867,0.08741287142038345,0.12892311811447144,-0.020492680370807648,0.07131131738424301,0.0937761664390564,0.23732054233551025,-0.07354723662137985,0.4774644374847412,-0.15317900478839874,-0.028064027428627014,-0.06961280107498169,0.006799456663429737,-0.0930199921131134,0.1629219651222229,0.3305940628051758],[-0.03145523741841316,0.10942990332841873,-0.009378606453537941,0.017800485715270042,0.20564962923526764,-0.2262401133775711,-0.07424881309270859,-0.001986779971048236,-0.14485575258731842,0.050718627870082855,0.03519388288259506,-0.11664626002311707,-0.1633967161178589,-0.03740165755152702,0.01390534732490778,-0.11905745416879654,0.14261208474636078,0.07144394516944885,0.049324892461299896,0.002735035726800561,0.029394401237368584,0.11170294880867004,-0.13590356707572937,0.10948093235492706,-0.08848678320646286,-0.053616963326931,0.1991768181324005,0.04512808471918106,0.02864936739206314,0.04799288138747215,0.09784966707229614,0.06856172531843185,0.09283413738012314,0.09265338629484177,0.015396441332995892,-0.076509490609169,-0.21744932234287262,-0.07219401001930237,-0.00028277741512283683,-0.08454623818397522,0.1352531611919403,-0.031875040382146835,-0.08528624475002289,0.0597902275621891,-0.09382428228855133,0.10003875941038132,-0.0014940669061616063,0.09216679632663727,-0.17291511595249176,-0.04307514801621437,-0.059934817254543304,0.06311707943677902,-0.20378929376602173,-0.051024407148361206,0.3265630006790161,0.120770163834095,-0.02624521404504776,0.007742438465356827,0.12008869647979736,0.025226522237062454,-0.03989650681614876,-0.20211610198020935],[0.1566161960363388,-0.004632781725376844,0.05058497190475464,-0.10316363722085953,0.023646125569939613,-0.01508393045514822,-0.04589792713522911,0.08773717284202576,0.04717220366001129,-0.0011918796226382256,-0.18471316993236542,-0.23598231375217438,-0.0015569301322102547,0.006119065452367067,0.09627038985490799,0.09909703582525253,0.11782901734113693,-0.06782914698123932,0.047438010573387146,-0.0013226234586909413,0.0009968540398404002,0.02714228443801403,-0.16104260087013245,0.18244121968746185,0.0012151648988947272,-0.06069996580481529,-0.01309820543974638,-0.016521252691745758,-0.15133637189865112,0.08022428303956985,-0.33119386434555054,-0.17155419290065765,-0.17784474790096283,-0.06463857740163803,-0.03971916064620018,0.004296254366636276,-0.051329221576452255,-0.01596294902265072,0.05233214795589447,0.033607661724090576,-0.2373661994934082,0.07564639300107956,-0.048559270799160004,-0.10330666601657867,-0.0791645348072052,0.056725263595581055,-0.0905197337269783,-0.15027669072151184,-0.18641118705272675,-0.0938357263803482,0.009930042549967766,0.003772116731852293,0.1013110876083374,-0.0493033304810524,-0.3613346219062805,0.018329724669456482,-0.14050635695457458,-0.08941851556301117,0.15128256380558014,-0.10125456005334854,0.0877336785197258,-0.5274788737297058],[-0.03413436561822891,0.05650167167186737,-0.0724385529756546,0.03851235657930374,0.015962259843945503,-0.046436857432127,0.10654919594526291,-0.08190976828336716,-0.11476103216409683,0.14213722944259644,-0.027407167479395866,0.02154013141989708,-0.06643256545066833,0.011383440345525742,0.07739410549402237,-0.04043189808726311,0.0638803169131279,-0.02406408078968525,-0.1540507674217224,-0.12903602421283722,0.0641808733344078,-0.06756798177957535,0.0216392632573843,-0.0025253496132791042,0.12810039520263672,0.03209434822201729,0.07908617705106735,0.11483898758888245,-0.02252858132123947,0.022498583421111107,-0.002679311204701662,0.022813627496361732,0.10073515772819519,-0.09613031893968582,-0.1817377507686615,0.14259183406829834,0.026374859735369682,-0.02210148237645626,-0.06115464121103287,-0.014485595747828484,0.037835098803043365,-0.10214220732450485,-0.07417107373476028,0.013948616571724415,0.040675949305295944,0.12314604222774506,0.04718095809221268,-0.050703756511211395,0.030498500913381577,-0.14218321442604065,-0.005301138386130333,0.09964015334844589,-0.011540299281477928,-0.1505540907382965,-0.2582550346851349,-0.1352415829896927,0.09650801867246628,-0.004880331456661224,0.287580668926239,-0.03276944160461426,0.09574206918478012,-0.21930262446403503],[0.15942811965942383,0.02133113145828247,0.09760677069425583,-0.17844697833061218,0.12086381018161774,0.0877303034067154,-0.005964536219835281,-0.03855866938829422,0.04534276947379112,0.05084285885095596,0.048049163073301315,-0.010479704476892948,0.051574572920799255,-0.19305181503295898,-0.054845456033945084,0.1276671439409256,0.0793975293636322,-0.0888480544090271,0.04752586409449577,0.025431504473090172,0.15064984560012817,0.023214617744088173,0.1381320357322693,-0.03565286472439766,0.15386778116226196,-0.12282789498567581,-0.07990006357431412,-0.023385539650917053,-0.0946996659040451,-0.04265822470188141,-0.11736702173948288,-0.10998888313770294,-0.03202072158455849,0.12319017946720123,0.07887468487024307,-0.12151843309402466,-0.06689582765102386,-0.11056911200284958,-0.21513214707374573,0.09236720949411392,0.05862082913517952,-0.1302136480808258,-0.1696121096611023,-0.23126767575740814,-0.14815956354141235,-0.02001778595149517,-0.02934153936803341,0.05917508900165558,-0.07241692394018173,-0.008138569071888924,-0.11931033432483673,-0.04163910821080208,0.029995033517479897,-0.061022818088531494,-0.4065064489841461,-0.06660693883895874,-0.12804129719734192,-0.15270543098449707,0.027991831302642822,-0.05595356971025467,0.0907951071858406,-0.3576558232307434],[0.09555769711732864,0.06521447747945786,0.004357880912721157,0.13038398325443268,-0.017282461747527122,-0.044122133404016495,0.03235994279384613,-0.11102081090211868,-0.02058793045580387,0.0991445854306221,0.08977004885673523,0.021960677579045296,-0.04607033357024193,-0.0813533365726471,0.14770253002643585,-0.03542942926287651,0.07688669860363007,-0.14790236949920654,-0.08437942713499069,-0.023930663242936134,-0.13280968368053436,0.1580367535352707,0.15980428457260132,0.08713226020336151,0.05867553502321243,-0.05879278481006622,0.2601221203804016,-0.06801839172840118,-0.12201907485723495,-0.12903867661952972,-0.16170844435691833,-0.0803690180182457,0.0037204385735094547,-0.051627423614263535,-0.1346484124660492,0.08282250165939331,0.08914892375469208,-0.055007871240377426,0.01719692163169384,-0.022772815078496933,0.08694262057542801,-0.032848060131073,-0.026970483362674713,0.0941462516784668,-0.03903061896562576,-0.08989914506673813,-0.02717854082584381,0.02652769908308983,-0.1079639345407486,-0.13249298930168152,-0.28982967138290405,-0.0174600500613451,0.03746780753135681,0.037566449493169785,-0.44469115138053894,0.08951810002326965,-0.12410564720630646,0.06923048198223114,0.0298751313239336,0.1502612978219986,-0.11348512023687363,-0.3806438148021698],[-0.1010478287935257,-0.23046134412288666,0.034229569137096405,-0.1648392528295517,0.03740682825446129,0.08776827156543732,-0.11723692715167999,-0.34491318464279175,-0.07628262788057327,-0.019105708226561546,-0.029622988775372505,0.07924317568540573,0.15887776017189026,-0.17165742814540863,-0.06789808720350266,-0.030191469937562943,-0.042913030833005905,-0.023234838619828224,-0.0291098915040493,0.03478144109249115,0.01358830463141203,-0.031133340671658516,0.16472722589969635,0.164987251162529,-0.09161432087421417,-0.06206289678812027,0.07517430186271667,-0.007421398535370827,-0.1513916403055191,-0.13516192138195038,-0.07152079045772552,-0.006345683243125677,0.11980529874563217,-0.017844460904598236,0.05071171000599861,-0.04519130289554596,-0.12386517226696014,0.05155051872134209,0.15895482897758484,0.005435925908386707,0.0507354736328125,-0.1920030564069748,0.025741608813405037,0.10096785426139832,-0.0020471415482461452,0.14071780443191528,-0.053987208753824234,0.06365447491407394,-0.1495121419429779,0.012398001737892628,-0.0832432210445404,-0.062776118516922,-0.14917412400245667,-0.18784473836421967,-0.2031513899564743,-0.01823691464960575,-0.11652317643165588,0.15836584568023682,-0.1382453441619873,0.1996888518333435,0.08969326317310333,-0.37310799956321716],[-0.03877471759915352,0.02115808054804802,0.041243139654397964,0.1289665699005127,-0.08091209083795547,-0.1345559060573578,-0.025543341413140297,0.037809107452631,-0.13627903163433075,-0.13343574106693268,0.020380211994051933,-0.13318949937820435,-0.12876492738723755,-0.0003882642777170986,-0.0919659212231636,0.11685815453529358,-0.19029094278812408,0.038343802094459534,0.03836170583963394,0.1179160550236702,0.12746191024780273,-0.13892307877540588,0.08070363849401474,0.18511247634887695,-0.057987455278635025,-0.1403243988752365,0.18602359294891357,0.10253368318080902,0.06134471669793129,0.0397212989628315,-0.09799805283546448,0.03273443132638931,-0.04994279518723488,-0.09959129989147186,-0.03836657851934433,0.013218631036579609,-0.35464903712272644,0.15764501690864563,0.043456923216581345,0.09021510183811188,-0.17332489788532257,-0.10702989995479584,-0.04560823366045952,0.04766462743282318,-0.01644674316048622,-0.04881816357374191,-0.1621844619512558,-0.14637456834316254,-0.09103038907051086,-0.03485729172825813,-0.09065163135528564,0.1203860342502594,0.16625595092773438,0.10098590701818466,-0.13571415841579437,-0.04199039936065674,-0.0028140018694102764,0.0067848507314920425,0.23908722400665283,-0.00905807875096798,0.019493333995342255,0.06008871644735336],[0.018915390595793724,0.07901845127344131,0.1096782237291336,0.0866832584142685,0.04113220050930977,0.03919147700071335,-0.09214633703231812,0.22993355989456177,0.007329692132771015,-0.011579622514545918,0.0060056219808757305,-0.09509377181529999,0.060765016824007034,-0.018871456384658813,-0.009116563946008682,-0.11474152654409409,-0.021790919825434685,-0.01507033221423626,0.03755667805671692,0.0529719702899456,-0.009561864659190178,0.03632889688014984,0.046892065554857254,-0.19060160219669342,0.0002186330093536526,0.0019974601455032825,0.04359280318021774,-0.1264476627111435,0.004027657210826874,-0.01616477221250534,0.3649987578392029,-0.0015030618524178863,-0.013793938793241978,0.09927209466695786,0.00523105775937438,0.00957749504595995,0.4844333529472351,0.05607644096016884,0.01982223428785801,0.09479020535945892,-0.013072962872684002,-0.023656480014324188,0.512304961681366,0.06861906498670578,0.01907816343009472,-0.07730060070753098,-0.012504233047366142,-0.025645460933446884,0.3622003495693207,-0.07777100056409836,-0.029528478160500526,-0.020143721252679825,0.014707664959132671,0.08422645181417465,0.9119893908500671,0.02646631747484207,0.006803090218454599,-0.08349627256393433,0.05650147795677185,0.009158531203866005,-0.11455012857913971,-0.06854294240474701],[-0.027496641501784325,-0.5668808817863464,-0.01833537220954895,-0.062486257404088974,0.08654836565256119,-0.018696526065468788,0.14276061952114105,-0.2920374870300293,-0.006801098585128784,0.023628413677215576,0.09809796512126923,-0.08541455119848251,-0.03339081257581711,0.04695054516196251,0.1828438937664032,0.04894605651497841,-0.0788799598813057,-0.07689356803894043,0.09569598734378815,-0.09647037088871002,-0.14712947607040405,0.013320918194949627,0.08595068007707596,-0.06204792112112045,-0.15517255663871765,-0.012546143494546413,0.08127442747354507,0.04175853356719017,-0.21207009255886078,-0.038558948785066605,-0.38186952471733093,0.0037970596458762884,-0.04913628473877907,0.09094898402690887,-0.18590551614761353,-0.04782458767294884,-0.04880089685320854,-0.05646307393908501,0.00846283882856369,-0.04240873083472252,-0.18878328800201416,-0.00042534637032076716,0.09576831758022308,0.04693801328539848,0.007183284964412451,0.10448308289051056,-0.09478652477264404,0.001080343616195023,-0.03385135903954506,-0.03107733651995659,-0.1057513952255249,0.13246479630470276,-0.3649844527244568,0.08751596510410309,-0.3609320819377899,-0.320204496383667,-0.007081362418830395,0.05850326269865036,-0.32723167538642883,-0.04016592353582382,0.07998982816934586,-0.2906387150287628],[0.11362376809120178,-0.11954205483198166,-0.048159610480070114,-0.038114033639431,0.08578241616487503,0.011651004664599895,0.021601682528853416,-0.2455146610736847,0.02937093935906887,-0.055407363921403885,-0.02175328880548477,-0.016146942973136902,-0.1762537807226181,0.03517599776387215,0.038588203489780426,-0.14935655891895294,-0.0033336649648845196,0.01565757393836975,0.04827794432640076,0.04527447372674942,-0.023937270045280457,0.05742836743593216,0.15418480336666107,0.023447727784514427,0.04558518901467323,-0.06911097466945648,0.10563056170940399,-0.04012228921055794,-0.13920238614082336,-0.07990039139986038,-0.07249756902456284,-0.27470114827156067,0.11475490778684616,-0.06629065424203873,-0.11318252235651016,-0.06553567200899124,-0.18462006747722626,0.008212145417928696,0.00980629026889801,0.06532894819974899,-0.021064456552267075,-0.12896113097667694,-0.1143207997083664,0.0353766605257988,0.20098860561847687,-0.17891621589660645,-0.02736685611307621,-0.10571146011352539,-0.214689701795578,0.106088787317276,-0.012741540558636189,0.22303064167499542,-0.16452303528785706,-0.07669658958911896,-0.4391113817691803,-0.2365415245294571,0.07060082256793976,0.17463743686676025,0.0948524922132492,0.1753220111131668,0.11762125045061111,-0.4448567032814026],[-0.034734781831502914,-0.11295687407255173,-0.05282317474484444,0.06658612936735153,-0.07060623914003372,-0.01926768198609352,0.039195265620946884,-0.23504510521888733,-0.14728590846061707,0.02093171700835228,-0.10561702400445938,0.22109085321426392,0.06950374692678452,-0.026563454419374466,0.1480974406003952,-0.020004892721772194,-0.030795255675911903,0.007214639335870743,-0.11584452539682388,0.0689224973320961,-0.0167408250272274,0.039957575500011444,0.07547175139188766,-0.08972503244876862,0.01016527134925127,-0.14381244778633118,-0.051483236253261566,0.13708657026290894,-0.19794395565986633,-0.1414850801229477,0.01580347679555416,0.18366263806819916,0.11455795913934708,0.01790706254541874,0.0704062283039093,-0.17883464694023132,0.06388014554977417,0.04544733092188835,-0.050814926624298096,0.1245545968413353,0.02579811029136181,-0.14311738312244415,0.04618595913052559,0.012424410320818424,-0.048703379929065704,-0.049072809517383575,-0.07107239961624146,-0.11113959550857544,-0.037678707391023636,-0.008651270531117916,-0.06223028153181076,0.2017095685005188,-0.0055393497459590435,-0.09904883056879044,0.16625188291072845,-0.014028246514499187,-0.061121534556150436,-0.11581674963235855,-0.09084513783454895,0.07004713267087936,-0.17632447183132172,-0.011167071759700775],[-0.07873114943504333,0.10912136733531952,0.17286431789398193,0.04484788700938225,-0.12169946730136871,-0.009555893950164318,-0.21708010137081146,0.24943214654922485,-0.031241340562701225,0.006234376225620508,-0.022695286199450493,0.013826519250869751,0.1399940848350525,0.08726824074983597,0.17003044486045837,0.17759117484092712,-0.0072578140534460545,-0.01569199003279209,0.040966738015413284,-0.05752025917172432,-0.04641779139637947,0.1297076791524887,-0.08654683083295822,-0.10469602048397064,-0.012196315452456474,0.10192715376615524,-0.06844225525856018,0.11515781283378601,0.22309677302837372,0.05909284949302673,0.041099123656749725,-0.1991281807422638,0.020717207342386246,-0.04973781108856201,-0.1417430341243744,0.017637908458709717,0.10912932455539703,-0.026904895901679993,0.00891195423901081,-0.005337576847523451,0.11989423632621765,0.1629670262336731,0.04009324684739113,-0.06871529668569565,-0.0702826976776123,-0.11217344552278519,-0.04357856884598732,0.08974753320217133,0.12195102125406265,0.09220455586910248,0.008289307355880737,-0.007898174226284027,0.22087332606315613,-0.046811141073703766,0.2611307203769684,-0.18060579895973206,-0.005230845417827368,0.013598453253507614,-0.054207321256399155,-0.022082475945353508,0.004769034218043089,0.22086116671562195],[0.035705387592315674,-0.081321582198143,0.0017952264752238989,0.053604308515787125,-0.2053825557231903,0.147406205534935,-0.1151268407702446,-0.16032223403453827,-0.046556416898965836,0.13354645669460297,0.20802082121372223,-0.23917096853256226,-0.03190890699625015,0.028378278017044067,0.025716587901115417,0.18525147438049316,-0.017886469140648842,0.10865271836519241,-0.10948878526687622,0.16687937080860138,0.028943290933966637,0.055113814771175385,-0.005211015231907368,-0.0661771222949028,0.004310233052819967,0.11925505101680756,-0.04290108010172844,0.06470748782157898,0.112799733877182,-0.03019213303923607,0.27621543407440186,0.16103853285312653,0.02381340228021145,-0.00976214837282896,0.06809289753437042,0.07433700561523438,0.2744261920452118,0.07733307778835297,0.016755683347582817,0.03490599989891052,0.10916958749294281,-0.027323398739099503,0.1294972002506256,-0.0030047125183045864,-0.031538739800453186,0.014251685701310635,0.007066600024700165,0.0067216563038527966,0.11747566610574722,0.015200364403426647,0.07097771018743515,0.0872458815574646,-0.2881695628166199,-0.14315877854824066,-0.21791474521160126,0.04016011953353882,0.008653406985104084,0.24226462841033936,0.05333198606967926,0.11733510345220566,-0.020973291248083115,-0.3629651963710785],[-0.03463241830468178,0.05083867534995079,0.008904118090867996,0.025217300280928612,-0.005367565900087357,-0.060170989483594894,0.15975745022296906,-0.09349538385868073,-0.00840429961681366,-0.0021527644712477922,-0.07788500189781189,-0.05194561928510666,0.022480130195617676,-0.12801434099674225,0.05359187722206116,0.001127550727687776,-0.002044235821813345,-0.049444302916526794,0.017383873462677002,-0.06891003251075745,0.02540169656276703,0.19577476382255554,-0.06505373120307922,0.025610337033867836,0.08346771448850632,-0.008785082027316093,-0.056086547672748566,-0.10680791735649109,0.050923582166433334,-0.17914904654026031,-0.18871907889842987,-0.02433549426496029,-0.09002746641635895,-0.07768838107585907,-0.06745938211679459,-0.034025829285383224,-0.1725379079580307,-0.0680728554725647,-0.03341981768608093,0.0059876758605241776,0.007932639680802822,-0.016997121274471283,-0.33795595169067383,-0.026659518480300903,0.062149785459041595,0.08715261518955231,-0.02580907568335533,0.027105016633868217,-0.08557058870792389,0.04287784919142723,0.17168833315372467,0.060039158910512924,-0.1373102366924286,-0.0907442718744278,-0.3977040946483612,0.04470379650592804,0.08107535541057587,0.20098820328712463,0.09876178205013275,-0.020229285582900047,0.058449067175388336,-0.2941993176937103],[0.040421225130558014,-0.05790417641401291,-0.04209832474589348,0.1170220673084259,0.11592261493206024,0.11465796828269958,0.15761801600456238,0.015981948003172874,0.09251140803098679,0.058714427053928375,-0.19708281755447388,0.015885330736637115,0.021536165848374367,-0.05469397082924843,-0.11146332323551178,0.023245180025696754,-0.0862715095281601,-0.030491601675748825,0.01556858979165554,0.16210217773914337,0.03285530209541321,0.0027118688449263573,0.011546825058758259,-0.1794608235359192,-0.04428104683756828,-0.05439741164445877,0.11779221892356873,-0.07088232040405273,-0.09750331938266754,-0.11743643879890442,0.018655352294445038,-0.029014883562922478,-0.046830207109451294,-0.00276691815815866,-0.08909165859222412,0.002522783586755395,-0.04751211404800415,-0.07372681051492691,-0.003057153895497322,-0.03615521639585495,-0.030941905453801155,0.08129243552684784,-0.21490909159183502,0.05174094811081886,0.10504074394702911,-0.0449591726064682,-0.05182909220457077,0.046998217701911926,-0.03195011243224144,-0.05915532633662224,0.03474455699324608,-0.061538003385066986,-0.1545003354549408,-0.07652384787797928,0.7448761463165283,0.06869195401668549,-0.07454904913902283,-0.13336706161499023,0.10094237327575684,0.004707595333456993,0.06240447610616684,0.3963218033313751],[-0.10421968251466751,0.10294222086668015,0.04709668084979057,-0.0017329601105302572,-0.06248646602034569,-0.026342296972870827,-0.021389640867710114,0.1114952564239502,-0.007245575077831745,-0.18140526115894318,-0.04889907315373421,-0.005322154611349106,-0.15493746101856232,-0.013424430973827839,0.03896316513419151,0.1012473776936531,-0.02090119756758213,0.14662331342697144,0.05776204913854599,-0.023263776674866676,0.1209937185049057,0.08972566574811935,-0.15457813441753387,0.029928861185908318,0.05466500297188759,0.05036433786153793,0.042420390993356705,-0.064712293446064,-0.032544780522584915,0.20435060560703278,0.13142940402030945,-0.005959225818514824,-0.04285327345132828,0.015769926831126213,0.08761341124773026,0.16600154340267181,0.10987798124551773,-0.12281647324562073,0.07907965779304504,0.026945699006319046,-0.03967413306236267,-0.19584397971630096,0.0984923243522644,-0.016505328938364983,0.09863477945327759,-0.05917571112513542,0.0926707535982132,-0.02789214998483658,0.04667339101433754,0.08757282793521881,-0.09810936450958252,-0.0782833844423294,-0.03716941550374031,-0.05618800222873688,0.3897448778152466,0.06299563497304916,-0.02594352699816227,-0.1023644432425499,-0.034090835601091385,0.10517961531877518,-0.08756209164857864,0.7591251134872437],[-0.08325991034507751,0.005530430004000664,-0.17121578752994537,0.008981656283140182,0.04837556555867195,-0.00045336471521295607,-0.03630397468805313,0.2456669956445694,0.032939281314611435,0.05955639109015465,-0.03768257796764374,-0.04920494928956032,-0.042237117886543274,0.04891205579042435,0.042918384075164795,0.029002975672483444,-0.009103694930672646,0.0648079514503479,-0.07375293225049973,0.005218993406742811,-0.033101700246334076,0.03108743391931057,0.1279228925704956,-0.17125676572322845,0.002931772731244564,0.029160086065530777,-0.09381726384162903,0.01760643720626831,0.01735987514257431,0.040332481265068054,0.19123929738998413,-0.018198037520051003,-0.029574058949947357,0.026627453044056892,0.014787470921874046,0.04365364834666252,0.11375980079174042,0.12165188789367676,-0.08281954377889633,0.10819917917251587,0.045353926718235016,0.0424744114279747,0.11133462190628052,-0.08121983706951141,0.02168814279139042,-0.006171617656946182,0.019674288108944893,-0.012298605404794216,0.08378345519304276,0.06136458367109299,0.016656016930937767,-0.05147702991962433,-0.020249245688319206,-0.07695142924785614,0.8259804248809814,0.07994011789560318,0.06028643250465393,-0.09738222509622574,0.09926095604896545,0.06006958708167076,0.14643070101737976,-0.2468113750219345],[-0.01568700186908245,0.07929574698209763,0.18866561353206635,-0.09573761373758316,-0.05036698281764984,-0.012553778477013111,0.08757375180721283,-0.14429539442062378,-0.12433122843503952,0.33277878165245056,0.005694911815226078,-0.03999811410903931,0.0360042080283165,0.0188602264970541,0.08473337441682816,-0.06332150101661682,0.007455678656697273,-0.028240082785487175,-0.01129533164203167,-0.014204474166035652,0.16376648843288422,-0.03605400025844574,-0.003469378687441349,-0.004793183878064156,0.09835419058799744,0.027729744091629982,0.04071652889251709,0.04118422791361809,0.1749585121870041,-0.0054280683398246765,-0.22189904749393463,0.03827296569943428,0.11779125779867172,0.01659323461353779,-0.054897524416446686,-0.04613402113318443,0.05822774022817612,-0.04873325303196907,0.03414754942059517,0.12104868143796921,-0.03847331926226616,0.15042749047279358,-0.2959732413291931,0.01484818384051323,-0.09965667873620987,-0.0471077635884285,0.1650944948196411,0.15247254073619843,-0.13747121393680573,-0.10742265731096268,-0.15991072356700897,-0.18819531798362732,0.2289448231458664,0.13200660049915314,-0.18723994493484497,-0.07863656431436539,-0.09553158283233643,0.13653455674648285,0.16235217452049255,-0.01987363025546074,-0.007145817391574383,0.33226513862609863],[-0.026049243286252022,0.16685613989830017,-0.16554765403270721,0.10557207465171814,0.020862851291894913,-0.043034959584474564,0.04230722039937973,-0.012818457558751106,-0.10360165685415268,0.19366323947906494,-0.014841100201010704,0.21250532567501068,-0.14504514634609222,0.13732437789440155,-0.0035132085904479027,0.1014576256275177,0.18826134502887726,-0.06830362975597382,-0.05473264679312706,0.15678173303604126,0.06608612090349197,-0.10153990238904953,0.01781543157994747,-0.00875974353402853,0.03248832747340202,-0.004143854603171349,0.07130377739667892,0.16816455125808716,-0.08692345023155212,0.22540879249572754,0.22592948377132416,0.02297632209956646,0.012485369108617306,0.0304758008569479,-0.17530076205730438,0.07308424264192581,0.4217689335346222,-0.0318712517619133,0.01810336485505104,-0.13311460614204407,-0.01856384053826332,-0.10880611836910248,0.1969052106142044,0.04198005795478821,0.13003623485565186,-0.015496298670768738,-0.1084483414888382,-0.05549091845750809,0.30842745304107666,0.02671847678720951,-0.010900571942329407,-0.14197055995464325,0.03736994415521622,-0.044686026871204376,-0.22542838752269745,0.09911588579416275,0.03001839853823185,-0.004389034118503332,0.011860947124660015,0.021756397560238838,0.03761059790849686,-0.47780707478523254],[0.11504600942134857,-0.17409957945346832,-0.04348765313625336,-0.2927594482898712,-0.017346873879432678,0.03986154496669769,-0.07442328333854675,0.04790351167321205,0.04381148889660835,-0.00045728703844361007,0.03731417655944824,-0.07332984358072281,-0.004061010200530291,0.08187860995531082,-0.014034622348845005,-0.028656315058469772,0.10733585059642792,-0.027688272297382355,-0.0016706202877685428,0.1696474254131317,-0.00922468863427639,-0.030185556039214134,0.019017335027456284,0.09631464630365372,0.005962129216641188,-0.08313044160604477,0.10951223969459534,0.1791209876537323,0.0514155775308609,-0.21246337890625,-0.0474054217338562,0.1926969289779663,0.02465515397489071,0.0024308301508426666,-0.046224500983953476,-0.1026567816734314,-0.16051961481571198,0.06888687610626221,-0.048230115324258804,0.03208579868078232,-0.07003675401210785,-0.13786213099956512,0.2329196035861969,-0.05456477776169777,-0.08550609648227692,0.07905951887369156,-0.11576057970523834,-0.10863512754440308,-0.12504737079143524,0.18648678064346313,-0.18014097213745117,0.02747931331396103,-0.07379881292581558,-0.2175103724002838,-0.3589017987251282,-0.07757741957902908,-0.32974809408187866,0.16393612325191498,0.1293787658214569,-0.2662063539028168,-0.06457503139972687,-0.4290030598640442],[0.07272069901227951,0.03869963064789772,0.1169959306716919,-0.024877095595002174,0.16861175000667572,-0.3677418828010559,0.13932830095291138,-0.16644710302352905,0.1043347641825676,0.034418459981679916,0.05454704165458679,0.061445966362953186,-0.09697632491588593,0.12692950665950775,0.03171827644109726,-0.12864503264427185,0.09953435510396957,0.1318485289812088,0.01961543597280979,-0.003375920234248042,-0.00194130081217736,0.04009309411048889,0.0010545961558818817,-0.020520072430372238,0.027672281488776207,0.11242037266492844,-0.0346946194767952,-0.06602152436971664,0.04193727672100067,-0.05640774965286255,-0.15026013553142548,-0.1778169572353363,0.037137143313884735,-0.034816619008779526,-0.04714858531951904,-0.014748161658644676,-0.10513279587030411,0.12601050734519958,0.16068296134471893,-0.021650467067956924,-0.0064127263613045216,-0.13614065945148468,-0.14659658074378967,-0.08556992560625076,-0.17492051422595978,-0.20001475512981415,-0.04813706874847412,-0.009513639844954014,-0.23171645402908325,-0.07761241495609283,-0.04209116846323013,-0.04180978983640671,-0.18110664188861847,0.11363882571458817,0.026573361828923225,0.11278150975704193,0.1589941680431366,0.17533336579799652,-0.012224528007209301,0.1421506404876709,0.14845781028270721,0.3328406512737274],[0.04984498396515846,0.27669408917427063,0.13706377148628235,0.2910357713699341,-0.16726231575012207,0.04909462854266167,0.08977273851633072,-0.14360013604164124,-0.004172258544713259,-0.09445378184318542,0.00639723613858223,-0.06594168394804001,0.02879803441464901,-0.00537006463855505,0.015602150931954384,0.10434738546609879,-0.010402990505099297,0.007948477752506733,0.0489996075630188,0.038610391318798065,-0.07333718240261078,0.0005650861421599984,0.010066402144730091,0.025110818445682526,-0.08431638777256012,0.013300442136824131,0.08547532558441162,0.13364443182945251,0.14466914534568787,0.01633901335299015,-0.06218614801764488,0.09862533211708069,0.04781843349337578,-0.038555875420570374,0.03188376501202583,1.554904338263441e-05,-0.20715950429439545,0.05255911126732826,-0.006336810998618603,0.06131422519683838,0.034966982901096344,0.066829152405262,-0.03735888749361038,0.06011580303311348,-0.08788766711950302,-0.09807288646697998,0.10342150926589966,-0.031112106516957283,0.05380569025874138,-0.019796447828412056,-0.04180792719125748,-0.011957310140132904,-0.1601538211107254,-0.006955074146389961,-0.3239569664001465,0.1430356800556183,0.05600503459572792,0.17856593430042267,0.05171917751431465,0.029516708105802536,0.04407503455877304,-0.2830425500869751],[0.0021359322126954794,0.0008794001769274473,-0.14850065112113953,-0.07454982399940491,-0.1587635725736618,-0.0021421690471470356,-0.058352965861558914,0.19128204882144928,0.16185767948627472,0.015176682732999325,-0.08099567145109177,-0.15922009944915771,0.24199417233467102,-0.018666353076696396,0.08047742396593094,-0.16503039002418518,0.04607810080051422,-0.04343340918421745,-0.059741031378507614,0.1960732638835907,0.018331516534090042,0.09406435489654541,-0.1193130686879158,0.007990389131009579,0.0010170589666813612,-0.03415176272392273,-0.05024820938706398,0.0014164744643494487,0.04926596209406853,-0.15056544542312622,-0.039806563407182693,0.13810433447360992,0.026411093771457672,0.11220831423997879,-0.029024222865700722,0.008075091056525707,-0.06899948418140411,0.07861493527889252,0.01061735488474369,-0.039385344833135605,-0.15728004276752472,-0.07938458770513535,-0.10305286198854446,0.04920496046543121,-0.08313430100679398,0.007219620048999786,-0.10777512937784195,0.05178188532590866,-0.14958156645298004,-0.014879778027534485,-0.003755542915314436,-0.05792839080095291,0.2936405539512634,0.3960832953453064,0.06768418848514557,0.20921704173088074,0.0669095516204834,0.022446950897574425,0.028798328712582588,-0.035393647849559784,-0.006006303709000349,0.3687913119792938],[0.020359709858894348,0.005001692567020655,0.013212713412940502,-0.14806531369686127,0.10549919307231903,0.13860827684402466,-0.0051068998873233795,-0.05744598060846329,0.0308688934892416,0.1529151201248169,0.10780666023492813,0.08488235622644424,0.0024191003758460283,0.054685529321432114,-0.09492958337068558,0.062287960201501846,0.06685526669025421,0.03519482910633087,-0.07516602426767349,0.16769659519195557,0.052162326872348785,0.014459967613220215,-0.08162454515695572,0.14716064929962158,-0.06802134215831757,-0.030487308278679848,-0.08160381764173508,0.03314429521560669,0.05789701268076897,-0.19428105652332306,0.08627577126026154,-0.08869493752717972,-0.1383683830499649,-0.006820431910455227,0.022586829960346222,-0.10699231177568436,0.15752850472927094,-0.004338707774877548,-0.03099753148853779,-0.03979244455695152,0.09037177264690399,-0.16949395835399628,-0.12129103392362595,0.07592015713453293,-0.022939957678318024,-0.059952568262815475,0.09739086776971817,0.008129853755235672,0.17276327311992645,-0.1734180748462677,-0.04659464955329895,-0.15061236917972565,-0.07990751415491104,-0.24610339105129242,0.2872454822063446,0.06484613567590714,-0.11279715597629547,0.0383724607527256,-0.12034530937671661,0.008735372684895992,-0.1123766079545021,-0.01316369604319334],[0.03380971401929855,0.019687488675117493,-0.0032100526150316,-0.0019274274818599224,-0.0659751445055008,-0.08249766379594803,-0.03158215433359146,-0.05300811678171158,-0.13425566256046295,-0.03991462662816048,-0.07969583570957184,-0.002730033826082945,-0.07492262125015259,0.06592070311307907,-0.02160566672682762,-0.05463840439915657,-0.08547547459602356,-0.001695972983725369,0.03916468471288681,0.12068916112184525,0.010981221683323383,-0.017591165378689766,0.1350805163383484,0.03059646673500538,-0.05357661843299866,-0.037912435829639435,0.014916052110493183,-0.09236674755811691,0.14473819732666016,0.10867299884557724,-0.0012697266647592187,0.05030515417456627,0.09617993235588074,0.06201152876019478,-0.11620777100324631,0.13440410792827606,0.15110962092876434,0.17002606391906738,0.01578061655163765,0.14356988668441772,0.0035933128092437983,0.028613271191716194,-0.1476699709892273,0.23259294033050537,-0.010222425684332848,0.0035002424847334623,-0.015620103105902672,0.10401376336812973,0.05124305188655853,-0.0035270939115434885,0.027060335502028465,0.1069076657295227,0.42360660433769226,0.13264533877372742,0.6242572665214539,0.06215102598071098,0.14635026454925537,0.02950761280953884,-0.13287873566150665,0.04352393373847008,-0.03256860375404358,0.6639021635055542],[0.11775802075862885,-0.21834231913089752,0.26591333746910095,-0.08140280097723007,0.08257191628217697,-0.07996625453233719,0.04841208830475807,0.051178477704524994,0.0018932537641376257,-0.08823225647211075,0.06759045273065567,-0.16834083199501038,0.023828864097595215,-0.053635142743587494,0.10386703908443451,0.055318817496299744,-0.08429797738790512,0.1437358856201172,-0.0034379935823380947,-0.11000477522611618,0.047877438366413116,0.2638832926750183,0.3704030215740204,0.17794431746006012,-0.0677376538515091,0.0597488135099411,-0.020408542826771736,0.22435016930103302,0.003711481112986803,0.11424866318702698,-0.1339149922132492,0.15868698060512543,0.05608567222952843,-0.12316059321165085,-0.10486035794019699,0.03364989161491394,-0.029426954686641693,0.026728373020887375,0.0032846226822584867,0.06130089983344078,0.03992210328578949,-0.0899917259812355,-0.10507228225469589,0.05574249476194382,0.1750166118144989,0.027957940474152565,0.013421258889138699,0.05709441751241684,-0.09449673444032669,-0.1362724006175995,0.23403958976268768,-0.11757807433605194,-0.12151715159416199,-0.06858431547880173,-0.10082478076219559,0.09400834143161774,0.1626557856798172,0.040245696902275085,-0.23633889853954315,0.09902361780405045,0.22360293567180634,-0.2824191749095917],[0.05071253329515457,0.018005356192588806,0.052008893340826035,0.1155550628900528,-0.07244899123907089,-0.07941824942827225,0.14966286718845367,0.14814633131027222,0.14445161819458008,-0.11665065586566925,0.2233991175889969,0.10733497142791748,-0.05131400749087334,0.04321524128317833,-0.000535902101546526,-0.04877864941954613,-0.03944939374923706,0.07255209237337112,-0.10896725207567215,0.06699494272470474,-0.11381715536117554,0.05454418435692787,0.0858583152294159,-0.18205006420612335,0.03231194615364075,-0.08309607207775116,0.03494112193584442,0.011063897982239723,0.013198706321418285,-0.08873037993907928,0.04604396969079971,-0.22774766385555267,-0.0992036983370781,0.08717614412307739,-0.11611003428697586,-0.15291456878185272,-0.23806194961071014,-0.1878635436296463,-0.006100864615291357,0.09932646155357361,0.09928510338068008,0.05822145193815231,-0.2782641649246216,-0.07849860191345215,-0.02780519612133503,0.05163063481450081,0.027902372181415558,0.08801701664924622,-0.22491838037967682,-0.06504164636135101,0.013062854297459126,0.042338304221630096,-0.03609943762421608,-0.21175357699394226,-0.17765012383460999,0.09263058006763458,0.12646999955177307,-0.07141026109457016,-0.04671049863100052,0.047507066279649734,0.12243141233921051,-0.02014019899070263],[0.2142314612865448,-0.10385017096996307,-0.012516316957771778,0.1699516624212265,0.07256732881069183,-0.06733113527297974,0.06394466757774353,-0.18900828063488007,-0.13571299612522125,0.05511438846588135,-0.09151504933834076,0.07916667312383652,0.045144546777009964,-0.13679897785186768,0.03554840758442879,-0.014296576380729675,-0.059671495109796524,-0.04674825444817543,0.05369019880890846,-0.02665557526051998,-0.11755497008562088,0.1651640236377716,-0.029170271009206772,0.06546206772327423,0.13030290603637695,0.019712893292307854,-0.0026581233832985163,-0.1637590527534485,-0.06749871373176575,0.10420005023479462,0.19140799343585968,0.04501764848828316,0.14020487666130066,0.07368282973766327,-0.054109349846839905,-0.007661101873964071,0.1916334480047226,-0.24427597224712372,-0.0573735386133194,0.18280574679374695,-0.026788979768753052,-0.05058617889881134,0.15721645951271057,0.014396961778402328,0.09470836818218231,0.20764194428920746,0.09553840756416321,0.0629013180732727,0.21071738004684448,0.0335889495909214,0.07986653596162796,-0.00991120282560587,-0.22527621686458588,-0.26006796956062317,-0.4680056571960449,-0.0025787856429815292,0.09540590643882751,0.03805407136678696,-0.0871390551328659,-0.07832832634449005,-0.001013821572996676,-0.563591718673706],[-0.02233182080090046,0.02787652611732483,-0.07604276388883591,-0.05038991570472717,-0.22798308730125427,-0.015109315514564514,0.03719920292496681,-0.18780191242694855,0.003155662212520838,-0.03461875393986702,-0.06763270497322083,-0.06870240718126297,0.010315493680536747,-0.0919746682047844,-0.1430148184299469,-0.01442645862698555,0.12849831581115723,0.10871530324220657,0.11753600835800171,0.06941931694746017,-0.03612823411822319,0.03762616217136383,0.05269702896475792,0.05530503764748573,-0.05660608783364296,0.0161261186003685,-0.13305272161960602,0.07735267281532288,-0.17632347345352173,0.20445547997951508,-0.2524934709072113,0.15658187866210938,-0.12071214616298676,0.09179192781448364,6.338833918562159e-05,0.10138417780399323,-0.061996378004550934,0.08393705636262894,0.14830373227596283,0.1117207482457161,0.05950823053717613,0.08570459485054016,-0.023374704644083977,-0.045687485486269,0.015642037615180016,0.16475476324558258,-0.03235030546784401,-0.08368892967700958,0.1406220942735672,-0.13645672798156738,0.17244240641593933,0.06867951154708862,-0.16590994596481323,-0.11219241470098495,-0.3023012578487396,0.21948784589767456,-0.13532234728336334,0.0373401902616024,0.12448089569807053,-0.10187341272830963,0.13148437440395355,-0.08909028768539429],[-0.15565840899944305,0.023448031395673752,0.1095380038022995,0.11670899391174316,0.06616507470607758,0.16764789819717407,0.015850024297833443,-0.009919684380292892,-0.04648638889193535,0.18007710576057434,0.06086970493197441,-0.23584719002246857,-0.05327476188540459,0.11177441477775574,0.07239758968353271,0.008363117463886738,0.06808949261903763,-0.020634343847632408,0.05515484884381294,0.06524206697940826,0.025720475241541862,-0.02269715629518032,0.06584712117910385,-0.08818426728248596,0.010132256895303726,-0.05729370564222336,0.04144701734185219,-0.1747644692659378,0.11467132717370987,0.06031588092446327,0.048716381192207336,-0.023410266265273094,0.0236503966152668,0.02468087710440159,0.2057861089706421,0.16775254905223846,0.10193692892789841,0.09582190960645676,-0.11906754225492477,-0.01352191437035799,-0.08558239787817001,0.036072634160518646,0.10034248232841492,-0.007305912207812071,0.013439081609249115,0.11260578781366348,-0.1064242571592331,-0.06185106560587883,0.1464567631483078,0.13745610415935516,-0.01825755648314953,0.02014823816716671,-0.0773303285241127,0.07470883429050446,-0.12712980806827545,-0.0672333613038063,-0.2100042700767517,0.02763761393725872,-0.012262606993317604,0.17826101183891296,0.04552774876356125,-0.21206136047840118],[0.03235919401049614,0.06242697313427925,0.13960783183574677,-0.05689364671707153,0.0884728953242302,-0.22831526398658752,0.10840633511543274,0.2932751476764679,0.05785225331783295,-0.16627079248428345,-0.07047030329704285,0.07740066200494766,0.023762226104736328,0.10957985371351242,0.06284011900424957,0.004648005589842796,-0.1684965342283249,0.00693141482770443,0.002029379364103079,0.1072673350572586,-0.0032746007200330496,0.12522204220294952,0.06658917665481567,0.08932440727949142,-0.03442435711622238,0.010948820039629936,-0.041366610676050186,0.06224973872303963,0.05538564920425415,-0.011159577406942844,-0.1522548496723175,-0.017826301977038383,-0.09270314127206802,0.08092755079269409,0.03675302118062973,0.15342916548252106,-0.03245386853814125,-0.014277899637818336,0.09047349542379379,0.08898770064115524,0.006121374201029539,-0.021258067339658737,-0.3639838993549347,-0.01624896749854088,0.025644969195127487,0.10312705487012863,-0.0026787305250763893,0.12964385747909546,0.08151078969240189,-0.09757863730192184,-0.06576737761497498,-0.13025227189064026,-0.003702848684042692,0.5788078904151917,-0.10306768119335175,0.20007355511188507,-0.04155158996582031,0.09405670315027237,0.0009513897239230573,-0.14598727226257324,0.04465067386627197,0.7376424670219421],[0.10509717464447021,0.013805142603814602,-0.13867390155792236,0.11108231544494629,-0.2153821438550949,-0.22262783348560333,0.01810166984796524,-0.019953209906816483,-0.2074945718050003,-0.05575280264019966,0.2623612880706787,-0.05195813998579979,0.052904821932315826,-0.08118227869272232,0.09129311889410019,0.04728864133358002,0.06123782694339752,0.0024681296199560165,-0.01884026825428009,0.027147788554430008,-0.010345660150051117,0.11118698120117188,0.134855255484581,0.07977501302957535,-0.005870596971362829,0.08157149702310562,-0.07473165541887283,-0.1820407211780548,-0.11030417680740356,-0.0663633719086647,0.09768548607826233,-0.0031925274524837732,-0.15590879321098328,-0.06457433104515076,-0.2118513435125351,-0.010803541168570518,0.1615750789642334,-0.03561969846487045,0.0626157596707344,0.06289256364107132,-0.14177323877811432,-0.0757165476679802,0.16067270934581757,0.08921908587217331,-0.15529824793338776,-0.05332962051033974,0.18052193522453308,-0.02194002829492092,0.13987289369106293,-0.006158809177577496,0.043872784823179245,-0.08881435543298721,0.4895627498626709,-0.21515628695487976,0.2168988138437271,-0.06596063822507858,0.1684003621339798,0.10234811902046204,-0.059591569006443024,0.18676351010799408,-0.0529644601047039,0.17446190118789673],[0.06927420943975449,0.004287430550903082,-0.028856884688138962,0.038899339735507965,0.01424461044371128,0.08854132890701294,-0.10029879212379456,0.17945434153079987,0.04909460246562958,0.22218915820121765,-0.11461348086595535,0.1454191356897354,0.042241983115673065,0.020385300740599632,-0.023192323744297028,0.2856193482875824,-0.10191582888364792,-0.06565715372562408,-0.046967409551143646,-0.044694431126117706,-0.01962878368794918,0.08679577708244324,-0.1731821596622467,0.035435594618320465,0.03793264552950859,0.05723171308636665,-0.07443952560424805,-0.04535561427474022,0.1041678786277771,0.04487654194235802,0.1801164448261261,-0.08086948841810226,-0.13571719825267792,0.0026246209163218737,-0.07194864749908447,1.7847431081463583e-05,-0.1299869418144226,-0.02504410222172737,-0.06185422092676163,-0.12421239167451859,-0.05795668810606003,0.06874734908342361,-0.11561080813407898,-0.03071889840066433,-0.06311855465173721,0.00500508164986968,0.01750091090798378,0.06517516821622849,-0.039109356701374054,0.07094280421733856,0.07752988487482071,0.06663426011800766,-0.05885195732116699,-0.04829460009932518,0.40157219767570496,-0.12157978117465973,0.07598364353179932,-0.02620766870677471,0.20665138959884644,0.20777389407157898,-0.05038035660982132,-0.0730171948671341],[-0.03813866153359413,-0.051579639315605164,0.1539837121963501,0.12964564561843872,-0.10586103796958923,-0.2638395130634308,0.08738764375448227,0.0979963019490242,-0.1823168247938156,-0.05138027295470238,0.09880099445581436,-0.03548337519168854,-0.0026756797451525927,-0.07908912748098373,-0.058269914239645004,0.19231440126895905,-0.0009867752669379115,0.040362123399972916,-0.04581036418676376,0.00374102545902133,-0.06982936710119247,0.08090813457965851,0.021000033244490623,0.0071090590208768845,-0.07759544253349304,0.04363228753209114,-0.13455818593502045,-0.0007946100668050349,0.09656426310539246,0.17950955033302307,-0.2138412743806839,0.09020572900772095,0.18592649698257446,0.005649283993989229,0.1578255593776703,0.018134620040655136,-0.09487944841384888,0.024956095963716507,0.06626415252685547,-0.13877055048942566,0.13537032902240753,0.06667573750019073,-0.012028568424284458,0.09877115488052368,0.13272975385189056,0.144153892993927,0.13570885360240936,-0.0025133895687758923,-0.15710552036762238,-0.09137584269046783,-0.057022083550691605,0.041277848184108734,0.31035614013671875,0.43583741784095764,-0.19293548166751862,-0.06220032647252083,-0.09350363165140152,-0.003325949888676405,-0.09289379417896271,0.0035373957362025976,0.10712981224060059,0.8081412315368652],[0.03308320418000221,0.06583889573812485,0.12868401408195496,-0.07171165943145752,-0.10987527668476105,-0.0187387578189373,-0.024127479642629623,-0.18061938881874084,-0.09396091103553772,-0.04945259541273117,-0.030831951647996902,-0.03599824383854866,-0.09991177916526794,0.1518256813287735,-0.1293337196111679,0.010153346695005894,-0.23752807080745697,-0.012356246821582317,0.08530575782060623,0.014615767635405064,-0.045983847230672836,0.07781092077493668,0.055698949843645096,0.09031569212675095,-0.08530858904123306,0.11961255222558975,0.04037424921989441,-0.053016435354948044,-0.06593389064073563,0.08026441186666489,0.04446183517575264,-0.030887965112924576,0.09740447998046875,0.1729457676410675,-0.03203883022069931,0.10845227539539337,0.2027222067117691,0.19750681519508362,-0.12729772925376892,-0.04578728973865509,-0.00834087934345007,0.015764741227030754,0.03569651395082474,0.06829240918159485,-0.04991316795349121,0.07609335333108902,-0.06904526054859161,0.00023424593382515013,0.20049552619457245,0.06290512531995773,-0.11402055621147156,0.08962152898311615,-0.3464699685573578,-0.044151753187179565,-0.1762964278459549,0.04035080969333649,0.3268022835254669,-0.014100853353738785,0.04206812381744385,0.13530419766902924,-0.06684994697570801,-0.47346025705337524],[-0.04745471104979515,-0.12204226106405258,-0.08824821561574936,-0.09350115805864334,0.01835600845515728,0.15359912812709808,-0.104512058198452,0.03330018371343613,0.09680254757404327,0.00031782209407538176,0.11755848675966263,-0.06858499348163605,0.16681326925754547,-0.09679209440946579,0.06831034272909164,-0.1177743673324585,0.12327907234430313,-0.15407399833202362,0.16666263341903687,-0.15518994629383087,-0.03344779089093208,-0.00427636643871665,-0.03705620765686035,-0.06629873067140579,-0.06811360269784927,0.05846019461750984,0.01642630621790886,0.08758074790239334,-0.15918579697608948,0.14119189977645874,0.24781933426856995,-0.08640949428081512,0.008429693058133125,0.2046302706003189,0.018743155524134636,0.2048097848892212,0.12211458384990692,0.014491907320916653,0.15135878324508667,0.11020974069833755,-0.11207818984985352,0.12971636652946472,0.046515218913555145,-0.03201708570122719,-0.05814776569604874,-0.059516921639442444,0.051316458731889725,0.03206503763794899,0.08802769333124161,-0.049900759011507034,0.02407771721482277,-0.14164939522743225,-0.1799803525209427,-0.10042795538902283,0.16226771473884583,0.06857992708683014,0.019554708153009415,0.1944621056318283,-0.11093369126319885,0.01779228076338768,0.03088349662721157,-0.17298264801502228],[-0.02473696880042553,0.11720779538154602,-0.13170212507247925,-0.08700940757989883,-0.22031304240226746,0.05272814631462097,-0.11405506730079651,-0.07402520626783371,0.07974842935800552,0.30453670024871826,0.06779246032238007,0.002217645291239023,-0.0287362951785326,-0.10728716850280762,0.02270512469112873,0.09166909009218216,0.02200569026172161,-0.02034342661499977,0.19390669465065002,0.08905082941055298,-0.026151001453399658,-0.021855676546692848,0.11729323863983154,0.08376999944448471,-0.05873219668865204,0.03141632676124573,0.1605343222618103,-0.12896738946437836,-0.08440451323986053,0.16063961386680603,-0.01428265031427145,-0.102727510035038,8.652357064420357e-05,0.08659764379262924,-0.036550574004650116,-0.11331271380186081,0.2355223149061203,-0.028688887134194374,0.09097593277692795,0.07313797622919083,-0.03617915138602257,0.05462058261036873,0.029918208718299866,0.16500815749168396,-0.06544670462608337,-0.07294967025518417,0.07744425535202026,0.1068936213850975,0.13371264934539795,-0.007515445351600647,0.10434975475072861,0.05845668539404869,0.24354897439479828,0.06545574963092804,-0.13234081864356995,0.10678447782993317,0.052409570664167404,0.08583340793848038,0.1275835484266281,0.08020519465208054,0.07468210905790329,0.4712117612361908],[0.0676308199763298,0.021294809877872467,0.14588408172130585,0.08965134620666504,0.05690351873636246,0.03814670816063881,-0.13038486242294312,9.989304089685902e-05,0.07644148170948029,0.012639733031392097,-0.22262047231197357,0.10178779065608978,0.12871383130550385,0.22039653360843658,0.06653133034706116,-0.06520141661167145,0.044641636312007904,-0.07446528226137161,-0.014484977349638939,0.05794762447476387,-0.06211089342832565,-0.08720290660858154,0.006909066811203957,-0.001009558909572661,-0.08251763880252838,-0.07359220087528229,0.06392159312963486,-0.12762954831123352,-0.19834625720977783,0.033930230885744095,-0.17710791528224945,0.0011295370059087873,0.05678151547908783,-0.15114068984985352,0.008883032016456127,-0.04123229905962944,-0.32357528805732727,0.07107550650835037,0.07256751507520676,0.25671377778053284,0.0341981016099453,0.15874116122722626,-0.004238153342157602,-0.11131853610277176,0.025428399443626404,-0.08892905712127686,0.05401680991053581,-0.15043026208877563,-0.23371955752372742,-0.07671748101711273,0.09800789505243301,0.03558998554944992,0.19201138615608215,0.17240607738494873,-0.10150092095136642,-0.08949434012174606,0.14071933925151825,0.11099625378847122,-0.015475609339773655,-0.10498867928981781,0.09704077988862991,0.4609292149543762],[0.02653864212334156,0.013898857869207859,0.04700012132525444,-0.3972947895526886,0.06901688128709793,-0.006522712763398886,-0.13686881959438324,-0.02546261064708233,-0.06875036656856537,0.06646724790334702,0.012683242559432983,0.04660410434007645,0.0557720772922039,-0.11367715150117874,-0.15202468633651733,0.05656170845031738,0.00917932577431202,-0.06015942618250847,0.0838296040892601,0.08448237180709839,0.0057244673371315,-0.027777576819062233,0.12017014622688293,-0.11801744252443314,-0.009232578799128532,0.05567343160510063,-0.028859691694378853,0.10904762148857117,0.14460280537605286,-0.20227289199829102,-0.07416748255491257,0.0588129498064518,0.009785029105842113,-0.040732868015766144,0.02251071110367775,-0.20089773833751678,0.19608670473098755,0.0625540167093277,-0.07553981244564056,0.008923393674194813,-0.02311093546450138,0.005920254625380039,-0.049010973423719406,0.18974417448043823,-0.002741472562775016,0.08590880036354065,0.16448062658309937,-0.06958580762147903,0.03171330690383911,-0.019812025129795074,-0.016323959454894066,0.14072562754154205,0.27812111377716064,-0.17986509203910828,0.18293751776218414,0.1905919313430786,-0.06040159612894058,-0.03186151385307312,0.00830563623458147,-0.21874071657657623,-0.006736530922353268,0.39322730898857117],[-0.003980266861617565,-0.11322730034589767,-0.044516030699014664,0.08735852688550949,0.07668540626764297,-0.06152517721056938,-0.15175387263298035,