{"obs_dim":61,"act_dim":3,"layers":[{"type":"linear","weight":[[0.19562557339668274,-0.05379427969455719,-0.15459825098514557,0.007074829190969467,-0.037811294198036194,-0.030613962560892105,-0.19209788739681244,0.19240261614322662,0.05102141574025154,0.007214517332613468,0.0866558849811554,-0.15772752463817596,-0.06124117225408554,0.15411119163036346,-0.06769359856843948,0.09025835990905762,-0.029690846800804138,0.01554427482187748,0.10880566388368607,-0.06620389968156815,-0.031716201454401016,-0.04512743651866913,0.18421459197998047,-0.006080694030970335,-0.04901808500289917,-0.07820902019739151,0.06560149788856506,-0.0006761180702596903,0.10034959763288498,-0.009669597260653973,0.09949949383735657,-0.0010699763661250472,0.0061383494175970554,0.10916929692029953,0.008651687763631344,-0.030920742079615593,0.2524654269218445,0.07062264531850815,0.08518269658088684,0.12293316423892975,-0.0963447093963623,-0.05826688930392265,-0.08148100227117538,0.07191610336303711,0.06940186023712158,0.05502959340810776,0.029098233208060265,-0.04700542986392975,0.08659645915031433,-0.011693176813423634,0.04539912939071655,-0.045060351490974426,0.1083502396941185,0.43603405356407166,-0.009366611950099468,-0.007201684173196554,0.006229202728718519,-0.12323368340730667,-0.12838512659072876,0.10788920521736145,-0.1564028561115265],[0.03401417285203934,0.10523442178964615,-0.06280993670225143,-0.04432324692606926,0.07453703135251999,-0.07935015857219696,0.043584853410720825,-0.4283720850944519,0.008086602203547955,-0.09166574478149414,0.07890104502439499,0.01699027419090271,0.0018546825740486383,-0.10864261537790298,-0.0994347333908081,-0.05204179137945175,0.019618641585111618,-0.21277697384357452,0.08943434059619904,-0.06632444262504578,0.004620792344212532,-0.0732264518737793,-0.02546018734574318,-0.07372954487800598,0.011556277982890606,-0.04571593925356865,0.0842735692858696,-0.09526874125003815,0.2753181457519531,0.23567743599414825,0.35234639048576355,0.056962497532367706,0.16202031075954437,-0.08285671472549438,0.06697814911603928,-0.04350665956735611,0.12095139175653458,0.047995228320360184,-0.04315938055515289,0.12360356748104095,-0.06269977241754532,0.017797308042645454,0.1860097497701645,-4.56870038760826e-05,-0.04169962555170059,0.13069425523281097,-0.07009945809841156,-0.027038535103201866,0.04749203473329544,-0.018049966543912888,-0.06708839535713196,-0.04069996252655983,-0.09369516372680664,-0.1309361457824707,-0.1658494621515274,0.11243706941604614,0.12129848450422287,-0.09490944445133209,-0.06868723034858704,0.18730536103248596,-0.05277491360902786],[-0.06745141744613647,0.10703127086162567,-0.025463825091719627,0.03992542251944542,0.159823477268219,-0.028280949220061302,-0.07930220663547516,-0.07388937473297119,0.16608335077762604,-0.0036963666789233685,0.15147879719734192,-0.09507964551448822,0.07244674861431122,0.006971161346882582,0.23597535490989685,-0.1049998328089714,0.0616186149418354,0.006084187421947718,0.02527632564306259,0.1257329285144806,0.07040156424045563,-0.012471631169319153,0.02549612708389759,-0.09144021570682526,0.08400412648916245,-0.007258408237248659,0.01884160377085209,-0.08492971956729889,-0.009766180999577045,0.019092710688710213,0.11202311515808105,-0.07676926255226135,0.0808895081281662,0.17376482486724854,-0.016408784314990044,-0.0003455822297837585,0.12960131466388702,-0.14997394382953644,-0.07188262045383453,-0.0143918851390481,-0.009142855182290077,-0.006446877960115671,0.08355189114809036,-0.028386887162923813,0.06987710297107697,-0.10626322776079178,-0.011747666634619236,-0.0013475834857672453,-0.06544225662946701,-0.09421395510435104,-0.021142175421118736,-0.07597124576568604,-0.7989027500152588,0.09951064735651016,-0.40155932307243347,-0.016119470819830894,0.0023740571923553944,0.1699782758951187,0.0008180239819921553,-0.018412254750728607,0.08316333591938019],[-0.05474327504634857,-0.017998024821281433,-0.146791473031044,-0.04837406799197197,0.004724108148366213,-0.052934419363737106,-0.10909419506788254,-0.5595030188560486,-0.1259402185678482,-0.09754116088151932,-0.014286444522440434,0.4022701680660248,0.06899772584438324,-0.09560202062129974,0.08696069568395615,0.024360619485378265,0.08250771462917328,-0.06838399171829224,0.14738954603672028,-0.1542995721101761,0.09785545617341995,-0.04400782287120819,0.24415291845798492,-0.024029679596424103,0.027840090915560722,-0.08339529484510422,0.19297407567501068,-0.07803872227668762,0.14897562563419342,0.0019130590371787548,-0.5859194993972778,0.022244909778237343,-0.038518618792295456,0.12225466966629028,-0.009135488420724869,-0.022043544799089432,-0.1315915882587433,-0.04288771003484726,-0.031921181827783585,-0.170626699924469,-0.052281659096479416,-0.034624937921762466,-0.2745209336280823,-0.0060536679811775684,-0.021537477150559425,0.0842008963227272,-0.024805555120110512,0.015307312831282616,-0.09615372866392136,-0.02624395303428173,-0.009994604624807835,-0.021888433024287224,-0.280518114566803,-0.08076686412096024,-0.2340501844882965,-0.10490510612726212,0.08979468792676926,0.12417256832122803,-0.02374415658414364,-0.03732878342270851,0.03081551007926464],[0.14474333822727203,0.050146762281656265,0.1280054748058319,-0.11654030531644821,0.0017266884678974748,-0.06108871102333069,0.17827555537223816,-0.04097649082541466,-0.010653141885995865,0.0005714943981729448,0.0802559107542038,0.028792889788746834,-0.002960155252367258,0.05425047501921654,0.019215025007724762,-0.276915043592453,-0.006393227726221085,0.03216642513871193,-0.18800748884677887,-0.27366745471954346,-0.031558312475681305,0.04732315242290497,-0.24263916909694672,-0.4074579179286957,-0.04427993297576904,-0.01522162463515997,-0.08037737756967545,-0.3089366555213928,0.014289026148617268,0.048154592514038086,-0.2529917359352112,-0.02838509902358055,0.05602430924773216,0.1431901752948761,-0.02816358208656311,-0.05003766715526581,-0.11661214381456375,0.03574351221323013,0.06988000869750977,-0.08969678729772568,0.022104710340499878,0.040026742964982986,-0.2807528078556061,0.0627242773771286,-0.05462805554270744,0.12685027718544006,0.004590094555169344,-0.06633752584457397,-0.44749507308006287,0.05415602773427963,-0.030912786722183228,-0.09589772671461105,0.015344301238656044,-0.15330322086811066,-0.22312723100185394,-0.1488565057516098,-0.0881342887878418,-0.15638071298599243,0.01177931111305952,-0.0111205680295825,0.24349303543567657],[-0.1067957803606987,-0.014127090573310852,-0.01719796098768711,-0.1482335478067398,0.08933329582214355,0.06806556135416031,-0.07016192376613617,0.15219971537590027,0.08424197137355804,0.03610512614250183,-0.08868516236543655,-0.027328310534358025,-0.1511346995830536,-0.09094642102718353,0.05455828458070755,0.24073688685894012,0.04583916440606117,-0.0405079685151577,0.09779781103134155,0.5614363551139832,0.0016222777776420116,-0.09013087302446365,-0.10125333070755005,0.6238051056861877,-0.026716323569417,-0.021365389227867126,-0.07114315032958984,0.3435797393321991,0.021417031064629555,0.01794198527932167,0.6898159980773926,0.027844151481986046,-0.022179093211889267,-0.059516195207834244,0.0025852667167782784,0.022895334288477898,0.4064365029335022,0.026203036308288574,-0.035580750554800034,-0.20765365660190582,0.011474241502583027,0.0357138067483902,0.12325279414653778,0.07072027027606964,-0.057012803852558136,-0.2070629596710205,0.01260029524564743,0.006510550621896982,0.24209953844547272,0.016916999593377113,0.018197204917669296,-0.08149935305118561,-0.009203686378896236,0.09716016054153442,-0.01684117130935192,0.10140655934810638,0.15472450852394104,-0.006613137200474739,-0.09068812429904938,0.06225649639964104,0.040765903890132904],[-0.11680261045694351,0.020593879744410515,-0.13030125200748444,-0.12094557285308838,0.08479083329439163,-0.12629488110542297,0.11917544156312943,-0.06240129843354225,0.0901031643152237,-0.01641364023089409,0.028954995796084404,-0.20876549184322357,-0.022992150858044624,0.005767517723143101,0.03267788514494896,0.1734185516834259,-0.15821073949337006,-0.0027490039356052876,0.13230252265930176,0.4550931453704834,-0.09884357452392578,0.1177482008934021,0.1317933350801468,0.32561004161834717,0.024784987792372704,0.10037291049957275,0.11017541587352753,0.5276023745536804,-0.012909187003970146,-0.003353525884449482,0.7666764259338379,0.11251486092805862,-0.04203156754374504,-0.1426321119070053,-0.015758318826556206,0.05830610170960426,0.41993919014930725,0.07880830019712448,-0.08167658001184464,-0.20209607481956482,-0.011535541154444218,-0.03316446393728256,0.24935512244701385,0.012875812128186226,-0.04023255407810211,-0.12924927473068237,0.01710280403494835,0.009871062822639942,0.36974409222602844,0.020892053842544556,0.011943263001739979,-0.03119371272623539,-0.05860311537981033,-0.028271781280636787,0.06504251062870026,0.00924633163958788,-0.034233760088682175,0.17840436100959778,-0.002033971017226577,0.024798370897769928,0.18730369210243225],[0.03518345579504967,-0.0779365748167038,-0.037084516137838364,0.0012451932998374104,-0.047639865428209305,-0.06603468954563141,-0.12946674227714539,-0.04715524613857269,0.034533701837062836,-0.08687420934438705,0.15141631662845612,0.0729253739118576,-0.043420519679784775,-0.05266200006008148,0.0493650808930397,-0.044966455549001694,-0.040366631001234055,-0.048579465597867966,0.023748135194182396,0.03304423391819,-0.038241416215896606,-0.010933483019471169,0.13595345616340637,-0.02967316098511219,-0.017482006922364235,-0.05563979595899582,-0.01589909940958023,-0.13568101823329926,-0.21285392343997955,-0.09787497669458389,-0.34033694863319397,-0.005047115962952375,-0.0026053241454064846,-0.03469052538275719,-0.24904215335845947,-0.1188424751162529,-0.26019909977912903,-0.035653602331876755,0.0415353998541832,0.010549475438892841,-0.1219855472445488,0.05515448749065399,-0.20984768867492676,0.0734608918428421,-0.06258793920278549,0.007654898334294558,0.0037771426141262054,-0.031257037073373795,-0.05929608643054962,0.025709399953484535,0.06149078905582428,0.09342902153730392,-0.27650579810142517,0.2848300635814667,0.10660310834646225,0.08655829727649689,-0.04546302556991577,0.07818339020013809,0.04792170971632004,-0.0033228585962206125,0.06500103324651718],[0.07302697747945786,0.0998876616358757,0.0084329629316926,-0.10579105466604233,-0.03248630464076996,-0.0056359730660915375,-0.013807407580316067,0.21629875898361206,-0.033135637640953064,0.06175507605075836,0.114136703312397,-0.11284404993057251,-0.032449234277009964,0.026346711441874504,0.07012227177619934,-0.0033143884502351284,-0.00960909016430378,0.013144833967089653,0.19048577547073364,0.024596931412816048,0.033615607768297195,0.07683547586202621,0.16757042706012726,0.06749929487705231,-0.0071737742982804775,0.06269067525863647,0.12375997751951218,-0.08740244805812836,0.08669886738061905,0.2055041342973709,-0.2014235407114029,0.02965261973440647,-0.060035109519958496,0.12090981751680374,0.09723887592554092,0.18726272881031036,-0.1929897665977478,-0.0010629098396748304,0.037604063749313354,0.0023161815479397774,-0.025029093027114868,0.1088566854596138,-0.22401578724384308,-0.014862840995192528,0.019251426681876183,-0.09663330763578415,0.005717960186302662,0.08153782784938812,-0.0479719415307045,0.04023217409849167,0.02517412044107914,-0.1750519722700119,-0.002221226692199707,0.31767553091049194,0.1061413362622261,0.029305530712008476,-0.0128368204459548,0.04336615651845932,0.08801991492509842,0.09428703039884567,0.01317692268639803],[-0.15530338883399963,-0.17417104542255402,-0.2949331998825073,-0.019195599481463432,0.048712506890296936,0.004500206559896469,-0.1474108099937439,-0.04910190775990486,0.10459509491920471,-0.05341430753469467,0.19067934155464172,-0.2632584571838379,0.05131321772933006,0.02800501137971878,0.15081024169921875,0.12419498711824417,-0.00904833059757948,0.04166882857680321,0.047873497009277344,0.2721301019191742,0.025039415806531906,0.058055102825164795,0.12360063940286636,0.061721689999103546,0.015949998050928116,0.02985147386789322,-0.04621948301792145,0.07920799404382706,0.1437511444091797,0.13537347316741943,0.5690517425537109,-0.053600411862134933,0.09559798985719681,0.19329635798931122,0.05492553114891052,0.13955946266651154,0.5368210077285767,-0.049677904695272446,-0.06552410870790482,-0.06888330727815628,-0.0017888050060719252,0.01905379258096218,0.2394813895225525,0.028158212080597878,-0.0041963704861700535,-0.10227128863334656,-0.032633207738399506,0.0023650559596717358,0.2549669146537781,0.002821053611114621,-0.014164604246616364,0.03730957210063934,0.22636628150939941,-0.06126362457871437,-0.08955983817577362,0.08971720188856125,-0.04372437670826912,0.09598931670188904,-0.032374363392591476,0.02804514393210411,-0.06054455041885376],[-0.005828961730003357,0.06864549964666367,-0.06343086063861847,-0.0784127488732338,0.005231543444097042,0.1377587765455246,-0.003529028035700321,-0.21313247084617615,-0.16013437509536743,-0.0027230666019022465,0.13032789528369904,-0.05723632872104645,-0.02533860132098198,-0.03167395293712616,0.09670373052358627,-0.04725394397974014,0.02152886614203453,-0.050258032977581024,-0.018408609554171562,0.08357947319746017,0.020782435312867165,-0.05053181201219559,0.05312063544988632,-0.04710245504975319,0.05137834697961807,-0.028750671073794365,-0.08284048736095428,0.014422513544559479,-0.011495755054056644,-0.02886858768761158,-0.19979669153690338,0.024088138714432716,2.06554450414842e-05,0.01277867890894413,-0.07114263623952866,0.03815454989671707,0.06650050729513168,-0.005466273985803127,0.0004326482303440571,0.06495492160320282,0.01693887449800968,0.009469832293689251,-0.08037053793668747,-0.057785406708717346,0.13311780989170074,0.11541607230901718,0.008292187936604023,-0.008997121825814247,-0.25019702315330505,-0.01694250851869583,-0.04563937708735466,-0.061713434755802155,-0.48306804895401,-0.5178460478782654,0.38482895493507385,-0.02000352554023266,0.0185776948928833,-0.036584921181201935,0.033667825162410736,-0.003477114485576749,0.032652683556079865],[0.061459243297576904,-0.07070689648389816,-0.030114607885479927,-0.015127069316804409,0.02659759111702442,0.07561825960874557,-0.1857052445411682,0.1270906925201416,0.022188963368535042,0.2287006676197052,-0.020106526091694832,0.07166141271591187,0.02901528589427471,0.0204006377607584,0.006819895468652248,-0.014539411291480064,-0.008272365666925907,0.04269372299313545,0.11364191770553589,-0.08196555078029633,0.01251705177128315,0.03705773875117302,0.07363467663526535,0.04010554403066635,0.01751120761036873,0.06797274202108383,-0.03064832277595997,0.059659443795681,-0.08599290996789932,0.19258487224578857,-0.08970627933740616,-0.057885609567165375,0.027404120191931725,0.2598840892314911,-0.13247962296009064,0.007495288271456957,-0.3026903569698334,-0.06907162815332413,0.07052305340766907,0.012326361611485481,0.0749623030424118,0.11194676160812378,-0.18291234970092773,0.058549195528030396,0.040687527507543564,0.044214311987161636,-0.07830024510622025,0.15728752315044403,-0.11081252992153168,-0.02021919935941696,-0.09083150327205658,-0.06064736470580101,0.13915765285491943,-0.280091255903244,0.3013991713523865,-0.22195720672607422,-0.03741252422332764,-0.02854628674685955,0.013790039345622063,-0.05238943547010422,0.006266217678785324],[-0.015719212591648102,-0.08874338120222092,0.03339233249425888,0.01564241200685501,-0.009159586392343044,0.13416597247123718,-0.14118218421936035,0.013421650044620037,-0.1182158887386322,0.17806322872638702,0.10334474593400955,0.07201256603002548,-0.08618171513080597,0.09221959859132767,-0.07173249125480652,0.025582322850823402,-0.11451567709445953,0.022611144930124283,0.10086103528738022,-0.0796903520822525,-0.11946985870599747,0.08724793791770935,0.0643351674079895,-0.1323716640472412,-0.1476508527994156,0.09138458222150803,-0.01094464398920536,-0.04247370362281799,0.010831738822162151,-0.0853705108165741,-0.08050110191106796,0.1246112659573555,-0.038144778460264206,0.1444309800863266,-0.03665650635957718,0.07757266610860825,0.48112520575523376,0.0190869327634573,0.061893001198768616,-0.008067796938121319,0.020830215886235237,0.04503592848777771,0.29619792103767395,0.02460334636271,-0.046480562537908554,-0.09279973059892654,0.0661545842885971,-0.06359357386827469,0.16705811023712158,-0.07085831463336945,0.025651080533862114,0.036374855786561966,0.09826795756816864,0.19506682455539703,-0.053352706134319305,-0.10595257580280304,-0.09606199711561203,0.00047945231199264526,-0.09513556212186813,-0.002472514286637306,0.12699905037879944],[-0.048125721514225006,-0.023123499006032944,0.0818328931927681,-0.04591337591409683,0.2908799350261688,0.18907380104064941,-0.0416175052523613,0.5195086598396301,-0.023950694128870964,-0.06385734677314758,0.023313257843255997,0.2465703785419464,-0.03177477791905403,-0.12360095977783203,-0.041959650814533234,0.12625637650489807,-0.1258886605501175,-0.12920759618282318,0.010810130275785923,0.18723724782466888,-0.004184457939118147,0.12985020875930786,-0.09901957213878632,0.18049879372119904,-0.0969654768705368,0.00242393696680665,-0.02840425632894039,0.0017472547478973866,0.2226320207118988,-0.14473167061805725,-0.15891671180725098,-0.18686383962631226,-0.013711199164390564,-0.08074900507926941,0.07506396621465683,0.03232656046748161,-0.29699036478996277,-0.052411098033189774,-0.010308807715773582,-0.0402507483959198,0.013891383074223995,-0.017189599573612213,-0.24313490092754364,0.005458005238324404,0.005139535758644342,-0.15805906057357788,-0.04684731736779213,-0.006918597500771284,-0.1890786737203598,-0.035591091960668564,-0.08220157027244568,0.058998074382543564,0.10333117842674255,-0.03798671066761017,0.3403729498386383,-0.04437493905425072,-0.030431197956204414,0.07883235067129135,-0.09709388017654419,-0.08084942400455475,-0.05010946840047836],[-0.06749629974365234,-0.09724273532629013,-0.10175655037164688,0.1056802049279213,-0.07087542861700058,0.07757408171892166,-0.12671753764152527,-0.10695832222700119,0.06911388784646988,0.00027512991800904274,0.00393128115683794,-0.08186100423336029,0.07438293099403381,-0.029248185455799103,0.036353450268507004,0.0931415930390358,0.00877437274903059,-0.029178781434893608,0.006138811819255352,-0.07461085915565491,0.008014734834432602,0.003562033176422119,0.1813013106584549,-0.008217801339924335,0.02119990438222885,0.04419131577014923,0.17898964881896973,-0.18241086602210999,0.022899080067873,0.00423587579280138,-0.22556065022945404,0.036838289350271225,-0.019922928884625435,0.022448113188147545,-0.028931574895977974,0.03758055344223976,-0.2757049798965454,0.09581141918897629,-0.04783882945775986,0.13580557703971863,-0.0061908382922410965,0.025554480031132698,-0.090457022190094,0.025881629437208176,-0.024602636694908142,0.06386756896972656,0.021420059725642204,-0.016108494251966476,-0.11763159185647964,-0.09013485908508301,0.007375538814812899,0.1283172070980072,0.3534590005874634,-0.5310274362564087,0.30071115493774414,-0.078315868973732,0.015443028882145882,-0.09421836584806442,-0.01860540173947811,-0.00738822016865015,-0.18624603748321533],[-0.15925191342830658,-0.05972279980778694,-0.06872177869081497,-0.14260616898536682,0.10821788012981415,0.0076863449066877365,-0.07867785543203354,-0.3686024248600006,0.03649391233921051,-0.0824158564209938,-0.006527355406433344,-0.034939322620630264,-0.02087305299937725,0.011264732107520103,0.15092779695987701,-0.21605147421360016,-0.018279144540429115,-0.016793278977274895,-0.04036705940961838,-0.08329252898693085,0.010168017819523811,-0.012726387940347195,0.02109367959201336,-0.009778081439435482,-0.0026533163618296385,0.00424152659252286,0.11597755551338196,-0.12408555299043655,0.11566253006458282,-0.06299233436584473,-0.28215983510017395,-0.002751296851783991,-0.01954452134668827,0.06241563707590103,0.035888344049453735,-0.08299570530653,-0.17588017880916595,0.03719044476747513,-0.08233314007520676,0.04250205308198929,0.09961376339197159,0.046676166355609894,-0.051181286573410034,0.03708496317267418,0.033787161111831665,-0.02298286184668541,-0.05636069178581238,-0.04494957625865936,-0.07263312488794327,-0.05631861090660095,-0.03174198791384697,0.01614018715918064,-0.1865694522857666,0.15640631318092346,0.07279045134782791,-0.05010297894477844,0.007269927766174078,-0.010108411312103271,0.011342118494212627,-0.06765782833099365,0.029103532433509827],[0.0856388509273529,-0.03588135540485382,0.03528046980500221,0.028373198583722115,-0.10095850378274918,-0.3859366178512573,0.18792222440242767,-0.22692131996154785,0.0027964061591774225,0.13776598870754242,-0.06513945013284683,-0.078651063144207,0.06251280009746552,0.11761384457349777,0.059521567076444626,-0.15043072402477264,0.09639905393123627,0.05965809524059296,0.0038694923277944326,-0.1304689198732376,0.11040419340133667,0.10737010836601257,-0.023121120408177376,0.016504719853401184,0.02474658563733101,0.10164938867092133,0.1680605709552765,-0.024891097098588943,0.03988946974277496,-0.005167012102901936,-0.20469075441360474,-0.03170744702219963,-0.0041231126524508,-0.0465378537774086,-0.008703295141458511,-0.13922731578350067,-0.012098544277250767,0.09231741726398468,-0.07350724190473557,0.05536846071481705,0.013863807544112206,-0.08089430630207062,-0.2257504016160965,0.07695817202329636,-0.056116316467523575,0.01660459116101265,0.0017304096836596727,0.011756707914173603,-0.32446298003196716,0.05666191503405571,-0.030572379007935524,0.0638265609741211,-0.010128695517778397,-0.06992250680923462,0.26018768548965454,-0.1634036898612976,0.0980120375752449,-0.026789572089910507,0.04828423634171486,-0.005876433104276657,0.01649499125778675],[-0.030030129477381706,-0.08251375705003738,-0.013422325253486633,-0.14931385219097137,0.0657583624124527,-0.09669280052185059,-0.11131846904754639,-0.24031244218349457,0.051201339811086655,-0.20362864434719086,0.00624509435147047,0.02478075958788395,0.034200556576251984,0.0076983156614005566,0.1647491157054901,-0.06524583697319031,-0.022762801498174667,-0.05375736951828003,0.33334070444107056,-0.038804829120635986,0.000260821427218616,-0.0631793811917305,0.05125773698091507,-0.037816792726516724,-0.020833570510149002,-0.028818681836128235,0.23937343060970306,-0.1976400911808014,-0.022360071539878845,0.05807614326477051,-0.17648616433143616,0.03146686032414436,0.014758877456188202,0.08664659410715103,0.060550790280103683,-0.012816405855119228,-0.05227242410182953,0.009954129345715046,-0.013273335993289948,0.17669276893138885,0.0064646475948393345,-0.08545037358999252,-0.1670188456773758,0.0006983722560107708,0.05444715544581413,-0.03728653863072395,0.005725569557398558,-0.008520098403096199,0.03958245366811752,-0.01741890236735344,-0.04138210788369179,-0.0055642323568463326,0.4133889377117157,-0.017391566187143326,0.3413386940956116,0.006638017483055592,-0.0866231918334961,-0.03128417953848839,-0.03290874511003494,-0.09560509771108627,-0.0028136512264609337],[-0.0593625046312809,-0.07964671403169632,-0.13387757539749146,0.05786057561635971,0.013989056460559368,-0.01380879431962967,-0.0646490529179573,0.1370709240436554,0.09606713056564331,0.07294134050607681,0.03104756958782673,-0.03159090131521225,0.05172605440020561,-0.040081560611724854,0.07469699531793594,-0.05552217364311218,0.006087847985327244,0.03083043359220028,-0.05841270089149475,-0.03397256135940552,0.09672793745994568,-0.08718416839838028,-0.061799056828022,-0.11269877105951309,0.07148239016532898,-0.07460222393274307,0.05509939417243004,0.002248315839096904,-0.014565781690180302,-0.004509431309998035,0.3671623468399048,0.10466676950454712,0.10016754269599915,0.023512406274676323,-0.006217867136001587,0.01308344304561615,0.03708536922931671,-0.026125283911824226,-0.10601922124624252,0.06945512443780899,0.0846029594540596,0.0732332319021225,0.12976521253585815,-0.05121176689863205,-0.06628682464361191,-0.03576164320111275,-0.10361909121274948,0.09634023904800415,0.11719830334186554,-0.07022050023078918,0.027921894565224648,0.0802033320069313,0.18661628663539886,-0.02246522530913353,-0.06394582241773605,-0.03886993229389191,0.14200569689273834,0.11861325800418854,0.0716816708445549,0.009614024311304092,0.23695504665374756],[0.06433746963739395,0.1529393345117569,0.0033315320033580065,0.09182737022638321,-0.0030256144236773252,-0.01823541335761547,-0.17455504834651947,-0.36805835366249084,-0.01550577487796545,0.20872966945171356,0.058099403977394104,0.01913403905928135,-0.04058876261115074,0.09433649480342865,0.15726622939109802,0.043395377695560455,-0.12598760426044464,0.02822653390467167,0.14752882719039917,0.03431583195924759,-0.15084470808506012,-0.0491652749478817,0.08889347314834595,0.06568167358636856,-0.10064306855201721,0.029173890128731728,0.02808484062552452,-0.17909179627895355,0.015322867780923843,-0.010056096129119396,-0.06515444815158844,0.06632033735513687,0.011193796992301941,0.03284404054284096,0.05119823291897774,-0.014406358823180199,0.18546772003173828,0.03882714733481407,-0.12123436480760574,-0.26263320446014404,-0.002703944221138954,-0.14845864474773407,0.4426266551017761,-0.005036103539168835,-0.012182919308543205,0.15797795355319977,-0.07900213450193405,0.07715563476085663,0.4491664171218872,-0.06689880788326263,0.027219878509640694,-0.0013476618332788348,0.03661368414759636,0.18097656965255737,0.2708461880683899,-0.12293318659067154,-0.1124269962310791,-0.12475807219743729,-0.01880979910492897,0.01763138361275196,-0.04730641841888428],[0.008010301738977432,-0.12784451246261597,-0.16070014238357544,-0.07578758895397186,0.03977220878005028,-0.04825478792190552,0.1977139413356781,0.28515493869781494,0.04823620989918709,0.08316143602132797,0.08079570531845093,0.09511552006006241,-0.07462932914495468,-0.07286474108695984,-0.09184545278549194,-0.0839923843741417,0.004211215768009424,0.032233115285634995,-0.14166602492332458,0.05332622677087784,0.02667979523539543,0.12361153960227966,0.007263164967298508,0.4259507358074188,0.06454654783010483,-0.030807318165898323,-0.1627931296825409,0.34569090604782104,-0.04106476157903671,0.025175148621201515,-0.7179803252220154,-0.05668152496218681,0.0057982187718153,0.12530626356601715,-0.05002908408641815,0.10430540144443512,-0.6336641311645508,0.025466587394475937,-0.04023219645023346,0.1574418842792511,-0.03430084511637688,0.11218538135290146,-0.40241101384162903,-0.05760951340198517,0.03211197257041931,0.08670642226934433,-0.02512284927070141,0.009293935261666775,-0.47875744104385376,0.047281354665756226,0.04547974467277527,0.014014615677297115,0.011180282570421696,-0.11994714289903641,0.20673076808452606,-0.03924889490008354,-0.1715945303440094,0.11284065246582031,-0.0007143142865970731,-0.11937085539102554,0.16321305930614471],[-0.1073044091463089,-0.02546437829732895,0.023298341780900955,0.007006512954831123,-0.0592464953660965,-0.020878691226243973,0.04203876107931137,-0.48895901441574097,-0.045884545892477036,-0.06947105377912521,0.16401980817317963,0.1452202945947647,-0.040588196367025375,-0.14653849601745605,0.16053089499473572,-0.2743687927722931,-0.008853692561388016,-0.06326450407505035,0.05798705667257309,-0.04674670845270157,0.055744070559740067,-0.031593337655067444,0.21052153408527374,-0.04471781849861145,0.03860226273536682,-0.03343937546014786,0.2812850773334503,-0.06625987589359283,-0.07348953932523727,0.028652450069785118,-0.15288734436035156,-0.11068298667669296,0.0205947607755661,0.11663341522216797,-0.05261819809675217,-0.04014718532562256,0.14500167965888977,0.10606097429990768,-0.03255090489983559,0.004561677575111389,0.016678012907505035,-0.0161907896399498,0.033324386924505234,-0.058612097054719925,-0.008725645020604134,-0.03426472842693329,0.02423165738582611,-0.054543621838092804,0.10465585440397263,0.06509655714035034,-0.0013614145573228598,0.01640169881284237,0.009067801758646965,0.4552772641181946,0.49241530895233154,0.03734765201807022,-0.03498467803001404,-0.05849865451455116,-0.027672497555613518,-0.04571431130170822,-0.13814692199230194],[-0.08740314096212387,-0.1602095067501068,0.07846598327159882,-0.11059442162513733,0.06312597543001175,0.07045918703079224,0.055945321917533875,-0.04106134921312332,-0.014477484859526157,0.11940839141607285,0.07781004160642624,0.02132485993206501,-0.004075897391885519,0.1669841855764389,-0.010381201282143593,0.06758281588554382,-0.030995024368166924,0.12075737863779068,-0.060227252542972565,-0.24804836511611938,-0.052710290998220444,0.16044707596302032,0.02896527387201786,-0.12034107744693756,-0.07116299867630005,0.08983896672725677,0.14200690388679504,-0.17182308435440063,0.005442830268293619,-0.1805907040834427,-0.2557799816131592,0.04583463817834854,-0.04719621688127518,0.1502683311700821,-0.0015375781804323196,-0.055410802364349365,-0.5203526616096497,0.04019877687096596,-0.05398313328623772,0.06158854812383652,0.13777275383472443,-0.19808001816272736,0.015742279589176178,-0.019339287653565407,0.0902952179312706,-0.05064338818192482,0.12046594172716141,-0.09956739842891693,-0.4121831953525543,-0.03146888315677643,-0.11081530898809433,0.0914473608136177,-0.2191724330186844,-0.17220106720924377,-0.07919315993785858,-0.17453616857528687,-0.07029276341199875,-0.13165967166423798,-0.06699594855308533,-0.07911501824855804,-0.13120423257350922],[-0.17561419308185577,0.001990164862945676,-0.26367005705833435,-0.005368456710129976,-0.005878123454749584,0.010130737908184528,-0.04638459160923958,0.6580880284309387,-0.249319925904274,-0.2384902685880661,-0.11683207750320435,0.15051591396331787,-0.08437531441450119,0.21597078442573547,0.02756159007549286,0.28374919295310974,0.09399214386940002,0.07207854092121124,-0.14827406406402588,0.45705118775367737,0.15809760987758636,-0.001430019154213369,-0.04834417626261711,0.4079899191856384,0.026262454688549042,-0.03138718754053116,-0.11513044685125351,0.11320152878761292,-0.03004942461848259,0.011653941124677658,-0.1583634316921234,0.010951395146548748,-0.03592429310083389,0.057073451578617096,-0.04386097565293312,0.04862038418650627,0.006990063935518265,0.01806303672492504,-0.03935027867555618,0.08413885533809662,0.02768743969500065,0.025552865117788315,0.4279395639896393,0.0016659185057505965,0.03627735376358032,-0.12078153342008591,0.016143683344125748,-0.01947716251015663,0.6411843299865723,-0.06051299721002579,-0.018097111955285072,-0.11988499760627747,0.03721599653363228,-0.02268221415579319,0.4044167697429657,0.05427441745996475,-0.01710762456059456,0.09877525269985199,0.01242123544216156,-0.005183124449104071,0.013153836131095886],[0.06588982790708542,-0.03878054767847061,0.15442754328250885,-0.042875245213508606,0.06506901234388351,0.15968891978263855,0.21497569978237152,-0.19611194729804993,-0.03945767879486084,-0.07586858421564102,-0.05583006888628006,0.07238724082708359,-0.004927163943648338,-0.003437098115682602,-0.11816573143005371,-0.13895903527736664,-0.07542059570550919,-0.004607426933944225,0.09711386263370514,-0.011303828097879887,-0.05084725096821785,-0.03412100672721863,-0.16346581280231476,-0.07166339457035065,-0.1419803649187088,-0.03735785558819771,0.19416825473308563,-0.043816566467285156,0.07089401036500931,0.11991264671087265,0.2738114595413208,-0.10037844628095627,0.14396904408931732,-0.018587419763207436,0.028265655040740967,-0.19950175285339355,-0.14650754630565643,0.06616243720054626,-0.08448333293199539,-0.14027276635169983,-0.044266629964113235,-0.12034671753644943,0.10713277012109756,0.009426125325262547,0.05639025196433067,0.034438107162714005,-0.06436750292778015,-0.08257772773504257,-0.14467239379882812,-0.04667157307267189,-0.10405036807060242,0.09260689467191696,0.04150792583823204,-0.04493449628353119,-0.10588645190000534,0.018556663766503334,-0.01686062291264534,0.08791208267211914,0.054632432758808136,-0.09879139810800552,0.01304619014263153],[-0.06847032159566879,-0.013222015462815762,-0.04019263759255409,0.04127087444067001,0.08080870658159256,-0.2016090750694275,-0.019330617040395737,0.1449262499809265,0.04818098247051239,-0.00640565762296319,0.04502669721841812,-0.07881253212690353,0.037812624126672745,-0.09912467747926712,0.14607462286949158,0.08953554183244705,0.014693562872707844,-0.008146170526742935,0.09907272458076477,-0.09286293387413025,0.028708765283226967,-0.01587745174765587,0.060514796525239944,0.020681001245975494,0.041789665818214417,-0.014108782634139061,-0.005374360829591751,-0.10089191049337387,0.05477668344974518,0.03636498376727104,0.16982001066207886,0.03159789741039276,0.06454586237668991,-0.045448608696460724,-0.014095124788582325,-0.03795994818210602,0.1359533816576004,0.016272203996777534,-0.03707275912165642,0.07286852598190308,-0.005790465511381626,-0.010833640582859516,-0.017984801903367043,0.054601192474365234,-0.018769806250929832,-0.021476497873663902,-0.022069208323955536,-0.023811424151062965,0.10694768279790878,0.013909360393881798,-0.029897771775722504,0.03992513194680214,0.1938437968492508,0.6414098143577576,0.083094023168087,-0.08461183309555054,-0.031004179269075394,0.1591442972421646,-0.03647230193018913,-0.05233163386583328,0.0062186382710933685],[0.09675856679677963,0.14898036420345306,0.005919105838984251,0.035844866186380386,0.06557077169418335,0.12279777973890305,0.30764487385749817,-0.2660858929157257,-0.10967373847961426,-0.08134262263774872,-0.033051151782274246,-0.02316567860543728,0.009994798339903355,-0.061408478766679764,-0.008050731383264065,-0.05138184875249863,-0.16582946479320526,-0.06268049776554108,-0.1700759083032608,-0.25930342078208923,-0.08272705972194672,-0.07683362066745758,0.22555460035800934,-0.11570568382740021,-0.06433431804180145,-0.0527876652777195,0.014878370799124241,0.05996048450469971,0.136505126953125,0.07167528569698334,-0.6980656385421753,0.04954784736037254,-0.08715254068374634,0.14711803197860718,0.08588333427906036,0.09284708648920059,-0.8848999738693237,0.06129934638738632,-0.1093493402004242,0.08654621243476868,-0.02759815752506256,-0.02648344449698925,-0.39168787002563477,-0.03521206974983215,0.01699487306177616,0.10252461582422256,-0.002054924378171563,-0.056026604026556015,-0.28386765718460083,-0.024998905137181282,0.04718221351504326,-0.041166532784700394,0.17186033725738525,0.05007072538137436,0.020283440127968788,-0.05549793690443039,0.09538763761520386,0.08024144917726517,-0.0326007716357708,0.037208955734968185,-0.09570415318012238],[0.1294923573732376,-0.03145526349544525,0.12605616450309753,0.04736059159040451,-0.09275177121162415,-0.05999237298965454,0.06408431380987167,-0.3827236592769623,0.13340643048286438,-0.06055348366498947,0.007925763726234436,0.35847634077072144,0.0982552096247673,-0.012519368901848793,-0.04971536993980408,0.045875027775764465,0.03730462118983269,0.0829017236828804,-0.05417247861623764,-0.12309037894010544,0.01224300917237997,0.10384896397590637,-0.22188398241996765,-0.08101162314414978,0.003956535831093788,0.04805116355419159,0.024272587150335312,-0.13963177800178528,0.1673818975687027,-0.11140508204698563,0.0567951500415802,-0.031223006546497345,0.08337690681219101,-0.07857975363731384,0.025637580081820488,-0.0988558903336525,0.19471485912799835,-0.007906222715973854,-0.08811967074871063,-0.0904867872595787,0.0663120225071907,0.13163723051548004,-0.16385877132415771,-0.07172122597694397,-0.019276363775134087,0.1319466531276703,0.11271071434020996,0.17012524604797363,0.15027569234371185,-0.012404536828398705,0.03232714906334877,0.005319956224411726,-0.06499042361974716,0.08681897819042206,0.09300737828016281,-0.04569365456700325,-0.04446903616189957,0.07277508825063705,0.025454478338360786,-0.17671889066696167,0.09135930985212326],[-0.05504780262708664,-0.1352480947971344,0.005254850257188082,-0.030235322192311287,0.058114465326070786,-0.058329369872808456,-0.15094710886478424,-0.39302173256874084,-0.017943890765309334,-0.0693560391664505,-0.14419932663440704,-0.11972907185554504,0.0479801744222641,-0.03141358867287636,-0.04992980137467384,-0.1731894314289093,0.09960006177425385,0.01155677530914545,0.1538476049900055,-0.08639926463365555,-0.0018910722574219108,0.07657194882631302,-0.011474808678030968,0.028538867831230164,0.02989806979894638,0.02305774576961994,0.11935275048017502,0.11067938059568405,-0.008926132693886757,-0.1279193013906479,-0.3391312062740326,-0.043587058782577515,-0.03825157880783081,-0.08813972026109695,-0.18776027858257294,-0.03391057997941971,-0.006007958669215441,0.10027468204498291,-0.04884050413966179,0.06355268508195877,-0.06956992298364639,-0.06777192652225494,0.08500373363494873,0.02596280165016651,0.06780654937028885,0.1315375417470932,-0.0016519781202077866,-0.05485912039875984,-0.011805732734501362,0.09274903684854507,-0.039801597595214844,-0.008928252384066582,-0.16418199241161346,0.011644021607935429,0.1025611013174057,-0.0807836502790451,-0.01772448420524597,-0.030287936329841614,-0.15300080180168152,0.1540558636188507,-0.051898255944252014],[0.01615774631500244,0.05214886739850044,0.10688171535730362,-0.1403912454843521,-0.02365957945585251,-0.0722271129488945,0.26619458198547363,-0.5523752570152283,0.148202583193779,0.27543628215789795,-0.06491225212812424,-0.14174921810626984,-0.10107295960187912,0.05334074795246124,-0.10841652750968933,0.0004143494297750294,-0.08032216131687164,0.046039827167987823,-0.06086237356066704,0.19170323014259338,0.02245890162885189,-0.06386146694421768,0.16591684520244598,0.13385410606861115,-0.043493375182151794,-0.040410351008176804,0.07327547669410706,0.36978021264076233,0.12005255371332169,-0.12438087165355682,0.8334381580352783,0.0253838449716568,-0.010155565105378628,0.00455493712797761,-0.009599746204912663,-0.07350736856460571,0.6844922304153442,-0.08990738540887833,0.08443211019039154,-0.026368819177150726,0.044944778084754944,-0.06158780679106712,0.4168887138366699,-0.0008407768909819424,-0.056533899158239365,-0.05751209333539009,0.06546276807785034,-0.08574483543634415,0.5699211359024048,-0.01969509944319725,0.028359854593873024,0.005711454898118973,-0.09266580641269684,0.034367356449365616,-0.1005239337682724,-0.08802969753742218,-0.09562118351459503,-0.091206856071949,-0.01538536511361599,0.009023246355354786,0.03678499907255173],[-0.068276546895504,-0.009147461503744125,0.022825179621577263,-0.13434801995754242,-0.004575446248054504,0.21284855902194977,0.04141651839017868,0.3113073408603668,-0.048863839358091354,-0.04341163486242294,-0.007371525280177593,-0.3315904438495636,0.0381842665374279,0.03920012339949608,0.010336906649172306,-0.03113311342895031,-0.05880861356854439,-0.13638818264007568,0.02027062699198723,0.1031007170677185,0.08416751772165298,-0.03355345129966736,0.045951493084430695,0.08861871063709259,-0.07633134722709656,-0.16578228771686554,0.12455090880393982,0.24239490926265717,0.0030959942378103733,-0.1043134480714798,-0.7120717167854309,0.07128002494573593,0.045951396226882935,0.037178851664066315,-0.06463336199522018,-0.02537173219025135,-0.2243402898311615,0.02518576756119728,-0.03064671903848648,0.07311622053384781,-0.13696102797985077,0.009519796818494797,-0.28985315561294556,-0.007326837629079819,-0.071879543364048,0.16905765235424042,0.09755375236272812,-0.009108131751418114,-0.28826904296875,-0.0668342262506485,0.01404739823192358,-0.13179609179496765,-0.05623536929488182,0.11239077150821686,0.04091433063149452,-0.07033862918615341,-0.02756728231906891,-0.14290328323841095,-0.06289289891719818,-0.036374781280756,0.1323464810848236],[0.09296271950006485,0.048821404576301575,0.05397028475999832,0.03038233518600464,-0.27431783080101013,0.2108379602432251,0.20431746542453766,-0.08333630114793777,-7.12019027560018e-05,-0.05202815309166908,0.11832300573587418,0.17350971698760986,-0.005407115910202265,-0.2796797752380371,0.07396889477968216,0.023370424285531044,0.2721962630748749,-0.12139139324426651,0.03782092407345772,-0.1424463391304016,0.1490132361650467,-0.174359530210495,-0.054969966411590576,-0.03618919476866722,0.308304101228714,-0.09275301545858383,0.04738865792751312,-0.00845986045897007,0.03487875685095787,-0.04145774245262146,0.06769655644893646,0.0636182576417923,-0.12058638036251068,-0.17611078917980194,-0.005861056037247181,0.007217446807771921,0.39290541410446167,0.15908865630626678,-0.059088822454214096,-0.12903280556201935,0.022909678518772125,-0.0013500999193638563,0.24040022492408752,0.1393076777458191,-0.10636759549379349,-0.22879548370838165,0.022211506962776184,-0.0163201242685318,0.3183736503124237,0.09810442477464676,-0.10619831085205078,0.1557481437921524,-0.04410867020487785,-0.03097936511039734,0.40990960597991943,-0.010530849918723106,-0.03741895779967308,-0.13290002942085266,-0.06284276396036148,-0.004730691201984882,-0.10178134590387344],[0.11825229227542877,-0.13862325251102448,0.09623759239912033,-0.09890738874673843,-0.0017996117239817977,0.04943540319800377,-0.1539195328950882,0.17721235752105713,0.07359469681978226,0.04908877983689308,0.0773848369717598,0.04667682200670242,0.0429769791662693,-0.010544884018599987,0.03821568936109543,-0.028429508209228516,0.08279301971197128,-0.014545188285410404,-0.08647967129945755,-0.07918091863393784,0.0959990844130516,0.006062877830117941,0.06204232573509216,-0.04853373020887375,0.033086054027080536,-0.02942074090242386,-0.0853998214006424,-0.03895234689116478,-0.15823078155517578,0.16279050707817078,-0.021883737295866013,0.006694856099784374,0.005327598657459021,-0.14700593054294586,0.09852533042430878,0.11727433651685715,0.16092681884765625,-0.05028821900486946,-0.04938354343175888,0.05694931000471115,0.053270284086465836,0.03702215477824211,-0.3100227117538452,-0.008832486346364021,0.05044697970151901,-0.16525200009346008,0.0828663781285286,0.024977169930934906,-0.01968982256948948,0.026272112503647804,0.008897325955331326,-0.07102017849683762,0.2038472443819046,0.020386265590786934,-0.1727605164051056,0.005818675272166729,0.0011602347949519753,-0.1120520532131195,0.05219992995262146,-0.04617004841566086,0.023517869412899017],[0.14011935889720917,0.09184262901544571,-0.14516691863536835,0.05442504212260246,-0.010190828703343868,0.03783796355128288,-0.015459246933460236,-0.09088540822267532,-0.08488889783620834,-0.002403303747996688,0.09185903519392014,0.08268360048532486,-0.02499651350080967,-0.003934707958251238,0.14154641330242157,-0.16134552657604218,-0.08636464923620224,0.0047852578572928905,0.2969195246696472,-0.2167206108570099,0.0010565108386799693,0.048522692173719406,0.07968880981206894,-0.10990087687969208,-0.0781872570514679,0.0005900684627704322,0.02498156949877739,-0.18623876571655273,-0.07164902240037918,-0.1473817527294159,-0.668214738368988,0.014703841879963875,-0.0029262204188853502,0.07770925760269165,0.011956396512687206,-0.01927679404616356,-0.3868595361709595,0.01614033803343773,0.04896699637174606,0.16474083065986633,0.08186113089323044,-0.15837204456329346,-0.6184207797050476,0.05355962738394737,-0.022696344181895256,-0.10688970237970352,0.11867303401231766,-0.06859686225652695,-0.33459407091140747,0.05166080221533775,-0.030404234305024147,0.05602143332362175,-0.047689907252788544,-0.13165895640850067,-0.272767573595047,0.07531584799289703,0.05687994509935379,-0.011503409594297409,-0.07414257526397705,0.05277547240257263,-0.10158698260784149],[-0.0031153173185884953,-0.06858675181865692,-0.04650501906871796,-0.26850488781929016,-0.15435558557510376,-0.03471443057060242,-0.11635055392980576,-0.09576653689146042,-0.11103203892707825,0.050646789371967316,0.008485798723995686,0.061861325055360794,-0.0360986590385437,0.0466088242828846,0.14847178757190704,-0.07111472636461258,0.04227989912033081,0.0019947232212871313,0.00365410721860826,-0.08873726427555084,0.06537038832902908,0.005881092511117458,0.19251227378845215,-0.01131686381995678,0.040380652993917465,0.013984419405460358,0.03919270262122154,-0.18379426002502441,0.061529748141765594,0.09820776432752609,-0.012803902849555016,-0.093740314245224,0.022956786677241325,0.10383841395378113,-0.11428361386060715,0.3202168941497803,0.1400153487920761,0.007002230267971754,-0.08624492585659027,0.013691362924873829,0.04451674595475197,0.10892017930746078,0.060161057859659195,0.027003033086657524,-0.03502415493130684,0.19754385948181152,0.07514265924692154,0.025127002969384193,-0.015622085891664028,-0.08666900545358658,0.0516173355281353,0.11795227229595184,0.12552964687347412,0.08916729688644409,0.02715214528143406,0.026853421702980995,0.08772154152393341,-0.021655775606632233,0.1068403422832489,-0.04148111492395401,-0.06826819479465485],[0.04824807122349739,-0.16616219282150269,-0.1826016753911972,-0.15823128819465637,0.03267282992601395,-0.11996936798095703,-0.0614919476211071,0.5538632273674011,-0.2887475788593292,0.10371281206607819,-0.05706002190709114,0.17349523305892944,0.008382951840758324,-0.0022617075592279434,-0.1784110963344574,0.2976069152355194,0.13200737535953522,-0.03549361601471901,-0.0308673195540905,0.5296655893325806,-0.008419720456004143,-0.11933429539203644,0.049176428467035294,0.25415849685668945,0.0363994762301445,-0.0003581013297662139,-0.034133341163396835,0.10885751247406006,0.029832713305950165,-0.011075865477323532,0.256918728351593,-0.06264753639698029,0.043229736387729645,0.07942423224449158,-0.1159033477306366,0.02004338800907135,0.356467604637146,0.023613216355443,-0.022448280826210976,-0.0884467363357544,-0.0256671030074358,0.001275359303690493,-0.28679415583610535,0.10001906007528305,0.05248241871595383,-0.13490861654281616,-0.08658543974161148,-0.04948348551988602,-0.18339872360229492,-0.007947270758450031,-0.057044222950935364,0.028199328109622,0.05113649740815163,-0.05646383762359619,-0.0231076218187809,-0.08217214792966843,-0.054175008088350296,-0.16337504982948303,0.006742946337908506,-0.1287282556295395,0.01788569614291191],[-0.07543729990720749,0.03308328986167908,0.1569371521472931,0.06936922669410706,-0.05655290558934212,-0.11062829196453094,0.05185341089963913,0.19912870228290558,0.06070879474282265,-0.014650434255599976,0.2945481538772583,-0.3903525769710541,-0.02402888610959053,-0.014545773155987263,0.11471260339021683,-0.042087066918611526,-0.006538540590554476,-0.05660902336239815,0.06141870468854904,-0.1126738041639328,0.006915299221873283,-0.08235291391611099,-0.08400823920965195,0.06522631645202637,-0.05697102099657059,-0.019704850390553474,-0.001935238833539188,-0.02619316801428795,-0.22364206612110138,0.05242157354950905,0.10537806153297424,-0.007098678965121508,-0.06608647108078003,0.004612798802554607,-0.17568349838256836,0.07981399446725845,0.0077125136740505695,-0.01187716145068407,0.06210333853960037,0.010717633180320263,-0.030705276876688004,-0.008100394159555435,-0.14855985343456268,0.11195439100265503,-0.11478769034147263,-0.05812106281518936,0.05790652334690094,-0.052496831864118576,-0.14951007068157196,-0.05199786648154259,0.05567238852381706,0.11333499848842621,-0.0900919958949089,0.04439535737037659,-0.4084427058696747,0.01066591963171959,-0.033895209431648254,-0.008875437080860138,-0.014093381352722645,0.07592519372701645,0.008427071385085583],[0.026230959221720695,-0.07027775794267654,-0.1374172419309616,-0.009486457332968712,0.08576663583517075,0.0006628137780353427,-0.09634214639663696,-0.10293712466955185,-0.08046472072601318,0.07077088207006454,-0.1020132526755333,0.32008615136146545,0.070467509329319,0.07903227210044861,0.2744331359863281,-0.0788799449801445,-0.0070680477656424046,-0.06903253495693207,0.0583481527864933,0.11490693688392639,-0.01255570538341999,-0.01975661888718605,0.19562788307666779,-0.04086390510201454,0.0241569671779871,0.028380893170833588,0.10414209216833115,0.0071493396535515785,0.10010270774364471,0.01789047010242939,-0.7260485887527466,0.0188188124448061,0.04813132435083389,0.061683353036642075,-0.11324997246265411,0.007572084665298462,-0.255478173494339,0.013429736718535423,-0.016898738220334053,0.0017471646424382925,-0.11262740939855576,0.0003010000509675592,-0.046532660722732544,0.056575898081064224,-0.05304235219955444,0.10015419870615005,-0.038941096514463425,-0.051664482802152634,-0.21323439478874207,-0.058072611689567566,-0.00681193545460701,0.23199179768562317,0.008949246257543564,0.08355412632226944,-0.006964757107198238,-0.1600801944732666,0.12060903757810593,-0.07990559190511703,-0.029737073928117752,0.061503421515226364,0.03777865320444107],[0.10160055756568909,0.16024459898471832,0.12799403071403503,-0.020659780129790306,0.016071006655693054,0.02636874094605446,0.14376512169837952,-0.1925358921289444,0.03705669194459915,-0.025483503937721252,-0.09671943634748459,0.1329617202281952,0.08965586125850677,-0.08292511105537415,0.02583885006606579,-0.18721053004264832,-0.03125596046447754,-0.07098262757062912,-0.13405977189540863,-0.05126488581299782,-0.023493653163313866,-0.06718052923679352,-0.05532081797719002,-0.22481901943683624,-0.03666215389966965,-0.05903055891394615,-0.1838853657245636,-0.18298457562923431,0.21876250207424164,0.03290209174156189,-0.18977920711040497,0.030610211193561554,0.05599489435553551,0.12083891034126282,-0.030810058116912842,0.01444480661302805,-0.37870514392852783,-0.0117388516664505,-0.11790341883897781,0.21809270977973938,0.039280615746974945,0.07876651734113693,-0.22799597680568695,-0.027927929535508156,0.0597461499273777,0.020693285390734673,-0.011186239309608936,0.02819468080997467,0.06035534664988518,-0.06065419688820839,-0.0743870809674263,0.17659178376197815,-0.09766518324613571,-0.05391143262386322,0.08961644023656845,0.06556570529937744,0.059194210916757584,0.013814665377140045,0.04775179177522659,0.1333847939968109,0.005023594945669174],[0.1041254997253418,0.1758269965648651,0.19839394092559814,0.03976210579276085,-0.012977385893464088,-0.03972439095377922,0.07690303772687912,0.43378734588623047,-0.013015405274927616,0.05908878147602081,0.10365553200244904,-0.35087987780570984,-0.04002762213349342,0.06532593816518784,-0.014646990224719048,0.17980995774269104,0.009610319510102272,0.012435490265488625,-0.12382365018129349,0.09511170536279678,0.08457071334123611,0.05844539776444435,-0.06764495372772217,-0.002613374963402748,-0.07763256132602692,0.12011945247650146,-0.011374121531844139,0.23781836032867432,0.04265546798706055,0.12905366718769073,0.5276573300361633,0.06284382194280624,-0.00634889816865325,-0.11627716571092606,-0.03868062049150467,0.11255864799022675,0.3554917871952057,0.012121368199586868,-0.07160811871290207,0.047689925879240036,0.08852027356624603,0.03125325217843056,0.15017729997634888,-0.05017838999629021,0.08749145269393921,-0.0525037907063961,0.010383903980255127,0.05355462431907654,0.26594677567481995,-0.005032447632402182,0.07650081068277359,0.05213901773095131,0.07416234910488129,-0.0073547507636249065,-0.2970637083053589,0.1372944414615631,-0.1346607655286789,0.025194646790623665,-0.03043326362967491,-0.049463871866464615,0.05750560015439987],[0.026571089401841164,-0.0542471818625927,-0.06294845789670944,-0.07324326783418655,-0.24779920279979706,-0.05349283292889595,-0.13721850514411926,0.266448438167572,0.1548886001110077,-0.09962029755115509,-0.16218730807304382,0.11962269991636276,0.05840611830353737,-0.04542536288499832,0.12862388789653778,-0.037210386246442795,0.05477086827158928,0.04301496222615242,-0.05707504600286484,-0.09846362471580505,0.10512211918830872,0.022406840696930885,0.004150965251028538,-0.18270184099674225,0.08445139974355698,0.004429553635418415,-0.1182931661605835,0.12258341163396835,0.003527900204062462,0.08196096867322922,-0.2777443528175354,0.030618995428085327,0.021884923800826073,0.09848476946353912,0.060745690017938614,-0.07870136946439743,-0.19575804471969604,0.09013455361127853,0.027953533455729485,-0.12300953269004822,-0.04163661599159241,-0.002935919212177396,-0.04691977798938751,-0.07043199986219406,-0.057640090584754944,0.14642387628555298,-0.0846698135137558,0.0541079081594944,0.38396474719047546,-0.046162452548742294,0.09977228939533234,-0.03730039298534393,-0.1503804326057434,-0.08700202405452728,-0.1364353597164154,-0.13379013538360596,-0.11844203621149063,-0.13093966245651245,-0.14540037512779236,-0.0023230789229273796,-0.10861003398895264],[0.02449950948357582,0.04126495495438576,0.053516946732997894,0.05975111573934555,0.039818502962589264,-0.016301847994327545,0.10930744558572769,0.15263283252716064,-0.17458084225654602,-0.018467644229531288,-0.0032911712769418955,0.18775728344917297,-0.11765526980161667,-0.0920247733592987,-0.03484387323260307,0.056659623980522156,-0.07687746733427048,-0.09776140004396439,0.022187668830156326,0.03127092495560646,0.004975657444447279,0.012288515456020832,0.009026185609400272,0.07644375413656235,-0.03408763185143471,0.030911358073353767,0.14151382446289062,0.258974552154541,0.12107609957456589,0.10291227698326111,-0.04717980697751045,-0.10608313232660294,-0.04148804768919945,-0.15839901566505432,-0.061975784599781036,0.09765694290399551,-0.06242429465055466,0.04314987361431122,-0.09535767883062363,-0.14764665067195892,0.021136432886123657,0.09848982840776443,-0.4592300057411194,-0.13679295778274536,-0.0367421880364418,-0.09164395183324814,-0.02325969561934471,-0.04306735098361969,-0.3654753267765045,0.029623595997691154,0.10438024997711182,-0.024921372532844543,-0.00266183796338737,0.007647366728633642,0.1167931780219078,-0.06567387282848358,0.025134114548563957,0.05762135237455368,0.14429466426372528,-0.08205839991569519,-0.025597846135497093],[0.03964785486459732,0.20481263101100922,0.24996665120124817,0.026024721562862396,-0.04280058294534683,-0.1390421986579895,0.22411368787288666,-0.15902794897556305,0.14541733264923096,0.033350832760334015,0.0896986871957779,-0.2723674774169922,-0.0959688127040863,-0.0032502522226423025,-0.23996195197105408,-0.21141374111175537,-0.023180369287729263,-0.11082936078310013,-0.05275717005133629,-0.1413787603378296,-0.01938260905444622,-0.058108292520046234,0.015151995234191418,-0.17135515809059143,-0.07281674444675446,0.16568779945373535,0.08216312527656555,0.09947662055492401,0.0011090110056102276,-0.011063585989177227,0.1980164498090744,-0.04075731337070465,0.08386580646038055,-0.1123468428850174,0.029365556314587593,0.07992567867040634,0.03457716852426529,-0.07584866881370544,0.002607120666652918,0.1659276932477951,-0.08747075498104095,-0.00925220176577568,0.10182590782642365,0.09152482450008392,-0.12392616271972656,0.0020775210577994585,0.03418126329779625,0.04489836469292641,0.15036241710186005,-0.14199556410312653,-0.030763644725084305,0.10736796259880066,0.008871141821146011,-0.07780319452285767,0.19807234406471252,0.02753376215696335,-0.12271448969841003,0.04143576696515083,-0.06627056002616882,0.01191684976220131,-0.08341167867183685],[0.08929327875375748,-0.008943617343902588,-0.09675659239292145,0.18534564971923828,-0.11386118829250336,0.009461309760808945,0.09041141718626022,0.1673528254032135,0.040202002972364426,-0.03455013036727905,-0.007621556054800749,0.14264921844005585,-0.022322896867990494,0.049044717103242874,0.056971367448568344,-0.19440501928329468,-0.12610217928886414,-0.013020822778344154,-0.036889705806970596,0.08390442281961441,-0.02695309929549694,0.0696587786078453,0.08729302138090134,-0.01995532214641571,-0.08852087706327438,0.1050727441906929,0.09918144345283508,-0.07512444257736206,-0.14560259878635406,-0.08006884157657623,-0.08801475167274475,0.07952921092510223,0.031215781345963478,-0.13959506154060364,0.14776982367038727,0.006143592763692141,-0.20695722103118896,0.1230386346578598,-0.0886138305068016,0.11199112981557846,0.13280905783176422,0.05999181419610977,-0.11446008086204529,0.07058823853731155,-0.004424420651048422,0.1579204797744751,0.09800226241350174,-0.006877504289150238,0.12570418417453766,-0.015437504276633263,0.03478247672319412,0.011563943699002266,-0.10651398450136185,0.0026966591831296682,-0.17064061760902405,0.04583767428994179,-0.04903121292591095,-0.06781350821256638,-0.043019868433475494,0.009177979081869125,-0.05274815484881401],[0.3271203935146332,0.2370411604642868,0.13617558777332306,0.15188905596733093,0.00931644532829523,0.1343613862991333,0.24623490869998932,-0.7791881561279297,0.01197691261768341,-0.06261064857244492,-0.019167033955454826,-0.20963065326213837,-0.008738677948713303,0.015022821724414825,-0.10300899296998978,-0.20770765841007233,0.018421921879053116,-0.0602496862411499,-0.19299523532390594,-0.2320927232503891,-0.02637607790529728,-0.06144750118255615,-0.14373062551021576,-0.1487320512533188,-0.12354034185409546,-0.04465552791953087,-0.009380817413330078,0.14500465989112854,-0.01187614630907774,-0.02612464874982834,1.0839111804962158,0.04474635049700737,-0.0037503610365092754,-0.039107467979192734,-0.028035812079906464,-0.00769803998991847,0.9213893413543701,0.022869952023029327,0.06759486347436905,0.04468323290348053,0.03083578683435917,-0.05413799360394478,0.5807279944419861,-0.059879884123802185,0.011307568289339542,0.05947008728981018,-0.0030179950408637524,-0.013467014767229557,0.5654640197753906,0.041788630187511444,0.07549010962247849,0.1562395989894867,-0.03771061822772026,0.1922823190689087,-0.4307796359062195,0.02564130164682865,0.002480046357959509,0.05014284700155258,0.019901905208826065,0.005951720289885998,0.0169073473662138],[-0.18001288175582886,-0.013583064079284668,-0.08035672456026077,0.005365011747926474,0.10548965632915497,-0.16053427755832672,-0.001424790476448834,-0.14130303263664246,-0.08136415481567383,0.07764172554016113,-0.16878274083137512,-0.09426864236593246,-0.10748894512653351,0.14943021535873413,-0.0839635357260704,-0.11077243834733963,0.005940370261669159,0.007819127291440964,0.1752507984638214,0.05535348132252693,-0.0334702730178833,0.08759234845638275,-0.10231329500675201,-0.22828629612922668,0.029758742079138756,0.024986205622553825,0.02708255872130394,0.05311381444334984,0.01641601137816906,-0.0681506022810936,-0.4194457530975342,-0.06154254078865051,0.06901459395885468,0.10850737243890762,-0.006986623164266348,-0.07737066596746445,-0.8623154759407043,-0.02065211720764637,-0.1708410084247589,0.060902178287506104,0.10600034892559052,-0.11745855957269669,-0.5401321053504944,-0.043234243988990784,-0.017194516956806183,-0.054531823843717575,0.1173195168375969,-0.11903518438339233,-0.49217668175697327,0.02798842266201973,0.008970953524112701,0.09230803698301315,0.029887665063142776,-0.11893314123153687,0.24590589106082916,-0.12180449813604355,-0.062102802097797394,0.0515853576362133,-0.11541625112295151,-0.04009350389242172,0.10230834782123566],[-0.06393937766551971,0.0517849437892437,0.044158563017845154,0.23489318788051605,0.26624104380607605,0.03647533804178238,0.07352763414382935,-0.243421271443367,0.25289812684059143,-0.01270973403006792,-0.027592027559876442,0.021823015064001083,0.12114833295345306,0.05063987523317337,-0.0945081040263176,-0.1647413969039917,0.07334411144256592,0.03533492237329483,0.03750142455101013,-0.16299596428871155,0.08469049632549286,-0.025375859811902046,-0.06855049729347229,-0.1285727322101593,0.07472023367881775,-0.05138786882162094,0.05222855508327484,-0.016350222751498222,-0.027180856093764305,-0.05501032620668411,-0.026912152767181396,0.08551527559757233,-0.04467732831835747,-0.03338044509291649,0.002934833290055394,-0.027406658977270126,-0.15518434345722198,-0.06893429160118103,-0.06908413767814636,-0.07943344116210938,-0.025563465431332588,-0.04398301616311073,0.023451251909136772,-0.12789814174175262,0.11267257481813431,0.09813877195119858,0.052322160452604294,-0.0056501938961446285,-0.3707686960697174,0.05924006924033165,-0.05569539964199066,-0.019463486969470978,0.20356564223766327,-0.17643502354621887,0.11592770367860794,-0.06255874782800674,-0.06206300109624863,-0.10024325549602509,-0.028514878824353218,-0.030218197032809258,-0.03215183690190315],[0.0682530328631401,0.1350921392440796,0.1465551257133484,0.2677159011363983,0.006735985167324543,0.008404027670621872,0.11998919397592545,-0.3644271492958069,-0.08834531903266907,-0.028294311836361885,0.051452841609716415,0.0906938910484314,0.02493717148900032,0.06835994869470596,-0.014669238589704037,-0.19273719191551208,0.10158754885196686,0.03892706334590912,-0.029542643576860428,-0.12142135947942734,0.030816372483968735,0.03640155494213104,0.08103654533624649,-0.00306178187020123,-0.03835742175579071,0.05364052578806877,0.15123821794986725,-0.12976138293743134,-0.026600463315844536,-0.03439131751656532,1.5918489694595337,0.021992461755871773,0.08689016848802567,-0.24780556559562683,-0.05599772185087204,0.020714132115244865,1.0121017694473267,0.0392562635242939,0.1017243042588234,-0.30505844950675964,-0.06739795953035355,0.016282347962260246,0.8256626725196838,-0.03925735130906105,0.0842292383313179,0.07815824449062347,-0.010255569592118263,-0.01500771939754486,0.6683810353279114,-0.043342772871255875,-0.06291884183883667,0.04101430997252464,0.0596885122358799,-0.02781096287071705,-0.5498184561729431,-0.03380352631211281,-0.01219036802649498,0.023615263402462006,-0.0457947663962841,0.028147738426923752,0.1406087577342987],[0.1537259966135025,0.2960108518600464,0.2492682784795761,0.19755107164382935,-0.06018056720495224,-0.11876077950000763,0.14784471690654755,0.06392499059438705,0.013342444784939289,0.11401578038930893,0.17560860514640808,-0.11022797971963882,0.17239569127559662,0.10377155244350433,-0.196524515748024,-0.036500923335552216,-0.04696349427103996,0.015170080587267876,-0.1616777628660202,-0.26687607169151306,-0.05290260165929794,-0.02778555639088154,-0.13418804109096527,-0.2496633231639862,-0.03701983764767647,-0.08326242119073868,-0.12953391671180725,-0.10707537829875946,-0.05911800637841225,-0.04127487540245056,0.709709107875824,-0.07996436953544617,-0.0011985893361270428,-0.060836683958768845,-0.01380332000553608,0.10879909247159958,0.5849086046218872,-0.07219509780406952,-0.006917174905538559,0.07418565452098846,-0.07142993062734604,0.027439750730991364,0.22013235092163086,0.05925288423895836,0.0018436027457937598,0.005573201924562454,-0.016248557716608047,-0.0025568611454218626,0.30068761110305786,0.055691201239824295,0.029308577999472618,-0.026961881667375565,0.10091916471719742,-0.0333719402551651,-0.18030869960784912,-0.050161682069301605,0.02320231683552265,0.05386272445321083,0.012501975521445274,-0.050795115530490875,0.017731979489326477],[0.0697336494922638,0.13736282289028168,0.06687016785144806,0.23245427012443542,-0.059589263051748276,-0.17874634265899658,0.0824568048119545,-0.2532816529273987,-0.06949090957641602,-0.07141152769327164,0.050794780254364014,-0.2638862431049347,-0.05684114620089531,-0.012373640201985836,-0.04698492959141731,-0.04180135950446129,0.013754111714661121,0.04555187746882439,-0.09520585834980011,-0.008171096444129944,0.04423101991415024,0.07398596405982971,-0.1567109227180481,0.20050954818725586,0.049150846898555756,0.05632864683866501,-0.09588401764631271,0.3029850721359253,0.10744990408420563,-0.010807307437062263,1.3945928812026978,0.05254139378666878,-0.02054990455508232,-0.1862681657075882,-0.05656030401587486,-0.009725183248519897,0.6682537794113159,-0.10305852442979813,-0.06099340692162514,0.07695730775594711,-0.10295554250478745,-0.0032586439047008753,0.6782534122467041,0.054113347083330154,-0.11349572986364365,0.05081193894147873,0.058493293821811676,0.02343096397817135,0.32872244715690613,-0.0008683180785737932,-0.05687057599425316,0.13132068514823914,-0.10899707674980164,-0.0026298798620700836,-0.4404280483722687,0.024223677814006805,-0.06515873968601227,-0.10258840024471283,-0.10538357496261597,-0.02028237283229828,0.006233068183064461],[0.015369388274848461,0.054377418011426926,-0.07598531246185303,0.09400738775730133,-0.019711198285222054,0.020976074039936066,-0.08556521683931351,-0.2568809688091278,0.04870063066482544,0.020002048462629318,0.06425388902425766,-0.08121995627880096,-0.02195727452635765,0.06380361318588257,-0.08072740584611893,0.11133313924074173,-0.006342173554003239,0.09576324373483658,0.09387706965208054,-0.07549376785755157,-0.014314685016870499,0.09908691048622131,-0.07350389659404755,0.04015889763832092,-0.01692184992134571,0.04475311189889908,0.04462387040257454,-0.022725295275449753,0.049399107694625854,0.033566124737262726,0.40464887022972107,0.022786429151892662,0.03283863142132759,0.05157508701086044,-0.0027519650757312775,0.017359599471092224,-0.015444586984813213,-0.04623578116297722,-0.030693460255861282,-0.044582903385162354,-0.0008527188329026103,-0.0066824103705585,0.44910624623298645,0.02929893508553505,-0.05886794626712799,0.05325431004166603,0.0026069858577102423,0.006773144472390413,0.10757378488779068,-0.031315919011831284,0.02723095938563347,0.11168068647384644,-0.6464182138442993,0.33781805634498596,0.050139542669057846,-0.042062729597091675,-0.03435711935162544,-0.03928038477897644,-0.017405424267053604,-0.033072780817747116,0.12433783710002899],[0.06647957861423492,0.1605394333600998,-0.040543511509895325,-0.07519255578517914,-0.019863467663526535,-0.09496618807315826,-0.08968047797679901,-0.206399604678154,0.04239682853221893,0.031876541674137115,-0.012138632126152515,0.07473857700824738,0.04959333315491676,-0.18359947204589844,-0.07935945689678192,-0.1164109855890274,0.08737330138683319,-0.08316356688737869,-0.18820342421531677,0.08807709813117981,0.015251251868903637,-0.033472295850515366,-0.03667297214269638,0.011437099426984787,-0.021797075867652893,-0.03781680017709732,0.046133849769830704,0.01465050783008337,0.19995178282260895,-0.19426745176315308,0.032652683556079865,0.006200335454195738,0.007202543318271637,-0.030613569542765617,-0.10183031111955643,0.0852787047624588,0.02846832387149334,-0.021343644708395004,0.0032715145498514175,0.07778418809175491,-5.158017302164808e-05,-0.04791306331753731,0.14470939338207245,-0.02019856497645378,-0.048183031380176544,-0.10184146463871002,0.04330217465758324,-0.05530029162764549,0.2072296291589737,0.013299544341862202,0.0003119627363048494,0.04454099014401436,0.18332859873771667,0.3162180483341217,-0.017866171896457672,-0.0045423610135912895,-0.06687185168266296,0.01032552495598793,0.029251329600811005,-0.04047797620296478,0.1672409176826477],[-0.03173857554793358,0.033193137496709824,0.037529878318309784,-0.06938810646533966,-0.1254318356513977,0.06804096698760986,-0.03730807825922966,-0.0068700192496180534,0.1602577120065689,0.2241765409708023,-0.19266439974308014,-0.1858363300561905,-0.11920720338821411,0.010948403738439083,0.03514451906085014,0.04260113462805748,-0.12904343008995056,-0.20299340784549713,0.09548104554414749,0.22049468755722046,0.057044729590415955,0.01111387275159359,-0.11938179284334183,0.21625804901123047,0.1027899757027626,0.08760238438844681,0.11289308965206146,0.34332701563835144,0.052760787308216095,-0.03960037603974342,-0.4050060510635376,-0.08273899555206299,-0.030639316886663437,-0.03846387937664986,-0.08311417698860168,0.024053575471043587,-0.3930186629295349,0.05629788711667061,-0.03196882829070091,-0.16589917242527008,0.054534293711185455,0.045708175748586655,-0.07811620831489563,0.195391446352005,-0.046518273651599884,-0.046610429883003235,0.07689085602760315,-0.039158232510089874,-0.12094876170158386,0.06089676171541214,-0.06486186385154724,-0.10606221109628677,0.10887868702411652,-0.018575435504317284,-0.04996325448155403,0.01264366414397955,0.07494848966598511,0.03477220609784126,-0.08199694752693176,0.1939428299665451,0.0027160756289958954],[-0.13214625418186188,0.3122199773788452,0.1419336497783661,0.08597379922866821,-0.15583436191082,0.2706969976425171,0.1487254798412323,0.1655360907316208,0.045495498925447464,-0.2171594649553299,-0.13456971943378448,0.14667269587516785,0.026110349223017693,-0.009996427223086357,-0.01305125467479229,0.11783008277416229,-0.01654679700732231,-0.07746967673301697,-0.04928717389702797,-0.015435961075127125,0.04167285934090614,-0.012595088221132755,-0.22037765383720398,-0.17173784971237183,0.052688900381326675,-0.016848646104335785,-0.1024448499083519,-0.17957615852355957,-0.018139032647013664,-0.0886063426733017,0.1528758704662323,0.17300358414649963,-0.0025789805222302675,0.1125757247209549,0.02111937664449215,-0.04122820124030113,0.24590495228767395,0.0867294892668724,-0.1299401819705963,0.08325467258691788,-0.012397173792123795,-0.009290988557040691,-0.06221676990389824,0.06477487087249756,-0.07741174846887589,0.0801406055688858,-0.19752591848373413,-0.030011381953954697,0.13564641773700714,-0.09358541667461395,0.007062769960612059,0.07896872609853745,0.073529452085495,-0.1674366593360901,-0.1772928684949875,-0.01458609290421009,-0.10498333722352982,-0.0042992252856493,0.05698247626423836,0.06496358662843704,0.019626107066869736],[0.006494451779872179,0.025271425023674965,0.15703743696212769,0.05253669619560242,-0.08142296969890594,-0.1893373727798462,-0.05991002544760704,0.04919541999697685,-0.14904893934726715,-0.022662967443466187,-0.0944221094250679,-0.20805150270462036,0.2007613182067871,-0.004338783677667379,0.0451560877263546,0.04668968543410301,-0.024192791432142258,-0.02087162807583809,-0.10517135262489319,0.10192188620567322,0.0472993478178978,0.012320609763264656,0.11592953652143478,0.33822888135910034,0.018535161390900612,0.01954803057014942,0.09302505105733871,0.46674543619155884,-0.1174989566206932,0.025233006104826927,0.20399145781993866,0.00822823029011488,-0.003670708741992712,-0.06555212289094925,0.04401123896241188,-0.03510170802474022,0.0740819051861763,-0.05093386769294739,-0.05838634818792343,-0.06958859413862228,0.04057328402996063,-0.01298815943300724,0.10114261507987976,-0.04693234711885452,0.06471479684114456,-0.07902238517999649,0.09402643144130707,-0.0754929706454277,-0.10848702490329742,-0.021634671837091446,0.005651748273521662,0.04413791745901108,-0.02911125309765339,-0.09662368893623352,0.18659637868404388,-0.1911308467388153,-0.12276742607355118,0.031239863485097885,0.0017507142620161176,0.007709368132054806,0.09327170252799988],[-0.11233558505773544,-0.013744973577558994,0.05512411519885063,0.05826530605554581,0.10073726624250412,-0.11723023653030396,0.0072308313101530075,0.0845828652381897,0.2631538510322571,-0.032327793538570404,0.024036813527345657,0.15057401359081268,0.10752786695957184,-0.04780062288045883,0.1866237074136734,0.08916188031435013,0.14341039955615997,-0.02178589627146721,0.07382142543792725,-0.07574035227298737,0.04813530668616295,-0.03800477832555771,0.16463318467140198,-0.09627477824687958,0.09724245965480804,-0.020877128466963768,-0.051399510353803635,-0.09546718001365662,0.16624054312705994,-0.1549854576587677,0.2460119128227234,-0.036212097853422165,0.07920417189598083,-0.06670884042978287,0.06489843875169754,0.08937107771635056,0.28554314374923706,-0.04625704139471054,0.040095869451761246,-0.08442296087741852,-0.07736776769161224,0.10174214839935303,0.5360814929008484,-0.055342499166727066,-0.1931055188179016,0.10692807286977768,-0.004059600178152323,-0.046087317168712616,0.5285109281539917,0.10140909999608994,0.029468806460499763,0.04572398588061333,0.18449275195598602,0.07028300315141678,0.049528688192367554,-0.0003213124582543969,0.02741457149386406,-0.1087959036231041,-0.020600099116563797,0.07027491182088852,0.08605831861495972],[-0.06408320367336273,-0.0007933045853860676,-0.16703423857688904,0.02046521194279194,-0.12640728056430817,0.19148115813732147,-0.1061062291264534,0.023835569620132446,-0.04309629276394844,0.09604264795780182,0.14980284869670868,-0.1797630935907364,-0.04425996169447899,0.12658067047595978,-0.05800420045852661,0.027394823729991913,-0.016459995880723,0.08379745483398438,0.12462024390697479,-0.09666357189416885,-0.039928413927555084,0.04979082569479942,0.02195003256201744,-0.13163568079471588,-0.08443253487348557,0.003382112132385373,0.07246267795562744,-0.1871563047170639,0.015628401190042496,-0.0913475751876831,-0.08796004951000214,-0.04547860100865364,0.025885337963700294,0.07803898304700851,0.048047032207250595,0.007448251824826002,-0.1602053940296173,-0.049674391746520996,-0.016934875398874283,-0.08806026726961136,-0.00747781153768301,-0.06327816843986511,-0.1880001425743103,-0.050804972648620605,-0.03287362679839134,0.019905289635062218,0.0534568652510643,-0.06664714962244034,-0.143183633685112,0.027374573051929474,0.0737590566277504,0.0858350396156311,-0.04933324083685875,0.4459942579269409,-0.21997785568237305,0.08003140240907669,0.06431709975004196,0.008040197193622589,0.12389972060918808,-0.06266792863607407,0.0520717017352581],[0.05275409296154976,0.09369303286075592,0.06862886995077133,0.144252747297287,-0.04095444455742836,0.033570546656847,-0.05936600640416145,-0.029645347967743874,0.047448355704545975,0.04995732381939888,-0.08367796987295151,0.10420680791139603,0.05139488726854324,-0.0274839885532856,-0.07923087477684021,0.011098809540271759,0.07787581533193588,0.03352152928709984,-0.04303660988807678,-0.19926011562347412,0.02359805256128311,0.024403754621744156,-0.08926796168088913,-0.10519211739301682,-0.026339324191212654,-0.021505355834960938,0.02375471033155918,-0.07519583404064178,0.0445714108645916,-0.02320243790745735,0.6056049466133118,-0.03449951484799385,0.04554257169365883,-0.0774766132235527,-0.0320032462477684,-0.034063588827848434,0.11282947659492493,-0.07940816134214401,0.0050624036230146885,0.10560936480760574,-0.011701826006174088,0.02730504795908928,-0.03546813130378723,-0.027448976412415504,-0.11123834550380707,0.06969434767961502,-0.014659383334219456,0.008804185315966606,-0.14561857283115387,0.0008250119281001389,0.06659656763076782,0.0039089759811758995,0.23336009681224823,-0.4587284028530121,0.18608614802360535,-0.08425392210483551,0.06498391181230545,0.01122262328863144,-0.016638336703181267,-0.006992032285779715,0.10189948976039886],[-0.15292803943157196,-0.1713666319847107,-0.009357309900224209,-0.08634738624095917,-0.27240240573883057,-0.03653160110116005,0.10097955912351608,0.28071942925453186,0.14235073328018188,0.08187790215015411,-0.17095069587230682,0.42959266901016235,0.05525755137205124,0.07736977934837341,-0.14080150425434113,0.19699649512767792,0.06922578066587448,0.019862663000822067,0.059531062841415405,0.3064570426940918,0.07444652915000916,0.0531359501183033,0.00610153516754508,0.33520451188087463,0.05023401230573654,0.007554490119218826,0.11192886531352997,0.3702806830406189,-0.013229264877736568,0.008470102213323116,-0.8539256453514099,0.069832943379879,0.050298601388931274,0.07153219729661942,0.05056910961866379,0.03170972317457199,-0.2356954663991928,0.05495840683579445,0.0025980130303651094,-0.0036408391315490007,0.06122174859046936,-0.014642550610005856,-0.30263859033584595,0.08648521453142166,0.04924282431602478,-0.06047914922237396,0.01934012584388256,-0.006298004649579525,0.11490236222743988,0.0628969743847847,0.03164663910865784,0.08447390049695969,0.013019504025578499,0.1334540843963623,0.47925570607185364,0.018827062100172043,0.030230527743697166,-0.13337953388690948,-0.05568871647119522,0.024921655654907227,0.07597445696592331],[-0.07314477115869522,0.0985940471291542,0.18211530148983002,0.22947758436203003,-0.11942500621080399,0.14605233073234558,-0.04565243795514107,0.1918921321630478,-0.05345723032951355,0.030739109963178635,0.05515535548329353,0.11356809735298157,-1.0313132406736258e-05,-0.06401557475328445,-0.03363920375704765,0.06739474087953568,0.09216573089361191,0.05551945045590401,-0.18611790239810944,-0.28717803955078125,0.03591539338231087,0.039160750806331635,-0.13196313381195068,-0.3176874816417694,0.06911871582269669,-0.10560539364814758,-0.2567153573036194,-0.26377347111701965,0.18872952461242676,0.043956734240055084,0.0517449826002121,-0.05207096040248871,0.03508330509066582,0.1859280914068222,-0.008474919013679028,0.11916117370128632,0.12186004221439362,0.07876192778348923,-0.03051433525979519,0.07484057545661926,-0.004965467844158411,0.008716346696019173,-0.1914864182472229,-0.05629745498299599,0.014014366082847118,0.12307197600603104,0.05025489628314972,-0.024137059226632118,0.23789070546627045,0.03720471262931824,-0.06129040941596031,0.06794135272502899,0.10106710344552994,0.14743253588676453,0.07587957382202148,-0.17148377001285553,-0.001466619549319148,-0.0015485547482967377,0.05624459683895111,-0.013068502768874168,-0.04244140535593033],[0.077071912586689,-0.10487048327922821,0.039743825793266296,0.09812942147254944,-0.06458159536123276,0.15136760473251343,0.22220903635025024,0.02725939266383648,-0.2828880250453949,-0.06003923341631889,-0.06767784804105759,0.019759526476264,0.12567710876464844,-0.11934477090835571,-0.17094041407108307,0.17575615644454956,-0.045978110283613205,-0.1423523873090744,-0.022920086979866028,0.17363199591636658,0.03548320382833481,-0.023658636957406998,-0.024306604638695717,-0.014197863638401031,0.16887611150741577,-0.03125873580574989,-0.04579402506351471,0.15089468657970428,-0.007167293690145016,0.03465070202946663,-0.011310000903904438,0.0575409010052681,0.09632737189531326,0.01820499449968338,-0.0549679771065712,0.005030854605138302,-0.5516647100448608,-0.08759185671806335,0.11555887013673782,-0.04911564290523529,0.005166011396795511,-0.07504769414663315,-0.5276461839675903,-0.09264741092920303,0.01672332175076008,-0.17614921927452087,-0.0068310704082250595,-0.038755644112825394,-0.6123400926589966,-0.06457697600126266,0.09784283488988876,-0.11697698384523392,0.035432130098342896,-0.1912999302148819,0.1324479877948761,-0.06796930730342865,0.21233391761779785,0.07356423139572144,0.09934292733669281,0.01856745220720768,-0.15707814693450928],[0.07250572741031647,0.18492545187473297,0.27962854504585266,0.04774152487516403,-0.012396206147968769,0.0029682565946131945,0.20544417202472687,0.17949557304382324,0.16238948702812195,0.06094703823328018,0.2561497986316681,-0.3097987174987793,0.15339811146259308,0.09034398198127747,-0.07849837094545364,0.08655009418725967,0.03633970022201538,-0.0024013628717511892,-0.3641911447048187,-0.15581980347633362,0.05231703817844391,-0.020629437640309334,-0.04803852736949921,0.13455168902873993,0.022906996309757233,0.0077932290732860565,-0.09392134845256805,0.06735968589782715,0.0764874592423439,-0.05268033221364021,0.7144358158111572,0.03055439330637455,-0.008304751478135586,-0.046498965471982956,0.03373648226261139,-0.008924214169383049,-0.1284603476524353,0.07899484038352966,-0.0013637111987918615,0.010660327039659023,0.01716623455286026,-0.03831431269645691,-0.2945893406867981,-0.11860211193561554,0.049400974065065384,-0.10699303448200226,0.019991770386695862,-0.059153538197278976,-0.019888419657945633,0.08071183413267136,0.036805395036935806,0.16021332144737244,-0.12089692801237106,-0.08221819251775742,-0.160669207572937,0.15462066233158112,-0.02439240925014019,-0.05809403583407402,-0.0018152834381908178,0.011350762099027634,0.09716706722974777],[-0.007278218865394592,0.030252473428845406,-0.13450728356838226,-0.1270974725484848,0.15314367413520813,0.036348678171634674,-0.20785090327262878,-0.33386877179145813,0.08961381763219833,0.10789951682090759,0.045738957822322845,-0.0357135608792305,-0.027165573090314865,-0.06145539507269859,0.14301861822605133,-0.1213495209813118,0.07819563895463943,0.014917371794581413,0.12777283787727356,-0.05451524257659912,0.10128481686115265,0.07345817983150482,0.09182263910770416,-0.058882273733615875,0.06804021447896957,0.0955183357000351,0.13761496543884277,-0.14534376561641693,-0.12792132794857025,-0.16564561426639557,-0.22978775203227997,0.05101246014237404,-0.03914986550807953,0.1665642410516739,-0.028937218710780144,0.17410025000572205,-0.19447512924671173,-0.06601282209157944,-0.16150271892547607,-0.09659625589847565,0.07982345670461655,0.01821170747280121,0.1754038780927658,-0.014346826821565628,-0.009937536902725697,0.013683203607797623,-0.0065109506249427795,-0.03275502473115921,0.12449777871370316,-0.07296209782361984,-0.06690552830696106,0.029512885957956314,0.1804926097393036,0.1801057755947113,0.14241936802864075,0.09427188336849213,0.04086124524474144,0.11092070490121841,-0.043517060577869415,-0.008112386800348759,-0.08880899846553802],[0.1416056901216507,-0.004188142716884613,0.37265029549598694,0.2549751102924347,-0.15817217528820038,-0.051634445786476135,0.29513511061668396,0.05690527334809303,0.013036152347922325,-0.0009102401090785861,0.07022009789943695,-0.5172311067581177,0.008106710389256477,-0.05535054951906204,-0.006289183162152767,-0.24513185024261475,0.06023917347192764,-0.019962424412369728,-0.025178875774145126,-0.12230119109153748,0.05314045771956444,0.027304871007800102,0.013917321339249611,-0.13351012766361237,0.030390577390789986,-0.026448482647538185,0.06476642936468124,0.2358480989933014,-0.033903803676366806,-0.013030309230089188,0.0518907867372036,-0.06572124361991882,0.06328877806663513,0.038709696382284164,0.00852515920996666,0.00861784815788269,-0.08655056357383728,0.05274983122944832,-0.030111104249954224,0.05688536539673805,0.03355824574828148,0.027724040672183037,0.04914683476090431,0.015970109030604362,0.013048961758613586,-0.09967101365327835,-0.022778911516070366,-0.07798559218645096,0.18560416996479034,-0.045100126415491104,-0.07577495276927948,-0.03292782977223396,-0.08897634595632553,0.10390365868806839,-0.4232785403728485,-0.011256255209445953,0.10001132637262344,-0.006374254822731018,-0.011663895100355148,0.027958989143371582,0.03541908413171768],[0.05484577268362045,-0.08712542802095413,-0.13061198592185974,0.03463815525174141,-0.056232549250125885,-0.10794755071401596,-0.1446313112974167,0.2028830200433731,-0.043549973517656326,-0.021976910531520844,0.003058121306821704,-0.03414221480488777,0.012088720686733723,0.08883361518383026,-0.14791838824748993,0.028448643162846565,0.011395549401640892,0.03468537703156471,0.15694929659366608,0.027441849932074547,0.1404510885477066,0.15382777154445648,-0.002566768554970622,0.04813177511096001,-0.005744536407291889,0.0708458200097084,0.011542879045009613,-0.10984177142381668,0.0475551076233387,0.10516844689846039,0.5483199954032898,-0.017295410856604576,-0.16260716319084167,0.01639683172106743,-0.0993083044886589,-0.0758662074804306,0.4066656231880188,-0.0348062701523304,0.07440665364265442,-0.10079865902662277,-0.060798924416303635,-0.049943018704652786,0.5388736724853516,0.03748404607176781,0.05993543937802315,0.09575168788433075,-0.034449316561222076,0.010487937368452549,0.35009413957595825,0.037470657378435135,-0.05600852891802788,0.04234551265835762,-0.032895755022764206,-0.23099681735038757,0.28072458505630493,0.0811215490102768,0.10335969924926758,-0.010007992386817932,0.08555901050567627,-0.05427423119544983,0.03343980386853218],[-0.08101188391447067,0.01553050335496664,-0.13901260495185852,0.031151577830314636,-0.1413591057062149,0.11750759929418564,-0.10129652917385101,-0.03142213076353073,0.05578850954771042,-0.04484507814049721,0.23621346056461334,-0.12087643146514893,0.03847181424498558,-0.015317770652472973,0.25555500388145447,-0.05974043160676956,0.011672696098685265,-0.021597402170300484,0.20778247714042664,-0.1670246422290802,0.03848982974886894,0.07923566550016403,0.18606097996234894,0.00859221164137125,0.021276844665408134,-0.0958181768655777,0.025014612823724747,0.07261325418949127,0.1363574117422104,0.1575949341058731,0.19687676429748535,0.0058443909510970116,-0.027350766584277153,0.09507745504379272,-0.060133595019578934,-0.10019489377737045,0.12075138092041016,-0.06852308660745621,-0.04954339936375618,0.059147097170352936,-0.12107756733894348,0.015597361139953136,0.26192986965179443,-0.0001908524427562952,0.12335994839668274,-0.1024080440402031,-0.012689795345067978,-0.020945418626070023,0.14864470064640045,-0.104215607047081,0.040198616683483124,0.014709554612636566,0.32616961002349854,-0.39152759313583374,-0.1471269726753235,-0.0013387552462518215,-0.01757087931036949,-0.03824847191572189,-0.00360094103962183,-0.04081711545586586,0.06577203422784805],[0.03225121647119522,-0.013771343976259232,0.15592160820960999,0.08812438696622849,-0.10761363804340363,0.006375846918672323,-0.06718513369560242,-0.581919252872467,-0.049010105431079865,-0.045159079134464264,0.14334595203399658,-0.13561250269412994,-0.0010145172709599137,-0.023160142824053764,0.09957984834909439,-0.15864913165569305,-0.06604097038507462,-0.0013791918754577637,0.026212021708488464,-0.13191793859004974,-0.056641481816768646,-0.023736469447612762,0.014363054186105728,-0.010645017959177494,-0.04629947617650032,-0.0236387699842453,-0.02779185213148594,-0.21956104040145874,0.03084462322294712,-0.08188579976558685,1.794958472251892,0.028957752510905266,0.006807229015976191,-0.2147948145866394,0.04216897860169411,0.014661233872175217,0.9698107242584229,-0.02795005775988102,-0.06323354691267014,-0.13622359931468964,-0.010659845545887947,0.021336985751986504,0.9913617968559265,0.021503888070583344,0.010222293436527252,0.0353081077337265,-0.04151984304189682,0.047029316425323486,0.6715811491012573,-0.06737320125102997,-0.05309838056564331,0.044894199818372726,0.1874813288450241,-0.03881392255425453,-0.07520487159490585,-0.010342779569327831,-0.050235047936439514,0.01993509754538536,-0.09183721244335175,-0.029755154624581337,0.0014548171311616898],[0.11105833947658539,-0.004735025577247143,-0.004750261548906565,0.1478925198316574,0.03297388181090355,0.13622640073299408,-0.2857195734977722,-0.11565222591161728,-0.04978324845433235,0.146874338388443,-0.06684280931949615,0.25107306241989136,-0.005222046282142401,0.0855136513710022,-0.060034848749637604,-0.13226938247680664,-0.04830856993794441,0.10968250781297684,-0.04271627962589264,-0.14881160855293274,-0.02773330546915531,0.13183307647705078,0.06950949877500534,-0.19485142827033997,-0.01658931002020836,0.09483230113983154,0.08209671825170517,-0.18123701214790344,0.14664368331432343,-0.16250528395175934,-0.2263733446598053,0.04341152310371399,-0.03495375066995621,-0.012371869757771492,-0.0012988137314096093,0.05558137968182564,-0.22767242789268494,-0.01307559385895729,0.031506434082984924,0.026125237345695496,0.03307321295142174,-0.0012824810110032558,-0.14856065809726715,0.047863222658634186,-0.10084967315196991,-0.1336621195077896,0.047054458409547806,0.0007851442787796259,-0.0474073626101017,-0.068045973777771,-0.03757452592253685,0.174930602312088,0.11985065042972565,-0.1801382601261139,-0.21301662921905518,0.03006930835545063,0.08524144440889359,-0.032858286052942276,-0.028590571135282516,0.13945114612579346,0.13597893714904785],[0.23077476024627686,0.12121644616127014,0.09581076353788376,0.003814284224063158,-0.0650622621178627,0.028285225853323936,0.3060908913612366,-0.2779333293437958,-0.10154514759778976,0.0648154765367508,-0.06942522525787354,0.051774606108665466,0.06279302388429642,-0.03376881033182144,0.005878844764083624,-0.1075662299990654,-0.02761012874543667,-0.040899090468883514,-0.13237980008125305,-0.17830730974674225,-0.04599672928452492,0.018978336825966835,-0.22592264413833618,-0.19791318476200104,-0.021495843306183815,0.04407890513539314,-0.08314118534326553,-0.33729830384254456,-0.0488334558904171,-0.06069651246070862,-0.6417195200920105,-0.023901691660284996,0.005793610122054815,0.16866928339004517,0.017199726775288582,0.03119981475174427,-0.7302072048187256,-0.07378701120615005,0.042456548660993576,0.14963018894195557,0.047405488789081573,0.0023106036242097616,-0.6984477043151855,0.03503649681806564,0.032478995621204376,0.09041032195091248,0.013790645636618137,-0.017938222736120224,-0.3005683422088623,0.03292850777506828,-0.08635897189378738,0.13249175250530243,0.00480604637414217,0.07678958773612976,0.12000801414251328,-0.0019491886487230659,0.06636539101600647,-0.10467826575040817,0.0011935742804780602,0.03800530359148979,0.012369506992399693],[0.16035562753677368,-0.031243907287716866,0.04773924872279167,0.11694958806037903,-0.18709425628185272,-0.13010026514530182,-0.1876961886882782,-0.10397063940763474,-0.04937290772795677,0.001022952375933528,0.0642361119389534,-0.011896234937012196,-0.04252972453832626,-0.04396006464958191,0.1079854890704155,-0.06987742334604263,-0.12514843046665192,-0.06135367229580879,0.16364546120166779,-0.13975965976715088,-0.18692590296268463,-0.03751291707158089,0.12404496222734451,-0.12501506507396698,-0.18842409551143646,-0.05717640742659569,0.32490837574005127,-0.235537588596344,-0.007493152283132076,-0.04795651137828827,0.7969062328338623,0.028118304908275604,0.022179430350661278,-0.1447189599275589,0.017393607646226883,0.04617265611886978,0.7335565686225891,0.028811704367399216,-0.04804224520921707,-0.08543635904788971,0.032786402851343155,-0.0015826586168259382,0.4656205475330353,0.122531458735466,0.06952646374702454,-0.12807264924049377,-0.008845928125083447,-0.08330289274454117,0.5781528353691101,-0.02073178067803383,0.013496199622750282,-0.03852371871471405,-0.12205032259225845,-0.1332170069217682,-0.10910224169492722,-0.09983453154563904,0.12403126060962677,0.12541499733924866,-0.02945452369749546,0.09818319976329803,0.09882724285125732],[0.16881705820560455,-0.0054300143383443356,0.006644485518336296,0.06969726085662842,-0.19160906970500946,0.07759479433298111,0.1569557636976242,-0.1305507868528366,0.2621515393257141,-0.2107323557138443,-0.2111475169658661,0.06551725417375565,0.11703093349933624,-0.06969359517097473,-0.02562806010246277,-0.06224570423364639,0.04075781628489494,0.0193784199655056,-0.04684006795287132,-0.06417302042245865,0.023540494963526726,0.04772883281111717,-0.3208920955657959,0.1433543562889099,0.004974297247827053,-0.0009574014111422002,-0.18724653124809265,-0.16534338891506195,-0.09022059291601181,-0.0676904246211052,-0.05205122381448746,0.08972575515508652,0.07864150404930115,0.013095165602862835,-0.03839564695954323,-0.013892769813537598,-0.3014723062515259,-0.0021967594511806965,0.03259051591157913,0.06711088120937347,0.016280770301818848,-0.11434035003185272,-0.3445352017879486,0.09495162963867188,0.0023597583640366793,0.032763898372650146,0.036002013832330704,-0.11463835090398788,-0.11480824649333954,0.099939726293087,-0.011039209552109241,0.15481215715408325,-0.0001441787026124075,0.04546529799699783,0.0707927718758583,-0.189754456281662,0.16687345504760742,0.08750288188457489,-0.18784049153327942,-0.13662919402122498,-0.047264859080314636],[0.15990614891052246,0.06349562853574753,-0.1191616803407669,0.12950783967971802,-0.13702411949634552,-0.08561788499355316,-0.1335742324590683,-0.3963301479816437,-0.1028357669711113,-0.21082980930805206,0.08694872260093689,0.03067716769874096,-0.10177218914031982,-0.051755812019109726,0.031456559896469116,0.058965083211660385,-0.06439641863107681,-0.15151463449001312,0.05199955776333809,-0.20682892203330994,-0.03397867828607559,-0.09996411204338074,0.20229195058345795,-0.15862952172756195,-0.0681719034910202,-0.06355315446853638,0.1608564406633377,-0.2105959802865982,0.04200521856546402,0.05341920256614685,0.2935451865196228,0.09600497782230377,-0.053452327847480774,-0.03396441787481308,-0.10232166200876236,0.017139997333288193,0.08754413574934006,0.10699211806058884,-0.033372681587934494,-0.022346582263708115,-0.09181061387062073,-0.04374394938349724,-0.14973130822181702,0.09441019594669342,0.006870840676128864,0.03911619260907173,-0.07674674689769745,0.05112063139677048,-0.1407901793718338,0.11912387609481812,0.01202610693871975,0.004347564652562141,-0.3446083068847656,-0.18617212772369385,-0.15538105368614197,-0.08487793803215027,0.06321106851100922,-0.1094004362821579,-0.06315722316503525,-0.012776811607182026,0.11756535619497299],[0.018045775592327118,0.05969829484820366,0.020604049786925316,-0.015936166048049927,0.09702800214290619,0.06660130620002747,-0.20065276324748993,0.11552445590496063,0.0800887867808342,0.027602050453424454,0.02878403663635254,0.11499002575874329,0.021067047491669655,-0.07296974956989288,0.24425938725471497,-0.020015504211187363,0.0987442135810852,-0.06985951960086823,0.06027498468756676,-0.08490439504384995,0.045648861676454544,0.00025463910424150527,0.13053619861602783,-0.12026945501565933,0.01272297091782093,0.023414263501763344,0.24785363674163818,-0.04971246421337128,-0.18216359615325928,0.20992885529994965,0.4053020477294922,-0.021586479619145393,0.033554792404174805,0.15342645347118378,-0.0681815892457962,-0.10108930617570877,0.47208499908447266,-0.042485561221838,-0.04726463556289673,-0.034046780318021774,0.04623047634959221,0.018047962337732315,0.4687170088291168,0.07878774404525757,-0.08359866589307785,-0.09573380649089813,0.06479232013225555,-0.0036983992904424667,0.4747936725616455,-0.043872538954019547,-0.05066221207380295,0.12629981338977814,0.3177395761013031,-0.07383609563112259,0.13754510879516602,0.02940298616886139,0.11663706600666046,-0.0222779493778944,0.006738060154020786,0.022660931572318077,-0.03663421794772148],[-0.09998233616352081,-0.026340005919337273,-0.08405851572751999,0.059619855135679245,0.05081276223063469,0.0029113560449332,-0.08903602510690689,-0.09738976508378983,0.03257405385375023,0.013830245472490788,0.17277087271213531,-0.169328972697258,0.017384592443704605,-0.09853877127170563,0.07751833647489548,-0.004079907666891813,0.011731181293725967,-0.04678310453891754,0.056576699018478394,-0.06359835714101791,0.020558945834636688,0.015356909483671188,0.11236970126628876,-0.20550857484340668,-0.056238144636154175,0.018620658665895462,0.18052659928798676,-0.09369277209043503,-0.025245362892746925,-0.11921735852956772,0.03956872224807739,0.023678556084632874,-0.023590201511979103,0.1675930768251419,-0.010207016952335835,0.0874149352312088,0.14474956691265106,-0.05950582027435303,-0.030272847041487694,0.015934767201542854,0.0482199564576149,0.11106914281845093,0.011411745101213455,0.03765910863876343,-0.11832288652658463,0.037049103528261185,0.004490730352699757,0.19520196318626404,-0.04811008647084236,-0.001288255793042481,-0.10298619419336319,-0.025685757398605347,0.09772764146327972,0.18646985292434692,0.35900789499282837,0.15747208893299103,-0.12348730117082596,-0.007038753479719162,0.09521215409040451,0.01989157870411873,0.09189927577972412],[-0.11807651817798615,-0.010568562895059586,-0.12609659135341644,-0.10956406593322754,0.1843450516462326,-0.16002118587493896,0.056454941630363464,0.11661399155855179,0.048640575259923935,-0.048674263060092926,0.15718115866184235,0.24582698941230774,0.062499143183231354,0.029709123075008392,0.08150386065244675,-0.003485598135739565,0.06839220225811005,0.04516204819083214,0.13987955451011658,-0.042513974010944366,0.14695937931537628,-0.04554244875907898,0.06558962166309357,-0.01991336978971958,0.10794328153133392,-0.01784471422433853,0.12102377414703369,-0.07770543545484543,0.0609130784869194,-0.03519156202673912,0.19415754079818726,-0.026822824031114578,-0.0008351559517905116,0.11235872656106949,0.04474344849586487,-0.05300763621926308,0.18712498247623444,0.009932518936693668,-0.024627648293972015,0.21246600151062012,0.07590076327323914,0.05398140102624893,0.007609263528138399,0.004151184111833572,-0.10357393324375153,0.012376214377582073,0.04958128184080124,0.04366204887628555,0.15787801146507263,-0.07391355186700821,-0.11676206439733505,0.1228797510266304,0.1965307891368866,-0.08880160003900528,0.17944635450839996,-0.04936916381120682,-0.06091264635324478,-0.046445082873106,-0.12901414930820465,-0.06655943393707275,0.046518050134181976],[0.08537280559539795,0.023580148816108704,0.15197011828422546,0.07752205431461334,0.015049473382532597,-0.030796678736805916,0.31142374873161316,0.07410314679145813,0.04273201525211334,0.14772315323352814,-0.2311294674873352,0.04410194605588913,-0.1594427227973938,0.017829861491918564,0.13193149864673615,0.24235767126083374,0.16813655197620392,0.10391619801521301,-0.12532560527324677,0.22428998351097107,0.016624396666884422,-0.02008960209786892,-0.14432331919670105,0.08880699425935745,-0.11308638751506805,-0.18976829946041107,-0.18759144842624664,0.04702384024858475,0.07835505157709122,-0.18969105184078217,0.026375705376267433,-0.06654558330774307,0.04714606702327728,-0.06218899041414261,-0.004446294624358416,0.20075856149196625,0.08400744944810867,-0.03398707136511803,0.02883749082684517,-0.02635766938328743,0.037447068840265274,0.002709839725866914,0.002095529343932867,0.07084503769874573,0.06119624525308609,-0.054911039769649506,0.03365691006183624,-0.015353849157691002,0.19317109882831573,0.0604245699942112,-0.009812755510210991,0.07277820259332657,-0.05066940560936928,-0.13371343910694122,0.14282436668872833,-0.07579885423183441,0.07256115972995758,-0.13848978281021118,0.024668501690030098,-0.020738806575536728,-0.0746593028306961],[0.06289221346378326,-0.077158622443676,0.007957113906741142,0.02074444852769375,-0.2927377223968506,-0.1181313544511795,0.16033409535884857,-0.23426198959350586,0.14051707088947296,0.004821883048862219,-0.22688260674476624,-0.02543197199702263,0.09580171853303909,-0.0005188917857594788,-0.06914769113063812,-0.10025051981210709,0.14656223356723785,0.08215800672769547,-0.12039878964424133,0.13559044897556305,0.038289543241262436,0.08946793526411057,0.033935923129320145,-0.10020624846220016,0.16325946152210236,0.01710721105337143,-0.057678449898958206,0.3469407856464386,0.11013665795326233,-0.002461007097736001,-0.762779176235199,-0.04075845330953598,0.010847892612218857,0.15891467034816742,0.10912427306175232,0.02066795714199543,-0.7873364090919495,-0.06304853409528732,-0.038066595792770386,0.06945282220840454,0.015489798970520496,0.01151428185403347,-0.4639451503753662,-0.07226963341236115,0.01022358052432537,0.09759839624166489,0.03689945116639137,0.05270858481526375,-0.5648393034934998,0.012181451544165611,-0.026656171306967735,-0.025071028620004654,-0.0683341771364212,-0.008824991062283516,0.3651110827922821,0.037434861063957214,0.004778384231030941,-0.100340835750103,0.09249762445688248,-0.0011945480946451426,0.07283422350883484],[0.10990706086158752,0.03522217646241188,0.16190628707408905,-0.012544707395136356,0.1261403113603592,-0.023584982380270958,0.06993108987808228,-0.4408755600452423,0.03825340047478676,-0.00972633995115757,-0.017330005764961243,0.19493503868579865,-0.05261092260479927,0.04229692369699478,0.12401699274778366,0.0809716284275055,-0.021245090290904045,-0.038677871227264404,-0.002959448378533125,-0.06704853475093842,-0.055112432688474655,-0.09330131113529205,-0.20474578440189362,-0.4516710042953491,-0.03820551931858063,0.056661367416381836,-0.24393925070762634,-0.3198794722557068,-0.029730599373579025,-0.14364945888519287,0.060451820492744446,0.036500949412584305,-0.04509730264544487,-0.005031611770391464,0.06828737258911133,-0.057431358844041824,-0.21650919318199158,0.09751064330339432,-0.008538228459656239,0.143490269780159,-0.006734888534992933,0.013531406410038471,-0.14018568396568298,0.07671750336885452,0.05378156155347824,0.0094255106523633,-0.0432925745844841,-0.08730056881904602,-0.22851894795894623,-0.004328335169702768,0.014684882014989853,0.12718570232391357,0.18821993470191956,0.024297067895531654,-0.20404665172100067,-0.02563752420246601,0.06575728207826614,0.10020679235458374,-0.04719378799200058,-0.0022254956420511007,0.05237137898802757],[-0.01956178806722164,0.03161478787660599,-0.06296829134225845,0.06586886942386627,0.0014994811499491334,0.02945774421095848,-0.06227020546793938,-0.16972380876541138,0.04485490918159485,0.041853923350572586,0.049270614981651306,0.03102068230509758,-0.02291252836585045,-0.06611912697553635,0.03622115030884743,-0.07100419700145721,0.021749963983893394,0.015910454094409943,0.00336509314365685,0.007873758673667908,0.008885757997632027,0.023678647354245186,-0.021055180579423904,-0.0013568379217758775,-0.020194759592413902,0.0355837307870388,0.18993212282657623,-0.02177041955292225,-0.01924511231482029,-0.09742660075426102,0.5220525860786438,0.012200303375720978,-0.07461470365524292,0.012912619858980179,0.029036812484264374,0.07877115160226822,0.33167797327041626,0.0809340700507164,-0.04985717311501503,0.024728119373321533,0.05165250226855278,0.006721115671098232,0.3040798604488373,0.044900134205818176,-0.00767799187451601,0.0504060722887516,0.012703766115009785,0.009390491992235184,0.19317977130413055,0.1342637538909912,-0.10713741183280945,-0.10104749351739883,0.1716635823249817,-0.5698521733283997,-0.17215614020824432,-0.03391313552856445,-0.0739634707570076,0.003828084096312523,-0.05128287523984909,0.052898161113262177,-0.029910914599895477],[0.10918539762496948,-0.047284673899412155,-0.04896818473935127,-0.044927775859832764,-0.15770931541919708,-0.09552599489688873,-0.030852753669023514,-0.602234959602356,-0.0389019250869751,-0.2697082757949829,-0.09101343899965286,0.14711280167102814,0.003398037049919367,-0.043341152369976044,-0.05268368124961853,